{"learner":{"attributes":{"best_iteration":"499","best_score":"5.14383334162339","scikit_learn":"{\"_estimator_type\": \"regressor\"}"},"feature_names":[],"feature_types":[],"gradient_booster":{"model":{"gbtree_model_param":{"num_parallel_tree":"1","num_trees":"500"},"iteration_indptr":[0,1,2,3,4,5,6,7,8,9,10,11,12,13,14,15,16,17,18,19,20,21,22,23,24,25,26,27,28,29,30,31,32,33,34,35,36,37,38,39,40,41,42,43,44,45,46,47,48,49,50,51,52,53,54,55,56,57,58,59,60,61,62,63,64,65,66,67,68,69,70,71,72,73,74,75,76,77,78,79,80,81,82,83,84,85,86,87,88,89,90,91,92,93,94,95,96,97,98,99,100,101,102,103,104,105,106,107,108,109,110,111,112,113,114,115,116,117,118,119,120,121,122,123,124,125,126,127,128,129,130,131,132,133,134,135,136,137,138,139,140,141,142,143,144,145,146,147,148,149,150,151,152,153,154,155,156,157,158,159,160,161,162,163,164,165,166,167,168,169,170,171,172,173,174,175,176,177,178,179,180,181,182,183,184,185,186,187,188,189,190,191,192,193,194,195,196,197,198,199,200,201,202,203,204,205,206,207,208,209,210,211,212,213,214,215,216,217,218,219,220,221,222,223,224,225,226,227,228,229,230,231,232,233,234,235,236,237,238,239,240,241,242,243,244,245,246,247,248,249,250,251,252,253,254,255,256,257,258,259,260,261,262,263,264,265,266,267,268,269,270,271,272,273,274,275,276,277,278,279,280,281,282,283,284,285,286,287,288,289,290,291,292,293,294,295,296,297,298,299,300,301,302,303,304,305,306,307,308,309,310,311,312,313,314,315,316,317,318,319,320,321,322,323,324,325,326,327,328,329,330,331,332,333,334,335,336,337,338,339,340,341,342,343,344,345,346,347,348,349,350,351,352,353,354,355,356,357,358,359,360,361,362,363,364,365,366,367,368,369,370,371,372,373,374,375,376,377,378,379,380,381,382,383,384,385,386,387,388,389,390,391,392,393,394,395,396,397,398,399,400,401,402,403,404,405,406,407,408,409,410,411,412,413,414,415,416,417,418,419,420,421,422,423,424,425,426,427,428,429,430,431,432,433,434,435,436,437,438,439,440,441,442,443,444,445,446,447,448,449,450,451,452,453,454,455,456,457,458,459,460,461,462,463,464,465,466,467,468,469,470,471,472,473,474,475,476,477,478,479,480,481,482,483,484,485,486,487,488,489,490,491,492,493,494,495,496,497,498,499,500],"tree_info":[0,0,0,0,0,0,0,0,0,0,0,0,0,0,0,0,0,0,0,0,0,0,0,0,0,0,0,0,0,0,0,0,0,0,0,0,0,0,0,0,0,0,0,0,0,0,0,0,0,0,0,0,0,0,0,0,0,0,0,0,0,0,0,0,0,0,0,0,0,0,0,0,0,0,0,0,0,0,0,0,0,0,0,0,0,0,0,0,0,0,0,0,0,0,0,0,0,0,0,0,0,0,0,0,0,0,0,0,0,0,0,0,0,0,0,0,0,0,0,0,0,0,0,0,0,0,0,0,0,0,0,0,0,0,0,0,0,0,0,0,0,0,0,0,0,0,0,0,0,0,0,0,0,0,0,0,0,0,0,0,0,0,0,0,0,0,0,0,0,0,0,0,0,0,0,0,0,0,0,0,0,0,0,0,0,0,0,0,0,0,0,0,0,0,0,0,0,0,0,0,0,0,0,0,0,0,0,0,0,0,0,0,0,0,0,0,0,0,0,0,0,0,0,0,0,0,0,0,0,0,0,0,0,0,0,0,0,0,0,0,0,0,0,0,0,0,0,0,0,0,0,0,0,0,0,0,0,0,0,0,0,0,0,0,0,0,0,0,0,0,0,0,0,0,0,0,0,0,0,0,0,0,0,0,0,0,0,0,0,0,0,0,0,0,0,0,0,0,0,0,0,0,0,0,0,0,0,0,0,0,0,0,0,0,0,0,0,0,0,0,0,0,0,0,0,0,0,0,0,0,0,0,0,0,0,0,0,0,0,0,0,0,0,0,0,0,0,0,0,0,0,0,0,0,0,0,0,0,0,0,0,0,0,0,0,0,0,0,0,0,0,0,0,0,0,0,0,0,0,0,0,0,0,0,0,0,0,0,0,0,0,0,0,0,0,0,0,0,0,0,0,0,0,0,0,0,0,0,0,0,0,0,0,0,0,0,0,0,0,0,0,0,0,0,0,0,0,0,0,0,0,0,0,0,0,0,0,0,0,0,0,0,0,0,0,0,0,0,0,0,0,0,0,0,0,0,0,0,0,0,0,0,0,0,0,0,0,0,0,0,0,0,0,0,0,0,0,0,0,0,0,0,0,0,0,0,0,0,0,0,0,0,0,0,0,0,0,0,0,0],"trees":[{"base_weights":[7.065015E-3,-9.36715E0,8.135373E0,-2.4018116E1,-5.7473054E0,-5.597307E0,1.1950511E1,-5.111127E1,-1.00547285E1,-9.169988E0,2.9525623E-1,-3.47336E1,4.1794386E0,8.159163E0,1.7533653E1,-8.5065475E1,-3.3332554E1,-2.026114E1,-1.169702E0,-1.9659773E1,-7.3596034E0,-4.064195E0,5.431902E0,-9.17629E0,-5.025789E1,-6.7346616E0,1.3457036E1,4.443828E0,1.3798227E1,9.57629E0,2.001231E1,-4.4033413E1,-1.0235331E2,-1.4690301E1,-4.524359E1,-1.3389483E1,-2.965013E1,-3.6359844E1,3.1491537E0,8.295667E0,-2.7473644E1,-1.3780821E1,-1.9584514E0,2.408887E-2,-8.859747E0,1.0775436E1,2.8508627E-1,1.1555055E0,-1.7955542E1,-2.1785198E1,-7.453674E1,1.9664011E0,-1.9211277E1,-1.6887995E1,1.8170658E1,2.1140025E0,1.3329883E1,3.151727E1,1.2803509E1,3.569087E1,2.4583097E0,7.930441E0,2.3578003E1,-2.797651E0,-1.316712E0,-4.66575E0,-5.893144E0,-4.5770416E-1,-1.2103976E0,-1.8521395E0,-2.8678E0,6.467101E-3,-7.712561E-1,-1.7299912E0,-1.1776823E0,-3.5748944E0,-1.6084143E0,5.002188E-1,-1.00699924E-1,1.0143121E0,-1.2883927E-2,-8.645363E-1,-1.5741091E0,-2.9863247E-1,-1.3376368E0,8.0717576E-1,-2.4381272E-1,2.5835988E-1,-4.1597843E-1,-7.36509E-1,-3.7244704E-1,8.3771974E-1,-1.6600738E-1,-1.4107285E0,6.12152E-2,-2.9847229E0,2.0740214E-1,9.761848E-2,-1.2957767E0,-1.5667461E0,-6.7422616E-1,-2.4038978E0,-3.9936802E0,6.9665617E-1,-5.8037013E-2,-1.1920537E0,-3.3504066E-1,-3.0571918E0,-7.408527E-1,1.0751957E0,3.883934E-1,2.7597615E-1,-6.8787545E-1,-2.24259E-1,1.022251E0,1.3142389E0,2.656567E0,7.263499E-1,1.7583476E-1,2.1094441E0,1.4255408E0,4.422531E-1,-3.073116E-1,1.4908249E0,3.9933335E-2,1.4911275E0,9.953141E-1],"categories":[],"categories_nodes":[],"categories_segments":[],"categories_sizes":[],"default_left":[0,0,0,0,0,0,0,0,0,0,0,0,0,0,0,0,0,0,0,0,0,0,0,0,0,0,0,0,0,0,0,0,0,0,0,0,0,0,0,0,0,0,0,0,0,0,0,0,0,0,0,0,0,0,0,0,0,0,0,0,0,0,0,0,0,0,0,0,0,0,0,0,0,0,0,0,0,0,0,0,0,0,0,0,0,0,0,0,0,0,0,0,0,0,0,0,0,0,0,0,0,0,0,0,0,0,0,0,0,0,0,0,0,0,0,0,0,0,0,0,0,0,0,0,0,0,0],"id":0,"left_children":[1,3,5,7,9,11,13,15,17,19,21,23,25,27,29,31,33,35,37,39,41,43,45,47,49,51,53,55,57,59,61,63,65,67,69,71,73,75,77,79,81,83,85,87,89,91,93,95,97,99,101,103,105,107,109,111,113,115,117,119,121,123,125,-1,-1,-1,-1,-1,-1,-1,-1,-1,-1,-1,-1,-1,-1,-1,-1,-1,-1,-1,-1,-1,-1,-1,-1,-1,-1,-1,-1,-1,-1,-1,-1,-1,-1,-1,-1,-1,-1,-1,-1,-1,-1,-1,-1,-1,-1,-1,-1,-1,-1,-1,-1,-1,-1,-1,-1,-1,-1,-1,-1,-1,-1,-1,-1],"loss_changes":[1.0838954E7,3.503406E6,3.991715E6,4.9508305E6,1.0956205E6,4.7188235E6,1.261953E6,2.684053E6,7.833046E5,6.4209375E5,4.290041E5,1.6508435E6,1.2560785E6,7.4394925E5,4.754E5,1.080083E6,6.4837725E5,2.5896075E5,7.021187E5,1.0874068E6,1.0003036E6,2.0317369E5,2.4187752E5,1.4279277E5,1.7881015E6,6.188305E5,9.593565E5,4.431999E5,2.4818125E5,1.0648325E6,7.918405E5,9.4508375E4,1.39674E5,5.9896406E4,1.74974E5,6.3931125E4,5.0417625E4,7.206769E4,1.4566953E5,1.1159203E5,1.58235E5,1.3344945E6,8.275769E5,2.4013719E5,3.9385125E4,3.637119E5,1.1997648E5,1.3207939E5,1.3490825E5,9.414106E4,1.934135E5,1.2571669E5,1.3548794E5,8.175583E4,2.0108475E5,9.169381E5,5.637798E5,8.330406E4,2.137195E5,5.6037E4,2.4751733E5,6.541314E5,3.24867E5,0E0,0E0,0E0,0E0,0E0,0E0,0E0,0E0,0E0,0E0,0E0,0E0,0E0,0E0,0E0,0E0,0E0,0E0,0E0,0E0,0E0,0E0,0E0,0E0,0E0,0E0,0E0,0E0,0E0,0E0,0E0,0E0,0E0,0E0,0E0,0E0,0E0,0E0,0E0,0E0,0E0,0E0,0E0,0E0,0E0,0E0,0E0,0E0,0E0,0E0,0E0,0E0,0E0,0E0,0E0,0E0,0E0,0E0,0E0,0E0,0E0,0E0,0E0,0E0],"parents":[2147483647,0,0,1,1,2,2,3,3,4,4,5,5,6,6,7,7,8,8,9,9,10,10,11,11,12,12,13,13,14,14,15,15,16,16,17,17,18,18,19,19,20,20,21,21,22,22,23,23,24,24,25,25,26,26,27,27,28,28,29,29,30,30,31,31,32,32,33,33,34,34,35,35,36,36,37,37,38,38,39,39,40,40,41,41,42,42,43,43,44,44,45,45,46,46,47,47,48,48,49,49,50,50,51,51,52,52,53,53,54,54,55,55,56,56,57,57,58,58,59,59,60,60,61,61,62,62],"right_children":[2,4,6,8,10,12,14,16,18,20,22,24,26,28,30,32,34,36,38,40,42,44,46,48,50,52,54,56,58,60,62,64,66,68,70,72,74,76,78,80,82,84,86,88,90,92,94,96,98,100,102,104,106,108,110,112,114,116,118,120,122,124,126,-1,-1,-1,-1,-1,-1,-1,-1,-1,-1,-1,-1,-1,-1,-1,-1,-1,-1,-1,-1,-1,-1,-1,-1,-1,-1,-1,-1,-1,-1,-1,-1,-1,-1,-1,-1,-1,-1,-1,-1,-1,-1,-1,-1,-1,-1,-1,-1,-1,-1,-1,-1,-1,-1,-1,-1,-1,-1,-1,-1,-1,-1,-1,-1],"split_conditions":[3.951246E2,1.3712174E0,1.3824314E0,-4.9377555E-1,1.7900901E0,-4.9377555E-1,4.0952954E2,-1.2385292E0,4.862727E-1,-6.087614E-1,3.874471E2,6.2251467E-1,4.862727E-1,1.78523E0,-5.160624E-1,4.327476E-1,5.6640625E-1,6.2251467E-1,-2.6176948E-2,-8.606997E-3,-4.9377555E-1,1.9242807E1,1.9006727E1,4.9242356E-1,4.2122704E-1,6.2251467E-1,-8.726535E-3,8.6314213E-1,-9.361687E-1,-2.6176948E-2,-4.617486E-1,-3.758774E-1,5.2900817E-2,3.9874908E-1,6.3858974E-1,-4.7873384E-1,8.3388585E-1,-9.2865884E-1,3.4204865E-1,-5.160624E-1,5.234156E-1,5.2249855E-1,1.78215E1,7.933533E-1,-5.012418E-1,8.241262E-1,-9.997685E-1,-1.5281754E0,-3.341824E-1,8.241262E-1,6.4944804E-1,-8.606997E-3,8.616292E-1,-9.2865884E-1,3.586826E1,5.51937E-1,-2.6176948E-2,8.717063E-1,8.241262E-1,-5.2249855E-1,5.51937E-1,1.7213356E-2,2.001492E1,-2.797651E0,-1.316712E0,-4.66575E0,-5.893144E0,-4.5770416E-1,-1.2103976E0,-1.8521395E0,-2.8678E0,6.467101E-3,-7.712561E-1,-1.7299912E0,-1.1776823E0,-3.5748944E0,-1.6084143E0,5.002188E-1,-1.00699924E-1,1.0143121E0,-1.2883927E-2,-8.645363E-1,-1.5741091E0,-2.9863247E-1,-1.3376368E0,8.0717576E-1,-2.4381272E-1,2.5835988E-1,-4.1597843E-1,-7.36509E-1,-3.7244704E-1,8.3771974E-1,-1.6600738E-1,-1.4107285E0,6.12152E-2,-2.9847229E0,2.0740214E-1,9.761848E-2,-1.2957767E0,-1.5667461E0,-6.7422616E-1,-2.4038978E0,-3.9936802E0,6.9665617E-1,-5.8037013E-2,-1.1920537E0,-3.3504066E-1,-3.0571918E0,-7.408527E-1,1.0751957E0,3.883934E-1,2.7597615E-1,-6.8787545E-1,-2.24259E-1,1.022251E0,1.3142389E0,2.656567E0,7.263499E-1,1.7583476E-1,2.1094441E0,1.4255408E0,4.422531E-1,-3.073116E-1,1.4908249E0,3.9933335E-2,1.4911275E0,9.953141E-1],"split_indices":[7,4,4,12,4,12,7,3,12,8,7,8,12,4,12,10,8,8,8,12,12,0,0,8,10,8,8,12,3,8,8,9,9,8,10,12,8,9,3,12,12,8,0,8,12,8,12,3,9,8,8,12,8,9,2,8,8,12,8,8,8,12,0,0,0,0,0,0,0,0,0,0,0,0,0,0,0,0,0,0,0,0,0,0,0,0,0,0,0,0,0,0,0,0,0,0,0,0,0,0,0,0,0,0,0,0,0,0,0,0,0,0,0,0,0,0,0,0,0,0,0,0,0,0,0,0,0],"split_type":[0,0,0,0,0,0,0,0,0,0,0,0,0,0,0,0,0,0,0,0,0,0,0,0,0,0,0,0,0,0,0,0,0,0,0,0,0,0,0,0,0,0,0,0,0,0,0,0,0,0,0,0,0,0,0,0,0,0,0,0,0,0,0,0,0,0,0,0,0,0,0,0,0,0,0,0,0,0,0,0,0,0,0,0,0,0,0,0,0,0,0,0,0,0,0,0,0,0,0,0,0,0,0,0,0,0,0,0,0,0,0,0,0,0,0,0,0,0,0,0,0,0,0,0,0,0,0],"sum_hessian":[1.42248E5,6.6061E4,7.6187E4,1.3087E4,5.2974E4,1.6564E4,5.9623E4,4.45E3,8.637E3,3.3818E4,1.9156E4,4.161E3,1.2403E4,3.5511E4,2.4112E4,1.528E3,2.922E3,4.019E3,4.618E3,4.976E3,2.8842E4,1.0362E4,8.794E3,1.573E3,2.588E3,5.699E3,6.704E3,2.1408E4,1.4103E4,5.728E3,1.8384E4,4.54E2,1.074E3,1.14E3,1.782E3,2.322E3,1.697E3,5.04E2,4.114E3,1.087E3,3.889E3,1.3176E4,1.5666E4,5.594E3,4.768E3,4.314E3,4.48E3,7.23E2,8.5E2,1.192E3,1.396E3,3.358E3,2.341E3,9.01E2,5.803E3,1.6962E4,4.446E3,7.48E2,1.3355E4,1.226E3,4.502E3,4.19E3,1.4194E4,2.7E2,1.84E2,6.83E2,3.91E2,7.22E2,4.18E2,1.065E3,7.17E2,3.04E2,2.018E3,9.34E2,7.63E2,5.2E1,4.52E2,1.767E3,2.347E3,4.52E2,6.35E2,1.1E3,2.789E3,8.226E3,4.95E3,2.174E3,1.3492E4,3.461E3,2.133E3,9.22E2,3.846E3,3.029E3,1.285E3,1.42E2,4.338E3,3.3E1,6.9E2,2.43E2,6.07E2,5.53E2,6.39E2,2.36E2,1.16E3,6.95E2,2.663E3,1.708E3,6.33E2,3.9E1,8.62E2,4.394E3,1.409E3,1.3966E4,2.996E3,1.269E3,3.177E3,6.04E2,1.44E2,1.1264E4,2.091E3,6.41E2,5.85E2,2.584E3,1.918E3,1.029E3,3.161E3,5.253E3,8.941E3],"tree_param":{"num_deleted":"0","num_feature":"13","num_nodes":"127","size_leaf_vector":"1"}},{"base_weights":[7.3006726E-3,-8.958959E0,7.7608156E0,-2.2693144E1,-5.4664893E0,1.5350945E1,1.2281622E0,-4.9674934E1,-1.5688356E1,-8.775147E0,2.768575E-1,2.1332006E1,1.0559676E1,5.9607873E0,-1.1373772E1,-1.1093367E1,-7.331514E1,-6.271774E0,-1.8612125E1,-1.9016798E1,-7.0111713E0,-3.7986972E0,5.1097383E0,2.5672903E1,1.2824951E1,4.6681466E0,1.4908761E1,-3.056659E0,9.439687E0,-1.6632999E0,-2.8326084E1,-2.0112394E1,5.3013573E0,-3.1331795E1,-8.196886E1,4.7038836E0,-9.756345E0,-1.3068064E1,-2.4228851E1,5.399318E0,-2.135301E1,-1.0796276E1,-2.969627E0,1.5339154E-1,-8.433997E0,9.938773E0,1.546797E-1,2.7985464E1,1.7009377E1,2.5471395E1,8.380226E0,5.798237E0,-5.2241797E0,1.6490728E1,6.0873656E0,-1.0231236E1,4.8201327E0,2.5861282E1,7.9496675E0,-2.9657356E1,3.078667E0,-4.634091E1,-1.3174578E1,-6.880475E-1,-1.8185672E0,9.487034E-1,-9.420827E-1,-2.2261249E-1,-1.9795666E0,-2.5696278E0,-4.831306E0,1.0921089E-2,6.738166E-1,-1.0118017E0,-2.4999268E-1,-8.943885E-1,-3.4335002E-1,-7.9619616E-1,-2.0634305E0,-8.4116526E-2,7.490505E-1,-1.3547901E0,-5.5762357E-1,-6.207883E-1,-1.5889935E-1,2.85269E-1,-2.164162E-1,2.4731696E-1,-4.0395042E-1,-3.8940486E-1,-8.700863E-1,7.6457113E-1,-1.4830138E-1,4.3552533E-2,-1.5735341E0,1.5006946E0,9.119302E-1,1.2888378E0,7.21793E-1,7.629649E-1,1.4932712E0,2.8934607E-1,9.3042463E-1,-4.463875E-1,3.0396476E-1,-1.2414959E-2,-9.7584724E-1,7.0528394E-1,1.0792887E0,5.172617E-1,-5.051074E-1,-6.2135214E-1,5.322742E-1,9.2530453E-1,-1.8593244E-1,6.789098E-1,1.4637103E0,4.9886966E-1,-1.895314E-1,-5.023262E-1,-2.0052621E0,1.037664E0,-1.4874707E-1,-8.297473E-1,-3.0380332E0,-7.183023E-2,-1.1040944E0],"categories":[],"categories_nodes":[],"categories_segments":[],"categories_sizes":[],"default_left":[0,0,0,0,0,0,0,0,0,0,0,0,0,0,0,0,0,0,0,0,0,0,0,0,0,0,0,0,0,0,0,0,0,0,0,0,0,0,0,0,0,0,0,0,0,0,0,0,0,0,0,0,0,0,0,0,0,0,0,0,0,0,0,0,0,0,0,0,0,0,0,0,0,0,0,0,0,0,0,0,0,0,0,0,0,0,0,0,0,0,0,0,0,0,0,0,0,0,0,0,0,0,0,0,0,0,0,0,0,0,0,0,0,0,0,0,0,0,0,0,0,0,0,0,0,0,0],"id":1,"left_children":[1,3,5,7,9,11,13,15,17,19,21,23,25,27,29,31,33,35,37,39,41,43,45,47,49,51,53,55,57,59,61,63,65,67,69,71,73,75,77,79,81,83,85,87,89,91,93,95,97,99,101,103,105,107,109,111,113,115,117,119,121,123,125,-1,-1,-1,-1,-1,-1,-1,-1,-1,-1,-1,-1,-1,-1,-1,-1,-1,-1,-1,-1,-1,-1,-1,-1,-1,-1,-1,-1,-1,-1,-1,-1,-1,-1,-1,-1,-1,-1,-1,-1,-1,-1,-1,-1,-1,-1,-1,-1,-1,-1,-1,-1,-1,-1,-1,-1,-1,-1,-1,-1,-1,-1,-1,-1],"loss_changes":[9.868228E6,3.157297E6,3.774389E6,2.5214425E6,9.973069E5,1.0088085E6,2.4400682E6,2.5073875E6,2.9160875E5,6.0144475E5,3.7788047E5,5.779635E5,5.009045E5,9.3309075E5,1.8386989E6,1.5477438E5,6.16868E5,9.611898E4,2.5144275E5,2.7916225E5,4.3454288E5,1.9066748E5,2.1001481E5,2.07242E5,2.9730238E5,9.287381E4,1.5686525E5,4.6803112E5,5.249584E5,9.4299506E5,1.1097515E6,6.920022E4,1.2315487E5,6.4869E4,6.28277E5,2.3840867E4,9.495369E4,1.2154581E5,5.6751575E5,2.9068117E4,2.6125212E5,1.8094125E5,1.6197384E5,2.2175111E5,2.7606875E4,3.0708434E5,9.819059E4,1.61212E5,4.8969125E4,6.1284E4,1.0381494E5,3.0905031E4,6.058664E4,1.15585E5,1.18117516E5,1.988084E5,4.6143912E5,7.44275E4,4.6851862E5,2.1042575E5,6.5005925E5,7.9593475E5,2.3113428E5,0E0,0E0,0E0,0E0,0E0,0E0,0E0,0E0,0E0,0E0,0E0,0E0,0E0,0E0,0E0,0E0,0E0,0E0,0E0,0E0,0E0,0E0,0E0,0E0,0E0,0E0,0E0,0E0,0E0,0E0,0E0,0E0,0E0,0E0,0E0,0E0,0E0,0E0,0E0,0E0,0E0,0E0,0E0,0E0,0E0,0E0,0E0,0E0,0E0,0E0,0E0,0E0,0E0,0E0,0E0,0E0,0E0,0E0,0E0,0E0,0E0,0E0,0E0,0E0],"parents":[2147483647,0,0,1,1,2,2,3,3,4,4,5,5,6,6,7,7,8,8,9,9,10,10,11,11,12,12,13,13,14,14,15,15,16,16,17,17,18,18,19,19,20,20,21,21,22,22,23,23,24,24,25,25,26,26,27,27,28,28,29,29,30,30,31,31,32,32,33,33,34,34,35,35,36,36,37,37,38,38,39,39,40,40,41,41,42,42,43,43,44,44,45,45,46,46,47,47,48,48,49,49,50,50,51,51,52,52,53,53,54,54,55,55,56,56,57,57,58,58,59,59,60,60,61,61,62,62],"right_children":[2,4,6,8,10,12,14,16,18,20,22,24,26,28,30,32,34,36,38,40,42,44,46,48,50,52,54,56,58,60,62,64,66,68,70,72,74,76,78,80,82,84,86,88,90,92,94,96,98,100,102,104,106,108,110,112,114,116,118,120,122,124,126,-1,-1,-1,-1,-1,-1,-1,-1,-1,-1,-1,-1,-1,-1,-1,-1,-1,-1,-1,-1,-1,-1,-1,-1,-1,-1,-1,-1,-1,-1,-1,-1,-1,-1,-1,-1,-1,-1,-1,-1,-1,-1,-1,-1,-1,-1,-1,-1,-1,-1,-1,-1,-1,-1,-1,-1,-1,-1,-1,-1,-1,-1,-1,-1],"split_conditions":[3.951246E2,1.3747957E0,-6.74911E0,3.28284E1,1.7900901E0,2.0337032E1,6.2251467E-1,1.1601503E1,-6.578168E0,-6.087614E-1,3.874471E2,8.241262E-1,4.0546274E2,-6.755902E-1,1.7439594E1,-6.271483E0,-8.653073E-1,2.1153131E1,6.087614E-1,-6.726701E0,3.8551462E2,1.9242807E1,1.9359295E1,8.695894E-1,-4.7495106E-1,5.51937E-1,5.075384E-1,8.695894E-1,1.78215E1,1.1842759E0,3.4425205E1,8.906735E0,8.141155E-1,7.253744E-1,5.031963E-1,3.87323E2,3.4343315E1,3.4343315E1,1.94514E1,3.897839E2,8.695894E-1,-6.29689E0,1.7689596E1,8.141155E-1,5.6640625E-1,8.241262E-1,6.2251467E-1,-6.9740763E0,3.2716682E1,4.041847E2,4.1527115E2,-5.2249855E-1,6.624795E-1,4.1692252E2,2.5418917E1,4.9222946E-2,9.998518E-1,-6.2251467E-1,5.51937E-1,4.327476E-1,7.253744E-1,-8.653073E-1,1.9787704E1,-6.880475E-1,-1.8185672E0,9.487034E-1,-9.420827E-1,-2.2261249E-1,-1.9795666E0,-2.5696278E0,-4.831306E0,1.0921089E-2,6.738166E-1,-1.0118017E0,-2.4999268E-1,-8.943885E-1,-3.4335002E-1,-7.9619616E-1,-2.0634305E0,-8.4116526E-2,7.490505E-1,-1.3547901E0,-5.5762357E-1,-6.207883E-1,-1.5889935E-1,2.85269E-1,-2.164162E-1,2.4731696E-1,-4.0395042E-1,-3.8940486E-1,-8.700863E-1,7.6457113E-1,-1.4830138E-1,4.3552533E-2,-1.5735341E0,1.5006946E0,9.119302E-1,1.2888378E0,7.21793E-1,7.629649E-1,1.4932712E0,2.8934607E-1,9.3042463E-1,-4.463875E-1,3.0396476E-1,-1.2414959E-2,-9.7584724E-1,7.0528394E-1,1.0792887E0,5.172617E-1,-5.051074E-1,-6.2135214E-1,5.322742E-1,9.2530453E-1,-1.8593244E-1,6.789098E-1,1.4637103E0,4.9886966E-1,-1.895314E-1,-5.023262E-1,-2.0052621E0,1.037664E0,-1.4874707E-1,-8.297473E-1,-3.0380332E0,-7.183023E-2,-1.1040944E0],"split_indices":[7,4,5,2,4,0,8,0,5,8,7,8,7,8,0,5,11,0,8,5,7,0,0,11,11,8,8,11,0,4,2,0,8,8,10,7,2,2,0,7,11,5,0,8,8,8,8,5,2,7,7,8,10,7,0,6,11,8,8,10,8,11,0,0,0,0,0,0,0,0,0,0,0,0,0,0,0,0,0,0,0,0,0,0,0,0,0,0,0,0,0,0,0,0,0,0,0,0,0,0,0,0,0,0,0,0,0,0,0,0,0,0,0,0,0,0,0,0,0,0,0,0,0,0,0,0,0],"split_type":[0,0,0,0,0,0,0,0,0,0,0,0,0,0,0,0,0,0,0,0,0,0,0,0,0,0,0,0,0,0,0,0,0,0,0,0,0,0,0,0,0,0,0,0,0,0,0,0,0,0,0,0,0,0,0,0,0,0,0,0,0,0,0,0,0,0,0,0,0,0,0,0,0,0,0,0,0,0,0,0,0,0,0,0,0,0,0,0,0,0,0,0,0,0,0,0,0,0,0,0,0,0,0,0,0,0,0,0,0,0,0,0,0,0,0,0,0,0,0,0,0,0,0,0,0,0,0],"sum_hessian":[1.41946E5,6.5825E4,7.6121E4,1.3344E4,5.2481E4,3.521E4,4.0911E4,2.749E3,1.0595E4,3.3298E4,1.9183E4,1.5659E4,1.9551E4,2.9742E4,1.1169E4,1.045E3,1.704E3,2.511E3,8.084E3,4.891E3,2.8407E4,1.0407E4,8.776E3,1.0367E4,5.292E3,8.304E3,1.1247E4,8.28E3,2.1462E4,7.102E3,4.067E3,6.74E2,3.71E2,2.92E2,1.412E3,6.05E2,1.906E3,4.07E3,4.014E3,4.27E2,4.464E3,1.4668E4,1.3739E4,5.618E3,4.789E3,4.444E3,4.332E3,8.181E3,2.186E3,1.375E3,3.917E3,7.453E3,8.51E2,9.536E3,1.711E3,4.333E3,3.947E3,1.784E3,1.9678E4,1.028E3,6.074E3,1.857E3,2.21E3,4.86E2,1.88E2,2.37E2,1.34E2,6.9E1,2.23E2,4.59E2,9.53E2,4.01E2,2.04E2,5.94E2,1.312E3,2.289E3,1.781E3,2.7E3,1.314E3,2.46E2,1.81E2,2.855E3,1.609E3,1.2096E4,2.572E3,1.86E3,1.1879E4,3.551E3,2.067E3,4.469E3,3.2E2,3.141E3,1.303E3,4.237E3,9.5E1,6.77E3,1.411E3,4.94E2,1.692E3,4.15E2,9.6E2,3.126E3,7.91E2,1.39E2,7.314E3,6.32E2,2.19E2,6.498E3,3.038E3,1.355E3,3.56E2,3.921E3,4.12E2,1.516E3,2.431E3,3.89E2,1.395E3,1.678E4,2.898E3,3.58E2,6.7E2,1.549E3,4.525E3,6.07E2,1.25E3,9.54E2,1.256E3],"tree_param":{"num_deleted":"0","num_feature":"13","num_nodes":"127","size_leaf_vector":"1"}},{"base_weights":[5.288003E-2,-8.149458E0,7.689498E0,-2.1286928E1,-4.8936434E0,1.4743967E1,1.286031E0,-4.6897583E1,-1.5000638E1,-7.552803E0,1.4188893E0,2.0402603E1,1.0008024E1,-2.7303505E1,3.0888426E0,-1.1064652E1,-6.8778015E1,-5.5418906E0,-1.7825455E1,-1.1349314E1,-3.7809641E0,-2.9221E0,6.1772084E0,1.6843801E1,2.7535112E1,5.481555E0,1.5131561E1,-1.6587015E1,-3.9014606E1,1.23476915E-1,1.1442045E1,-1.4393914E1,2.8688135E1,-3.1280296E1,-8.222097E1,4.28606E0,-9.048181E0,-3.3516064E1,-1.5791186E1,6.371454E0,-1.2013093E1,-8.320276E0,-1.5438625E0,2.616151E-1,-8.002565E0,1.0013564E1,9.3986845E-1,1.8854252E1,5.876528E0,3.2544994E1,1.952685E1,8.031667E-1,7.140619E0,1.2641672E1,1.877472E1,-1.9001133E1,1.0984437E1,-4.6166275E1,3.9155183E0,8.751058E0,-3.3139565E0,7.2165585E0,1.7510452E1,-1.0188838E0,-1.1709239E-1,2.101366E0,-1.5510437E0,-2.0020378E0,-5.3455573E-1,-1.7084799E0,-4.661726E0,-3.462668E-2,6.300148E-1,-8.7594575E-1,-1.9295879E-1,-2.42006E0,-1.4630443E0,-9.1787386E-1,-3.189233E-1,2.0630765E0,-3.9395925E-1,-4.0112233E-1,-7.1767896E-1,3.0250864E-3,-5.913581E-1,-9.157378E-2,6.299032E-1,-1.7373581E-1,2.774466E-1,-5.089547E-1,-2.8356722E-1,7.1984535E-1,2.6673427E-1,-7.460264E-2,2.4476002E-1,8.147392E-1,1.3658336E0,-1.5163104E-1,5.914062E-1,1.4104909E0,1.8857952E0,1.1432132E0,5.732207E-1,8.597563E-2,-6.554173E-1,1.6054162E-1,4.317498E-1,-2.4222033E0,6.406063E-1,9.5879805E-1,2.6936743E-1,-1.3241149E0,-5.326068E-1,8.172948E-1,4.4046747E-3,-2.7365434E0,-5.40931E-1,-4.5572194E-1,4.9562883E-1,4.8725553E-2,6.051308E-1,-4.1282317E-1,1.4297384E-1,2.2084473E-1,7.1913046E-1,1.2756449E0,6.238693E-1],"categories":[],"categories_nodes":[],"categories_segments":[],"categories_sizes":[],"default_left":[0,0,0,0,0,0,0,0,0,0,0,0,0,0,0,0,0,0,0,0,0,0,0,0,0,0,0,0,0,0,0,0,0,0,0,0,0,0,0,0,0,0,0,0,0,0,0,0,0,0,0,0,0,0,0,0,0,0,0,0,0,0,0,0,0,0,0,0,0,0,0,0,0,0,0,0,0,0,0,0,0,0,0,0,0,0,0,0,0,0,0,0,0,0,0,0,0,0,0,0,0,0,0,0,0,0,0,0,0,0,0,0,0,0,0,0,0,0,0,0,0,0,0,0,0,0,0],"id":2,"left_children":[1,3,5,7,9,11,13,15,17,19,21,23,25,27,29,31,33,35,37,39,41,43,45,47,49,51,53,55,57,59,61,63,65,67,69,71,73,75,77,79,81,83,85,87,89,91,93,95,97,99,101,103,105,107,109,111,113,115,117,119,121,123,125,-1,-1,-1,-1,-1,-1,-1,-1,-1,-1,-1,-1,-1,-1,-1,-1,-1,-1,-1,-1,-1,-1,-1,-1,-1,-1,-1,-1,-1,-1,-1,-1,-1,-1,-1,-1,-1,-1,-1,-1,-1,-1,-1,-1,-1,-1,-1,-1,-1,-1,-1,-1,-1,-1,-1,-1,-1,-1,-1,-1,-1,-1,-1,-1],"loss_changes":[8.903696E6,2.93131E6,3.325214E6,2.190607E6,9.219675E5,9.38427E5,1.9889155E6,2.102026E6,2.9194E5,5.53345E5,3.36295E5,4.045705E5,4.4215438E5,2.8662125E5,8.9913475E5,1.3514117E5,8.3671E5,8.670526E4,2.6809525E5,2.26615E5,1.9685922E5,1.3771475E5,1.5604638E5,2.3466625E5,2.1239875E5,7.858891E4,8.089125E4,7.988272E4,3.3576012E5,7.945335E5,2.4372612E5,6.77397E4,6.4225918E4,7.911028E4,6.45091E5,2.7412219E4,8.142222E4,5.9698E4,1.7988925E5,3.4638372E5,1.7327125E5,1.8810069E5,5.284943E4,1.0343778E5,1.6583297E4,9.1863625E4,3.160624E4,1.94441E5,8.757881E4,7.21205E4,5.4787625E4,3.3828453E4,4.3868594E4,5.5968875E4,1.938775E4,6.848294E4,5.6636855E3,2.8306712E5,1.2358629E4,1.9892994E5,5.845775E5,1.1244528E5,1.5687838E5,0E0,0E0,0E0,0E0,0E0,0E0,0E0,0E0,0E0,0E0,0E0,0E0,0E0,0E0,0E0,0E0,0E0,0E0,0E0,0E0,0E0,0E0,0E0,0E0,0E0,0E0,0E0,0E0,0E0,0E0,0E0,0E0,0E0,0E0,0E0,0E0,0E0,0E0,0E0,0E0,0E0,0E0,0E0,0E0,0E0,0E0,0E0,0E0,0E0,0E0,0E0,0E0,0E0,0E0,0E0,0E0,0E0,0E0,0E0,0E0,0E0,0E0,0E0,0E0],"parents":[2147483647,0,0,1,1,2,2,3,3,4,4,5,5,6,6,7,7,8,8,9,9,10,10,11,11,12,12,13,13,14,14,15,15,16,16,17,17,18,18,19,19,20,20,21,21,22,22,23,23,24,24,25,25,26,26,27,27,28,28,29,29,30,30,31,31,32,32,33,33,34,34,35,35,36,36,37,37,38,38,39,39,40,40,41,41,42,42,43,43,44,44,45,45,46,46,47,47,48,48,49,49,50,50,51,51,52,52,53,53,54,54,55,55,56,56,57,57,58,58,59,59,60,60,61,61,62,62],"right_children":[2,4,6,8,10,12,14,16,18,20,22,24,26,28,30,32,34,36,38,40,42,44,46,48,50,52,54,56,58,60,62,64,66,68,70,72,74,76,78,80,82,84,86,88,90,92,94,96,98,100,102,104,106,108,110,112,114,116,118,120,122,124,126,-1,-1,-1,-1,-1,-1,-1,-1,-1,-1,-1,-1,-1,-1,-1,-1,-1,-1,-1,-1,-1,-1,-1,-1,-1,-1,-1,-1,-1,-1,-1,-1,-1,-1,-1,-1,-1,-1,-1,-1,-1,-1,-1,-1,-1,-1,-1,-1,-1,-1,-1,-1,-1,-1,-1,-1,-1,-1,-1,-1,-1,-1,-1,-1],"split_conditions":[3.9572723E2,1.367265E0,-6.726701E0,-1.3563347E0,1.846997E0,2.0856863E1,1.1903969E0,1.1601503E1,-6.571865E0,3.8585144E2,3.874471E2,4.35429E-2,4.083332E2,-8.653073E-1,4.658842E-2,2.815166E-1,-4.870147E-1,2.1560078E1,3.784553E2,-9.493262E-1,3.4425205E1,1.9903437E1,1.9574293E1,2.5315459E0,1.7192554E1,3.4587494E1,4.1692252E2,-8.7380713E-1,-6.1725144E0,-4.981702E-1,4.0952954E2,-6.2630873E0,-4.7495106E-1,-1.9056396E0,-8.653073E-1,3.8611734E2,3.4425205E1,3.7536337E2,-6.177262E0,2.484693E1,-6.8279676E0,-6.7646413E0,-6.137302E0,1.1979372E1,3.8223486E2,3.5140106E1,3.9227377E2,4.1511423E2,-1.9384263E-1,1.1018196E1,-7.336231E0,9.503212E-1,3.99643E2,3.1726337E1,4.2441873E2,1.7560799E1,-6.2236943E0,4.146289E2,-6.144709E0,4.040797E2,3.4379784E1,1.7854881E-1,1.8778711E1,-1.0188838E0,-1.1709239E-1,2.101366E0,-1.5510437E0,-2.0020378E0,-5.3455573E-1,-1.7084799E0,-4.661726E0,-3.462668E-2,6.300148E-1,-8.7594575E-1,-1.9295879E-1,-2.42006E0,-1.4630443E0,-9.1787386E-1,-3.189233E-1,2.0630765E0,-3.9395925E-1,-4.0112233E-1,-7.1767896E-1,3.0250864E-3,-5.913581E-1,-9.157378E-2,6.299032E-1,-1.7373581E-1,2.774466E-1,-5.089547E-1,-2.8356722E-1,7.1984535E-1,2.6673427E-1,-7.460264E-2,2.4476002E-1,8.147392E-1,1.3658336E0,-1.5163104E-1,5.914062E-1,1.4104909E0,1.8857952E0,1.1432132E0,5.732207E-1,8.597563E-2,-6.554173E-1,1.6054162E-1,4.317498E-1,-2.4222033E0,6.406063E-1,9.5879805E-1,2.6936743E-1,-1.3241149E0,-5.326068E-1,8.172948E-1,4.4046747E-3,-2.7365434E0,-5.40931E-1,-4.5572194E-1,4.9562883E-1,4.8725553E-2,6.051308E-1,-4.1282317E-1,1.4297384E-1,2.2084473E-1,7.1913046E-1,1.2756449E0,6.238693E-1],"split_indices":[7,4,5,3,4,0,4,0,5,7,7,9,7,11,6,9,9,0,7,9,2,0,0,4,0,2,7,11,5,9,7,5,11,3,11,7,2,7,5,0,5,5,5,0,7,2,7,7,9,0,5,1,7,2,7,0,5,7,5,7,2,6,0,0,0,0,0,0,0,0,0,0,0,0,0,0,0,0,0,0,0,0,0,0,0,0,0,0,0,0,0,0,0,0,0,0,0,0,0,0,0,0,0,0,0,0,0,0,0,0,0,0,0,0,0,0,0,0,0,0,0,0,0,0,0,0,0],"split_type":[0,0,0,0,0,0,0,0,0,0,0,0,0,0,0,0,0,0,0,0,0,0,0,0,0,0,0,0,0,0,0,0,0,0,0,0,0,0,0,0,0,0,0,0,0,0,0,0,0,0,0,0,0,0,0,0,0,0,0,0,0,0,0,0,0,0,0,0,0,0,0,0,0,0,0,0,0,0,0,0,0,0,0,0,0,0,0,0,0,0,0,0,0,0,0,0,0,0,0,0,0,0,0,0,0,0,0,0,0,0,0,0,0,0,0,0,0,0,0,0,0,0,0,0,0,0,0],"sum_hessian":[1.42143E5,6.8533E4,7.361E4,1.361E4,5.4923E4,3.5024E4,3.8586E4,2.681E3,1.0929E4,3.8644E4,1.6279E4,1.5956E4,1.9068E4,2.288E3,3.6298E4,1.017E3,1.664E3,2.514E3,8.415E3,1.9258E4,1.9386E4,8.513E3,7.766E3,1.0647E4,5.309E3,1.0125E4,8.943E3,1.196E3,1.092E3,2.6789E4,9.509E3,9.39E2,7.8E1,4.4E2,1.224E3,6.61E2,1.853E3,9.64E2,7.451E3,6.95E2,1.8563E4,6.399E3,1.2987E4,5.234E3,3.279E3,4.482E3,3.284E3,8.997E3,1.65E3,3.264E3,2.045E3,2.651E3,7.474E3,5.315E3,3.628E3,1.1E3,9.6E1,9.36E2,1.56E2,7.632E3,1.9157E4,5.607E3,3.902E3,6.27E2,3.12E2,6.4E1,1.4E1,3.08E2,1.32E2,2.29E2,9.95E2,4.14E2,2.47E2,7.03E2,1.15E3,2.12E2,7.52E2,5.854E3,1.597E3,2.01E2,4.94E2,6.864E3,1.1699E4,1.888E3,4.511E3,1.2729E4,2.58E2,3.067E3,2.167E3,1.694E3,1.585E3,2.313E3,2.169E3,2.034E3,1.25E3,6.91E3,2.087E3,6.61E2,9.89E2,1.779E3,1.485E3,1.445E3,6E2,2.488E3,1.63E2,2.06E3,5.414E3,1.4E1,5.301E3,3.522E3,1.06E2,5.79E2,5.21E2,6.4E1,3.2E1,7.53E2,1.83E2,4.9E1,1.07E2,2.299E3,5.333E3,1.0639E4,8.518E3,4.033E3,1.574E3,1.505E3,2.397E3],"tree_param":{"num_deleted":"0","num_feature":"13","num_nodes":"127","size_leaf_vector":"1"}},{"base_weights":[7.251169E-2,6.533097E0,-5.550913E0,1.2935709E1,1.9574686E0,-1.8312973E1,1.115017E-1,8.916839E0,2.0952347E1,-3.092218E0,4.1596456E0,-5.1146156E1,-1.0551205E1,-3.059265E0,8.731363E0,1.5272511E1,6.8721642E0,2.7671001E1,1.18718815E1,-4.3346925E0,7.617389E0,2.6681428E0,6.2618155E0,-3.539738E1,-7.595045E1,-1.8631433E1,-1.0862932E0,8.70516E0,-4.6647305E0,3.1775387E1,5.773796E0,9.373718E0,1.8052385E1,3.6424124E0,1.2196193E1,2.0750217E1,3.69099E1,7.0436015E0,1.9106646E1,-9.48833E0,-1.6759846E0,3.9459271E0,1.1771281E1,3.2013698E0,-1.2472386E0,2.1827137E0,8.385223E0,-1.9641485E1,-4.603113E1,-4.252234E1,-8.7493546E1,-3.4137894E1,-1.1336051E1,1.5714194E1,-4.715324E0,1.2860885E1,4.1173487E0,-1.1622315E1,-4.6182296E-1,2.5445965E1,5.0874123E1,-1.0100565E1,7.624379E0,1.1462601E0,1.7355476E-1,8.066845E-1,1.0260237E0,1.1745096E0,1.13021076E-1,5.1644903E-1,1.161638E0,1.1595703E0,5.451085E-1,1.8788317E0,-6.949803E-1,7.4137063E-3,4.760171E-1,1.0250168E0,-2.110117E-1,-8.725821E-2,-6.7147917E-1,-2.7015567E-1,4.0158212E-2,-2.2057612E-1,2.759176E-1,7.356865E-1,-9.363182E-2,1.21881785E-2,2.2036174E-1,-1.8647021E-1,9.5690586E-2,-8.7567404E-2,2.611433E-1,2.9295203E-1,5.3277355E-1,-4.1688123E-1,-1.3065175E0,-9.552493E-1,-2.9148452E0,-2.609251E0,-8.50444E-1,-3.7851193E0,-5.251641E0,-2.0922582E0,-6.2488675E-1,-8.423857E-1,5.5729654E-2,9.7937983E-1,-5.0481534E-1,-1.0354528E0,7.476719E-2,6.0556835E-1,9.630329E-1,-2.7940104E0,2.278028E-1,-3.0354396E-1,-9.874199E-1,-4.5384428E-1,1.4984725E-1,7.397306E-1,1.5446486E0,2.6409614E0,6.6711354E-1,-6.150334E-1,6.306286E-1,3.1391636E-1,1.0346559E0],"categories":[],"categories_nodes":[],"categories_segments":[],"categories_sizes":[],"default_left":[0,0,0,0,0,0,0,0,0,0,0,0,0,0,0,0,0,0,0,0,0,0,0,0,0,0,0,0,0,0,0,0,0,0,0,0,0,0,0,0,0,0,0,0,0,0,0,0,0,0,0,0,0,0,0,0,0,0,0,0,0,0,0,0,0,0,0,0,0,0,0,0,0,0,0,0,0,0,0,0,0,0,0,0,0,0,0,0,0,0,0,0,0,0,0,0,0,0,0,0,0,0,0,0,0,0,0,0,0,0,0,0,0,0,0,0,0,0,0,0,0,0,0,0,0,0,0],"id":3,"left_children":[1,3,5,7,9,11,13,15,17,19,21,23,25,27,29,31,33,35,37,39,41,43,45,47,49,51,53,55,57,59,61,63,65,67,69,71,73,75,77,79,81,83,85,87,89,91,93,95,97,99,101,103,105,107,109,111,113,115,117,119,121,123,125,-1,-1,-1,-1,-1,-1,-1,-1,-1,-1,-1,-1,-1,-1,-1,-1,-1,-1,-1,-1,-1,-1,-1,-1,-1,-1,-1,-1,-1,-1,-1,-1,-1,-1,-1,-1,-1,-1,-1,-1,-1,-1,-1,-1,-1,-1,-1,-1,-1,-1,-1,-1,-1,-1,-1,-1,-1,-1,-1,-1,-1,-1,-1,-1],"loss_changes":[5.1544785E6,1.9342102E6,5.481451E6,8.863805E5,4.282225E5,5.9403675E6,1.4360828E6,2.3810925E5,5.60214E5,1.5563788E5,8.405478E4,1.738371E6,1.442059E6,7.2556106E5,9.628325E5,7.297906E4,2.3846981E5,3.3683375E5,1.3640988E5,1.4356639E5,1.8497016E4,3.2755297E4,9.6366875E4,4.5614975E5,6.63811E5,1.1503222E6,5.2959294E5,8.789531E4,9.884052E5,1.9295838E5,3.679921E5,1.1438249E5,1.4018625E4,2.3679766E5,1.0767875E5,7.2371375E4,7.7085E4,4.006246E4,5.09345E4,1.0880147E5,6.38909E4,8.526979E3,2.291236E4,4.9240766E4,1.4766115E4,4.5589617E4,4.1905156E4,8.053616E4,5.36558E5,1.0905719E5,2.5778E5,5.4219475E5,4.7482788E5,1.5445931E5,7.095597E5,1.1371719E4,5.7998566E4,5.741009E5,6.2795056E5,6.968225E4,2.8416938E4,6.55175E4,1.9718794E5,0E0,0E0,0E0,0E0,0E0,0E0,0E0,0E0,0E0,0E0,0E0,0E0,0E0,0E0,0E0,0E0,0E0,0E0,0E0,0E0,0E0,0E0,0E0,0E0,0E0,0E0,0E0,0E0,0E0,0E0,0E0,0E0,0E0,0E0,0E0,0E0,0E0,0E0,0E0,0E0,0E0,0E0,0E0,0E0,0E0,0E0,0E0,0E0,0E0,0E0,0E0,0E0,0E0,0E0,0E0,0E0,0E0,0E0,0E0,0E0,0E0,0E0,0E0,0E0],"parents":[2147483647,0,0,1,1,2,2,3,3,4,4,5,5,6,6,7,7,8,8,9,9,10,10,11,11,12,12,13,13,14,14,15,15,16,16,17,17,18,18,19,19,20,20,21,21,22,22,23,23,24,24,25,25,26,26,27,27,28,28,29,29,30,30,31,31,32,32,33,33,34,34,35,35,36,36,37,37,38,38,39,39,40,40,41,41,42,42,43,43,44,44,45,45,46,46,47,47,48,48,49,49,50,50,51,51,52,52,53,53,54,54,55,55,56,56,57,57,58,58,59,59,60,60,61,61,62,62],"right_children":[2,4,6,8,10,12,14,16,18,20,22,24,26,28,30,32,34,36,38,40,42,44,46,48,50,52,54,56,58,60,62,64,66,68,70,72,74,76,78,80,82,84,86,88,90,92,94,96,98,100,102,104,106,108,110,112,114,116,118,120,122,124,126,-1,-1,-1,-1,-1,-1,-1,-1,-1,-1,-1,-1,-1,-1,-1,-1,-1,-1,-1,-1,-1,-1,-1,-1,-1,-1,-1,-1,-1,-1,-1,-1,-1,-1,-1,-1,-1,-1,-1,-1,-1,-1,-1,-1,-1,-1,-1,-1,-1,-1,-1,-1,-1,-1,-1,-1,-1,-1,-1,-1,-1,-1,-1,-1],"split_conditions":[-6.74911E0,2.001492E1,-4.9377555E-1,3.8232848E-1,-5.160624E-1,-1.0511093E0,8.6314213E-1,-5.227404E-1,1.6928453E1,8.6537224E-1,2.815166E-1,5.6420827E-1,-1.2910296E-2,-8.606997E-3,-9.361687E-1,8.606997E-3,-3.6937252E-1,5.234156E-1,8.5876393E-1,4.9726868E-1,1.3767253E-1,2.8202255E1,4.9726868E-1,-6.4254427E0,-6.410613E0,3.4204865E-1,1.6928453E1,1.6928453E1,1.4219068E1,6.0392386E-1,8.906735E0,3.5325775E1,4.579544E-3,-4.547596E-1,3.5637477E-1,-7.0305243E0,3.4686954E1,3.8671875E-1,3.4853687E1,-3.758774E-1,-1.00221634E-1,8.746157E-1,3.0364542E1,8.606997E-3,7.4448013E-1,8.075816E-1,-5.1441193E-3,7.15654E0,-5.480635E-1,-8.5876393E-1,7.62948E-2,2.7089243E1,-1.960295E-1,3.5311275E1,4.1860962E-1,1.4551544E-1,3.2542915E1,5.234156E-1,-8.7380713E-1,-5.978E-1,1.4576755E1,7.691336E-2,-6.156672E0,1.1462601E0,1.7355476E-1,8.066845E-1,1.0260237E0,1.1745096E0,1.13021076E-1,5.1644903E-1,1.161638E0,1.1595703E0,5.451085E-1,1.8788317E0,-6.949803E-1,7.4137063E-3,4.760171E-1,1.0250168E0,-2.110117E-1,-8.725821E-2,-6.7147917E-1,-2.7015567E-1,4.0158212E-2,-2.2057612E-1,2.759176E-1,7.356865E-1,-9.363182E-2,1.21881785E-2,2.2036174E-1,-1.8647021E-1,9.5690586E-2,-8.7567404E-2,2.611433E-1,2.9295203E-1,5.3277355E-1,-4.1688123E-1,-1.3065175E0,-9.552493E-1,-2.9148452E0,-2.609251E0,-8.50444E-1,-3.7851193E0,-5.251641E0,-2.0922582E0,-6.2488675E-1,-8.423857E-1,5.5729654E-2,9.7937983E-1,-5.0481534E-1,-1.0354528E0,7.476719E-2,6.0556835E-1,9.630329E-1,-2.7940104E0,2.278028E-1,-3.0354396E-1,-9.874199E-1,-4.5384428E-1,1.4984725E-1,7.397306E-1,1.5446486E0,2.6409614E0,6.6711354E-1,-6.150334E-1,6.306286E-1,3.1391636E-1,1.0346559E0],"split_indices":[5,0,12,10,12,3,12,10,0,10,9,10,11,12,3,12,10,12,12,3,9,0,3,5,5,3,0,0,0,10,0,2,1,9,9,5,2,3,2,9,1,10,0,12,3,10,1,0,9,12,9,0,10,2,3,3,2,12,11,9,0,6,5,0,0,0,0,0,0,0,0,0,0,0,0,0,0,0,0,0,0,0,0,0,0,0,0,0,0,0,0,0,0,0,0,0,0,0,0,0,0,0,0,0,0,0,0,0,0,0,0,0,0,0,0,0,0,0,0,0,0,0,0,0,0,0,0],"split_type":[0,0,0,0,0,0,0,0,0,0,0,0,0,0,0,0,0,0,0,0,0,0,0,0,0,0,0,0,0,0,0,0,0,0,0,0,0,0,0,0,0,0,0,0,0,0,0,0,0,0,0,0,0,0,0,0,0,0,0,0,0,0,0,0,0,0,0,0,0,0,0,0,0,0,0,0,0,0,0,0,0,0,0,0,0,0,0,0,0,0,0,0,0,0,0,0,0,0,0,0,0,0,0,0,0,0,0,0,0,0,0,0,0,0,0,0,0,0,0,0,0,0,0,0,0,0,0],"sum_hessian":[1.41875E5,6.6023E4,7.5852E4,2.7517E4,3.8506E4,2.3311E4,5.2541E4,1.833E4,9.187E3,1.1693E4,2.6813E4,4.456E3,1.8855E4,3.8412E4,1.4129E4,4.46E3,1.387E4,5.279E3,3.908E3,1.0478E4,1.215E3,1.5686E4,1.1127E4,2.727E3,1.729E3,1.0171E4,8.684E3,4.612E3,3.38E4,1.606E3,1.2523E4,1.43E3,3.03E3,8.634E3,5.236E3,3.02E3,2.259E3,2.345E3,1.563E3,3.565E3,6.913E3,6.46E2,5.69E2,1.3806E4,1.88E3,3.81E3,7.317E3,1.1E3,1.627E3,4.45E2,1.284E3,3.253E3,6.918E3,1.542E3,7.142E3,2.419E3,2.193E3,1.2728E4,2.1072E4,1.208E3,3.98E2,1.307E3,1.1216E4,4.33E2,9.97E2,1.709E3,1.321E3,5.61E2,8.073E3,4.48E3,7.56E2,2.419E3,6.01E2,2.23E3,2.9E1,6.2E2,1.725E3,1.475E3,8.8E1,1.203E3,2.362E3,2.761E3,4.152E3,1.02E2,5.44E2,4.68E2,1.01E2,3.999E3,9.807E3,1.053E3,8.27E2,1.661E3,2.149E3,3.465E3,3.852E3,4.02E2,6.98E2,5.1E2,1.117E3,3.22E2,1.23E2,7.71E2,5.13E2,2.398E3,8.55E2,4.795E3,2.123E3,1.341E3,2.01E2,1.997E3,5.145E3,2.168E3,2.51E2,1.5E1,2.178E3,7.563E3,5.165E3,6.036E3,1.5036E4,4.1E2,7.98E2,3.78E2,2E1,1.192E3,1.15E2,1.017E4,1.046E3],"tree_param":{"num_deleted":"0","num_feature":"13","num_nodes":"127","size_leaf_vector":"1"}},{"base_weights":[3.3233475E-2,-1.1326173E1,3.1312819E0,-3.620859E1,-1.0058678E0,-1.1012169E-1,7.3002343E0,-6.1001373E1,-2.4532072E1,-1.0596029E1,7.1420627E0,-8.780328E0,2.3441942E0,2.3219597E1,6.6182446E0,-2.9699966E1,-7.425461E1,-2.9379192E1,-7.131856E0,-1.716615E1,-2.2289996E0,1.0557E1,-1.8935572E1,-1.7624239E1,-2.5547402E0,1.8372698E-1,9.679417E0,4.4661145E0,3.0268293E1,9.234446E0,3.9864295E0,-1.3960344E1,-4.1556717E1,-2.2877846E0,-7.778409E1,-3.1720821E1,4.1829224E0,1.7456903E1,-8.578413E0,-8.460859E0,-2.0381767E1,7.502515E0,-5.1339006E0,1.5468928E1,4.4452424E0,-2.1279493E1,-3.8714297E0,-2.2549479E1,-4.840224E0,-5.8096595E0,6.985101E0,2.4545407E0,-4.256041E0,3.1983995E1,7.238846E0,6.2293234E0,-1.1197357E1,1.2064735E1,3.3732788E1,6.1710906E0,1.5420124E1,-2.7175467E0,6.0585E0,-1.055184E0,-3.9269617E-1,-3.0295894E0,-1.3051938E0,-1.1211509E0,3.674415E-1,-3.451535E0,-4.6961226E0,-1.1634421E0,-2.1427243E0,-9.030328E-1,4.9533686E-1,-1.2973867E-1,1.72841E0,-6.905375E-1,-1.0497345E-1,5.3989637E-1,-4.699203E-1,-1.5411452E0,-8.819938E-1,-1.1212677E0,4.7672215E-1,-5.489255E-1,1.3084446E-2,4.7899094E-1,1.1789638E0,1.0546978E-1,5.2066606E-1,-8.3869344E-1,-1.2878114E0,3.942641E-1,-4.4927636E-1,-3.1108344E-1,-1.3321545E0,-4.207016E-1,8.124142E-2,-5.45535E-1,-1.47182E-1,-7.732299E-3,5.499523E-1,7.397931E-1,9.1091864E-2,-7.3418105E-1,6.790284E-2,1.9360605E0,7.792659E-1,6.451902E-1,1.9485445E-1,4.1340023E-1,-7.10355E-2,-7.635034E-1,-2.7477366E-3,8.942749E-1,3.354585E-1,1.8735001E0,7.992221E-1,1.2902519E-1,5.696494E-1,3.913385E-1,8.7644595E-1,6.1824495E-1,-2.1774189E-1,1.8741865E-1,4.1092783E-1],"categories":[],"categories_nodes":[],"categories_segments":[],"categories_sizes":[],"default_left":[0,0,0,0,0,0,0,0,0,0,0,0,0,0,0,0,0,0,0,0,0,0,0,0,0,0,0,0,0,0,0,0,0,0,0,0,0,0,0,0,0,0,0,0,0,0,0,0,0,0,0,0,0,0,0,0,0,0,0,0,0,0,0,0,0,0,0,0,0,0,0,0,0,0,0,0,0,0,0,0,0,0,0,0,0,0,0,0,0,0,0,0,0,0,0,0,0,0,0,0,0,0,0,0,0,0,0,0,0,0,0,0,0,0,0,0,0,0,0,0,0,0,0,0,0,0,0],"id":4,"left_children":[1,3,5,7,9,11,13,15,17,19,21,23,25,27,29,31,33,35,37,39,41,43,45,47,49,51,53,55,57,59,61,63,65,67,69,71,73,75,77,79,81,83,85,87,89,91,93,95,97,99,101,103,105,107,109,111,113,115,117,119,121,123,125,-1,-1,-1,-1,-1,-1,-1,-1,-1,-1,-1,-1,-1,-1,-1,-1,-1,-1,-1,-1,-1,-1,-1,-1,-1,-1,-1,-1,-1,-1,-1,-1,-1,-1,-1,-1,-1,-1,-1,-1,-1,-1,-1,-1,-1,-1,-1,-1,-1,-1,-1,-1,-1,-1,-1,-1,-1,-1,-1,-1,-1,-1,-1,-1],"loss_changes":[5.0086295E6,7.8316685E6,1.5111216E6,2.586855E6,1.6846175E6,1.3387526E6,5.308945E5,1.185071E6,5.1257925E5,5.443514E5,1.03820656E6,7.641656E5,7.7704806E5,2.6542625E5,3.2292638E5,1.5860181E5,5.10365E5,3.738315E5,4.731342E4,1.5510112E5,1.23206695E5,3.0935062E5,4.758247E4,3.6092538E5,2.5301634E5,3.8189194E5,6.070515E5,1.5259142E4,9.1665E4,4.456195E5,3.248604E5,1.5883594E4,1.4136456E5,1.8599658E4,2.64165E5,4.17277E5,3.9774047E4,2.5483041E4,4.2446156E4,2.7149242E4,1.15396875E5,6.1145434E4,1.0583577E5,2.7268712E5,6.4019516E4,2.3122875E4,1.1073832E4,2.764805E5,3.68897E4,8.878106E4,5.941197E4,1.9565761E5,7.5040556E5,1.20920625E5,1.9033619E5,7.7324375E3,2.538895E3,7.2033125E3,8.07155E4,2.9495788E5,1.2460025E5,1.3641528E5,8.91095E4,0E0,0E0,0E0,0E0,0E0,0E0,0E0,0E0,0E0,0E0,0E0,0E0,0E0,0E0,0E0,0E0,0E0,0E0,0E0,0E0,0E0,0E0,0E0,0E0,0E0,0E0,0E0,0E0,0E0,0E0,0E0,0E0,0E0,0E0,0E0,0E0,0E0,0E0,0E0,0E0,0E0,0E0,0E0,0E0,0E0,0E0,0E0,0E0,0E0,0E0,0E0,0E0,0E0,0E0,0E0,0E0,0E0,0E0,0E0,0E0,0E0,0E0,0E0,0E0],"parents":[2147483647,0,0,1,1,2,2,3,3,4,4,5,5,6,6,7,7,8,8,9,9,10,10,11,11,12,12,13,13,14,14,15,15,16,16,17,17,18,18,19,19,20,20,21,21,22,22,23,23,24,24,25,25,26,26,27,27,28,28,29,29,30,30,31,31,32,32,33,33,34,34,35,35,36,36,37,37,38,38,39,39,40,40,41,41,42,42,43,43,44,44,45,45,46,46,47,47,48,48,49,49,50,50,51,51,52,52,53,53,54,54,55,55,56,56,57,57,58,58,59,59,60,60,61,61,62,62],"right_children":[2,4,6,8,10,12,14,16,18,20,22,24,26,28,30,32,34,36,38,40,42,44,46,48,50,52,54,56,58,60,62,64,66,68,70,72,74,76,78,80,82,84,86,88,90,92,94,96,98,100,102,104,106,108,110,112,114,116,118,120,122,124,126,-1,-1,-1,-1,-1,-1,-1,-1,-1,-1,-1,-1,-1,-1,-1,-1,-1,-1,-1,-1,-1,-1,-1,-1,-1,-1,-1,-1,-1,-1,-1,-1,-1,-1,-1,-1,-1,-1,-1,-1,-1,-1,-1,-1,-1,-1,-1,-1,-1,-1,-1,-1,-1,-1,-1,-1,-1,-1,-1,-1,-1,-1,-1,-1],"split_conditions":[1.3824314E0,-4.9377555E-1,1.7358721E0,-1.2385292E0,4.862727E-1,-8.5876393E-1,3.3079216E1,4.327476E-1,2.7344551E1,1.2647827E0,5.2707773E-1,1.5618439E0,8.717063E-1,-8.606997E-3,2.001492E1,8.764348E0,-5.3498995E-1,-1.2910296E-2,1.2046539E0,9.450823E0,-8.606997E-3,1.8897314E1,2.2736067E1,2.7469625E1,7.60377E-1,5.234156E-1,-9.361687E-1,2.815166E-1,-1.3933128E-1,2.8343821E-2,-5.160624E-1,-8.56551E-1,-1.2226026E-1,-1.782032E0,2.2374365E-2,6.3858974E-1,-9.337847E-1,-2.5738614E-2,3.4204865E-1,-8.606997E-3,-1.4660492E0,-8.504835E-1,1.9574293E1,4.5155618E-1,6.877694E-1,3.35531E0,-1.2226026E-1,-5.6187254E-1,8.1714535E-1,-1.8418598E-1,8.623714E-2,3.35531E0,1.2803581E1,1.2596763E1,1.9680592E1,1.3689512E1,3.5128117E-1,-3.7112322E-1,1.2596763E1,1.2403462E1,1.8643459E0,-1.2910296E-2,2.054596E-2,-1.055184E0,-3.9269617E-1,-3.0295894E0,-1.3051938E0,-1.1211509E0,3.674415E-1,-3.451535E0,-4.6961226E0,-1.1634421E0,-2.1427243E0,-9.030328E-1,4.9533686E-1,-1.2973867E-1,1.72841E0,-6.905375E-1,-1.0497345E-1,5.3989637E-1,-4.699203E-1,-1.5411452E0,-8.819938E-1,-1.1212677E0,4.7672215E-1,-5.489255E-1,1.3084446E-2,4.7899094E-1,1.1789638E0,1.0546978E-1,5.2066606E-1,-8.3869344E-1,-1.2878114E0,3.942641E-1,-4.4927636E-1,-3.1108344E-1,-1.3321545E0,-4.207016E-1,8.124142E-2,-5.45535E-1,-1.47182E-1,-7.732299E-3,5.499523E-1,7.397931E-1,9.1091864E-2,-7.3418105E-1,6.790284E-2,1.9360605E0,7.792659E-1,6.451902E-1,1.9485445E-1,4.1340023E-1,-7.10355E-2,-7.635034E-1,-2.7477366E-3,8.942749E-1,3.354585E-1,1.8735001E0,7.992221E-1,1.2902519E-1,5.696494E-1,3.913385E-1,8.7644595E-1,6.1824495E-1,-2.1774189E-1,1.8741865E-1,4.1092783E-1],"split_indices":[4,12,4,3,12,12,2,10,0,4,11,4,12,12,0,0,9,11,4,0,12,0,0,0,10,12,3,9,10,9,12,11,10,3,9,10,9,10,3,12,3,9,0,10,10,0,10,9,10,1,9,0,0,0,0,0,1,9,0,0,4,11,1,0,0,0,0,0,0,0,0,0,0,0,0,0,0,0,0,0,0,0,0,0,0,0,0,0,0,0,0,0,0,0,0,0,0,0,0,0,0,0,0,0,0,0,0,0,0,0,0,0,0,0,0,0,0,0,0,0,0,0,0,0,0,0,0],"split_type":[0,0,0,0,0,0,0,0,0,0,0,0,0,0,0,0,0,0,0,0,0,0,0,0,0,0,0,0,0,0,0,0,0,0,0,0,0,0,0,0,0,0,0,0,0,0,0,0,0,0,0,0,0,0,0,0,0,0,0,0,0,0,0,0,0,0,0,0,0,0,0,0,0,0,0,0,0,0,0,0,0,0,0,0,0,0,0,0,0,0,0,0,0,0,0,0,0,0,0,0,0,0,0,0,0,0,0,0,0,0,0,0,0,0,0,0,0,0,0,0,0,0,0,0,0,0,0],"sum_hessian":[1.42321E5,3.0497E4,1.11824E5,8.94E3,2.1557E4,6.2911E4,4.8913E4,2.861E3,6.079E3,9.902E3,1.1655E4,1.3879E4,4.9032E4,2.008E3,4.6905E4,8.52E2,2.009E3,4.754E3,1.325E3,5.546E3,4.356E3,1.0306E4,1.349E3,5.733E3,8.146E3,3.7877E4,1.1155E4,5.49E2,1.459E3,2.3521E4,2.3384E4,3.67E2,4.85E2,9.4E1,1.915E3,4.444E3,3.1E2,7.3E1,1.252E3,1.497E3,4.049E3,1.001E3,3.355E3,5.713E3,4.593E3,1.167E3,1.82E2,4.138E3,1.595E3,6.074E3,2.072E3,2.506E4,1.2817E4,1.099E3,1.0056E4,4.94E2,5.5E1,2.34E2,1.225E3,1.5732E4,7.789E3,5.521E3,1.7863E4,1.68E2,1.99E2,2.16E2,2.69E2,3E1,6.4E1,1.245E3,6.7E2,2.528E3,1.916E3,6.3E1,2.47E2,3.4E1,3.9E1,6.92E2,5.6E2,6.9E1,1.428E3,8.4E2,3.209E3,6.3E1,9.38E2,1.61E3,1.745E3,3.311E3,2.402E3,3.302E3,1.291E3,5.84E2,5.83E2,5.5E1,1.27E2,8.3E2,3.308E3,1.027E3,5.68E2,2.184E3,3.89E3,7.46E2,1.326E3,1.221E3,2.3839E4,4.485E3,8.332E3,7.78E2,3.21E2,3.73E3,6.326E3,3.9E2,1.04E2,4E1,1.5E1,1.11E2,1.23E2,1.011E3,2.14E2,9.323E3,6.409E3,1.694E3,6.095E3,5.4E2,4.981E3,8.633E3,9.23E3],"tree_param":{"num_deleted":"0","num_feature":"13","num_nodes":"127","size_leaf_vector":"1"}},{"base_weights":[-3.744659E-2,-7.3036056E0,7.559462E0,-1.4105936E1,-2.3122284E0,-4.303883E0,1.0587956E1,-3.707566E1,-1.1378469E1,-6.732376E0,1.7301834E0,-2.5641357E1,-7.7190894E-1,1.5296654E1,7.1412854E0,-8.237425E0,-5.528284E1,-5.6416698E0,-1.423733E1,-8.516899E0,-2.9748776E0,5.522291E0,-1.0085567E0,-4.959814E0,-3.396247E1,-4.132984E0,1.0576663E1,1.916357E1,1.0835737E1,1.6095815E0,9.550304E0,-1.394411E1,3.7260468E0,-2.3782804E1,-6.721466E1,7.0191875E0,-7.984096E0,-1.8111105E1,-8.11183E0,1.8546766E1,-8.812612E0,-8.879943E-1,-8.078346E0,8.945215E0,-2.3435297E0,-7.214235E0,3.7488228E-1,-1.4224865E1,2.5778282E0,-1.930901E1,-5.4937737E1,9.678502E0,-6.3212557E0,2.0950949E1,7.5392017E0,1.356007E1,2.438644E1,7.3650646E0,1.6296926E1,-6.887635E-1,8.724301E0,7.907304E0,1.6572323E1,6.084397E-1,-9.777245E-1,-9.2724985E-1,8.3481616E-1,-5.1390374E-1,-1.7441568E0,-1.5460508E0,-3.7247899E0,1.3905905E-1,1.1713103E0,-6.579207E-1,-1.9833158E-1,-1.2218988E0,-7.11101E-1,-9.7961473E-1,-2.6774627E-1,1.9320793E0,1.36945145E-2,-4.885021E-1,-1.6578864E-1,-2.0497015E-1,2.0732982E-1,-4.7660404E-1,-2.3157997E-1,1.8895221E-1,7.940612E-1,-3.480427E-1,5.476044E-1,-7.1484655E-1,-1.591969E-1,-7.1414374E-2,1.3533252E-1,-4.3675652E-1,-2.5147066E0,-1.512701E-1,6.272325E-1,-1.2677308E0,-5.180309E-1,-3.0612442E0,-7.1239024E-1,9.379835E-1,2.2719264E-1,-1.3054308E0,-2.3434587E-1,1.3927269E0,7.1625096E-1,1.7853293E-1,9.5488834E-1,1.0145639E0,4.9152246E-1,1.4171718E0,8.3552325E-1,2.6951244E-1,5.2041453E-1,6.8227166E-1,9.3632185E-1,-1.4146636E-1,3.8806134E-1,9.510789E-1,1.8848291E-1,1.6433576E-1,5.5912626E-1,6.8864053E-1,1.1522255E0],"categories":[],"categories_nodes":[],"categories_segments":[],"categories_sizes":[],"default_left":[0,0,0,0,0,0,0,0,0,0,0,0,0,0,0,0,0,0,0,0,0,0,0,0,0,0,0,0,0,0,0,0,0,0,0,0,0,0,0,0,0,0,0,0,0,0,0,0,0,0,0,0,0,0,0,0,0,0,0,0,0,0,0,0,0,0,0,0,0,0,0,0,0,0,0,0,0,0,0,0,0,0,0,0,0,0,0,0,0,0,0,0,0,0,0,0,0,0,0,0,0,0,0,0,0,0,0,0,0,0,0,0,0,0,0,0,0,0,0,0,0,0,0,0,0,0,0],"id":5,"left_children":[1,3,5,7,9,11,13,15,17,19,21,23,25,27,29,31,33,35,37,39,41,43,45,47,49,51,53,55,57,59,61,63,65,67,69,71,73,75,77,79,81,83,85,87,89,91,93,95,97,99,101,103,105,107,109,111,113,115,117,119,121,123,125,-1,-1,-1,-1,-1,-1,-1,-1,-1,-1,-1,-1,-1,-1,-1,-1,-1,-1,-1,-1,-1,-1,-1,-1,-1,-1,-1,-1,-1,-1,-1,-1,-1,-1,-1,-1,-1,-1,-1,-1,-1,-1,-1,-1,-1,-1,-1,-1,-1,-1,-1,-1,-1,-1,-1,-1,-1,-1,-1,-1,-1,-1,-1,-1],"loss_changes":[7.8460115E6,2.466651E6,2.49658E6,1.9258475E6,7.4875525E5,1.0650132E6,8.982795E5,1.7128185E6,4.5069125E5,1.3419438E5,2.2732598E5,3.4521912E5,4.6257E5,4.03336E5,4.2592175E5,8.63485E4,7.50098E5,2.7121122E5,4.35108E5,1.08772125E5,6.86547E4,2.4715797E5,1.0912099E5,4.0333582E4,4.3876425E5,2.8282988E5,8.71575E4,3.66373E5,2.0581288E5,1.5858931E5,2.567535E5,1.25645516E5,1.18453836E5,8.223569E4,3.80861E5,9.922542E4,1.6034353E5,2.761185E5,2.2486466E5,5.3962477E4,7.061994E4,7.401852E4,9.329367E3,2.2912338E5,1.709861E5,6.609237E4,4.3706336E4,5.083954E4,1.7853904E4,4.5392844E4,1.495445E5,5.9597055E4,2.6107866E5,2.8277469E4,9.832212E4,1.5160662E5,1.964655E5,3.987753E4,2.6932125E4,1.3262269E5,1.207398E5,2.7306012E5,7.6159125E4,0E0,0E0,0E0,0E0,0E0,0E0,0E0,0E0,0E0,0E0,0E0,0E0,0E0,0E0,0E0,0E0,0E0,0E0,0E0,0E0,0E0,0E0,0E0,0E0,0E0,0E0,0E0,0E0,0E0,0E0,0E0,0E0,0E0,0E0,0E0,0E0,0E0,0E0,0E0,0E0,0E0,0E0,0E0,0E0,0E0,0E0,0E0,0E0,0E0,0E0,0E0,0E0,0E0,0E0,0E0,0E0,0E0,0E0,0E0,0E0,0E0,0E0,0E0,0E0],"parents":[2147483647,0,0,1,1,2,2,3,3,4,4,5,5,6,6,7,7,8,8,9,9,10,10,11,11,12,12,13,13,14,14,15,15,16,16,17,17,18,18,19,19,20,20,21,21,22,22,23,23,24,24,25,25,26,26,27,27,28,28,29,29,30,30,31,31,32,32,33,33,34,34,35,35,36,36,37,37,38,38,39,39,40,40,41,41,42,42,43,43,44,44,45,45,46,46,47,47,48,48,49,49,50,50,51,51,52,52,53,53,54,54,55,55,56,56,57,57,58,58,59,59,60,60,61,61,62,62],"right_children":[2,4,6,8,10,12,14,16,18,20,22,24,26,28,30,32,34,36,38,40,42,44,46,48,50,52,54,56,58,60,62,64,66,68,70,72,74,76,78,80,82,84,86,88,90,92,94,96,98,100,102,104,106,108,110,112,114,116,118,120,122,124,126,-1,-1,-1,-1,-1,-1,-1,-1,-1,-1,-1,-1,-1,-1,-1,-1,-1,-1,-1,-1,-1,-1,-1,-1,-1,-1,-1,-1,-1,-1,-1,-1,-1,-1,-1,-1,-1,-1,-1,-1,-1,-1,-1,-1,-1,-1,-1,-1,-1,-1,-1,-1,-1,-1,-1,-1,-1,-1,-1,-1,-1,-1,-1,-1],"split_conditions":[3.967617E2,1.5647539E0,1.367265E0,-1.4112167E0,3.8615152E2,1.187715E0,-7.0019507E0,1.1199317E1,-6.578168E0,1.9029764E0,1.9574293E1,4.2122704E-1,4.1527115E2,2.1359482E1,4.0388007E2,-6.2744484E0,-5.0520176E-1,2.0428434E1,-6.2521386E0,-9.633002E-1,2.0753395E1,-6.7646413E0,4.9726868E-1,-1.4660492E0,-8.653073E-1,-6.6905622E0,-6.5456605E0,-3.5355338E-1,4.1155618E2,6.3011646E-2,-6.2744484E0,-6.617308E0,-8.7380713E-1,1.6052046E1,-8.653073E-1,5.955829E-1,3.8430664E2,3.8401797E2,-8.7380713E-1,2.4760422E1,-6.3399005E0,-2.3496422E-1,3.83342E2,-2.4480926E-1,9.0734005E-2,2.5183746E1,3.9227377E2,1.8537067E1,-6.1512003E0,1.7560799E1,4.146289E2,2.0856863E1,-1.8487434E0,2.2539667E1,4.2145215E2,-5.227404E-1,1.8198334E1,4.0546274E2,4.1692252E2,8.695894E-1,1.8068384E1,3.0815506E-1,6.3858974E-1,6.084397E-1,-9.777245E-1,-9.2724985E-1,8.3481616E-1,-5.1390374E-1,-1.7441568E0,-1.5460508E0,-3.7247899E0,1.3905905E-1,1.1713103E0,-6.579207E-1,-1.9833158E-1,-1.2218988E0,-7.11101E-1,-9.7961473E-1,-2.6774627E-1,1.9320793E0,1.36945145E-2,-4.885021E-1,-1.6578864E-1,-2.0497015E-1,2.0732982E-1,-4.7660404E-1,-2.3157997E-1,1.8895221E-1,7.940612E-1,-3.480427E-1,5.476044E-1,-7.1484655E-1,-1.591969E-1,-7.1414374E-2,1.3533252E-1,-4.3675652E-1,-2.5147066E0,-1.512701E-1,6.272325E-1,-1.2677308E0,-5.180309E-1,-3.0612442E0,-7.1239024E-1,9.379835E-1,2.2719264E-1,-1.3054308E0,-2.3434587E-1,1.3927269E0,7.1625096E-1,1.7853293E-1,9.5488834E-1,1.0145639E0,4.9152246E-1,1.4171718E0,8.3552325E-1,2.6951244E-1,5.2041453E-1,6.8227166E-1,9.3632185E-1,-1.4146636E-1,3.8806134E-1,9.510789E-1,1.8848291E-1,1.6433576E-1,5.5912626E-1,6.8864053E-1,1.1522255E0],"split_indices":[7,4,4,3,7,4,5,0,5,4,0,10,7,0,7,5,9,0,5,9,0,5,3,3,11,5,5,10,7,6,5,5,11,0,11,10,7,7,11,0,5,10,7,10,6,0,7,0,5,0,7,0,3,0,7,10,0,7,7,11,0,3,10,0,0,0,0,0,0,0,0,0,0,0,0,0,0,0,0,0,0,0,0,0,0,0,0,0,0,0,0,0,0,0,0,0,0,0,0,0,0,0,0,0,0,0,0,0,0,0,0,0,0,0,0,0,0,0,0,0,0,0,0,0,0,0,0],"split_type":[0,0,0,0,0,0,0,0,0,0,0,0,0,0,0,0,0,0,0,0,0,0,0,0,0,0,0,0,0,0,0,0,0,0,0,0,0,0,0,0,0,0,0,0,0,0,0,0,0,0,0,0,0,0,0,0,0,0,0,0,0,0,0,0,0,0,0,0,0,0,0,0,0,0,0,0,0,0,0,0,0,0,0,0,0,0,0,0,0,0,0,0,0,0,0,0,0,0,0,0,0,0,0,0,0,0,0,0,0,0,0,0,0,0,0,0,0,0,0,0,0,0,0,0,0,0,0],"sum_hessian":[1.42135E5,7.2649E4,6.9486E4,3.0746E4,4.1903E4,1.4131E4,5.5355E4,3.262E3,2.7484E4,2.0016E4,2.1887E4,2.006E3,1.2125E4,2.3393E4,3.1962E4,1.263E3,1.999E3,9.142E3,1.8342E4,1.357E4,6.446E3,9.178E3,1.2709E4,5.76E2,1.43E3,9.355E3,2.77E3,1.2529E4,1.0864E4,9.697E3,2.2265E4,8.55E2,4.08E2,5.5E2,1.449E3,1.427E3,7.715E3,1.1235E4,7.107E3,1.46E2,1.3424E4,4.576E3,1.87E3,6.395E3,2.783E3,2.316E3,1.0393E4,2.58E2,3.18E2,8.43E2,5.87E2,1.279E3,8.076E3,6.26E2,2.144E3,6.046E3,6.483E3,6.644E3,4.22E3,7.33E3,2.367E3,1.8045E4,4.22E3,1.51E2,7.04E2,1.5E2,2.58E2,2.49E2,3.01E2,2.43E2,1.206E3,1.135E3,2.92E2,3.371E3,4.344E3,4.275E3,6.96E3,1.375E3,5.732E3,6.9E1,7.7E1,1.1432E4,1.992E3,2.794E3,1.782E3,1.314E3,5.56E2,3.666E3,2.729E3,2.066E3,7.17E2,8.39E2,1.477E3,5.861E3,4.532E3,2.25E2,3.3E1,2.04E2,1.14E2,5.02E2,3.41E2,5.08E2,7.9E1,4.61E2,8.18E2,6.15E2,7.461E3,3.05E2,3.21E2,1.597E3,5.47E2,2.154E3,3.892E3,4.276E3,2.207E3,4.031E3,2.613E3,2.021E3,2.199E3,5.849E3,1.481E3,7.68E2,1.599E3,7.486E3,1.0559E4,2.948E3,1.272E3],"tree_param":{"num_deleted":"0","num_feature":"13","num_nodes":"127","size_leaf_vector":"1"}},{"base_weights":[-5.6110132E-2,-6.3415694E0,4.611951E0,-2.0168337E1,1.736376E-1,2.470019E0,7.6195245E0,-2.6020787E0,-4.0155228E1,-3.8851228E0,1.3174017E1,-3.2130835E0,3.5047653E0,9.3794365E0,-4.4352856E-2,1.705316E1,-7.639984E0,-2.3739002E1,-5.7978035E1,-1.3841773E0,-1.3329146E1,4.8097067E0,2.4623413E1,1.8209797E1,-9.362359E0,-3.2688165E0,5.4903235E0,1.5578312E1,4.958066E0,-5.6841707E0,3.8647604E0,2.6900532E1,1.346873E1,-3.8154554E0,-1.5194815E1,-2.9453327E1,-1.5150358E1,-3.6419212E1,-6.682195E1,-1.0478228E1,2.8637705E0,-2.1406265E1,1.6915438E0,-1.1543263E1,8.937617E0,1.5766373E1,3.5116074E1,3.1433886E1,1.3833444E1,-4.0551305E0,-1.7073528E1,1.7908175E1,-1.0017473E1,-2.149375E-2,9.511111E0,1.2092697E1,2.0329762E1,8.548731E-3,7.369477E0,1.5361135E0,-7.4355364E0,1.1595379E0,9.592019E0,1.401139E0,4.876612E-1,1.4051017E0,6.0752106E-1,-2.6262689E0,-1.6912375E-1,-2.4382375E-1,-1.2453694E0,-4.089574E-1,-1.6252546E0,-9.531024E-1,-2.4754584E-1,-1.8130164E-1,-2.1672115E0,-2.9148135E0,-3.951908E0,-5.924515E-2,-9.2059183E-1,3.6101973E-1,-2.9568425E-1,-7.20082E-1,-1.1946098E0,-1.3048314E-1,4.7805014E-1,-3.3307521E0,-3.747552E-1,6.1536175E-1,2.5371704E-1,4.0005746E-1,8.888081E-1,8.4291613E-1,1.883581E0,7.997734E-1,1.6828104E0,1.9372402E0,6.482088E-1,-4.842485E-1,-1.2344136E-1,-6.599532E-1,-1.8362731E0,1.2263428E0,5.532951E-1,-5.8412683E-1,-1.7214213E-2,2.1700108E-1,-2.4825619E-1,9.747316E-1,2.8123832E-1,9.7700137E-1,5.2005E-1,8.172774E-1,1.4194859E0,5.194196E-1,-1.2610719E-1,2.7615675E-1,6.0581577E-1,5.783725E-1,1.5728457E-2,-1.2464966E-1,-4.634307E-1,1.2047937E-1,-9.9737756E-2,3.2612696E-1,7.822998E-1],"categories":[],"categories_nodes":[],"categories_segments":[],"categories_sizes":[],"default_left":[0,0,0,0,0,0,0,0,0,0,0,0,0,0,0,0,0,0,0,0,0,0,0,0,0,0,0,0,0,0,0,0,0,0,0,0,0,0,0,0,0,0,0,0,0,0,0,0,0,0,0,0,0,0,0,0,0,0,0,0,0,0,0,0,0,0,0,0,0,0,0,0,0,0,0,0,0,0,0,0,0,0,0,0,0,0,0,0,0,0,0,0,0,0,0,0,0,0,0,0,0,0,0,0,0,0,0,0,0,0,0,0,0,0,0,0,0,0,0,0,0,0,0,0,0,0,0],"id":6,"left_children":[1,3,5,7,9,11,13,15,17,19,21,23,25,27,29,31,33,35,37,39,41,43,45,47,49,51,53,55,57,59,61,63,65,67,69,71,73,75,77,79,81,83,85,87,89,91,93,95,97,99,101,103,105,107,109,111,113,115,117,119,121,123,125,-1,-1,-1,-1,-1,-1,-1,-1,-1,-1,-1,-1,-1,-1,-1,-1,-1,-1,-1,-1,-1,-1,-1,-1,-1,-1,-1,-1,-1,-1,-1,-1,-1,-1,-1,-1,-1,-1,-1,-1,-1,-1,-1,-1,-1,-1,-1,-1,-1,-1,-1,-1,-1,-1,-1,-1,-1,-1,-1,-1,-1,-1,-1,-1],"loss_changes":[4.1680518E6,5.4537065E6,5.2510775E5,6.8076205E6,2.171402E6,2.7999103E5,4.5731688E5,1.02212744E6,2.652345E6,7.4069525E5,9.375265E5,9.663155E5,5.4173075E5,7.5565575E5,1.3964383E5,7.3969625E4,2.373305E5,2.3134625E5,8.26565E5,9.579263E5,7.96651E5,3.8210578E5,3.835375E5,9.424131E4,2.331599E5,1.3051468E6,6.902984E5,1.8986275E5,1.9211012E5,3.280143E4,5.7949016E4,1.0518531E4,2.9478719E4,1.1488622E5,2.765765E5,1.8378925E5,7.526878E4,2.8756525E5,3.16375E5,5.820715E5,6.4637656E5,7.4005625E4,7.777489E4,2.5386716E5,5.8763094E4,3.4860438E4,8.75905E4,1.33861875E4,2.6149438E4,3.0133621E4,1.7638519E5,9.967306E4,1.11532E5,2.8332106E5,6.9866525E5,8.324719E4,1.5547025E5,1.3856539E5,9.478719E4,6.2078105E3,1.888407E4,1.002801E4,2.2194805E4,0E0,0E0,0E0,0E0,0E0,0E0,0E0,0E0,0E0,0E0,0E0,0E0,0E0,0E0,0E0,0E0,0E0,0E0,0E0,0E0,0E0,0E0,0E0,0E0,0E0,0E0,0E0,0E0,0E0,0E0,0E0,0E0,0E0,0E0,0E0,0E0,0E0,0E0,0E0,0E0,0E0,0E0,0E0,0E0,0E0,0E0,0E0,0E0,0E0,0E0,0E0,0E0,0E0,0E0,0E0,0E0,0E0,0E0,0E0,0E0,0E0,0E0,0E0,0E0],"parents":[2147483647,0,0,1,1,2,2,3,3,4,4,5,5,6,6,7,7,8,8,9,9,10,10,11,11,12,12,13,13,14,14,15,15,16,16,17,17,18,18,19,19,20,20,21,21,22,22,23,23,24,24,25,25,26,26,27,27,28,28,29,29,30,30,31,31,32,32,33,33,34,34,35,35,36,36,37,37,38,38,39,39,40,40,41,41,42,42,43,43,44,44,45,45,46,46,47,47,48,48,49,49,50,50,51,51,52,52,53,53,54,54,55,55,56,56,57,57,58,58,59,59,60,60,61,61,62,62],"right_children":[2,4,6,8,10,12,14,16,18,20,22,24,26,28,30,32,34,36,38,40,42,44,46,48,50,52,54,56,58,60,62,64,66,68,70,72,74,76,78,80,82,84,86,88,90,92,94,96,98,100,102,104,106,108,110,112,114,116,118,120,122,124,126,-1,-1,-1,-1,-1,-1,-1,-1,-1,-1,-1,-1,-1,-1,-1,-1,-1,-1,-1,-1,-1,-1,-1,-1,-1,-1,-1,-1,-1,-1,-1,-1,-1,-1,-1,-1,-1,-1,-1,-1,-1,-1,-1,-1,-1,-1,-1,-1,-1,-1,-1,-1,-1,-1,-1,-1,-1,-1,-1,-1,-1,-1,-1,-1],"split_conditions":[1.5647539E0,-4.9377555E-1,1.846997E0,5.9482276E-1,8.6314213E-1,-8.717063E-1,8.433914E-1,-4.3619387E-2,4.327476E-1,5.234156E-1,5.8070296E-1,-4.3619387E-2,-3.1730467E-1,1.8315569E1,-1.8260075E-1,1.7192554E1,5.075384E-1,8.5264015E-1,6.4944804E-1,-8.7380713E-1,-5.51937E-1,-8.726535E-3,4.091902E-1,-5.51937E-1,5.51937E-1,1.7213356E-2,8.606997E-3,4.433296E-1,8.606997E-3,2.0528855E0,8.6314213E-1,-5.51937E-1,-9.2865884E-1,-1.7163544E0,-1.5136549E-1,-6.9899285E-1,-5.049611E-1,-4.4808638E-1,1.0438033E-2,6.087614E-1,9.998518E-1,2.7754335E0,8.726535E-3,-9.2215633E-1,3.4923E1,6.4944804E-1,-5.287224E-1,-8.3388585E-1,-9.406373E-1,-3.2102013E-1,1.062634E-1,-5.160624E-1,2.3942774E1,4.1469324E-1,2.1359482E1,-8.5876393E-1,5.9482276E-1,2.5038E-1,4.9242356E-1,1.8691052E0,4.975133E-1,1.0033001E1,3.6188352E-3,1.401139E0,4.876612E-1,1.4051017E0,6.0752106E-1,-2.6262689E0,-1.6912375E-1,-2.4382375E-1,-1.2453694E0,-4.089574E-1,-1.6252546E0,-9.531024E-1,-2.4754584E-1,-1.8130164E-1,-2.1672115E0,-2.9148135E0,-3.951908E0,-5.924515E-2,-9.2059183E-1,3.6101973E-1,-2.9568425E-1,-7.20082E-1,-1.1946098E0,-1.3048314E-1,4.7805014E-1,-3.3307521E0,-3.747552E-1,6.1536175E-1,2.5371704E-1,4.0005746E-1,8.888081E-1,8.4291613E-1,1.883581E0,7.997734E-1,1.6828104E0,1.9372402E0,6.482088E-1,-4.842485E-1,-1.2344136E-1,-6.599532E-1,-1.8362731E0,1.2263428E0,5.532951E-1,-5.8412683E-1,-1.7214213E-2,2.1700108E-1,-2.4825619E-1,9.747316E-1,2.8123832E-1,9.7700137E-1,5.2005E-1,8.172774E-1,1.4194859E0,5.194196E-1,-1.2610719E-1,2.7615675E-1,6.0581577E-1,5.783725E-1,1.5728457E-2,-1.2464966E-1,-4.634307E-1,1.2047937E-1,-9.9737756E-2,3.2612696E-1,7.822998E-1],"split_indices":[4,12,4,8,12,12,8,8,10,12,8,8,8,0,9,0,8,8,8,11,8,8,10,8,8,12,12,10,12,4,12,8,9,3,9,10,11,9,9,8,11,0,8,9,2,8,9,8,9,1,9,12,0,8,0,12,8,8,8,4,11,0,9,0,0,0,0,0,0,0,0,0,0,0,0,0,0,0,0,0,0,0,0,0,0,0,0,0,0,0,0,0,0,0,0,0,0,0,0,0,0,0,0,0,0,0,0,0,0,0,0,0,0,0,0,0,0,0,0,0,0,0,0,0,0,0,0],"split_type":[0,0,0,0,0,0,0,0,0,0,0,0,0,0,0,0,0,0,0,0,0,0,0,0,0,0,0,0,0,0,0,0,0,0,0,0,0,0,0,0,0,0,0,0,0,0,0,0,0,0,0,0,0,0,0,0,0,0,0,0,0,0,0,0,0,0,0,0,0,0,0,0,0,0,0,0,0,0,0,0,0,0,0,0,0,0,0,0,0,0,0,0,0,0,0,0,0,0,0,0,0,0,0,0,0,0,0,0,0,0,0,0,0,0,0,0,0,0,0,0,0,0,0,0,0,0,0],"sum_hessian":[1.42054E5,6.0539E4,8.1515E4,1.9389E4,4.115E4,4.761E4,3.3905E4,1.032E4,9.069E3,3.136E4,9.79E3,7.333E3,4.0277E4,2.7573E4,6.332E3,2.105E3,8.215E3,4.722E3,4.347E3,2.4795E4,6.565E3,5.658E3,4.132E3,1.635E3,5.698E3,9.13E3,3.1147E4,1.1478E4,1.6095E4,2.592E3,3.74E3,5.6E2,1.545E3,5.455E3,2.76E3,2.834E3,1.888E3,1.266E3,3.081E3,7.894E3,1.6901E4,4.269E3,2.296E3,1.14E3,4.518E3,2.242E3,1.89E3,4.05E2,1.23E3,3.376E3,2.322E3,2.206E3,6.924E3,1.3138E4,1.8009E4,6.623E3,4.855E3,5.273E3,1.0822E4,5.06E2,2.086E3,2.541E3,1.199E3,5.25E2,3.5E1,1.26E2,1.419E3,4.7E1,5.408E3,1.339E3,1.421E3,3.56E2,2.478E3,1.364E3,5.24E2,2.21E2,1.045E3,1.818E3,1.263E3,3.636E3,4.258E3,1.1295E4,5.606E3,1.12E3,3.149E3,1.485E3,8.11E2,7.7E1,1.063E3,2.412E3,2.106E3,4.62E2,1.78E3,2.33E2,1.657E3,5.2E1,3.53E2,4E1,1.19E3,7.41E2,2.635E3,1.941E3,3.81E2,1.12E3,1.086E3,5.907E3,1.017E3,6.98E3,6.158E3,5.045E3,1.2964E4,1.224E3,5.399E3,3.251E3,1.604E3,1.033E3,4.24E3,7.793E3,3.029E3,5.4E1,4.52E2,5.65E2,1.521E3,1.82E3,7.21E2,7.97E2,4.02E2],"tree_param":{"num_deleted":"0","num_feature":"13","num_nodes":"127","size_leaf_vector":"1"}},{"base_weights":[-1.1411806E-2,-9.305437E0,5.394757E0,-3.8850574E1,-8.198981E0,1.0739898E1,2.4445736E-1,-5.28537E1,-1.8298346E1,-1.28183775E1,-4.6656485E0,6.377623E0,1.5429537E1,4.099237E0,-9.604793E0,-3.0511017E1,-6.313921E1,-7.368244E0,-2.5295412E1,-1.8181536E1,-8.725812E0,-6.4535985E0,-9.768772E-1,1.1761181E1,2.6006203E0,1.9836872E1,1.2415962E1,-2.903079E0,7.4314265E0,1.0631613E0,-2.0033342E1,2.078855E0,-3.2463184E1,-1.8960442E1,-6.812015E1,-1.4775042E1,1.0642165E1,-2.2574596E1,-4.563432E1,-2.056131E1,-1.3816229E0,-6.239959E0,-1.6686329E1,-3.5635397E0,-8.493284E0,2.4756176E0,-3.1396601E0,1.5860537E1,2.2669508E0,3.4041321E0,-5.8160553E0,2.3898943E1,1.3840697E1,1.3698979E1,4.352844E0,-8.088444E0,3.2026908E0,2.1944363E0,1.1522013E1,2.4669708E1,-3.427611E0,-3.4093258E1,-1.0453729E1,-7.3677635E-1,4.8968217E-1,-8.277826E-1,-1.8377384E0,-1.5261892E0,1.5939628E-1,-2.009154E0,-3.8017163E0,-5.391605E-1,-2.0935624E0,-5.77919E-1,1.032988E0,-1.0375497E0,-1.7283963E0,-2.523158E0,-5.774042E-1,-5.5087966E-1,-1.2641845E0,-4.0165338E-1,5.593597E-1,5.2375656E-1,-3.4927937E-1,-5.602008E-1,-1.542122E0,-4.643178E-2,-5.1823336E-1,-3.8139448E-1,-9.2824984E-1,-2.4865058E-1,2.8738186E-1,-1.2116323E-1,-1.1062897E0,8.855815E-1,5.1806504E-1,5.310333E-1,-1.0071791E-3,5.383098E-2,2.7600995E-1,-1.2489169E-1,-8.6466324E-1,1.2992786E0,7.4043775E-1,1.2148061E0,4.7794962E-1,5.3300726E-1,8.583624E-1,7.039055E-1,-1.240974E-1,-4.5449683E-1,1.187086E0,7.83234E-1,-1.8581589E-1,6.056415E-1,1.57562E-2,1.239547E0,5.1137716E-1,-9.2393845E-1,1.3603028E0,-3.0014214E-1,1.1068326E0,-6.1748964E-1,-2.199253E0,-1.6075464E-2,-1.1487635E0],"categories":[],"categories_nodes":[],"categories_segments":[],"categories_sizes":[],"default_left":[0,0,0,0,0,0,0,0,0,0,0,0,0,0,0,0,0,0,0,0,0,0,0,0,0,0,0,0,0,0,0,0,0,0,0,0,0,0,0,0,0,0,0,0,0,0,0,0,0,0,0,0,0,0,0,0,0,0,0,0,0,0,0,0,0,0,0,0,0,0,0,0,0,0,0,0,0,0,0,0,0,0,0,0,0,0,0,0,0,0,0,0,0,0,0,0,0,0,0,0,0,0,0,0,0,0,0,0,0,0,0,0,0,0,0,0,0,0,0,0,0,0,0,0,0,0,0],"id":7,"left_children":[1,3,5,7,9,11,13,15,17,19,21,23,25,27,29,31,33,35,37,39,41,43,45,47,49,51,53,55,57,59,61,63,65,67,69,71,73,75,77,79,81,83,85,87,89,91,93,95,97,99,101,103,105,107,109,111,113,115,117,119,121,123,125,-1,-1,-1,-1,-1,-1,-1,-1,-1,-1,-1,-1,-1,-1,-1,-1,-1,-1,-1,-1,-1,-1,-1,-1,-1,-1,-1,-1,-1,-1,-1,-1,-1,-1,-1,-1,-1,-1,-1,-1,-1,-1,-1,-1,-1,-1,-1,-1,-1,-1,-1,-1,-1,-1,-1,-1,-1,-1,-1,-1,-1,-1,-1,-1],"loss_changes":[7.131635E6,1.7060825E6,2.4704005E6,5.4123225E5,8.211895E5,9.007655E5,1.7352304E6,2.5544675E5,5.831653E4,4.7845975E5,1.8803269E5,4.6390206E5,2.816045E5,7.664658E5,1.4302699E6,2.2655938E4,1.6725925E5,4.0177484E4,2.4750656E4,3.7726075E5,2.446795E5,1.13166625E5,6.951812E4,3.6608475E5,9.071002E4,2.095245E5,1.30348875E5,3.353759E5,4.7677075E5,6.738966E5,8.7524925E5,2.8679275E3,2.2256125E4,2.0332664E4,1.49049E5,2.258205E4,1.9810553E4,8.309922E3,8.299289E3,3.7225875E5,9.806967E4,1.1757628E5,2.2805131E5,1.4240202E5,9.7971875E4,8.7426875E4,7.779942E4,6.66935E4,5.4223355E4,6.0287344E4,4.4474934E4,9.7011E4,1.5564325E5,1.1443125E5,1.1516247E5,1.8280966E5,4.1954216E5,1.8195625E5,2.1437712E5,1.1169419E5,3.5175003E5,5.6597725E5,4.9072734E5,0E0,0E0,0E0,0E0,0E0,0E0,0E0,0E0,0E0,0E0,0E0,0E0,0E0,0E0,0E0,0E0,0E0,0E0,0E0,0E0,0E0,0E0,0E0,0E0,0E0,0E0,0E0,0E0,0E0,0E0,0E0,0E0,0E0,0E0,0E0,0E0,0E0,0E0,0E0,0E0,0E0,0E0,0E0,0E0,0E0,0E0,0E0,0E0,0E0,0E0,0E0,0E0,0E0,0E0,0E0,0E0,0E0,0E0,0E0,0E0,0E0,0E0,0E0,0E0],"parents":[2147483647,0,0,1,1,2,2,3,3,4,4,5,5,6,6,7,7,8,8,9,9,10,10,11,11,12,12,13,13,14,14,15,15,16,16,17,17,18,18,19,19,20,20,21,21,22,22,23,23,24,24,25,25,26,26,27,27,28,28,29,29,30,30,31,31,32,32,33,33,34,34,35,35,36,36,37,37,38,38,39,39,40,40,41,41,42,42,43,43,44,44,45,45,46,46,47,47,48,48,49,49,50,50,51,51,52,52,53,53,54,54,55,55,56,56,57,57,58,58,59,59,60,60,61,61,62,62],"right_children":[2,4,6,8,10,12,14,16,18,20,22,24,26,28,30,32,34,36,38,40,42,44,46,48,50,52,54,56,58,60,62,64,66,68,70,72,74,76,78,80,82,84,86,88,90,92,94,96,98,100,102,104,106,108,110,112,114,116,118,120,122,124,126,-1,-1,-1,-1,-1,-1,-1,-1,-1,-1,-1,-1,-1,-1,-1,-1,-1,-1,-1,-1,-1,-1,-1,-1,-1,-1,-1,-1,-1,-1,-1,-1,-1,-1,-1,-1,-1,-1,-1,-1,-1,-1,-1,-1,-1,-1,-1,-1,-1,-1,-1,-1,-1,-1,-1,-1,-1,-1,-1,-1,-1,-1,-1,-1],"split_conditions":[3.9083017E2,1.1965506E0,-6.6965923E0,-1.2385292E0,1.5811845E0,4.0440912E2,6.2251467E-1,-8.653073E-1,6.3607824E-1,3.4343315E1,3.8615152E2,1.94514E1,1.9680592E1,-5.9482276E-1,1.4913327E1,7.0090926E-1,1.1979372E1,-6.162418E0,3.87323E2,-6.215233E0,6.3607824E-1,1.9359295E1,1.91263E1,8.3388585E-1,5.6640625E-1,8.141155E-1,5.2249855E-1,8.695894E-1,4.040797E2,7.253744E-1,3.4112846E1,-6.2802973E0,7.3361163E0,-6.286246E0,-4.4808638E-1,2.7344551E1,-8.7380713E-1,5.2900817E-2,3.4479187E1,-6.5456605E0,5.51937E-1,-9.493262E-1,1.8655918E1,-6.719853E0,5.51937E-1,1.78523E0,6.087614E-1,-7.0806904E0,-4.7495106E-1,3.9721753E2,-1.5586522E-1,-6.9032454E0,-4.7495106E-1,4.1404633E2,-7.2746487E0,-6.197244E0,9.998518E-1,2.0337032E1,1.8778711E1,1.1842759E0,4.1816013E2,-8.653073E-1,1.9787704E1,-7.3677635E-1,4.8968217E-1,-8.277826E-1,-1.8377384E0,-1.5261892E0,1.5939628E-1,-2.009154E0,-3.8017163E0,-5.391605E-1,-2.0935624E0,-5.77919E-1,1.032988E0,-1.0375497E0,-1.7283963E0,-2.523158E0,-5.774042E-1,-5.5087966E-1,-1.2641845E0,-4.0165338E-1,5.593597E-1,5.2375656E-1,-3.4927937E-1,-5.602008E-1,-1.542122E0,-4.643178E-2,-5.1823336E-1,-3.8139448E-1,-9.2824984E-1,-2.4865058E-1,2.8738186E-1,-1.2116323E-1,-1.1062897E0,8.855815E-1,5.1806504E-1,5.310333E-1,-1.0071791E-3,5.383098E-2,2.7600995E-1,-1.2489169E-1,-8.6466324E-1,1.2992786E0,7.4043775E-1,1.2148061E0,4.7794962E-1,5.3300726E-1,8.583624E-1,7.039055E-1,-1.240974E-1,-4.5449683E-1,1.187086E0,7.83234E-1,-1.8581589E-1,6.056415E-1,1.57562E-2,1.239547E0,5.1137716E-1,-9.2393845E-1,1.3603028E0,-3.0014214E-1,1.1068326E0,-6.1748964E-1,-2.199253E0,-1.6075464E-2,-1.1487635E0],"split_indices":[7,4,5,3,4,7,8,11,8,2,7,0,0,8,0,8,0,5,7,5,8,0,0,8,8,8,8,11,7,8,2,5,0,5,9,0,11,9,2,5,8,9,0,5,8,4,8,5,11,7,9,5,11,7,5,5,11,0,0,4,7,11,0,0,0,0,0,0,0,0,0,0,0,0,0,0,0,0,0,0,0,0,0,0,0,0,0,0,0,0,0,0,0,0,0,0,0,0,0,0,0,0,0,0,0,0,0,0,0,0,0,0,0,0,0,0,0,0,0,0,0,0,0,0,0,0,0],"split_type":[0,0,0,0,0,0,0,0,0,0,0,0,0,0,0,0,0,0,0,0,0,0,0,0,0,0,0,0,0,0,0,0,0,0,0,0,0,0,0,0,0,0,0,0,0,0,0,0,0,0,0,0,0,0,0,0,0,0,0,0,0,0,0,0,0,0,0,0,0,0,0,0,0,0,0,0,0,0,0,0,0,0,0,0,0,0,0,0,0,0,0,0,0,0,0,0,0,0,0,0,0,0,0,0,0,0,0,0,0,0,0,0,0,0,0,0,0,0,0,0,0,0,0,0,0,0,0],"sum_hessian":[1.41935E5,5.2198E4,8.9737E4,1.883E3,5.0315E4,4.4035E4,4.5702E4,1.119E3,7.64E2,2.1805E4,2.851E4,2.2815E4,2.122E4,3.2847E4,1.2855E4,3.54E2,7.65E2,2.99E2,4.65E2,9.436E3,1.2369E4,1.9202E4,9.308E3,9.406E3,1.3409E4,8.615E3,1.2605E4,1.0591E4,2.2256E4,6.355E3,6.5E3,2E1,3.34E2,7.8E1,6.87E2,2.12E2,8.7E1,4.12E2,5.3E1,8.265E3,1.171E3,9.427E3,2.942E3,7.946E3,1.1256E4,3.585E3,5.723E3,6.569E3,2.837E3,1.2241E4,1.168E3,5.134E3,3.481E3,1.0874E4,1.731E3,5.727E3,4.864E3,9.761E3,1.2495E4,1.015E3,5.34E3,2.633E3,3.867E3,6E0,1.4E1,7.2E1,2.62E2,5.1E1,2.7E1,1.53E2,5.34E2,1.86E2,2.6E1,2.7E1,6E1,3.6E2,5.2E1,4.6E1,7E0,2.737E3,5.528E3,7.66E2,4.05E2,4.02E2,9.025E3,2.122E3,8.2E2,5.728E3,2.218E3,1.0367E4,8.89E2,1.094E3,2.491E3,5.516E3,2.07E2,4.913E3,1.656E3,6.09E2,2.228E3,5.83E3,6.411E3,9.07E2,2.61E2,4.174E3,9.6E2,1.01E3,2.471E3,5.798E3,5.076E3,7.14E2,1.017E3,5.553E3,1.74E2,1.736E3,3.128E3,1.554E3,8.207E3,1.109E3,1.1386E4,5.6E1,9.59E2,4.852E3,4.88E2,8.24E2,1.809E3,2.138E3,1.729E3],"tree_param":{"num_deleted":"0","num_feature":"13","num_nodes":"127","size_leaf_vector":"1"}},{"base_weights":[-3.3948862E-3,-6.205512E0,7.194063E0,-1.2079363E1,-1.8244095E0,1.2405685E1,2.4580462E0,-2.3162336E1,-6.322687E0,-4.738888E0,3.734552E0,1.0183187E1,1.839631E1,-9.3750105E0,6.9683776E0,-8.121635E0,-4.1231518E1,-9.341371E0,4.309777E0,-1.8378133E0,-6.6472497E0,1.6855122E1,2.8365417E0,1.4280059E1,7.1293693E0,1.1569875E1,2.1813503E1,1.0051539E1,-2.566331E1,-2.0840979E0,1.195924E1,9.905036E0,-1.3030504E1,-4.816337E1,-2.1081854E1,-7.134079E0,-1.9236725E1,-1.9636414E1,8.383307E0,7.989703E-1,-8.343383E0,-5.6957493E0,-1.5807067E1,-4.657657E0,2.4681913E1,1.0627749E0,5.7866764E0,1.8082613E1,8.071153E0,8.627016E0,1.1838979E-1,2.8568783E1,8.679242E0,3.694431E1,2.056941E1,2.5496643E1,3.8877046E-1,-3.1380617E1,-2.966709E0,1.7602995E1,-6.2453046E0,-4.7439036E0,1.54144335E1,6.493792E-1,4.747925E-2,-9.021005E-1,-3.3183405E-1,-2.8345592E0,-1.4617267E0,-6.02761E-1,-1.2034504E0,-5.152487E-1,2.3143247E-2,-1.3441839E0,-2.4031644E-1,-1.6138569E0,-6.221014E-1,8.6625355E-1,1.2087133E-1,3.024249E-1,-3.4217113E-1,-8.6144227E-1,-8.699786E-3,-4.2677736E-1,-1.4527246E-1,-1.0803312E0,-1.1574223E-2,1.5124367E-1,-5.732884E-1,1.0106478E0,2.1006618E0,3.212774E-1,-2.5338582E-3,3.9160082E-1,-1.6652183E-1,1.0013474E0,5.204691E-1,8.7394506E-1,2.3367505E-1,2.944804E-1,5.4665124E-1,-3.848194E-1,4.958685E-1,1.743803E0,1.230665E0,6.811151E-1,2.8360787E-1,1.243631E0,1.9518555E0,7.9625595E-1,1.12322E0,1.7217277E0,1.0293232E0,-3.9599426E0,4.7921494E-2,-2.3272772E0,-1.06686E0,2.6672345E-1,-3.9562845E-1,5.7401943E-1,9.781294E-1,4.0879782E-2,-4.94694E-1,-5.8366257E-1,4.1303393E-1,1.2498113E0,6.354484E-1],"categories":[],"categories_nodes":[],"categories_segments":[],"categories_sizes":[],"default_left":[0,0,0,0,0,0,0,0,0,0,0,0,0,0,0,0,0,0,0,0,0,0,0,0,0,0,0,0,0,0,0,0,0,0,0,0,0,0,0,0,0,0,0,0,0,0,0,0,0,0,0,0,0,0,0,0,0,0,0,0,0,0,0,0,0,0,0,0,0,0,0,0,0,0,0,0,0,0,0,0,0,0,0,0,0,0,0,0,0,0,0,0,0,0,0,0,0,0,0,0,0,0,0,0,0,0,0,0,0,0,0,0,0,0,0,0,0,0,0,0,0,0,0,0,0,0,0],"id":8,"left_children":[1,3,5,7,9,11,13,15,17,19,21,23,25,27,29,31,33,35,37,39,41,43,45,47,49,51,53,55,57,59,61,63,65,67,69,71,73,75,77,79,81,83,85,87,89,91,93,95,97,99,101,103,105,107,109,111,113,115,117,119,121,123,125,-1,-1,-1,-1,-1,-1,-1,-1,-1,-1,-1,-1,-1,-1,-1,-1,-1,-1,-1,-1,-1,-1,-1,-1,-1,-1,-1,-1,-1,-1,-1,-1,-1,-1,-1,-1,-1,-1,-1,-1,-1,-1,-1,-1,-1,-1,-1,-1,-1,-1,-1,-1,-1,-1,-1,-1,-1,-1,-1,-1,-1,-1,-1,-1],"loss_changes":[6.3490285E6,1.9659725E6,1.6248558E6,2.0821905E6,7.0899425E5,4.171015E5,1.8408848E6,3.0318335E6,6.895279E5,1.5892862E5,1.7729894E5,2.859375E5,1.9755925E5,3.0123135E6,1.1282976E6,5.39037E5,7.06847E5,3.653195E5,4.6360234E5,1.9544042E5,1.5083531E5,1.6243147E5,7.371881E4,2.3035312E5,1.3755825E5,1.3885684E5,1.0559075E5,6.4799825E5,6.718185E5,7.2724906E5,9.2913125E5,3.5983984E4,1.5326606E5,6.06894E5,3.4732375E4,3.2959294E5,3.36541E5,6.243503E4,2.1659225E5,3.2532578E5,2.3852205E5,1.24292E5,1.4714281E5,1.3529833E4,5.3903812E4,5.2547445E4,9.86723E4,9.0110125E4,1.18503484E5,6.807719E4,1.7673936E5,9.389406E3,3.590703E4,9.8354375E3,4.56055E4,7.2620375E4,1.21210805E5,6.2894475E5,4.286436E4,1.8356969E4,1.888481E5,2.488094E5,3.4546825E5,0E0,0E0,0E0,0E0,0E0,0E0,0E0,0E0,0E0,0E0,0E0,0E0,0E0,0E0,0E0,0E0,0E0,0E0,0E0,0E0,0E0,0E0,0E0,0E0,0E0,0E0,0E0,0E0,0E0,0E0,0E0,0E0,0E0,0E0,0E0,0E0,0E0,0E0,0E0,0E0,0E0,0E0,0E0,0E0,0E0,0E0,0E0,0E0,0E0,0E0,0E0,0E0,0E0,0E0,0E0,0E0,0E0,0E0,0E0,0E0,0E0,0E0,0E0,0E0],"parents":[2147483647,0,0,1,1,2,2,3,3,4,4,5,5,6,6,7,7,8,8,9,9,10,10,11,11,12,12,13,13,14,14,15,15,16,16,17,17,18,18,19,19,20,20,21,21,22,22,23,23,24,24,25,25,26,26,27,27,28,28,29,29,30,30,31,31,32,32,33,33,34,34,35,35,36,36,37,37,38,38,39,39,40,40,41,41,42,42,43,43,44,44,45,45,46,46,47,47,48,48,49,49,50,50,51,51,52,52,53,53,54,54,55,55,56,56,57,57,58,58,59,59,60,60,61,61,62,62],"right_children":[2,4,6,8,10,12,14,16,18,20,22,24,26,28,30,32,34,36,38,40,42,44,46,48,50,52,54,56,58,60,62,64,66,68,70,72,74,76,78,80,82,84,86,88,90,92,94,96,98,100,102,104,106,108,110,112,114,116,118,120,122,124,126,-1,-1,-1,-1,-1,-1,-1,-1,-1,-1,-1,-1,-1,-1,-1,-1,-1,-1,-1,-1,-1,-1,-1,-1,-1,-1,-1,-1,-1,-1,-1,-1,-1,-1,-1,-1,-1,-1,-1,-1,-1,-1,-1,-1,-1,-1,-1,-1,-1,-1,-1,-1,-1,-1,-1,-1,-1,-1,-1,-1,-1,-1,-1,-1],"split_conditions":[3.9862393E2,1.5647539E0,-6.726701E0,-4.9377555E-1,3.9022238E2,4.1511423E2,-4.9377555E-1,6.087614E-1,8.6314213E-1,1.91263E1,-7.8790665E-1,2.001492E1,-8.606997E-3,5.3729963E-1,-1.650476E-1,-2.6176948E-2,8.433914E-1,5.234156E-1,8.726535E-3,-6.712204E0,5.51937E-1,-8.606997E-3,1.8927414E0,7.8260815E-1,5.075384E-1,-9.584575E-2,3.301718E1,-4.3619387E-2,8.5264015E-1,1.7213356E-2,-8.7380713E-1,2.4933449E1,4.7830582E-1,3.4447273E1,-6.450275E0,4.862727E-1,-5.3729963E-1,3.8405182E2,1.7560799E1,8.0385685E-1,-6.3607824E-1,3.83342E2,-4.9377555E-1,7.15654E0,3.9699985E2,-8.56551E-1,8.433914E-1,8.695894E-1,4.3035382E-3,4.0546274E2,-5.012418E-1,-5.3729963E-1,4.305111E-1,-8.210852E0,2.3344536E-1,1.7560799E1,-1.8487434E0,1.3360382E0,-6.4819875E0,4.0265152E2,5.234156E-1,1.2647827E0,1.6498158E1,6.493792E-1,4.747925E-2,-9.021005E-1,-3.3183405E-1,-2.8345592E0,-1.4617267E0,-6.02761E-1,-1.2034504E0,-5.152487E-1,2.3143247E-2,-1.3441839E0,-2.4031644E-1,-1.6138569E0,-6.221014E-1,8.6625355E-1,1.2087133E-1,3.024249E-1,-3.4217113E-1,-8.6144227E-1,-8.699786E-3,-4.2677736E-1,-1.4527246E-1,-1.0803312E0,-1.1574223E-2,1.5124367E-1,-5.732884E-1,1.0106478E0,2.1006618E0,3.212774E-1,-2.5338582E-3,3.9160082E-1,-1.6652183E-1,1.0013474E0,5.204691E-1,8.7394506E-1,2.3367505E-1,2.944804E-1,5.4665124E-1,-3.848194E-1,4.958685E-1,1.743803E0,1.230665E0,6.811151E-1,2.8360787E-1,1.243631E0,1.9518555E0,7.9625595E-1,1.12322E0,1.7217277E0,1.0293232E0,-3.9599426E0,4.7921494E-2,-2.3272772E0,-1.06686E0,2.6672345E-1,-3.9562845E-1,5.7401943E-1,9.781294E-1,4.0879782E-2,-4.94694E-1,-5.8366257E-1,4.1303393E-1,1.2498113E0,6.354484E-1],"split_indices":[7,4,5,12,7,7,12,8,12,0,3,0,12,8,8,8,8,12,8,5,8,12,4,8,8,8,2,8,8,12,11,0,3,2,5,12,8,7,0,8,8,7,12,0,7,11,8,11,11,7,12,8,8,5,8,0,3,4,5,7,12,4,0,0,0,0,0,0,0,0,0,0,0,0,0,0,0,0,0,0,0,0,0,0,0,0,0,0,0,0,0,0,0,0,0,0,0,0,0,0,0,0,0,0,0,0,0,0,0,0,0,0,0,0,0,0,0,0,0,0,0,0,0,0,0,0,0],"split_type":[0,0,0,0,0,0,0,0,0,0,0,0,0,0,0,0,0,0,0,0,0,0,0,0,0,0,0,0,0,0,0,0,0,0,0,0,0,0,0,0,0,0,0,0,0,0,0,0,0,0,0,0,0,0,0,0,0,0,0,0,0,0,0,0,0,0,0,0,0,0,0,0,0,0,0,0,0,0,0,0,0,0,0,0,0,0,0,0,0,0,0,0,0,0,0,0,0,0,0,0,0,0,0,0,0,0,0,0,0,0,0,0,0,0,0,0,0,0,0,0,0,0,0,0,0,0,0],"sum_hessian":[1.42227E5,7.6396E4,6.5831E4,3.2637E4,4.3759E4,3.1341E4,3.449E4,1.1156E4,2.1481E4,2.8708E4,1.5051E4,2.2862E4,8.479E3,9.518E3,2.4972E4,6.089E3,5.067E3,1.6731E4,4.75E3,1.1392E4,1.7316E4,9.63E2,1.4088E4,9.762E3,1.31E4,2.83E3,5.649E3,4.341E3,5.177E3,8.875E3,1.6097E4,1.303E3,4.786E3,3.769E3,1.298E3,1.3681E4,3.05E3,6.9E2,4.06E3,8.107E3,3.285E3,1.5688E4,1.628E3,2.57E2,7.06E2,8.799E3,5.289E3,6.053E3,3.709E3,1.0794E4,2.306E3,4.1E2,2.42E3,4.27E2,5.222E3,1.67E3,2.671E3,4.135E3,1.042E3,1.548E3,7.327E3,2.759E3,1.3338E4,9.69E2,3.34E2,2.682E3,2.104E3,2.597E3,1.172E3,3.24E2,9.74E2,9.652E3,4.029E3,1.993E3,1.057E3,2.49E2,4.41E2,1.624E3,2.436E3,4.806E3,3.301E3,1.573E3,1.712E3,7.774E3,7.914E3,1.186E3,4.42E2,1.21E2,1.36E2,5.63E2,1.43E2,1.512E3,7.287E3,4.32E3,9.69E2,4.828E3,1.225E3,9.83E2,2.726E3,4.937E3,5.857E3,1.283E3,1.023E3,1.55E2,2.55E2,9.14E2,1.506E3,6.5E1,3.62E2,1.516E3,3.706E3,5.9E2,1.08E3,1.8E1,2.653E3,1.646E3,2.489E3,3.89E2,6.53E2,3.77E2,1.171E3,2.496E3,4.831E3,1.8E3,9.59E2,2.935E3,1.0403E4],"tree_param":{"num_deleted":"0","num_feature":"13","num_nodes":"127","size_leaf_vector":"1"}},{"base_weights":[9.456103E-4,-8.351117E0,4.849554E0,-3.534399E1,-7.3379517E0,-4.5247784E0,7.228745E0,-5.4908817E1,-1.8766258E1,-1.1614438E1,-4.2978444E0,-2.6580551E1,2.7286556E0,2.766202E0,1.1099518E1,-7.194585E0,-6.1419968E1,-2.325756E1,-6.8235393E0,-1.4834661E1,4.078106E0,-7.2468114E0,-2.4567783E0,-6.3320556E0,-3.7315163E1,-5.8668675E0,9.926808E0,1.3500739E-2,6.251288E0,5.871951E0,1.2796786E1,1.4917554E1,-2.8356375E1,-3.9438755E1,-6.491686E1,-1.3743266E1,-2.8290232E1,-2.3134823E1,-2.1588996E-1,-9.822573E0,-2.4855385E1,-4.647178E0,1.47223215E1,-9.185412E0,-3.11511E0,7.260746E-3,-4.0891433E0,-1.995144E1,-2.7763703E0,-4.6633537E1,-1.1471696E1,4.6478757E-1,-1.3550854E1,-1.3815127E1,1.2856828E1,-1.6241105E0,7.2888703E0,9.151815E0,3.50029E0,2.5676914E1,-4.913636E-1,3.2136123E0,1.5443273E1,-1.0097779E0,1.419403E0,-3.4508598E0,-1.1398377E0,-2.206239E0,-1.2319012E0,-2.07476E0,-3.4215553E0,4.2649803E-1,-7.5739455E-1,-7.008665E-1,-1.5041503E0,-6.0912925E-1,-3.0392647E0,3.560606E-1,-4.7651172E-1,-3.66408E-1,-1.0094355E0,-1.5740308E0,-3.63589E-2,-1.1960205E0,-3.030785E-2,1.0919605E0,2.3382898E-1,-8.4243405E-1,-4.15575E-1,1.7495136E-3,-4.2119867E-1,1.6029689E-1,-3.0022135E-1,-1.6956963E-1,-1.1114463E0,-3.5653493E0,-8.253414E-1,5.3054637E-1,-3.136842E-1,-2.5913217E0,-1.0504795E0,-7.6081294E-1,-7.0714325E-2,-1.5270935E-1,3.9830098E-1,-8.5279036E-1,-2.4408081E-1,-1.2946662E0,-5.0501364E-1,4.7457108E-1,1.0312864E0,4.679724E-2,-6.337958E-1,-4.038785E-1,6.646868E-1,6.5136E-1,1.0148226E-2,1.9382045E-1,-8.9032644E-1,1.5371565E0,1.0322763E0,2.2972846E-1,-3.7606934E-1,1.0327214E0,-9.549551E-2,1.425815E0,7.2126824E-1],"categories":[],"categories_nodes":[],"categories_segments":[],"categories_sizes":[],"default_left":[0,0,0,0,0,0,0,0,0,0,0,0,0,0,0,0,0,0,0,0,0,0,0,0,0,0,0,0,0,0,0,0,0,0,0,0,0,0,0,0,0,0,0,0,0,0,0,0,0,0,0,0,0,0,0,0,0,0,0,0,0,0,0,0,0,0,0,0,0,0,0,0,0,0,0,0,0,0,0,0,0,0,0,0,0,0,0,0,0,0,0,0,0,0,0,0,0,0,0,0,0,0,0,0,0,0,0,0,0,0,0,0,0,0,0,0,0,0,0,0,0,0,0,0,0,0,0],"id":9,"left_children":[1,3,5,7,9,11,13,15,17,19,21,23,25,27,29,31,33,35,37,39,41,43,45,47,49,51,53,55,57,59,61,63,65,67,69,71,73,75,77,79,81,83,85,87,89,91,93,95,97,99,101,103,105,107,109,111,113,115,117,119,121,123,125,-1,-1,-1,-1,-1,-1,-1,-1,-1,-1,-1,-1,-1,-1,-1,-1,-1,-1,-1,-1,-1,-1,-1,-1,-1,-1,-1,-1,-1,-1,-1,-1,-1,-1,-1,-1,-1,-1,-1,-1,-1,-1,-1,-1,-1,-1,-1,-1,-1,-1,-1,-1,-1,-1,-1,-1,-1,-1,-1,-1,-1,-1,-1,-1],"loss_changes":[5.7516705E6,1.4264402E6,2.0042768E6,6.1099275E5,6.5366375E5,2.910273E6,1.238011E6,2.6828475E5,5.4710344E4,1.055807E6,1.5955212E5,9.7831275E5,8.4708475E5,3.1939238E5,3.404615E5,4.9557258E4,5.59245E4,3.518353E4,3.0278637E4,8.70399E5,3.305144E5,9.044794E4,7.278635E4,7.553572E4,7.0794975E5,3.035983E5,5.1850138E5,2.2164086E5,1.1719925E5,1.1857864E6,7.34754E5,2.5169676E4,1.0624621E4,6.327125E3,5.106225E4,8.232824E3,1.1984125E4,3.2653098E4,1.3804507E4,2.986835E5,9.237755E5,1.5232322E5,1.1450078E5,5.1344188E4,6.035606E4,1.3870175E5,1.3769402E5,5.595286E4,5.8075586E4,2.865845E5,2.9389758E4,9.035414E4,8.557056E4,3.6482375E4,1.7322438E5,4.2964578E5,3.154984E5,2.4799438E5,6.0508438E4,5.7681625E4,2.5467645E5,5.60408E5,3.016965E5,0E0,0E0,0E0,0E0,0E0,0E0,0E0,0E0,0E0,0E0,0E0,0E0,0E0,0E0,0E0,0E0,0E0,0E0,0E0,0E0,0E0,0E0,0E0,0E0,0E0,0E0,0E0,0E0,0E0,0E0,0E0,0E0,0E0,0E0,0E0,0E0,0E0,0E0,0E0,0E0,0E0,0E0,0E0,0E0,0E0,0E0,0E0,0E0,0E0,0E0,0E0,0E0,0E0,0E0,0E0,0E0,0E0,0E0,0E0,0E0,0E0,0E0,0E0,0E0],"parents":[2147483647,0,0,1,1,2,2,3,3,4,4,5,5,6,6,7,7,8,8,9,9,10,10,11,11,12,12,13,13,14,14,15,15,16,16,17,17,18,18,19,19,20,20,21,21,22,22,23,23,24,24,25,25,26,26,27,27,28,28,29,29,30,30,31,31,32,32,33,33,34,34,35,35,36,36,37,37,38,38,39,39,40,40,41,41,42,42,43,43,44,44,45,45,46,46,47,47,48,48,49,49,50,50,51,51,52,52,53,53,54,54,55,55,56,56,57,57,58,58,59,59,60,60,61,61,62,62],"right_children":[2,4,6,8,10,12,14,16,18,20,22,24,26,28,30,32,34,36,38,40,42,44,46,48,50,52,54,56,58,60,62,64,66,68,70,72,74,76,78,80,82,84,86,88,90,92,94,96,98,100,102,104,106,108,110,112,114,116,118,120,122,124,126,-1,-1,-1,-1,-1,-1,-1,-1,-1,-1,-1,-1,-1,-1,-1,-1,-1,-1,-1,-1,-1,-1,-1,-1,-1,-1,-1,-1,-1,-1,-1,-1,-1,-1,-1,-1,-1,-1,-1,-1,-1,-1,-1,-1,-1,-1,-1,-1,-1,-1,-1,-1,-1,-1,-1,-1,-1,-1,-1,-1,-1,-1,-1,-1],"split_conditions":[3.9083017E2,1.1965506E0,1.367265E0,-4.9377555E-1,1.5702381E0,-4.9377555E-1,4.0388007E2,6.3607824E-1,-8.7380713E-1,8.6314213E-1,3.824415E2,6.2251467E-1,4.862727E-1,1.7358721E0,-5.160624E-1,2.8969927E1,3.1726337E1,6.8835455E-1,8.726535E-3,5.6640625E-1,5.6640625E-1,1.9029764E0,1.9006727E1,1.2320266E0,8.5264015E-1,6.087614E-1,-8.726535E-3,8.717063E-1,1.8537067E1,-2.6176948E-2,-4.7715876E-1,2.7344551E1,1.3052619E-1,8.141155E-1,6.8835455E-1,-1.1800919E0,5.4463763E0,2.6352404E1,7.253744E-1,5.234156E-1,1.7213356E-2,-8.726535E-3,3.4587494E1,-6.3607824E-1,1.9006727E1,8.0385685E-1,6.087614E-1,3.222032E1,2.3572674E1,3.4676525E1,4.1222406E2,4.093001E2,8.616292E-1,3.991797E2,8.5876393E-1,5.51937E-1,-8.726535E-3,8.3388585E-1,6.3607824E-1,1.78215E1,5.51937E-1,1.7213356E-2,-9.361687E-1,-1.0097779E0,1.419403E0,-3.4508598E0,-1.1398377E0,-2.206239E0,-1.2319012E0,-2.07476E0,-3.4215553E0,4.2649803E-1,-7.5739455E-1,-7.008665E-1,-1.5041503E0,-6.0912925E-1,-3.0392647E0,3.560606E-1,-4.7651172E-1,-3.66408E-1,-1.0094355E0,-1.5740308E0,-3.63589E-2,-1.1960205E0,-3.030785E-2,1.0919605E0,2.3382898E-1,-8.4243405E-1,-4.15575E-1,1.7495136E-3,-4.2119867E-1,1.6029689E-1,-3.0022135E-1,-1.6956963E-1,-1.1114463E0,-3.5653493E0,-8.253414E-1,5.3054637E-1,-3.136842E-1,-2.5913217E0,-1.0504795E0,-7.6081294E-1,-7.0714325E-2,-1.5270935E-1,3.9830098E-1,-8.5279036E-1,-2.4408081E-1,-1.2946662E0,-5.0501364E-1,4.7457108E-1,1.0312864E0,4.679724E-2,-6.337958E-1,-4.038785E-1,6.646868E-1,6.5136E-1,1.0148226E-2,1.9382045E-1,-8.9032644E-1,1.5371565E0,1.0322763E0,2.2972846E-1,-3.7606934E-1,1.0327214E0,-9.549551E-2,1.425815E0,7.2126824E-1],"split_indices":[7,4,4,12,4,12,7,8,11,12,7,8,12,4,12,0,2,8,8,8,8,4,0,4,8,8,8,12,0,8,8,0,8,8,8,3,0,0,8,12,12,8,2,8,0,8,8,2,0,2,7,7,8,7,12,8,8,8,8,0,8,12,3,0,0,0,0,0,0,0,0,0,0,0,0,0,0,0,0,0,0,0,0,0,0,0,0,0,0,0,0,0,0,0,0,0,0,0,0,0,0,0,0,0,0,0,0,0,0,0,0,0,0,0,0,0,0,0,0,0,0,0,0,0,0,0,0],"split_type":[0,0,0,0,0,0,0,0,0,0,0,0,0,0,0,0,0,0,0,0,0,0,0,0,0,0,0,0,0,0,0,0,0,0,0,0,0,0,0,0,0,0,0,0,0,0,0,0,0,0,0,0,0,0,0,0,0,0,0,0,0,0,0,0,0,0,0,0,0,0,0,0,0,0,0,0,0,0,0,0,0,0,0,0,0,0,0,0,0,0,0,0,0,0,0,0,0,0,0,0,0,0,0,0,0,0,0,0,0,0,0,0,0,0,0,0,0,0,0,0,0,0,0,0,0,0,0],"sum_hessian":[1.42029E5,5.2167E4,8.9862E4,1.886E3,5.0281E4,1.819E4,7.1672E4,8.64E2,1.022E3,2.0891E4,2.939E4,4.501E3,1.3689E4,3.3292E4,3.838E4,1.04E2,7.6E2,7.42E2,2.8E2,1.7334E4,3.557E3,1.1295E4,1.8095E4,1.56E3,2.941E3,6.239E3,7.45E3,1.8601E4,1.4691E4,9.408E3,2.8972E4,5.1E1,5.3E1,1.06E2,6.54E2,2.58E2,4.84E2,8E1,2E2,1.1556E4,5.778E3,1.955E3,1.602E3,7.687E3,3.608E3,7.211E3,1.0884E4,3.22E2,1.238E3,2.161E3,7.8E2,3.421E3,2.818E3,8.18E2,6.632E3,1.5184E4,3.417E3,7.15E3,7.541E3,2.287E3,7.121E3,6.27E3,2.2702E4,1.4E1,3.7E1,5E0,4.8E1,7.9E1,2.7E1,8.7E1,5.67E2,1.5E1,2.43E2,5.5E1,4.29E2,6.3E1,1.7E1,1.12E2,8.8E1,9.316E3,2.24E3,4.533E3,1.245E3,3.38E2,1.617E3,9.37E2,6.65E2,7.85E2,6.902E3,2.265E3,1.343E3,4.707E3,2.504E3,1.0482E4,4.02E2,1.9E1,3.03E2,2.56E2,9.82E2,1.796E3,3.65E2,5.68E2,2.12E2,2.329E3,1.092E3,2.006E3,8.12E2,1.91E2,6.27E2,4.629E3,2.003E3,1.2329E4,2.855E3,9.6E2,2.457E3,4.989E3,2.161E3,7.411E3,1.3E2,1.137E3,1.15E3,4.132E3,2.989E3,1.423E3,4.847E3,1.638E3,2.1064E4],"tree_param":{"num_deleted":"0","num_feature":"13","num_nodes":"127","size_leaf_vector":"1"}},{"base_weights":[-3.742333E-2,-8.997464E0,2.2481499E0,-2.9451601E1,-6.130487E-1,5.89931E0,9.101387E-3,-9.071183E0,-3.9858147E1,-8.405717E0,6.180862E0,9.601021E0,1.7799122E0,-7.3955865E0,1.7348444E0,-4.232604E0,-1.5584304E1,-4.661161E1,-1.57026205E1,-2.8578494E0,-1.587165E1,-1.7484507E1,9.366662E0,1.3850699E1,1.6627991E0,-9.8419674E-2,3.2859483E0,1.7895243E1,-1.3641603E1,-6.279139E0,4.6146307E0,-5.5762722E1,-2.9691114E0,-7.9096776E-1,-2.0695234E1,-5.264097E1,-2.2831255E1,-6.5495896E0,-1.9345669E1,2.6343682E0,-6.8191767E0,-1.9267687E1,-1.0013249E1,-5.081846E1,-1.4844117E1,1.6748833E1,5.6924267E0,1.6175533E1,8.197272E0,-2.4105988E0,6.537551E0,-1.990463E0,1.7642477E0,1.0175041E0,4.3562913E0,2.8040096E1,1.4336091E1,-3.4330223E0,-1.8429909E1,1.4541205E1,-1.222982E1,9.877908E-1,9.238585E0,-3.9172375E0,-1.2529488E0,5.618812E-1,-2.4903055E-1,4.938391E-1,-5.830366E-1,-8.7829226E-1,-1.3693069E0,-7.143194E-1,-2.7706285E0,-1.355361E0,-6.8260705E-1,-2.190862E-1,-6.6022485E-1,-1.0986421E0,-7.4898875E-1,3.0050704E-1,-1.3012893E-1,1.9126485E-1,-4.6690854E-1,-6.9038063E-1,-1.2965604E0,-3.420342E-1,-6.188577E-1,3.0739353E0,-3.0225475E0,7.2828805E-1,-7.777807E-1,6.553299E-1,1.1902099E0,1.4975818E-1,5.759557E-1,6.7215157E-1,1.015603E0,1.6091107E-1,6.328836E-1,3.8955328E-1,-2.1202312E-1,9.5391594E-2,5.8208865E-1,3.5594508E-1,-1.4366002E-1,-1.4750326E-2,1.6565895E-1,2.7026516E-1,-1.06476285E-1,1.2202908E-1,3.4920335E-1,1.0075178E0,1.504786E0,1.850479E0,6.3609844E-1,-1.6829493E0,-1.5588869E-1,-1.2010936E0,-1.1848128E-1,1.1042732E0,5.2814823E-1,-2.576138E-1,-7.233629E-1,1.584947E-1,-2.7302837E-1,1.5107548E0,3.195959E-1],"categories":[],"categories_nodes":[],"categories_segments":[],"categories_sizes":[],"default_left":[0,0,0,0,0,0,0,0,0,0,0,0,0,0,0,0,0,0,0,0,0,0,0,0,0,0,0,0,0,0,0,0,0,0,0,0,0,0,0,0,0,0,0,0,0,0,0,0,0,0,0,0,0,0,0,0,0,0,0,0,0,0,0,0,0,0,0,0,0,0,0,0,0,0,0,0,0,0,0,0,0,0,0,0,0,0,0,0,0,0,0,0,0,0,0,0,0,0,0,0,0,0,0,0,0,0,0,0,0,0,0,0,0,0,0,0,0,0,0,0,0,0,0,0,0,0,0],"id":10,"left_children":[1,3,5,7,9,11,13,15,17,19,21,23,25,27,29,31,33,35,37,39,41,43,45,47,49,51,53,55,57,59,61,63,65,67,69,71,73,75,77,79,81,83,85,87,89,91,93,95,97,99,101,103,105,107,109,111,113,115,117,119,121,123,125,-1,-1,-1,-1,-1,-1,-1,-1,-1,-1,-1,-1,-1,-1,-1,-1,-1,-1,-1,-1,-1,-1,-1,-1,-1,-1,-1,-1,-1,-1,-1,-1,-1,-1,-1,-1,-1,-1,-1,-1,-1,-1,-1,-1,-1,-1,-1,-1,-1,-1,-1,-1,-1,-1,-1,-1,-1,-1,-1,-1,-1,-1,-1,-1],"loss_changes":[2.9126018E6,4.957242E6,9.263965E5,1.782036E6,1.0855362E6,6.5684E5,8.976315E5,8.949556E4,9.06773E5,3.9551388E5,8.260194E5,7.6535275E5,5.7677773E4,2.0975705E6,1.314768E6,1.0608469E5,9.154241E4,6.22065E5,4.04515E4,1.19243836E5,8.0798125E4,1.13658125E5,2.61783E5,1.9408325E5,1.571232E5,3.1982555E4,2.7470445E4,9.4555375E4,5.2042825E5,1.86604E6,7.0281825E5,2.5067195E4,4.560682E4,3.6293598E4,1.8359031E4,3.67756E5,3.420472E4,4.96096E3,9.646E3,4.062405E4,8.541003E4,9.3361375E4,1.1132859E4,1.0647792E5,2.546225E4,8.212131E4,1.01301516E5,1.180665E5,9.5632125E4,8.0508945E4,8.50957E4,3.6221402E4,1.4587517E4,5.0123008E4,3.8683812E4,1.04494375E4,7.085328E4,3.2298453E4,6.5087225E5,1.0024656E5,1.854055E5,3.3051634E5,1.0998389E6,0E0,0E0,0E0,0E0,0E0,0E0,0E0,0E0,0E0,0E0,0E0,0E0,0E0,0E0,0E0,0E0,0E0,0E0,0E0,0E0,0E0,0E0,0E0,0E0,0E0,0E0,0E0,0E0,0E0,0E0,0E0,0E0,0E0,0E0,0E0,0E0,0E0,0E0,0E0,0E0,0E0,0E0,0E0,0E0,0E0,0E0,0E0,0E0,0E0,0E0,0E0,0E0,0E0,0E0,0E0,0E0,0E0,0E0,0E0,0E0,0E0,0E0,0E0,0E0],"parents":[2147483647,0,0,1,1,2,2,3,3,4,4,5,5,6,6,7,7,8,8,9,9,10,10,11,11,12,12,13,13,14,14,15,15,16,16,17,17,18,18,19,19,20,20,21,21,22,22,23,23,24,24,25,25,26,26,27,27,28,28,29,29,30,30,31,31,32,32,33,33,34,34,35,35,36,36,37,37,38,38,39,39,40,40,41,41,42,42,43,43,44,44,45,45,46,46,47,47,48,48,49,49,50,50,51,51,52,52,53,53,54,54,55,55,56,56,57,57,58,58,59,59,60,60,61,61,62,62],"right_children":[2,4,6,8,10,12,14,16,18,20,22,24,26,28,30,32,34,36,38,40,42,44,46,48,50,52,54,56,58,60,62,64,66,68,70,72,74,76,78,80,82,84,86,88,90,92,94,96,98,100,102,104,106,108,110,112,114,116,118,120,122,124,126,-1,-1,-1,-1,-1,-1,-1,-1,-1,-1,-1,-1,-1,-1,-1,-1,-1,-1,-1,-1,-1,-1,-1,-1,-1,-1,-1,-1,-1,-1,-1,-1,-1,-1,-1,-1,-1,-1,-1,-1,-1,-1,-1,-1,-1,-1,-1,-1,-1,-1,-1,-1,-1,-1,-1,-1,-1,-1,-1,-1,-1,-1,-1,-1],"split_conditions":[1.3712174E0,-4.9377555E-1,-7.1005335E0,6.087614E-1,4.862727E-1,2.0856863E1,-8.5876393E-1,5.075384E-1,8.5264015E-1,6.2251467E-1,-8.726535E-3,8.433914E-1,-1.0984421E-2,-8.726535E-3,-5.2249855E-1,3.222032E1,-2.9522583E-1,3.7631226E-1,-1.7178123E-1,-6.3814607E0,8.5264015E-1,-9.2865884E-1,3.4175617E1,1.78215E1,-9.52178E-2,8.606997E-3,-5.160624E-1,-5.51937E-1,5.075384E-1,1.7213356E-2,5.234156E-1,1.3052619E-1,-6.104854E-2,-6.780952E0,5.8070296E-1,-5.2200127E-1,3.6509964E1,-6.3507085E0,9.4832367E-1,4.617486E-1,-8.606997E-3,7.253744E-1,9.729347E0,2.5343767E1,-7.240214E-1,8.5876393E-1,8.5876393E-1,5.234156E-1,5.234156E-1,3.356123E1,8.6314213E-1,-1.8223552E-1,3.007058E-1,4.1469324E-1,2.8861508E-1,-7.1325046E-1,-9.406373E-1,-9.633002E-1,8.3388585E-1,-5.160624E-1,5.234156E-1,5.075384E-1,1.5569872E1,-3.9172375E0,-1.2529488E0,5.618812E-1,-2.4903055E-1,4.938391E-1,-5.830366E-1,-8.7829226E-1,-1.3693069E0,-7.143194E-1,-2.7706285E0,-1.355361E0,-6.8260705E-1,-2.190862E-1,-6.6022485E-1,-1.0986421E0,-7.4898875E-1,3.0050704E-1,-1.3012893E-1,1.9126485E-1,-4.6690854E-1,-6.9038063E-1,-1.2965604E0,-3.420342E-1,-6.188577E-1,3.0739353E0,-3.0225475E0,7.2828805E-1,-7.777807E-1,6.553299E-1,1.1902099E0,1.4975818E-1,5.759557E-1,6.7215157E-1,1.015603E0,1.6091107E-1,6.328836E-1,3.8955328E-1,-2.1202312E-1,9.5391594E-2,5.8208865E-1,3.5594508E-1,-1.4366002E-1,-1.4750326E-2,1.6565895E-1,2.7026516E-1,-1.06476285E-1,1.2202908E-1,3.4920335E-1,1.0075178E0,1.504786E0,1.850479E0,6.3609844E-1,-1.6829493E0,-1.5588869E-1,-1.2010936E0,-1.1848128E-1,1.1042732E0,5.2814823E-1,-2.576138E-1,-7.233629E-1,1.584947E-1,-2.7302837E-1,1.5107548E0,3.195959E-1],"split_indices":[4,12,5,8,12,0,12,8,8,8,8,8,1,8,8,2,9,3,9,5,8,9,2,0,9,12,12,8,8,12,12,8,8,5,8,9,2,5,8,8,12,8,0,0,9,12,12,12,12,2,12,8,8,8,9,8,9,9,8,12,12,8,0,0,0,0,0,0,0,0,0,0,0,0,0,0,0,0,0,0,0,0,0,0,0,0,0,0,0,0,0,0,0,0,0,0,0,0,0,0,0,0,0,0,0,0,0,0,0,0,0,0,0,0,0,0,0,0,0,0,0,0,0,0,0,0,0],"split_type":[0,0,0,0,0,0,0,0,0,0,0,0,0,0,0,0,0,0,0,0,0,0,0,0,0,0,0,0,0,0,0,0,0,0,0,0,0,0,0,0,0,0,0,0,0,0,0,0,0,0,0,0,0,0,0,0,0,0,0,0,0,0,0,0,0,0,0,0,0,0,0,0,0,0,0,0,0,0,0,0,0,0,0,0,0,0,0,0,0,0,0,0,0,0,0,0,0,0,0,0,0,0,0,0,0,0,0,0,0,0,0,0,0,0,0,0,0,0,0,0,0,0,0,0,0,0,0],"sum_hessian":[1.42223E5,2.8905E4,1.13318E5,8.403E3,2.0502E4,4.3075E4,7.0243E4,2.841E3,5.562E3,9.549E3,1.0953E4,2.2687E4,2.0388E4,1.3276E4,5.6967E4,1.631E3,1.21E3,4.346E3,1.216E3,5.479E3,4.07E3,1.299E3,9.654E3,1.4776E4,7.911E3,9.073E3,1.1315E4,2.629E3,1.0647E4,1.5059E4,4.1908E4,3.8E1,1.593E3,3.11E2,8.99E2,3.466E3,8.8E2,3.47E2,8.69E2,2.296E3,3.183E3,2.575E3,1.495E3,9.4E1,1.205E3,3.207E3,6.447E3,1.0469E4,4.307E3,4.31E3,3.601E3,4.501E3,4.572E3,3.628E3,7.687E3,6.81E2,1.948E3,3.4E3,7.247E3,3.347E3,1.1712E4,2.3487E4,1.8421E4,2.1E1,1.7E1,1.97E2,1.396E3,1.57E2,1.54E2,6.15E2,2.84E2,2.34E2,3.232E3,5.99E2,2.81E2,2.63E2,8.4E1,5.4E2,3.29E2,1.396E3,9E2,6.09E2,2.574E3,1.417E3,1.158E3,6.4E2,8.55E2,7E0,8.7E1,2.8E1,1.177E3,2.117E3,1.09E3,4.408E3,2.039E3,6.307E3,4.162E3,2.036E3,2.271E3,6.55E2,3.655E3,1.889E3,1.712E3,3.97E2,4.104E3,1.963E3,2.609E3,1.515E3,2.113E3,4.447E3,3.24E3,1.43E2,5.38E2,1.28E2,1.82E3,3.4E1,3.366E3,5.375E3,1.872E3,1.154E3,2.193E3,2.814E3,8.898E3,1.7549E4,5.938E3,2.2E3,1.6221E4],"tree_param":{"num_deleted":"0","num_feature":"13","num_nodes":"127","size_leaf_vector":"1"}},{"base_weights":[3.3837248E-4,-5.936319E0,6.179522E0,-1.7656199E0,-9.92621E0,1.0649666E1,1.6228431E0,3.3857486E0,-4.8891573E0,-2.7911947E1,-8.118948E0,8.45381E0,1.6161154E1,-9.724618E0,5.7835636E0,7.9780664E0,-4.294768E0,-9.0981865E0,-2.0060203E0,-3.988557E1,8.413127E0,-5.9127493E0,-1.3922156E1,1.2303601E1,5.7450156E0,1.06075115E1,1.9204294E1,8.475449E0,-2.382058E1,-1.6582524E0,9.778631E0,3.8881526E0,1.1373083E1,-7.220329E0,-1.8697981E0,-1.1922378E1,-7.5747337E0,-6.136562E0,-8.096158E-1,-1.3314485E1,-4.580937E1,-1.2848819E1,1.6512566E1,-1.3589941E1,-2.572345E0,-2.307164E1,6.4137726E0,1.0058148E1,2.0467176E1,7.0401196E0,2.5449523E-1,2.5988605E1,7.8598857E0,3.2536423E1,1.8170576E1,2.2757942E1,-3.757261E-1,-1.0885637E1,-3.7788616E1,1.4786268E1,-5.8575783E0,-3.5609467E0,1.3849631E1,4.125217E-2,4.0729257E-1,7.3128027E-1,2.7791527E-1,-2.7951774E-1,-4.4914505E-1,-1.5827496E-1,1.0869463E-1,-4.759395E-1,-8.3555996E-1,-4.3820286E-1,-2.6350367E-1,-6.277491E-1,-1.3213731E-1,-7.31208E-1,-2.6242292E-2,-8.712663E-1,-4.625658E-1,-1.1035446E0,-2.5009983E0,-1.1451024E0,-3.3847532E-1,4.5779324E-1,1.2693602E0,3.9593947E-1,-9.533059E-1,-3.6438653E-1,1.5223758E-2,-9.2338127E-1,-1.8115122E0,8.958816E-1,-4.2203967E-2,6.4480263E-1,3.2244882E-1,1.3857003E0,6.2081236E-1,2.4993233E-1,4.607474E-1,-3.6328527E-1,3.887293E-1,1.6079638E0,1.1100607E0,6.2079006E-1,2.3063026E-1,9.27209E-1,1.7284164E0,1.0013136E0,7.692997E-1,1.5107608E0,9.290991E-1,-3.4202297E0,-9.6094393E-4,-8.222761E-1,-1.3527906E-1,-1.1054666E0,-2.4144695E0,5.143449E-1,8.625292E-1,-4.6763226E-1,6.4403206E-2,3.1152168E-1,-5.394389E-1,1.1471226E0,5.700114E-1],"categories":[],"categories_nodes":[],"categories_segments":[],"categories_sizes":[],"default_left":[0,0,0,0,0,0,0,0,0,0,0,0,0,0,0,0,0,0,0,0,0,0,0,0,0,0,0,0,0,0,0,0,0,0,0,0,0,0,0,0,0,0,0,0,0,0,0,0,0,0,0,0,0,0,0,0,0,0,0,0,0,0,0,0,0,0,0,0,0,0,0,0,0,0,0,0,0,0,0,0,0,0,0,0,0,0,0,0,0,0,0,0,0,0,0,0,0,0,0,0,0,0,0,0,0,0,0,0,0,0,0,0,0,0,0,0,0,0,0,0,0,0,0,0,0,0,0],"id":11,"left_children":[1,3,5,7,9,11,13,15,17,19,21,23,25,27,29,31,33,35,37,39,41,43,45,47,49,51,53,55,57,59,61,63,65,67,69,71,73,75,77,79,81,83,85,87,89,91,93,95,97,99,101,103,105,107,109,111,113,115,117,119,121,123,125,-1,-1,-1,-1,-1,-1,-1,-1,-1,-1,-1,-1,-1,-1,-1,-1,-1,-1,-1,-1,-1,-1,-1,-1,-1,-1,-1,-1,-1,-1,-1,-1,-1,-1,-1,-1,-1,-1,-1,-1,-1,-1,-1,-1,-1,-1,-1,-1,-1,-1,-1,-1,-1,-1,-1,-1,-1,-1,-1,-1,-1,-1,-1,-1],"loss_changes":[5.211946E6,1.2057782E6,1.418011E6,5.700866E5,1.2035252E6,4.2516475E5,1.6277925E6,4.717539E5,2.676348E5,1.4708805E6,4.3077625E5,2.6201138E5,1.6898425E5,2.373267E6,7.500299E5,1.161745E5,3.5493055E4,3.8484125E4,6.4687414E4,3.9965625E5,1.4469656E5,6.253148E5,1.7247699E6,1.9004775E5,1.0491009E5,1.496516E5,8.8516E4,5.1048206E5,9.414465E5,6.086754E5,8.914739E5,4.9525117E4,8.6404375E4,6.4641562E3,1.4352497E4,3.598078E4,1.5924156E4,6.589413E4,3.9928434E4,7.6030312E3,2.066915E5,1.402107E4,3.9459234E4,8.709411E5,2.3051831E5,3.86629E5,2.4022703E5,8.330919E4,1.3022519E5,5.29555E4,1.593652E5,1.18306875E4,4.4471984E4,1.2545625E4,3.0707875E4,4.7546938E4,6.047828E4,1.2311394E5,4.115245E5,1.9700344E4,1.7535881E5,2.717554E5,2.7984975E5,0E0,0E0,0E0,0E0,0E0,0E0,0E0,0E0,0E0,0E0,0E0,0E0,0E0,0E0,0E0,0E0,0E0,0E0,0E0,0E0,0E0,0E0,0E0,0E0,0E0,0E0,0E0,0E0,0E0,0E0,0E0,0E0,0E0,0E0,0E0,0E0,0E0,0E0,0E0,0E0,0E0,0E0,0E0,0E0,0E0,0E0,0E0,0E0,0E0,0E0,0E0,0E0,0E0,0E0,0E0,0E0,0E0,0E0,0E0,0E0,0E0,0E0,0E0,0E0],"parents":[2147483647,0,0,1,1,2,2,3,3,4,4,5,5,6,6,7,7,8,8,9,9,10,10,11,11,12,12,13,13,14,14,15,15,16,16,17,17,18,18,19,19,20,20,21,21,22,22,23,23,24,24,25,25,26,26,27,27,28,28,29,29,30,30,31,31,32,32,33,33,34,34,35,35,36,36,37,37,38,38,39,39,40,40,41,41,42,42,43,43,44,44,45,45,46,46,47,47,48,48,49,49,50,50,51,51,52,52,53,53,54,54,55,55,56,56,57,57,58,58,59,59,60,60,61,61,62,62],"right_children":[2,4,6,8,10,12,14,16,18,20,22,24,26,28,30,32,34,36,38,40,42,44,46,48,50,52,54,56,58,60,62,64,66,68,70,72,74,76,78,80,82,84,86,88,90,92,94,96,98,100,102,104,106,108,110,112,114,116,118,120,122,124,126,-1,-1,-1,-1,-1,-1,-1,-1,-1,-1,-1,-1,-1,-1,-1,-1,-1,-1,-1,-1,-1,-1,-1,-1,-1,-1,-1,-1,-1,-1,-1,-1,-1,-1,-1,-1,-1,-1,-1,-1,-1,-1,-1,-1,-1,-1,-1,-1,-1,-1,-1,-1,-1,-1,-1,-1,-1,-1,-1,-1,-1,-1,-1,-1],"split_conditions":[3.967617E2,-6.712204E0,-6.6625943E0,1.9242807E1,-1.4112167E0,4.1404633E2,-4.9377555E-1,8.241262E-1,3.8442856E2,1.7213356E-2,5.8070296E-1,1.9359295E1,-8.606997E-3,5.51937E-1,-1.4780942E-1,3.8615152E2,3.854407E2,-5.012418E-1,3.4560184E1,8.016841E0,6.3607824E-1,-5.9482276E-1,1.7213356E-2,5.823218E-1,5.075384E-1,-1.3052619E-1,3.301718E1,-4.3619387E-2,4.611201E-1,1.7213356E-2,1.7213356E-2,5.51937E-1,1.5251075E1,-4.246069E-1,8.717063E-1,4.9242356E-1,3.8223486E2,-5.160624E-1,-5.3729963E-1,3.8828262E2,6.8835455E-1,3.8767377E2,8.5876393E-1,-8.606997E-3,3.8361252E2,5.304166E-1,3.4204865E-1,8.241262E-1,1.6928453E1,4.0546274E2,-5.012418E-1,-5.2249855E-1,4.461978E-1,-3.3318424E-1,2.3664968E1,1.7560799E1,-1.9056396E0,8.5264015E-1,6.4944804E-1,4.0265152E2,4.1275732E2,5.6640625E-1,1.5892034E1,4.125217E-2,4.0729257E-1,7.3128027E-1,2.7791527E-1,-2.7951774E-1,-4.4914505E-1,-1.5827496E-1,1.0869463E-1,-4.759395E-1,-8.3555996E-1,-4.3820286E-1,-2.6350367E-1,-6.277491E-1,-1.3213731E-1,-7.31208E-1,-2.6242292E-2,-8.712663E-1,-4.625658E-1,-1.1035446E0,-2.5009983E0,-1.1451024E0,-3.3847532E-1,4.5779324E-1,1.2693602E0,3.9593947E-1,-9.533059E-1,-3.6438653E-1,1.5223758E-2,-9.2338127E-1,-1.8115122E0,8.958816E-1,-4.2203967E-2,6.4480263E-1,3.2244882E-1,1.3857003E0,6.2081236E-1,2.4993233E-1,4.607474E-1,-3.6328527E-1,3.887293E-1,1.6079638E0,1.1100607E0,6.2079006E-1,2.3063026E-1,9.27209E-1,1.7284164E0,1.0013136E0,7.692997E-1,1.5107608E0,9.290991E-1,-3.4202297E0,-9.6094393E-4,-8.222761E-1,-1.3527906E-1,-1.1054666E0,-2.4144695E0,5.143449E-1,8.625292E-1,-4.6763226E-1,6.4403206E-2,3.1152168E-1,-5.394389E-1,1.1471226E0,5.700114E-1],"split_indices":[7,5,5,0,3,7,12,8,7,12,8,0,12,8,8,7,7,12,2,0,8,8,12,10,8,8,2,8,10,12,12,8,0,10,12,8,7,12,8,7,8,7,12,12,7,10,3,8,0,7,12,8,8,10,0,0,3,8,8,7,7,8,0,0,0,0,0,0,0,0,0,0,0,0,0,0,0,0,0,0,0,0,0,0,0,0,0,0,0,0,0,0,0,0,0,0,0,0,0,0,0,0,0,0,0,0,0,0,0,0,0,0,0,0,0,0,0,0,0,0,0,0,0,0,0,0,0],"split_type":[0,0,0,0,0,0,0,0,0,0,0,0,0,0,0,0,0,0,0,0,0,0,0,0,0,0,0,0,0,0,0,0,0,0,0,0,0,0,0,0,0,0,0,0,0,0,0,0,0,0,0,0,0,0,0,0,0,0,0,0,0,0,0,0,0,0,0,0,0,0,0,0,0,0,0,0,0,0,0,0,0,0,0,0,0,0,0,0,0,0,0,0,0,0,0,0,0,0,0,0,0,0,0,0,0,0,0,0,0,0,0,0,0,0,0,0,0,0,0,0,0,0,0,0,0,0,0],"sum_hessian":[1.42076E5,7.246E4,6.9616E4,3.5428E4,3.7032E4,3.5141E4,3.4475E4,1.3373E4,2.2055E4,3.38E3,3.3652E4,2.5131E4,1.001E4,9.249E3,2.5226E4,8.369E3,5.004E3,8.965E3,1.309E4,2.542E3,8.38E2,2.4384E4,9.268E3,1.0378E4,1.4753E4,3.545E3,6.465E3,4.037E3,5.212E3,8.812E3,1.6414E4,3.797E3,4.572E3,2.267E3,2.737E3,3.139E3,5.826E3,2.939E3,1.0151E4,4.64E2,2.078E3,2.31E2,6.07E2,7.392E3,1.6992E4,6.392E3,2.876E3,8.141E3,2.237E3,1.1937E4,2.816E3,5.36E2,3.009E3,4.63E2,6.002E3,1.544E3,2.493E3,2.707E3,2.505E3,1.792E3,7.02E3,3.838E3,1.2576E4,2.209E3,1.588E3,2.931E3,1.641E3,1.18E3,1.087E3,2.073E3,6.64E2,2.092E3,1.047E3,3.841E3,1.985E3,1.035E3,1.904E3,2.04E2,9.947E3,2.29E2,2.35E2,3.14E2,1.764E3,8.6E1,1.45E2,3.33E2,2.74E2,1.5E3,5.892E3,6.438E3,1.0554E4,4.737E3,1.655E3,1.112E3,1.764E3,4.556E3,3.585E3,1.176E3,1.061E3,6.159E3,5.778E3,1.408E3,1.408E3,2.01E2,3.35E2,1.251E3,1.758E3,6E1,4.03E2,3.598E3,2.404E3,5.52E2,9.92E2,1.2E1,2.481E3,1.611E3,1.096E3,1.006E3,1.499E3,6.36E2,1.156E3,4.714E3,2.306E3,1.63E3,2.208E3,2.667E3,9.909E3],"tree_param":{"num_deleted":"0","num_feature":"13","num_nodes":"127","size_leaf_vector":"1"}},{"base_weights":[4.3936964E-2,-5.6375337E0,5.9633374E0,-1.0587166E1,-2.1247823E0,-2.153611E0,8.223706E0,-1.9517735E1,-5.916544E0,-5.6339808E0,1.0838865E0,-2.0707779E1,4.6991754E0,6.288641E0,1.385651E1,-6.467457E0,-3.4267582E1,-1.4438753E1,-2.789804E0,1.46745615E1,-5.855761E0,4.110987E0,-8.432756E-1,-6.1315217E0,-3.1212334E1,1.7226238E0,1.7719078E1,9.342444E0,3.6681602E0,7.4278836E0,1.5919916E1,9.414108E0,-1.1297655E1,-2.1781229E1,-5.1625626E1,2.7046423E0,-1.781852E1,-1.0319027E1,1.0434785E0,3.690857E1,-3.9752345E0,-3.3285346E0,-7.5612144E0,6.8584366E0,-2.1189187E0,-1.6125102E-1,-1.5567284E1,1.5968609E0,-1.2857741E1,-1.2497658E1,-4.877093E1,1.1453675E1,-9.6222407E-1,2.2970537E1,1.1659654E1,1.2521958E1,6.693846E0,-3.3276055E0,5.2421446E0,2.539455E1,3.216965E0,8.72983E0,1.8720959E1,8.508013E-1,3.254524E-1,-7.6712936E-1,-2.8304696E-1,-7.024787E-1,-1.2489594E0,-1.7796545E0,-2.8798678E0,-5.6299906E-2,3.0695453E-1,-6.352695E-1,-1.1623596E0,-8.295538E-1,-2.3883557E-1,4.1210657E-1,-1.5731405E-1,3.6307442E0,1.3817651E0,-9.304063E-1,3.018542E-1,-3.0799112E-1,9.3065284E-2,-3.4361494E-1,-7.5516886E-1,5.796675E-1,-1.2754546E-1,-2.7619934E-1,4.8909783E-1,-7.4676454E-1,1.2543619E-2,-1.7834469E0,-3.3540618E-1,-2.2434719E0,1.3939561E-1,8.05983E-1,-8.115274E-1,-9.019355E-1,-3.6894467E-1,-2.0750473E0,-3.1303012E0,4.2344952E-1,8.3114594E-1,-2.8342786E-1,2.1161215E-1,9.773981E-1,1.371519E0,4.5084453E-1,1.5572703E0,8.423357E-1,2.7174726E-1,2.378413E-1,4.535884E-1,4.795246E-1,-7.640752E-1,-7.875453E-2,4.1971508E-1,1.5852995E0,1.0507773E0,5.5331117E-1,-2.0403735E-2,8.5691977E-1,1.13169245E-1,1.5526439E0,8.732566E-1],"categories":[],"categories_nodes":[],"categories_segments":[],"categories_sizes":[],"default_left":[0,0,0,0,0,0,0,0,0,0,0,0,0,0,0,0,0,0,0,0,0,0,0,0,0,0,0,0,0,0,0,0,0,0,0,0,0,0,0,0,0,0,0,0,0,0,0,0,0,0,0,0,0,0,0,0,0,0,0,0,0,0,0,0,0,0,0,0,0,0,0,0,0,0,0,0,0,0,0,0,0,0,0,0,0,0,0,0,0,0,0,0,0,0,0,0,0,0,0,0,0,0,0,0,0,0,0,0,0,0,0,0,0,0,0,0,0,0,0,0,0,0,0,0,0,0,0],"id":12,"left_children":[1,3,5,7,9,11,13,15,17,19,21,23,25,27,29,31,33,35,37,39,41,43,45,47,49,51,53,55,57,59,61,63,65,67,69,71,73,75,77,79,81,83,85,87,89,91,93,95,97,99,101,103,105,107,109,111,113,115,117,119,121,123,125,-1,-1,-1,-1,-1,-1,-1,-1,-1,-1,-1,-1,-1,-1,-1,-1,-1,-1,-1,-1,-1,-1,-1,-1,-1,-1,-1,-1,-1,-1,-1,-1,-1,-1,-1,-1,-1,-1,-1,-1,-1,-1,-1,-1,-1,-1,-1,-1,-1,-1,-1,-1,-1,-1,-1,-1,-1,-1,-1,-1,-1,-1,-1,-1],"loss_changes":[4.7766305E6,1.2600345E6,1.2762378E6,1.2546832E6,4.773118E5,1.9266415E6,5.9294975E5,1.9881912E6,5.263375E5,9.127825E4,1.29185555E5,6.255945E5,4.288238E5,3.2404688E5,1.8440725E5,4.2063688E5,1.049834E6,3.0725112E5,4.1714897E5,9.09605E4,8.63E4,1.4745525E5,1.3587606E5,8.90682E4,7.7981725E5,2.3535861E5,6.5247875E4,1.5740875E5,2.4002928E5,2.5578464E5,2.11905E5,2.8132352E4,9.576275E4,6.942075E4,1.92105E5,1.1505877E4,1.22639E5,1.6941656E5,2.889049E5,3.1094656E4,1.7694695E4,1.1862131E5,6.202675E4,2.66365E5,1.0691352E5,7.875073E4,1.0642866E5,4.428519E4,8.9787E4,3.2510562E4,1.2060325E5,2.9911547E4,1.7264362E5,1.62801875E4,4.9048555E4,2.603665E5,4.6960562E4,6.184514E5,3.8238903E5,1.7071844E4,7.799765E4,1.6057867E5,1.16796E5,0E0,0E0,0E0,0E0,0E0,0E0,0E0,0E0,0E0,0E0,0E0,0E0,0E0,0E0,0E0,0E0,0E0,0E0,0E0,0E0,0E0,0E0,0E0,0E0,0E0,0E0,0E0,0E0,0E0,0E0,0E0,0E0,0E0,0E0,0E0,0E0,0E0,0E0,0E0,0E0,0E0,0E0,0E0,0E0,0E0,0E0,0E0,0E0,0E0,0E0,0E0,0E0,0E0,0E0,0E0,0E0,0E0,0E0,0E0,0E0,0E0,0E0,0E0,0E0],"parents":[2147483647,0,0,1,1,2,2,3,3,4,4,5,5,6,6,7,7,8,8,9,9,10,10,11,11,12,12,13,13,14,14,15,15,16,16,17,17,18,18,19,19,20,20,21,21,22,22,23,23,24,24,25,25,26,26,27,27,28,28,29,29,30,30,31,31,32,32,33,33,34,34,35,35,36,36,37,37,38,38,39,39,40,40,41,41,42,42,43,43,44,44,45,45,46,46,47,47,48,48,49,49,50,50,51,51,52,52,53,53,54,54,55,55,56,56,57,57,58,58,59,59,60,60,61,61,62,62],"right_children":[2,4,6,8,10,12,14,16,18,20,22,24,26,28,30,32,34,36,38,40,42,44,46,48,50,52,54,56,58,60,62,64,66,68,70,72,74,76,78,80,82,84,86,88,90,92,94,96,98,100,102,104,106,108,110,112,114,116,118,120,122,124,126,-1,-1,-1,-1,-1,-1,-1,-1,-1,-1,-1,-1,-1,-1,-1,-1,-1,-1,-1,-1,-1,-1,-1,-1,-1,-1,-1,-1,-1,-1,-1,-1,-1,-1,-1,-1,-1,-1,-1,-1,-1,-1,-1,-1,-1,-1,-1,-1,-1,-1,-1,-1,-1,-1,-1,-1,-1,-1,-1,-1,-1,-1,-1,-1],"split_conditions":[3.967617E2,1.5589348E0,1.3824314E0,-4.9377555E-1,3.8615152E2,-4.9377555E-1,4.1511423E2,5.9482276E-1,-5.51937E-1,-9.493262E-1,1.8655918E1,6.3607824E-1,8.6314213E-1,-6.928588E0,-5.160624E-1,-2.6176948E-2,4.5155618E-1,-8.606997E-3,1.7213356E-2,2.5105701E1,1.91263E1,-6.7646413E0,6.087614E-1,-3.7112322E-1,4.327476E-1,-6.466181E0,1.8897314E1,1.94514E1,-8.5876393E-1,-8.726535E-3,-2.1643962E-1,-8.5876393E-1,4.8739624E-1,-6.4714756E0,6.4944804E-1,3.8717242E2,4.862727E-1,1.2647827E0,1.9006727E1,-7.393085E-2,1.3052619E-1,4.1440487E-2,5.51937E-1,8.3388585E-1,9.634924E-2,-5.2249855E-1,4.9726868E-1,-1.8487434E0,-2.6176948E-2,8.616292E-1,1.0438033E-2,4.1398804E2,4.862727E-1,4.5155618E-1,-6.162418E0,8.241262E-1,4.0651056E2,5.075384E-1,-5.2249855E-1,-5.2249855E-1,-7.132678E0,5.234156E-1,-9.361687E-1,8.508013E-1,3.254524E-1,-7.6712936E-1,-2.8304696E-1,-7.024787E-1,-1.2489594E0,-1.7796545E0,-2.8798678E0,-5.6299906E-2,3.0695453E-1,-6.352695E-1,-1.1623596E0,-8.295538E-1,-2.3883557E-1,4.1210657E-1,-1.5731405E-1,3.6307442E0,1.3817651E0,-9.304063E-1,3.018542E-1,-3.0799112E-1,9.3065284E-2,-3.4361494E-1,-7.5516886E-1,5.796675E-1,-1.2754546E-1,-2.7619934E-1,4.8909783E-1,-7.4676454E-1,1.2543619E-2,-1.7834469E0,-3.3540618E-1,-2.2434719E0,1.3939561E-1,8.05983E-1,-8.115274E-1,-9.019355E-1,-3.6894467E-1,-2.0750473E0,-3.1303012E0,4.2344952E-1,8.3114594E-1,-2.8342786E-1,2.1161215E-1,9.773981E-1,1.371519E0,4.5084453E-1,1.5572703E0,8.423357E-1,2.7174726E-1,2.378413E-1,4.535884E-1,4.795246E-1,-7.640752E-1,-7.875453E-2,4.1971508E-1,1.5852995E0,1.0507773E0,5.5331117E-1,-2.0403735E-2,8.5691977E-1,1.13169245E-1,1.5526439E0,8.732566E-1],"split_indices":[7,4,4,12,7,12,7,8,8,9,0,8,12,5,12,8,10,12,12,0,0,5,8,9,10,5,0,0,12,8,8,12,3,5,8,7,12,4,0,10,8,6,8,8,6,8,3,3,8,8,9,7,12,10,5,8,7,8,8,8,5,12,3,0,0,0,0,0,0,0,0,0,0,0,0,0,0,0,0,0,0,0,0,0,0,0,0,0,0,0,0,0,0,0,0,0,0,0,0,0,0,0,0,0,0,0,0,0,0,0,0,0,0,0,0,0,0,0,0,0,0,0,0,0,0,0,0],"split_type":[0,0,0,0,0,0,0,0,0,0,0,0,0,0,0,0,0,0,0,0,0,0,0,0,0,0,0,0,0,0,0,0,0,0,0,0,0,0,0,0,0,0,0,0,0,0,0,0,0,0,0,0,0,0,0,0,0,0,0,0,0,0,0,0,0,0,0,0,0,0,0,0,0,0,0,0,0,0,0,0,0,0,0,0,0,0,0,0,0,0,0,0,0,0,0,0,0,0,0,0,0,0,0,0,0,0,0,0,0,0,0,0,0,0,0,0,0,0,0,0,0,0,0,0,0,0,0],"sum_hessian":[1.42029E5,7.2471E4,6.9558E4,3.0082E4,4.2389E4,1.5151E4,5.4407E4,1.0329E4,1.9753E4,2.0246E4,2.2143E4,4.086E3,1.1065E4,4.0497E4,1.391E4,5.481E3,4.848E3,5.301E3,1.4452E4,2.18E2,2.0028E4,8.613E3,1.353E4,1.712E3,2.374E3,9.007E3,2.058E3,1.8701E4,2.1796E4,3.381E3,1.0529E4,1.278E3,4.203E3,2.821E3,2.027E3,8.73E2,4.428E3,4.875E3,9.577E3,9.9E1,1.19E2,8.071E3,1.1957E4,5.977E3,2.636E3,1.2932E4,5.98E2,7.97E2,9.15E2,1.15E3,1.224E3,1.947E3,7.06E3,1.101E3,9.57E2,8.497E3,1.0204E4,4.003E3,1.7793E4,6.41E2,2.74E3,2.953E3,7.576E3,3.52E2,9.26E2,2.446E3,1.757E3,8.27E2,1.994E3,5.52E2,1.475E3,4.13E2,4.6E2,2.282E3,2.146E3,2.286E3,2.589E3,3.523E3,6.054E3,1.9E1,8E1,4.8E1,7.1E1,5.222E3,2.849E3,1.0958E4,9.99E2,3.976E3,2.001E3,2.05E3,5.86E2,3.5E2,1.2582E4,1.82E2,4.16E2,1.9E1,7.78E2,9.5E1,8.2E2,5.51E2,5.99E2,8.05E2,4.19E2,1.236E3,7.11E2,3.704E3,3.356E3,6.26E2,4.75E2,8.44E2,1.13E2,5.276E3,3.221E3,5.625E3,4.579E3,1.924E3,2.079E3,5.626E3,1.2167E4,2.6E2,3.81E2,8.65E2,1.875E3,1.283E3,1.67E3,6.98E2,6.878E3],"tree_param":{"num_deleted":"0","num_feature":"13","num_nodes":"127","size_leaf_vector":"1"}},