{"learner":{"attributes":{"best_iteration":"499","best_score":"5.206356230766969","scikit_learn":"{\"_estimator_type\": \"regressor\"}"},"feature_names":[],"feature_types":[],"gradient_booster":{"model":{"gbtree_model_param":{"num_parallel_tree":"1","num_trees":"500"},"iteration_indptr":[0,1,2,3,4,5,6,7,8,9,10,11,12,13,14,15,16,17,18,19,20,21,22,23,24,25,26,27,28,29,30,31,32,33,34,35,36,37,38,39,40,41,42,43,44,45,46,47,48,49,50,51,52,53,54,55,56,57,58,59,60,61,62,63,64,65,66,67,68,69,70,71,72,73,74,75,76,77,78,79,80,81,82,83,84,85,86,87,88,89,90,91,92,93,94,95,96,97,98,99,100,101,102,103,104,105,106,107,108,109,110,111,112,113,114,115,116,117,118,119,120,121,122,123,124,125,126,127,128,129,130,131,132,133,134,135,136,137,138,139,140,141,142,143,144,145,146,147,148,149,150,151,152,153,154,155,156,157,158,159,160,161,162,163,164,165,166,167,168,169,170,171,172,173,174,175,176,177,178,179,180,181,182,183,184,185,186,187,188,189,190,191,192,193,194,195,196,197,198,199,200,201,202,203,204,205,206,207,208,209,210,211,212,213,214,215,216,217,218,219,220,221,222,223,224,225,226,227,228,229,230,231,232,233,234,235,236,237,238,239,240,241,242,243,244,245,246,247,248,249,250,251,252,253,254,255,256,257,258,259,260,261,262,263,264,265,266,267,268,269,270,271,272,273,274,275,276,277,278,279,280,281,282,283,284,285,286,287,288,289,290,291,292,293,294,295,296,297,298,299,300,301,302,303,304,305,306,307,308,309,310,311,312,313,314,315,316,317,318,319,320,321,322,323,324,325,326,327,328,329,330,331,332,333,334,335,336,337,338,339,340,341,342,343,344,345,346,347,348,349,350,351,352,353,354,355,356,357,358,359,360,361,362,363,364,365,366,367,368,369,370,371,372,373,374,375,376,377,378,379,380,381,382,383,384,385,386,387,388,389,390,391,392,393,394,395,396,397,398,399,400,401,402,403,404,405,406,407,408,409,410,411,412,413,414,415,416,417,418,419,420,421,422,423,424,425,426,427,428,429,430,431,432,433,434,435,436,437,438,439,440,441,442,443,444,445,446,447,448,449,450,451,452,453,454,455,456,457,458,459,460,461,462,463,464,465,466,467,468,469,470,471,472,473,474,475,476,477,478,479,480,481,482,483,484,485,486,487,488,489,490,491,492,493,494,495,496,497,498,499,500],"tree_info":[0,0,0,0,0,0,0,0,0,0,0,0,0,0,0,0,0,0,0,0,0,0,0,0,0,0,0,0,0,0,0,0,0,0,0,0,0,0,0,0,0,0,0,0,0,0,0,0,0,0,0,0,0,0,0,0,0,0,0,0,0,0,0,0,0,0,0,0,0,0,0,0,0,0,0,0,0,0,0,0,0,0,0,0,0,0,0,0,0,0,0,0,0,0,0,0,0,0,0,0,0,0,0,0,0,0,0,0,0,0,0,0,0,0,0,0,0,0,0,0,0,0,0,0,0,0,0,0,0,0,0,0,0,0,0,0,0,0,0,0,0,0,0,0,0,0,0,0,0,0,0,0,0,0,0,0,0,0,0,0,0,0,0,0,0,0,0,0,0,0,0,0,0,0,0,0,0,0,0,0,0,0,0,0,0,0,0,0,0,0,0,0,0,0,0,0,0,0,0,0,0,0,0,0,0,0,0,0,0,0,0,0,0,0,0,0,0,0,0,0,0,0,0,0,0,0,0,0,0,0,0,0,0,0,0,0,0,0,0,0,0,0,0,0,0,0,0,0,0,0,0,0,0,0,0,0,0,0,0,0,0,0,0,0,0,0,0,0,0,0,0,0,0,0,0,0,0,0,0,0,0,0,0,0,0,0,0,0,0,0,0,0,0,0,0,0,0,0,0,0,0,0,0,0,0,0,0,0,0,0,0,0,0,0,0,0,0,0,0,0,0,0,0,0,0,0,0,0,0,0,0,0,0,0,0,0,0,0,0,0,0,0,0,0,0,0,0,0,0,0,0,0,0,0,0,0,0,0,0,0,0,0,0,0,0,0,0,0,0,0,0,0,0,0,0,0,0,0,0,0,0,0,0,0,0,0,0,0,0,0,0,0,0,0,0,0,0,0,0,0,0,0,0,0,0,0,0,0,0,0,0,0,0,0,0,0,0,0,0,0,0,0,0,0,0,0,0,0,0,0,0,0,0,0,0,0,0,0,0,0,0,0,0,0,0,0,0,0,0,0,0,0,0,0,0,0,0,0,0,0,0,0,0,0,0,0,0,0,0,0,0,0,0,0,0,0,0,0,0,0,0,0,0,0,0,0,0,0,0,0,0,0,0,0,0,0,0,0,0,0],"trees":[{"base_weights":[2.8027932E-3,-9.00941E0,7.8081627E0,-1.779929E1,-2.5616457E0,1.4907323E1,1.1360967E0,-4.4736813E1,-1.42906065E1,-5.873415E0,2.8062978E0,2.2726994E1,9.353326E0,-2.9293346E1,2.961901E0,-1.0274944E1,-6.6927E1,-6.4692307E0,-1.7908863E1,-8.677043E0,-5.3761137E-1,6.733555E0,-2.9624867E0,1.9386019E1,2.9168861E1,3.9971423E0,1.32208805E1,-6.940422E0,-3.8101418E1,6.909707E-1,1.8335539E1,1.8847305E1,-1.4332397E1,-2.429338E1,-8.115062E1,1.1701678E1,-1.0150979E1,-2.4521793E1,-1.2798749E1,1.6907347E1,-8.967594E0,-2.3087745E0,4.8607726E0,2.575731E0,1.1791006E1,-7.4061646E0,7.327268E-1,2.114131E1,1.0292448E1,3.280565E1,2.0001215E1,2.7943307E-1,5.20465E0,8.704784E0,1.5342585E1,-1.637555E1,3.5239198E0,-2.5340694E1,-6.465768E1,-2.5293396E0,9.275844E0,2.7220125E1,1.121155E1,-6.25313E-1,1.0783265E0,-1.0237808E0,-9.4494395E-2,-2.6547356E0,-8.4513634E-1,-1.8965632E0,-4.524644E0,7.0649666E-1,-2.5163627E-1,-8.7616396E-1,-3.6603853E-1,-1.0245248E0,-1.774608E0,-8.695345E-1,-4.6512327E-1,1.6309592E0,-2.1329348E-1,2.3805037E-1,-4.759431E-1,2.476348E0,-1.2562281E-1,9.116296E-1,1.420323E-2,-3.1619515E-2,3.9275837E-1,6.7665434E-1,1.3880388E-1,1.3631243E0,-3.812451E-1,-5.0968435E-2,2.6182908E-1,8.277113E-1,1.1930046E0,1.420143E0,3.0568436E-1,1.8147401E0,1.0971892E0,6.48719E-1,1.2416388E0,1.2127644E-1,-2.3684862E-1,9.4414935E-2,3.361125E-1,-2.5607808E0,4.493663E-1,6.336741E-1,9.1680497E-1,-5.3937536E-1,-3.251644E0,1.0037645E0,1.0619801E-2,-1.3477817E0,7.6246184E-1,1.2447174E-1,-3.766445E0,-2.6190332E-1,4.1358176E-1,1.7667897E-1,7.219511E-1,9.364156E-1,1.5732365E0,3.0307636E-1,8.6622554E-1],"categories":[],"categories_nodes":[],"categories_segments":[],"categories_sizes":[],"default_left":[0,0,0,0,0,0,0,0,0,0,0,0,0,0,0,0,0,0,0,0,0,0,0,0,0,0,0,0,0,0,0,0,0,0,0,0,0,0,0,0,0,0,0,0,0,0,0,0,0,0,0,0,0,0,0,0,0,0,0,0,0,0,0,0,0,0,0,0,0,0,0,0,0,0,0,0,0,0,0,0,0,0,0,0,0,0,0,0,0,0,0,0,0,0,0,0,0,0,0,0,0,0,0,0,0,0,0,0,0,0,0,0,0,0,0,0,0,0,0,0,0,0,0,0,0,0,0],"id":0,"left_children":[1,3,5,7,9,11,13,15,17,19,21,23,25,27,29,31,33,35,37,39,41,43,45,47,49,51,53,55,57,59,61,63,65,67,69,71,73,75,77,79,81,83,85,87,89,91,93,95,97,99,101,103,105,107,109,111,113,115,117,119,121,123,125,-1,-1,-1,-1,-1,-1,-1,-1,-1,-1,-1,-1,-1,-1,-1,-1,-1,-1,-1,-1,-1,-1,-1,-1,-1,-1,-1,-1,-1,-1,-1,-1,-1,-1,-1,-1,-1,-1,-1,-1,-1,-1,-1,-1,-1,-1,-1,-1,-1,-1,-1,-1,-1,-1,-1,-1,-1,-1,-1,-1,-1,-1,-1,-1],"loss_changes":[1.0021987E7,3.747535E6,3.6162865E6,2.643891E6,6.781353E5,1.6062755E6,2.1867995E6,2.464747E6,7.004985E5,3.5290644E5,3.2977112E5,3.300315E5,4.4801825E5,4.3839338E5,1.2963549E6,1.4962667E5,1.187177E6,5.2408503E5,5.716605E5,1.15111125E5,7.771661E4,1.8207056E5,9.6820414E4,1.612815E5,1.741775E5,4.0719203E4,1.202115E5,6.2359133E4,5.3987825E5,8.944814E5,3.021715E5,1.3485512E4,8.480422E4,1.03823E5,5.90091E5,5.3710734E4,1.35764E5,3.25513E5,1.5315812E5,5.8026586E4,1.157775E5,6.4734703E4,1.22880375E5,8.052453E4,6.1319188E4,2.0506516E4,2.5415367E4,1.053575E5,1.2386094E5,1.414315E5,5.032825E4,2.396491E4,3.444667E4,6.846384E4,6.8031125E4,8.956142E4,1.6436785E4,7.1272E4,3.713635E5,6.884284E5,2.6162338E5,7.6036E4,8.344559E4,0E0,0E0,0E0,0E0,0E0,0E0,0E0,0E0,0E0,0E0,0E0,0E0,0E0,0E0,0E0,0E0,0E0,0E0,0E0,0E0,0E0,0E0,0E0,0E0,0E0,0E0,0E0,0E0,0E0,0E0,0E0,0E0,0E0,0E0,0E0,0E0,0E0,0E0,0E0,0E0,0E0,0E0,0E0,0E0,0E0,0E0,0E0,0E0,0E0,0E0,0E0,0E0,0E0,0E0,0E0,0E0,0E0,0E0,0E0,0E0,0E0,0E0,0E0,0E0],"parents":[2147483647,0,0,1,1,2,2,3,3,4,4,5,5,6,6,7,7,8,8,9,9,10,10,11,11,12,12,13,13,14,14,15,15,16,16,17,17,18,18,19,19,20,20,21,21,22,22,23,23,24,24,25,25,26,26,27,27,28,28,29,29,30,30,31,31,32,32,33,33,34,34,35,35,36,36,37,37,38,38,39,39,40,40,41,41,42,42,43,43,44,44,45,45,46,46,47,47,48,48,49,49,50,50,51,51,52,52,53,53,54,54,55,55,56,56,57,57,58,58,59,59,60,60,61,61,62,62],"right_children":[2,4,6,8,10,12,14,16,18,20,22,24,26,28,30,32,34,36,38,40,42,44,46,48,50,52,54,56,58,60,62,64,66,68,70,72,74,76,78,80,82,84,86,88,90,92,94,96,98,100,102,104,106,108,110,112,114,116,118,120,122,124,126,-1,-1,-1,-1,-1,-1,-1,-1,-1,-1,-1,-1,-1,-1,-1,-1,-1,-1,-1,-1,-1,-1,-1,-1,-1,-1,-1,-1,-1,-1,-1,-1,-1,-1,-1,-1,-1,-1,-1,-1,-1,-1,-1,-1,-1,-1,-1,-1,-1,-1,-1,-1,-1,-1,-1,-1,-1,-1,-1,-1,-1,-1,-1,-1],"split_conditions":[3.951246E2,1.5643235E0,-6.7074366E0,3.272107E1,1.85926E0,1.9873407E1,1.1864179E0,1.1299041E1,-6.626378E0,3.8854382E2,1.9429007E1,3.9535892E-1,4.0440912E2,4.2122704E-1,9.776163E-2,-6.7074366E0,-5.0520176E-1,2.0097141E1,3.4347054E1,-9.629067E-1,7.384539E-2,3.874471E2,3.8551462E2,2.513267E0,1.7791248E1,3.4514175E1,3.455494E1,3.2589424E1,-8.653073E-1,2.598627E1,1.8491385E1,1.1747816E0,-6.306008E0,-1.2226026E-1,-8.653073E-1,8.5207754E-1,3.8072147E2,6.100175E-1,3.8401797E2,2.5060324E1,3.2843903E1,-9.493262E-1,1.8612396E1,1.2301391E1,2.5935454E0,-9.2356294E-1,3.9227377E2,4.0265152E2,-5.4083884E-1,-7.072028E0,3.0480498E-1,-6.873606E0,3.9811884E2,3.232386E1,4.1404633E2,1.8252117E1,-9.2865884E-1,-8.7380713E-1,1.32936325E1,4.1527115E2,1.5884951E0,1.5180397E-1,4.0883005E2,-6.25313E-1,1.0783265E0,-1.0237808E0,-9.4494395E-2,-2.6547356E0,-8.4513634E-1,-1.8965632E0,-4.524644E0,7.0649666E-1,-2.5163627E-1,-8.7616396E-1,-3.6603853E-1,-1.0245248E0,-1.774608E0,-8.695345E-1,-4.6512327E-1,1.6309592E0,-2.1329348E-1,2.3805037E-1,-4.759431E-1,2.476348E0,-1.2562281E-1,9.116296E-1,1.420323E-2,-3.1619515E-2,3.9275837E-1,6.7665434E-1,1.3880388E-1,1.3631243E0,-3.812451E-1,-5.0968435E-2,2.6182908E-1,8.277113E-1,1.1930046E0,1.420143E0,3.0568436E-1,1.8147401E0,1.0971892E0,6.48719E-1,1.2416388E0,1.2127644E-1,-2.3684862E-1,9.4414935E-2,3.361125E-1,-2.5607808E0,4.493663E-1,6.336741E-1,9.1680497E-1,-5.3937536E-1,-3.251644E0,1.0037645E0,1.0619801E-2,-1.3477817E0,7.6246184E-1,1.2447174E-1,-3.766445E0,-2.6190332E-1,4.1358176E-1,1.7667897E-1,7.219511E-1,9.364156E-1,1.5732365E0,3.0307636E-1,8.6622554E-1],"split_indices":[7,4,5,2,4,0,4,0,5,7,0,10,7,10,6,5,9,0,2,9,6,7,7,4,0,2,2,2,11,0,0,4,5,10,11,11,7,10,7,0,2,9,0,0,4,10,7,7,10,5,9,5,7,2,7,0,9,11,0,7,4,6,7,0,0,0,0,0,0,0,0,0,0,0,0,0,0,0,0,0,0,0,0,0,0,0,0,0,0,0,0,0,0,0,0,0,0,0,0,0,0,0,0,0,0,0,0,0,0,0,0,0,0,0,0,0,0,0,0,0,0,0,0,0,0,0,0],"split_type":[0,0,0,0,0,0,0,0,0,0,0,0,0,0,0,0,0,0,0,0,0,0,0,0,0,0,0,0,0,0,0,0,0,0,0,0,0,0,0,0,0,0,0,0,0,0,0,0,0,0,0,0,0,0,0,0,0,0,0,0,0,0,0,0,0,0,0,0,0,0,0,0,0,0,0,0,0,0,0,0,0,0,0,0,0,0,0,0,0,0,0,0,0,0,0,0,0,0,0,0,0,0,0,0,0,0,0,0,0,0,0,0,0,0,0,0,0,0,0,0,0,0,0,0,0,0,0],"sum_hessian":[1.4247E5,6.6123E4,7.6347E4,2.7979E4,3.8144E4,3.6989E4,3.9358E4,3.223E3,2.4756E4,2.359E4,1.4554E4,1.536E4,2.1629E4,2.227E3,3.7131E4,1.263E3,1.96E3,7.831E3,1.6925E4,1.5464E4,8.126E3,8.659E3,5.895E3,1.0117E4,5.243E3,9.07E3,1.2559E4,6.3E2,1.597E3,3.2353E4,4.778E3,1.54E2,1.109E3,4.91E2,1.469E3,1.319E3,6.512E3,7.376E3,9.549E3,1.73E2,1.5291E4,6.119E3,2.007E3,4.753E3,3.906E3,2.676E3,3.219E3,8.479E3,1.638E3,3.752E3,1.491E3,2.224E3,6.846E3,4.016E3,8.543E3,3.31E2,2.99E2,1.08E3,5.17E2,2.3528E4,8.825E3,2.125E3,2.653E3,1.2E1,1.42E2,7.42E2,3.67E2,9.9E1,3.92E2,2.62E2,1.207E3,1.152E3,1.67E2,1.805E3,4.707E3,5.396E3,1.98E3,4.126E3,5.423E3,9.9E1,7.4E1,5.9E2,1.4701E4,2.3E1,6.096E3,5.11E2,1.496E3,2.957E3,1.796E3,3.273E3,6.33E2,1.6E1,2.66E3,2.318E3,9.01E2,3.158E3,5.321E3,3.06E2,1.332E3,2.838E3,9.14E2,6.09E2,8.82E2,1.558E3,6.66E2,2.15E3,4.696E3,1.8E1,3.998E3,4.519E3,4.024E3,2.98E2,3.3E1,4.9E1,2.5E2,1.039E3,4.1E1,7.1E1,4.46E2,1.8811E4,4.717E3,4.179E3,4.646E3,7.1E2,1.415E3,1.441E3,1.212E3],"tree_param":{"num_deleted":"0","num_feature":"13","num_nodes":"127","size_leaf_vector":"1"}},{"base_weights":[1.323198E-2,-8.470524E0,7.378138E0,-1.6200281E1,-1.9540036E0,1.4058092E1,9.780011E-1,-4.1777477E1,-1.3074567E1,-5.6281033E0,2.1619248E0,2.1668148E1,8.880468E0,5.756155E0,-1.1387949E1,-1.2283246E1,-6.4355064E1,-1.9431286E1,-9.412704E0,-8.245978E0,-6.975179E-1,7.142405E0,-1.3271269E0,2.5186464E1,1.4270488E1,3.7186344E0,1.2580467E1,-1.4602518E0,9.63715E0,3.7009656E-1,-2.7239847E1,1.4908504E1,-1.5731658E1,-2.4267056E1,-7.984039E1,-8.691006E0,-2.291899E1,1.3138574E1,-1.0095555E1,-1.915123E1,-6.8942137E0,1.9217881E0,-6.5573874E0,1.1799658E1,-3.6767273E0,-7.6754254E-1,-3.1462597E1,2.2789732E1,3.371974E1,2.1179949E1,8.144331E0,5.1068974E0,-6.832947E0,1.3912654E1,4.5514183E0,-5.330269E0,7.3412247E0,2.7016885E0,1.2978769E1,-3.8055284E0,2.7793604E1,-4.8308933E1,-1.0373897E1,9.905047E-1,-5.073952E-1,-1.1040242E0,-1.1143886E-1,-2.4880674E0,-8.8868123E-1,-5.135841E0,-3.2576103E0,2.2494029E-1,-7.105078E-1,-9.6154803E-1,-1.6814574E0,8.1869555E-1,-1.577412E-1,-3.6991343E-1,-9.3325585E-1,-1.8177205E-1,-1.2879903E0,3.5836214E-1,-4.189856E-1,2.588182E-1,-2.093041E-1,-3.9146778E-1,-1.719254E-1,8.007979E-1,1.7057745E-1,-7.200308E-1,3.654824E-1,-8.330125E-1,-1.7634947E-2,-2.9391317E0,-9.3760794E-1,1.2777506E0,7.618619E-1,1.7984034E0,1.2787857E0,8.012897E-1,1.308658E0,1.0843139E-1,6.433816E-1,-3.896404E-1,2.702587E-1,-2.521757E-1,-1.3422307E0,5.614915E-1,8.555214E-1,5.123223E-1,-3.4838635E-1,-5.842311E-1,-1.1429532E-1,-1.5266685E-1,5.8519E-1,6.640475E-1,1.546378E-2,1.1087904E0,5.7493544E-1,-7.990098E-1,2.82019E-1,1.2080567E0,3.6326444E0,-1.0644084E0,-2.5874574E0,-5.5158064E-3,-1.214097E0],"categories":[],"categories_nodes":[],"categories_segments":[],"categories_sizes":[],"default_left":[0,0,0,0,0,0,0,0,0,0,0,0,0,0,0,0,0,0,0,0,0,0,0,0,0,0,0,0,0,0,0,0,0,0,0,0,0,0,0,0,0,0,0,0,0,0,0,0,0,0,0,0,0,0,0,0,0,0,0,0,0,0,0,0,0,0,0,0,0,0,0,0,0,0,0,0,0,0,0,0,0,0,0,0,0,0,0,0,0,0,0,0,0,0,0,0,0,0,0,0,0,0,0,0,0,0,0,0,0,0,0,0,0,0,0,0,0,0,0,0,0,0,0,0,0,0,0],"id":1,"left_children":[1,3,5,7,9,11,13,15,17,19,21,23,25,27,29,31,33,35,37,39,41,43,45,47,49,51,53,55,57,59,61,63,65,67,69,71,73,75,77,79,81,83,85,87,89,91,93,95,97,99,101,103,105,107,109,111,113,115,117,119,121,123,125,-1,-1,-1,-1,-1,-1,-1,-1,-1,-1,-1,-1,-1,-1,-1,-1,-1,-1,-1,-1,-1,-1,-1,-1,-1,-1,-1,-1,-1,-1,-1,-1,-1,-1,-1,-1,-1,-1,-1,-1,-1,-1,-1,-1,-1,-1,-1,-1,-1,-1,-1,-1,-1,-1,-1,-1,-1,-1,-1,-1,-1,-1,-1,-1],"loss_changes":[8.871016E6,3.323302E6,3.2491832E6,2.412168E6,5.413768E5,1.4650465E6,2.293445E6,2.187377E6,6.258375E5,2.4414169E5,2.934233E5,3.915045E5,4.2264588E5,7.8412244E5,2.016351E6,1.3394825E5,1.1533165E6,3.679815E5,2.629345E5,1.819945E5,1.0071648E5,3.505392E5,1.6742556E5,2.07877E5,2.0532925E5,1.3541494E5,1.3781962E5,3.335727E5,4.2189962E5,7.11446E5,1.6365912E6,1.997541E4,1.0847928E5,8.5192375E4,4.44221E5,1.7557738E5,2.923935E5,2.6515742E4,3.82752E5,1.3955916E5,2.2970581E5,9.017089E4,8.013297E3,1.7193206E5,2.4681403E5,6.427405E4,6.174214E4,1.66016E5,3.999775E4,5.8279625E4,7.265008E4,3.1469719E4,3.835666E4,9.4655E4,1.2051672E5,1.3155627E5,1.3566966E5,1.4985484E5,1.6698088E5,6.2017544E5,1.3201688E5,1.892675E5,3.6542547E5,0E0,0E0,0E0,0E0,0E0,0E0,0E0,0E0,0E0,0E0,0E0,0E0,0E0,0E0,0E0,0E0,0E0,0E0,0E0,0E0,0E0,0E0,0E0,0E0,0E0,0E0,0E0,0E0,0E0,0E0,0E0,0E0,0E0,0E0,0E0,0E0,0E0,0E0,0E0,0E0,0E0,0E0,0E0,0E0,0E0,0E0,0E0,0E0,0E0,0E0,0E0,0E0,0E0,0E0,0E0,0E0,0E0,0E0,0E0,0E0,0E0,0E0,0E0,0E0],"parents":[2147483647,0,0,1,1,2,2,3,3,4,4,5,5,6,6,7,7,8,8,9,9,10,10,11,11,12,12,13,13,14,14,15,15,16,16,17,17,18,18,19,19,20,20,21,21,22,22,23,23,24,24,25,25,26,26,27,27,28,28,29,29,30,30,31,31,32,32,33,33,34,34,35,35,36,36,37,37,38,38,39,39,40,40,41,41,42,42,43,43,44,44,45,45,46,46,47,47,48,48,49,49,50,50,51,51,52,52,53,53,54,54,55,55,56,56,57,57,58,58,59,59,60,60,61,61,62,62],"right_children":[2,4,6,8,10,12,14,16,18,20,22,24,26,28,30,32,34,36,38,40,42,44,46,48,50,52,54,56,58,60,62,64,66,68,70,72,74,76,78,80,82,84,86,88,90,92,94,96,98,100,102,104,106,108,110,112,114,116,118,120,122,124,126,-1,-1,-1,-1,-1,-1,-1,-1,-1,-1,-1,-1,-1,-1,-1,-1,-1,-1,-1,-1,-1,-1,-1,-1,-1,-1,-1,-1,-1,-1,-1,-1,-1,-1,-1,-1,-1,-1,-1,-1,-1,-1,-1,-1,-1,-1,-1,-1,-1,-1,-1,-1,-1,-1,-1,-1,-1,-1,-1,-1,-1,-1,-1,-1],"split_conditions":[3.951246E2,1.5884951E0,-6.7019463E0,3.272107E1,3.8615152E2,1.9543365E1,6.2251467E-1,1.187815E1,2.5120163E-1,1.8851246E0,1.9429007E1,8.5264015E-1,4.0440912E2,-5.6640625E-1,1.6447353E1,-6.694753E0,-4.981702E-1,-6.594962E0,-7.522649E0,-5.6640625E-1,2.0410334E1,-6.8088374E0,6.2251467E-1,4.1507465E2,1.9458891E0,5.51937E-1,5.2249855E-1,-6.2824345E0,4.040797E2,4.1816013E2,3.4280643E1,9.304176E-1,-6.299073E0,-1.2226026E-1,3.8388364E2,2.0846369E1,6.0392386E-1,2.3109665E1,6.2251467E-1,-6.7143865E0,1.0419049E1,8.141155E-1,3.83342E2,8.141155E-1,-5.8070296E-1,-5.075384E-1,4.5479202E-1,-7.1132574E0,-6.950335E0,4.0952954E2,-1.6590682E-1,-5.2249855E-1,6.3607824E-1,4.1404633E2,2.4298458E1,4.009158E2,1.3566955E0,2.1038267E1,2.0097141E1,-1.2843437E0,2.0126969E-1,-4.7568783E-1,2.0310843E1,9.905047E-1,-5.073952E-1,-1.1040242E0,-1.1143886E-1,-2.4880674E0,-8.8868123E-1,-5.135841E0,-3.2576103E0,2.2494029E-1,-7.105078E-1,-9.6154803E-1,-1.6814574E0,8.1869555E-1,-1.577412E-1,-3.6991343E-1,-9.3325585E-1,-1.8177205E-1,-1.2879903E0,3.5836214E-1,-4.189856E-1,2.588182E-1,-2.093041E-1,-3.9146778E-1,-1.719254E-1,8.007979E-1,1.7057745E-1,-7.200308E-1,3.654824E-1,-8.330125E-1,-1.7634947E-2,-2.9391317E0,-9.3760794E-1,1.2777506E0,7.618619E-1,1.7984034E0,1.2787857E0,8.012897E-1,1.308658E0,1.0843139E-1,6.433816E-1,-3.896404E-1,2.702587E-1,-2.521757E-1,-1.3422307E0,5.614915E-1,8.555214E-1,5.123223E-1,-3.4838635E-1,-5.842311E-1,-1.1429532E-1,-1.5266685E-1,5.8519E-1,6.640475E-1,1.546378E-2,1.1087904E0,5.7493544E-1,-7.990098E-1,2.82019E-1,1.2080567E0,3.6326444E0,-1.0644084E0,-2.5874574E0,-5.5158064E-3,-1.214097E0],"split_indices":[7,4,5,2,7,0,8,0,3,4,0,8,7,8,0,5,9,5,5,8,0,5,8,7,4,8,8,5,7,7,2,8,5,10,7,0,10,0,8,5,0,8,7,8,8,8,3,5,5,7,9,8,8,7,0,7,4,0,0,3,9,9,0,0,0,0,0,0,0,0,0,0,0,0,0,0,0,0,0,0,0,0,0,0,0,0,0,0,0,0,0,0,0,0,0,0,0,0,0,0,0,0,0,0,0,0,0,0,0,0,0,0,0,0,0,0,0,0,0,0,0,0,0,0,0,0,0],"split_type":[0,0,0,0,0,0,0,0,0,0,0,0,0,0,0,0,0,0,0,0,0,0,0,0,0,0,0,0,0,0,0,0,0,0,0,0,0,0,0,0,0,0,0,0,0,0,0,0,0,0,0,0,0,0,0,0,0,0,0,0,0,0,0,0,0,0,0,0,0,0,0,0,0,0,0,0,0,0,0,0,0,0,0,0,0,0,0,0,0,0,0,0,0,0,0,0,0,0,0,0,0,0,0,0,0,0,0,0,0,0,0,0,0,0,0,0,0,0,0,0,0,0,0,0,0,0,0],"sum_hessian":[1.41975E5,6.5976E4,7.5999E4,3.0178E4,3.5798E4,3.7186E4,3.8813E4,3.285E3,2.6893E4,1.8914E4,1.6884E4,1.5055E4,2.2131E4,2.7996E4,1.0817E4,1.425E3,1.86E3,9.828E3,1.7065E4,1.2354E4,6.56E3,6.955E3,9.929E3,1.0201E4,4.854E3,9.241E3,1.289E4,9.791E3,1.8205E4,6.211E3,4.606E3,1.6E2,1.265E3,5.19E2,1.341E3,2.41E3,7.418E3,5.01E2,1.6564E4,1.361E3,1.0993E4,4.534E3,2.026E3,4.862E3,2.093E3,9.749E3,1.8E2,7.967E3,2.234E3,2.28E3,2.574E3,8.167E3,1.074E3,1.1055E4,1.835E3,6.801E3,2.99E3,5.92E3,1.2285E4,5.391E3,8.2E2,2.047E3,2.559E3,1.34E2,2.6E1,8.6E2,4.05E2,1.04E2,4.15E2,5.22E2,8.19E2,7.11E2,1.699E3,5.52E3,1.898E3,4.18E2,8.3E1,1.26E4,3.964E3,4.07E2,9.54E2,1.05E3,9.943E3,2.958E3,1.576E3,1.438E3,5.88E2,3.235E3,1.627E3,1.059E3,1.034E3,2.47E2,9.502E3,5.6E1,1.24E2,5.83E3,2.137E3,1.748E3,4.86E2,1.124E3,1.156E3,1.137E3,1.437E3,1.84E2,7.983E3,9.87E2,8.7E1,6.014E3,5.041E3,1.228E3,6.07E2,2.202E3,4.599E3,8.84E2,2.106E3,1.091E3,4.829E3,1.701E3,1.0584E4,2.355E3,3.036E3,7.6E2,6E1,2.32E2,1.815E3,1.473E3,1.086E3],"tree_param":{"num_deleted":"0","num_feature":"13","num_nodes":"127","size_leaf_vector":"1"}},{"base_weights":[1.3127133E-2,-9.649719E0,6.0341783E0,-3.1389357E1,-8.15715E0,-2.007974E0,9.406464E0,-5.3568123E1,1.5595961E1,-1.3570677E1,-5.720361E0,1.154777E1,-2.096199E1,-3.0132627E0,1.2793353E1,-3.2232555E1,-7.6743645E1,-2.5070904E1,2.0336489E1,-1.5620409E1,-1.2807118E0,-8.514343E0,-1.5473552E0,2.4787842E1,3.2470448E0,-7.386525E0,-3.798075E1,1.8959913E1,-8.557737E0,2.0765567E0,1.5839761E1,-1.9312828E1,-4.5607597E1,-8.692772E1,-3.4147327E1,-2.6522821E1,-3.3639523E-1,1.0368403E1,2.5637903E1,-3.5808282E0,-1.8677706E1,7.0290275E0,-1.6199947E1,2.445972E0,-1.1931429E1,-1.8336414E1,1.2350223E0,3.1157986E1,1.83916E1,-6.256672E1,3.4957564E0,-1.4065313E1,9.3162453E-1,-1.7657692E1,-5.695162E1,1.2370398E1,2.4276682E1,-1.7545713E1,-4.725369E0,8.374722E0,-8.4920435E0,2.2430952E1,1.0317425E1,-2.8476756E0,-8.901267E-1,-1.419572E0,-2.9781084E0,-2.408691E0,-4.7232413E0,6.2266135E-1,-2.0747023E0,-2.1557205E0,-1.1912947E0,4.1367918E-1,1.3728937E0,1.4541161E0,5.0551695E-1,4.1465136E-1,-6.021561E-1,-1.3558718E0,-7.546131E-1,2.2730926E-1,1.2722048E0,-6.3376683E-1,-2.2712429E0,2.6810607E-1,-6.412987E-1,-4.3849382E-1,-8.5424376E-1,-1.6756693E0,-7.485495E-1,3.0954704E-1,-1.02265716E-1,1.2882036E0,1.7600015E0,7.1397847E-1,1.2487087E0,-5.7047973E0,-1.3463453E0,2.8976355E-2,3.5918602E-1,-2.513784E-1,-8.63029E-1,3.5865396E-1,-6.618251E-1,-8.417503E-2,-1.2419231E0,-1.2909389E0,-3.4050083E0,6.8516445E-1,1.123864E-2,1.2970045E0,7.484279E-1,-5.651652E-1,-9.797292E-1,5.436259E-2,-4.057797E-1,2.158954E-1,6.021196E-1,5.608779E-1,-8.413604E-1,1.3795078E0,8.49836E-1,1.9237415E-1,7.6086175E-1],"categories":[],"categories_nodes":[],"categories_segments":[],"categories_sizes":[],"default_left":[0,0,0,0,0,0,0,0,0,0,0,0,0,0,0,0,0,0,0,0,0,0,0,0,0,0,0,0,0,0,0,0,0,0,0,0,0,0,0,0,0,0,0,0,0,0,0,0,0,0,0,0,0,0,0,0,0,0,0,0,0,0,0,0,0,0,0,0,0,0,0,0,0,0,0,0,0,0,0,0,0,0,0,0,0,0,0,0,0,0,0,0,0,0,0,0,0,0,0,0,0,0,0,0,0,0,0,0,0,0,0,0,0,0,0,0,0,0,0,0,0,0,0,0,0],"id":2,"left_children":[1,3,5,7,9,11,13,15,17,19,21,23,25,27,29,31,33,35,37,39,41,43,45,47,49,51,53,55,57,59,61,63,65,67,69,71,-1,73,75,77,79,81,83,85,87,89,91,93,95,97,99,101,103,105,107,109,111,113,115,117,119,121,123,-1,-1,-1,-1,-1,-1,-1,-1,-1,-1,-1,-1,-1,-1,-1,-1,-1,-1,-1,-1,-1,-1,-1,-1,-1,-1,-1,-1,-1,-1,-1,-1,-1,-1,-1,-1,-1,-1,-1,-1,-1,-1,-1,-1,-1,-1,-1,-1,-1,-1,-1,-1,-1,-1,-1,-1,-1,-1,-1,-1,-1,-1],"loss_changes":[8.2783275E6,1.7721745E6,2.3774775E6,3.6574852E6,6.742235E5,6.65488E6,2.5980955E6,1.1763145E6,2.175824E5,3.99661E5,4.10988E5,1.6595498E6,2.494921E6,1.6125774E6,1.5843605E6,2.139055E5,4.924245E5,2.960875E3,5.3051125E4,5.00454E5,2.81414E5,7.907986E5,6.604598E5,2.365175E5,1.5216305E5,3.3384538E5,1.846524E6,9.3134125E4,3.639665E5,7.151552E5,1.375202E6,3.5020562E4,1.4484888E5,2.644515E5,7.652383E4,3.843414E3,0E0,1.2370629E4,3.4894188E4,2.7692278E5,3.277275E5,6.654357E4,8.3059625E4,2.235906E5,2.62098E5,1.0215806E5,1.9719522E5,6.261925E4,7.8298375E4,6.119086E4,9.9467586E4,9.616144E4,2.3682069E5,2.6550212E5,8.583115E5,1.9308781E4,2.2445438E4,4.0178688E4,1.4605138E5,1.0011216E5,6.5929175E5,4.82479E5,6.51817E5,0E0,0E0,0E0,0E0,0E0,0E0,0E0,0E0,0E0,0E0,0E0,0E0,0E0,0E0,0E0,0E0,0E0,0E0,0E0,0E0,0E0,0E0,0E0,0E0,0E0,0E0,0E0,0E0,0E0,0E0,0E0,0E0,0E0,0E0,0E0,0E0,0E0,0E0,0E0,0E0,0E0,0E0,0E0,0E0,0E0,0E0,0E0,0E0,0E0,0E0,0E0,0E0,0E0,0E0,0E0,0E0,0E0,0E0,0E0,0E0,0E0,0E0],"parents":[2147483647,0,0,1,1,2,2,3,3,4,4,5,5,6,6,7,7,8,8,9,9,10,10,11,11,12,12,13,13,14,14,15,15,16,16,17,17,18,18,19,19,20,20,21,21,22,22,23,23,24,24,25,25,26,26,27,27,28,28,29,29,30,30,31,31,32,32,33,33,34,34,35,35,37,37,38,38,39,39,40,40,41,41,42,42,43,43,44,44,45,45,46,46,47,47,48,48,49,49,50,50,51,51,52,52,53,53,54,54,55,55,56,56,57,57,58,58,59,59,60,60,61,61,62,62],"right_children":[2,4,6,8,10,12,14,16,18,20,22,24,26,28,30,32,34,36,38,40,42,44,46,48,50,52,54,56,58,60,62,64,66,68,70,72,-1,74,76,78,80,82,84,86,88,90,92,94,96,98,100,102,104,106,108,110,112,114,116,118,120,122,124,-1,-1,-1,-1,-1,-1,-1,-1,-1,-1,-1,-1,-1,-1,-1,-1,-1,-1,-1,-1,-1,-1,-1,-1,-1,-1,-1,-1,-1,-1,-1,-1,-1,-1,-1,-1,-1,-1,-1,-1,-1,-1,-1,-1,-1,-1,-1,-1,-1,-1,-1,-1,-1,-1,-1,-1,-1,-1,-1,-1,-1,-1],"split_conditions":[3.9164902E2,3.272107E1,-4.9377555E-1,1.7213356E-2,3.4419342E1,5.3729963E-1,-5.2249855E-1,5.21302E-1,4.9242356E-1,1.1661625E-1,4.862727E-1,-4.3619387E-2,4.2122704E-1,1.7213356E-2,1.7213356E-2,1.1493227E1,-4.9377555E-1,1.3052619E-1,5.234156E-1,-7.304764E-2,1.8967073E1,-8.726535E-3,-6.104854E-2,1.7395195E1,-1.6741447E0,8.141155E-1,6.3607824E-1,4.0265152E2,3.991797E2,5.9482276E-1,2.0410334E1,3.7536337E2,-5.287224E-1,-8.800122E-1,-8.606997E-3,-6.25427E-1,-3.3639523E-1,3.912079E2,1.1299041E1,1.8017618E1,-4.9377555E-1,7.346596E-1,5.8070296E-1,1.7213356E-2,5.51937E-1,-5.9482276E-1,2.020599E1,4.0047168E2,4.0701752E2,-1.3933128E-1,4.0701752E2,6.087614E-1,-5.160624E-1,-2.9522583E-1,1.3098479E1,1.7791248E1,1.8137785E1,5.234156E-1,5.234156E-1,4.040797E2,-8.606997E-3,3.4645287E1,4.041847E2,-2.8476756E0,-8.901267E-1,-1.419572E0,-2.9781084E0,-2.408691E0,-4.7232413E0,6.2266135E-1,-2.0747023E0,-2.1557205E0,-1.1912947E0,4.1367918E-1,1.3728937E0,1.4541161E0,5.0551695E-1,4.1465136E-1,-6.021561E-1,-1.3558718E0,-7.546131E-1,2.2730926E-1,1.2722048E0,-6.3376683E-1,-2.2712429E0,2.6810607E-1,-6.412987E-1,-4.3849382E-1,-8.5424376E-1,-1.6756693E0,-7.485495E-1,3.0954704E-1,-1.02265716E-1,1.2882036E0,1.7600015E0,7.1397847E-1,1.2487087E0,-5.7047973E0,-1.3463453E0,2.8976355E-2,3.5918602E-1,-2.513784E-1,-8.63029E-1,3.5865396E-1,-6.618251E-1,-8.417503E-2,-1.2419231E0,-1.2909389E0,-3.4050083E0,6.8516445E-1,1.123864E-2,1.2970045E0,7.484279E-1,-5.651652E-1,-9.797292E-1,5.436259E-2,-4.057797E-1,2.158954E-1,6.021196E-1,5.608779E-1,-8.413604E-1,1.3795078E0,8.49836E-1,1.9237415E-1,7.6086175E-1],"split_indices":[7,2,12,12,2,8,8,10,8,6,12,8,10,12,12,0,12,8,12,6,0,8,8,0,3,8,8,7,7,8,0,7,9,12,12,9,0,7,0,0,12,10,8,12,8,8,0,7,7,10,7,8,12,9,0,0,0,12,12,7,12,2,7,0,0,0,0,0,0,0,0,0,0,0,0,0,0,0,0,0,0,0,0,0,0,0,0,0,0,0,0,0,0,0,0,0,0,0,0,0,0,0,0,0,0,0,0,0,0,0,0,0,0,0,0,0,0,0,0,0,0,0,0,0,0],"split_type":[0,0,0,0,0,0,0,0,0,0,0,0,0,0,0,0,0,0,0,0,0,0,0,0,0,0,0,0,0,0,0,0,0,0,0,0,0,0,0,0,0,0,0,0,0,0,0,0,0,0,0,0,0,0,0,0,0,0,0,0,0,0,0,0,0,0,0,0,0,0,0,0,0,0,0,0,0,0,0,0,0,0,0,0,0,0,0,0,0,0,0,0,0,0,0,0,0,0,0,0,0,0,0,0,0,0,0,0,0,0,0,0,0,0,0,0,0,0,0,0,0,0,0,0,0],"sum_hessian":[1.42285E5,5.4623E4,8.7662E4,3.508E3,5.1115E4,2.5899E4,6.1763E4,2.383E3,1.125E3,1.5865E4,3.525E4,1.51E4,1.0799E4,1.3234E4,4.8529E4,1.242E3,1.141E3,1.17E2,1.008E3,1.3597E4,2.268E3,2.1113E4,1.4137E4,5.818E3,9.282E3,6.008E3,4.791E3,2.666E3,1.0568E4,1.0742E4,3.7787E4,6.33E2,6.09E2,9.2E2,2.21E2,1.08E2,9E0,3.51E2,6.57E2,2.754E3,1.0843E4,1.457E3,8.11E2,5.018E3,1.6095E4,2.009E3,1.2128E4,2.913E3,2.905E3,3.4E1,9.248E3,3.332E3,2.676E3,2.314E3,2.477E3,1.192E3,1.474E3,3.158E3,7.41E3,6.731E3,4.011E3,1.7225E4,2.0562E4,2.3E1,6.1E2,2.74E2,3.35E2,1.51E2,7.69E2,3E1,1.91E2,1.3E1,9.5E1,3.14E2,3.7E1,5.37E2,1.2E2,1.146E3,1.608E3,3.231E3,7.612E3,1.285E3,1.72E2,7.25E2,8.6E1,4.214E3,8.04E2,9.977E3,6.118E3,3.63E2,1.646E3,4.83E3,7.298E3,1.251E3,1.662E3,1.79E3,1.115E3,1.3E1,2.1E1,5.165E3,4.083E3,8.71E2,2.461E3,1.858E3,8.18E2,7.18E2,1.596E3,6.54E2,1.823E3,1.074E3,1.18E2,1.249E3,2.25E2,7.82E2,2.376E3,2.73E3,4.68E3,3.197E3,3.534E3,1.192E3,2.819E3,8.834E3,8.391E3,8.862E3,1.17E4],"tree_param":{"num_deleted":"0","num_feature":"13","num_nodes":"125","size_leaf_vector":"1"}},{"base_weights":[2.2908412E-2,-9.3883705E0,5.479368E0,-4.0876736E1,-7.9261007E0,1.1918103E1,8.737225E-3,-5.879274E1,-2.402089E1,-1.3804636E1,-3.2137682E0,1.8828474E1,7.027041E0,3.839229E0,-1.0144229E1,-2.6899391E1,-7.182067E1,-1.0015775E1,-3.1737846E1,-2.0129414E1,-9.349561E0,1.2962029E0,-6.2752843E0,2.229169E1,1.1732379E1,2.6464612E0,1.1660514E1,-3.1180012E0,7.3210826E0,-2.2749367E0,-2.7765436E1,-3.947785E1,-2.2029388E1,-2.8926302E1,-7.591651E1,-2.3146278E1,-6.6261578E0,-2.4649595E1,-5.8820686E1,-7.768511E0,-2.3869926E1,1.1593689E1,-1.0127712E1,4.8973517E0,-6.404011E0,-5.1531024E0,-1.8155048E1,1.820945E1,2.7636288E1,1.844752E1,6.0124364E0,3.408047E0,-4.3659596E0,7.8881607E0,1.3373894E1,-9.340369E0,1.4699037E0,1.8850948E0,1.1529677E1,-2.676908E1,2.0153282E0,-4.7888035E1,-1.5261025E1,-2.1961684E0,-1.3079292E0,-8.0627817E-1,-1.6531591E0,-2.2232614E0,-9.765223E-2,-3.3287683E0,-5.0417776E0,-5.45307E-1,-2.8363633E0,-1.2776226E0,-1.8260695E-1,-6.8875986E-1,-1.7564862E0,-2.1413083E0,-3.7861786E0,-5.979526E-1,7.2153E-1,-1.5178392E0,-5.6896204E-1,8.089515E-1,-1.9919468E-1,-3.9657125E-1,-9.056323E-1,4.5131215E-1,-6.0683932E-2,-9.4381857E-1,7.963339E-2,-4.0969148E-1,-1.202746E-1,-1.6483166E0,-6.5818894E-1,4.5564985E-1,9.744135E-1,4.3525657E-1,1.4198455E0,7.059398E-1,1.1962845E0,1.804487E-2,5.148306E-1,5.2465953E-2,2.8299135E-1,1.4226939E-1,-4.8101598E-1,5.413004E-1,3.39679E-2,5.125887E-1,7.726373E-1,-6.524214E-1,-1.2591624E-1,-8.782344E-2,4.9920127E-1,-7.443298E-2,3.5950607E-1,6.46172E-1,1.9699179E-1,-7.5957435E-1,-2.6075184E0,-6.322671E-2,1.3889112E0,-1.4565132E0,-2.7572076E0,-2.0106708E-1,-1.2111405E0],"categories":[],"categories_nodes":[],"categories_segments":[],"categories_sizes":[],"default_left":[0,0,0,0,0,0,0,0,0,0,0,0,0,0,0,0,0,0,0,0,0,0,0,0,0,0,0,0,0,0,0,0,0,0,0,0,0,0,0,0,0,0,0,0,0,0,0,0,0,0,0,0,0,0,0,0,0,0,0,0,0,0,0,0,0,0,0,0,0,0,0,0,0,0,0,0,0,0,0,0,0,0,0,0,0,0,0,0,0,0,0,0,0,0,0,0,0,0,0,0,0,0,0,0,0,0,0,0,0,0,0,0,0,0,0,0,0,0,0,0,0,0,0,0,0,0,0],"id":3,"left_children":[1,3,5,7,9,11,13,15,17,19,21,23,25,27,29,31,33,35,37,39,41,43,45,47,49,51,53,55,57,59,61,63,65,67,69,71,73,75,77,79,81,83,85,87,89,91,93,95,97,99,101,103,105,107,109,111,113,115,117,119,121,123,125,-1,-1,-1,-1,-1,-1,-1,-1,-1,-1,-1,-1,-1,-1,-1,-1,-1,-1,-1,-1,-1,-1,-1,-1,-1,-1,-1,-1,-1,-1,-1,-1,-1,-1,-1,-1,-1,-1,-1,-1,-1,-1,-1,-1,-1,-1,-1,-1,-1,-1,-1,-1,-1,-1,-1,-1,-1,-1,-1,-1,-1,-1,-1,-1],"loss_changes":[7.3032165E6,2.402916E6,3.1709982E6,6.979865E5,1.381683E6,1.3975575E6,1.892934E6,4.64254E5,1.2882981E5,6.25149E5,3.8229272E5,4.20907E5,4.91487E5,8.5610125E5,1.8487731E6,1.9155266E4,1.3764175E5,1.8803793E4,1.4635862E5,4.23843E5,2.1235338E5,3.10492E5,2.1976325E5,2.507475E5,2.1586731E5,6.6499414E4,7.5954625E4,3.3653397E5,5.388194E5,9.6874244E5,1.03493575E6,4.1730156E3,1.4965617E4,2.9667137E4,1.6226275E5,3.5134688E4,1.9041389E4,6.925778E4,3.9731375E4,1.9850438E5,5.70068E5,3.3422785E4,2.200685E5,1.9250502E5,3.5589506E5,1.2588503E5,1.0475969E5,7.580475E4,7.15305E4,6.09815E4,7.355182E4,5.963967E4,4.625508E4,7.788553E4,5.2353125E4,1.2652422E5,1.8642792E5,1.8398333E5,1.4037625E5,4.0295662E5,6.629305E5,2.130285E5,2.55748E5,0E0,0E0,0E0,0E0,0E0,0E0,0E0,0E0,0E0,0E0,0E0,0E0,0E0,0E0,0E0,0E0,0E0,0E0,0E0,0E0,0E0,0E0,0E0,0E0,0E0,0E0,0E0,0E0,0E0,0E0,0E0,0E0,0E0,0E0,0E0,0E0,0E0,0E0,0E0,0E0,0E0,0E0,0E0,0E0,0E0,0E0,0E0,0E0,0E0,0E0,0E0,0E0,0E0,0E0,0E0,0E0,0E0,0E0,0E0,0E0,0E0,0E0,0E0,0E0],"parents":[2147483647,0,0,1,1,2,2,3,3,4,4,5,5,6,6,7,7,8,8,9,9,10,10,11,11,12,12,13,13,14,14,15,15,16,16,17,17,18,18,19,19,20,20,21,21,22,22,23,23,24,24,25,25,26,26,27,27,28,28,29,29,30,30,31,31,32,32,33,33,34,34,35,35,36,36,37,37,38,38,39,39,40,40,41,41,42,42,43,43,44,44,45,45,46,46,47,47,48,48,49,49,50,50,51,51,52,52,53,53,54,54,55,55,56,56,57,57,58,58,59,59,60,60,61,61,62,62],"right_children":[2,4,6,8,10,12,14,16,18,20,22,24,26,28,30,32,34,36,38,40,42,44,46,48,50,52,54,56,58,60,62,64,66,68,70,72,74,76,78,80,82,84,86,88,90,92,94,96,98,100,102,104,106,108,110,112,114,116,118,120,122,124,126,-1,-1,-1,-1,-1,-1,-1,-1,-1,-1,-1,-1,-1,-1,-1,-1,-1,-1,-1,-1,-1,-1,-1,-1,-1,-1,-1,-1,-1,-1,-1,-1,-1,-1,-1,-1,-1,-1,-1,-1,-1,-1,-1,-1,-1,-1,-1,-1,-1,-1,-1,-1,-1,-1,-1,-1,-1,-1,-1,-1,-1,-1,-1,-1],"split_conditions":[3.9083017E2,1.2076668E0,-6.761115E0,3.272107E1,1.5934678E0,1.9667469E1,6.2251467E-1,4.2122704E-1,6.2251467E-1,3.4347054E1,1.9429007E1,8.5264015E-1,4.0440912E2,-5.6640625E-1,1.7791248E1,3.8072147E2,1.2301391E1,8.726535E-3,4.35429E-2,-6.618934E0,-7.443335E0,-6.8657565E0,5.51937E-1,4.0440912E2,1.9525797E0,5.51937E-1,5.0499344E-1,4.009158E2,4.040797E2,1.1831853E0,1.4020157E-1,-1.2226026E-1,1.2080879E1,1.1831853E0,9.775834E-2,2.719496E1,3.784553E2,1.726643E1,-2.2909164E-2,7.0090926E-1,-6.2888026E0,2.0310843E1,6.2251467E-1,8.0385685E-1,-6.2251467E-1,3.83342E2,4.5479202E-1,3.9358853E2,-8.9493436E-1,4.0952954E2,-1.7178123E-1,3.9721753E2,2.2636095E1,4.9242356E-1,4.1155618E2,-6.3131375E0,-6.26952E0,1.6077895E0,5.51937E-1,5.689013E-1,4.1816013E2,6.4944804E-1,2.0310843E1,-2.1961684E0,-1.3079292E0,-8.0627817E-1,-1.6531591E0,-2.2232614E0,-9.765223E-2,-3.3287683E0,-5.0417776E0,-5.45307E-1,-2.8363633E0,-1.2776226E0,-1.8260695E-1,-6.8875986E-1,-1.7564862E0,-2.1413083E0,-3.7861786E0,-5.979526E-1,7.2153E-1,-1.5178392E0,-5.6896204E-1,8.089515E-1,-1.9919468E-1,-3.9657125E-1,-9.056323E-1,4.5131215E-1,-6.0683932E-2,-9.4381857E-1,7.963339E-2,-4.0969148E-1,-1.202746E-1,-1.6483166E0,-6.5818894E-1,4.5564985E-1,9.744135E-1,4.3525657E-1,1.4198455E0,7.059398E-1,1.1962845E0,1.804487E-2,5.148306E-1,5.2465953E-2,2.8299135E-1,1.4226939E-1,-4.8101598E-1,5.413004E-1,3.39679E-2,5.125887E-1,7.726373E-1,-6.524214E-1,-1.2591624E-1,-8.782344E-2,4.9920127E-1,-7.443298E-2,3.5950607E-1,6.46172E-1,1.9699179E-1,-7.5957435E-1,-2.6075184E0,-6.322671E-2,1.3889112E0,-1.4565132E0,-2.7572076E0,-2.0106708E-1,-1.2111405E0],"split_indices":[7,4,5,2,4,0,8,10,8,2,0,8,7,8,0,7,0,8,9,5,5,5,8,7,4,8,3,7,7,4,3,10,0,4,9,0,7,0,1,8,5,0,8,8,8,7,3,7,8,7,9,7,0,8,7,5,5,4,8,10,7,8,0,0,0,0,0,0,0,0,0,0,0,0,0,0,0,0,0,0,0,0,0,0,0,0,0,0,0,0,0,0,0,0,0,0,0,0,0,0,0,0,0,0,0,0,0,0,0,0,0,0,0,0,0,0,0,0,0,0,0,0,0,0,0,0,0],"split_type":[0,0,0,0,0,0,0,0,0,0,0,0,0,0,0,0,0,0,0,0,0,0,0,0,0,0,0,0,0,0,0,0,0,0,0,0,0,0,0,0,0,0,0,0,0,0,0,0,0,0,0,0,0,0,0,0,0,0,0,0,0,0,0,0,0,0,0,0,0,0,0,0,0,0,0,0,0,0,0,0,0,0,0,0,0,0,0,0,0,0,0,0,0,0,0,0,0,0,0,0,0,0,0,0,0,0,0,0,0,0,0,0,0,0,0,0,0,0,0,0,0,0,0,0,0,0,0],"sum_hessian":[1.42216E5,5.2193E4,9.0023E4,2.315E3,4.9878E4,4.1352E4,4.8671E4,1.121E3,1.194E3,2.2192E4,2.7686E4,1.7137E4,2.4215E4,3.5339E4,1.3332E4,3.26E2,7.95E2,4.25E2,7.69E2,9.17E3,1.3022E4,1.1195E4,1.6491E4,1.1515E4,5.622E3,1.2448E4,1.1767E4,1.1787E4,2.3552E4,9.217E3,4.115E3,8.9E1,2.37E2,7E1,7.25E2,8.6E1,3.39E2,6.11E2,1.58E2,2.131E3,7.039E3,4.66E2,1.2556E4,7.628E3,3.567E3,1.5069E4,1.422E3,6.531E3,4.984E3,2.585E3,3.037E3,1.1229E4,1.219E3,3.677E3,8.09E3,5.002E3,6.785E3,1.0278E4,1.3274E4,1.373E3,7.844E3,1.576E3,2.539E3,6.5E1,2.4E1,1.56E2,8.1E1,4.4E1,2.6E1,5.3E2,1.95E2,6.4E1,2.2E1,4.5E1,2.94E2,3.01E2,3.1E2,8.3E1,7.5E1,1.793E3,3.38E2,4.632E3,2.407E3,3.6E2,1.06E2,9.849E3,2.707E3,4.552E3,3.076E3,1.393E3,2.174E3,7.152E3,7.917E3,3.57E2,1.065E3,8.06E2,5.725E3,1.93E2,4.791E3,1.446E3,1.139E3,1.31E3,1.727E3,5.485E3,5.744E3,5.14E2,7.05E2,2.612E3,1.065E3,3.236E3,4.854E3,3.24E3,1.762E3,4.921E3,1.864E3,6.283E3,3.995E3,1.1214E4,2.06E3,9.44E2,4.29E2,6.959E3,8.85E2,4.41E2,1.135E3,1.127E3,1.412E3],"tree_param":{"num_deleted":"0","num_feature":"13","num_nodes":"127","size_leaf_vector":"1"}},{"base_weights":[1.0699008E-2,-7.1150656E0,6.644305E0,-4.676715E-1,-1.2312077E1,1.2508487E1,1.092896E0,7.049392E0,-5.060451E0,-7.641636E0,-2.3663765E1,1.8668879E1,7.613326E0,-1.239541E1,6.1690774E0,1.0851262E1,1.5249231E0,-1.0501635E1,-3.0001357E0,-1.7753246E1,-4.232681E0,-3.5218506E1,1.0840425E1,2.1336365E1,1.2491028E1,4.21231E0,1.1543103E1,1.0244001E1,-2.9260193E1,-3.6637118E0,1.1582318E1,6.6903415E0,1.5331248E1,8.112759E0,-1.0695751E0,-1.4115383E1,-8.398982E0,-7.458301E0,-1.2536639E0,8.737942E0,-2.4922739E1,-9.2170925E0,-8.397835E-1,-4.5679665E1,-1.2585321E1,2.0674183E0,2.2461056E1,2.3651152E1,1.5028482E1,2.2191956E1,8.76252E0,5.4719987E0,-5.024685E0,1.3069333E1,3.0715208E0,2.3773853E1,3.9428836E-1,-3.551024E1,-4.845743E0,1.8705772E1,-8.623991E0,-7.4083796E0,1.5911049E1,1.5514039E-1,6.3850635E-1,8.9059085E-1,4.0473032E-1,1.7270286E-1,5.522301E-1,-6.6279775E-1,-1.2968588E-2,-5.4608816E-1,-9.851055E-1,-4.535449E-1,-3.06883E-1,-1.4659597E-1,-6.4738023E-1,-2.0383643E-1,6.159733E-2,1.0448017E0,2.1748309E-1,-8.5562336E-1,-1.4619567E0,6.197535E-3,-5.613072E-1,4.610761E-1,-1.0504979E-1,-2.7938344E0,-1.4350609E0,-8.4552574E-1,-1.850938E-1,2.2325192E-1,-8.2298374E-1,1.5456159E0,5.7614136E-1,3.403221E-1,1.2429503E0,5.155701E-1,9.401064E-1,9.368297E-1,1.2980977E0,3.4078363E-1,8.18834E-1,1.1195754E-1,3.2826087E-1,-4.8862115E-1,3.3425865E-1,5.6193703E-1,7.9567796E-1,-8.455182E-2,8.5361636E-1,1.7255726E0,9.6428853E-1,-3.764541E0,5.1045116E-2,-1.1571102E0,-2.5315008E0,2.519125E-1,-6.7482287E-1,7.1422E-1,1.1348802E0,-1.2874468E-1,-6.0607094E-1,3.1057563E-1,-7.130826E-1,1.3532813E0,6.372853E-1],"categories":[],"categories_nodes":[],"categories_segments":[],"categories_sizes":[],"default_left":[0,0,0,0,0,0,0,0,0,0,0,0,0,0,0,0,0,0,0,0,0,0,0,0,0,0,0,0,0,0,0,0,0,0,0,0,0,0,0,0,0,0,0,0,0,0,0,0,0,0,0,0,0,0,0,0,0,0,0,0,0,0,0,0,0,0,0,0,0,0,0,0,0,0,0,0,0,0,0,0,0,0,0,0,0,0,0,0,0,0,0,0,0,0,0,0,0,0,0,0,0,0,0,0,0,0,0,0,0,0,0,0,0,0,0,0,0,0,0,0,0,0,0,0,0,0,0],"id":4,"left_children":[1,3,5,7,9,11,13,15,17,19,21,23,25,27,29,31,33,35,37,39,41,43,45,47,49,51,53,55,57,59,61,63,65,67,69,71,73,75,77,79,81,83,85,87,89,91,93,95,97,99,101,103,105,107,109,111,113,115,117,119,121,123,125,-1,-1,-1,-1,-1,-1,-1,-1,-1,-1,-1,-1,-1,-1,-1,-1,-1,-1,-1,-1,-1,-1,-1,-1,-1,-1,-1,-1,-1,-1,-1,-1,-1,-1,-1,-1,-1,-1,-1,-1,-1,-1,-1,-1,-1,-1,-1,-1,-1,-1,-1,-1,-1,-1,-1,-1,-1,-1,-1,-1,-1,-1,-1,-1],"loss_changes":[6.7186055E6,2.3672975E6,2.3962872E6,1.0381096E6,2.0387585E6,1.0793235E6,2.589166E6,2.3950394E5,2.0921212E5,9.3919625E5,4.469665E6,2.609105E5,2.6655938E5,3.948204E6,1.4624622E6,1.2581431E5,7.948778E4,3.8828875E4,1.05413016E5,1.3050275E6,3.4464956E5,1.987808E6,2.8673053E5,1.61249E5,1.7276738E5,1.2447175E5,1.19608625E5,5.8835394E5,9.04081E5,1.0826752E6,1.4568022E6,7.638605E4,5.8229812E4,1.7907781E4,3.29429E4,3.3395875E4,4.870297E3,9.465119E4,6.8281086E4,7.801554E4,1.8177675E5,1.5490231E5,1.5390352E5,9.92673E5,1.0198584E5,7.132346E4,1.11494125E5,1.64528E5,5.2742125E4,1.67955E4,5.1116438E4,3.3248406E4,7.145005E4,4.0643625E4,9.4315414E4,8.8964625E4,1.2128862E5,8.810955E5,1.0344269E5,3.0929188E4,1.6892138E5,3.071807E5,5.0918175E5,0E0,0E0,0E0,0E0,0E0,0E0,0E0,0E0,0E0,0E0,0E0,0E0,0E0,0E0,0E0,0E0,0E0,0E0,0E0,0E0,0E0,0E0,0E0,0E0,0E0,0E0,0E0,0E0,0E0,0E0,0E0,0E0,0E0,0E0,0E0,0E0,0E0,0E0,0E0,0E0,0E0,0E0,0E0,0E0,0E0,0E0,0E0,0E0,0E0,0E0,0E0,0E0,0E0,0E0,0E0,0E0,0E0,0E0,0E0,0E0,0E0,0E0,0E0,0E0],"parents":[2147483647,0,0,1,1,2,2,3,3,4,4,5,5,6,6,7,7,8,8,9,9,10,10,11,11,12,12,13,13,14,14,15,15,16,16,17,17,18,18,19,19,20,20,21,21,22,22,23,23,24,24,25,25,26,26,27,27,28,28,29,29,30,30,31,31,32,32,33,33,34,34,35,35,36,36,37,37,38,38,39,39,40,40,41,41,42,42,43,43,44,44,45,45,46,46,47,47,48,48,49,49,50,50,51,51,52,52,53,53,54,54,55,55,56,56,57,57,58,58,59,59,60,60,61,61,62,62],"right_children":[2,4,6,8,10,12,14,16,18,20,22,24,26,28,30,32,34,36,38,40,42,44,46,48,50,52,54,56,58,60,62,64,66,68,70,72,74,76,78,80,82,84,86,88,90,92,94,96,98,100,102,104,106,108,110,112,114,116,118,120,122,124,126,-1,-1,-1,-1,-1,-1,-1,-1,-1,-1,-1,-1,-1,-1,-1,-1,-1,-1,-1,-1,-1,-1,-1,-1,-1,-1,-1,-1,-1,-1,-1,-1,-1,-1,-1,-1,-1,-1,-1,-1,-1,-1,-1,-1,-1,-1,-1,-1,-1,-1,-1,-1,-1,-1,-1,-1,-1,-1,-1,-1,-1,-1,-1,-1],"split_conditions":[3.9572723E2,-6.8088374E0,-6.7074366E0,1.8967073E1,6.087614E-1,2.0728867E1,-4.9377555E-1,8.0385685E-1,3.8223486E2,-5.9482276E-1,1.7213356E-2,8.5264015E-1,4.083332E2,5.2249855E-1,-2.1643962E-1,3.87323E2,4.3035382E-3,-5.012418E-1,-5.160624E-1,-8.606997E-3,3.8361252E2,8.433914E-1,8.5876393E-1,1.7791248E1,-4.7495106E-1,5.3729963E-1,5.075384E-1,-4.3619387E-2,8.5264015E-1,1.7213356E-2,-8.7380713E-1,5.8070296E-1,8.695894E-1,3.8388364E2,-6.390815E-1,4.9242356E-1,2.2532158E0,4.7715876E-1,3.881023E2,8.5207754E-1,5.234156E-1,2.1464691E1,1.9429007E1,4.8526E-1,-5.049611E-1,2.020599E1,3.445363E1,-8.870108E-1,5.234156E-1,9.099613E-1,4.1527115E2,3.991797E2,-4.9377555E-1,4.1692252E2,-4.9377555E-1,1.7129692E1,3.2261345E1,-6.389754E0,-6.4265165E0,4.0985324E2,5.234156E-1,5.6640625E-1,1.6713783E1,1.5514039E-1,6.3850635E-1,8.9059085E-1,4.0473032E-1,1.7270286E-1,5.522301E-1,-6.6279775E-1,-1.2968588E-2,-5.4608816E-1,-9.851055E-1,-4.535449E-1,-3.06883E-1,-1.4659597E-1,-6.4738023E-1,-2.0383643E-1,6.159733E-2,1.0448017E0,2.1748309E-1,-8.5562336E-1,-1.4619567E0,6.197535E-3,-5.613072E-1,4.610761E-1,-1.0504979E-1,-2.7938344E0,-1.4350609E0,-8.4552574E-1,-1.850938E-1,2.2325192E-1,-8.2298374E-1,1.5456159E0,5.7614136E-1,3.403221E-1,1.2429503E0,5.155701E-1,9.401064E-1,9.368297E-1,1.2980977E0,3.4078363E-1,8.18834E-1,1.1195754E-1,3.2826087E-1,-4.8862115E-1,3.3425865E-1,5.6193703E-1,7.9567796E-1,-8.455182E-2,8.5361636E-1,1.7255726E0,9.6428853E-1,-3.764541E0,5.1045116E-2,-1.1571102E0,-2.5315008E0,2.519125E-1,-6.7482287E-1,7.1422E-1,1.1348802E0,-1.2874468E-1,-6.0607094E-1,3.1057563E-1,-7.130826E-1,1.3532813E0,6.372853E-1],"split_indices":[7,5,5,0,8,0,12,8,7,8,12,8,7,8,8,7,11,12,12,12,7,8,12,0,11,8,8,8,8,12,11,8,11,7,6,8,3,8,7,11,12,0,0,3,11,0,2,8,12,8,7,7,12,7,12,0,2,5,5,7,12,8,0,0,0,0,0,0,0,0,0,0,0,0,0,0,0,0,0,0,0,0,0,0,0,0,0,0,0,0,0,0,0,0,0,0,0,0,0,0,0,0,0,0,0,0,0,0,0,0,0,0,0,0,0,0,0,0,0,0,0,0,0,0,0,0,0],"split_type":[0,0,0,0,0,0,0,0,0,0,0,0,0,0,0,0,0,0,0,0,0,0,0,0,0,0,0,0,0,0,0,0,0,0,0,0,0,0,0,0,0,0,0,0,0,0,0,0,0,0,0,0,0,0,0,0,0,0,0,0,0,0,0,0,0,0,0,0,0,0,0,0,0,0,0,0,0,0,0,0,0,0,0,0,0,0,0,0,0,0,0,0,0,0,0,0,0,0,0,0,0,0,0,0,0,0,0,0,0,0,0,0,0,0,0,0,0,0,0,0,0,0,0,0,0,0,0],"sum_hessian":[1.42132E5,6.8524E4,7.3608E4,3.0067E4,3.8457E4,3.5795E4,3.7813E4,1.1403E4,1.8664E4,2.7248E4,1.1209E4,1.5848E4,1.9947E4,1.0339E4,2.7474E4,6.754E3,4.649E3,5.125E3,1.3539E4,6.869E3,2.0379E4,8.397E3,2.812E3,1.1067E4,4.781E3,1.0694E4,9.253E3,4.414E3,5.925E3,9.755E3,1.7719E4,3.503E3,3.251E3,1.313E3,3.336E3,1.883E3,3.242E3,3.81E3,9.729E3,1.463E3,5.406E3,8.253E3,1.2126E4,5.742E3,2.655E3,1.603E3,1.209E3,8.094E3,2.973E3,1.326E3,3.455E3,9.411E3,1.283E3,7.84E3,1.413E3,1.859E3,2.555E3,4.717E3,1.208E3,1.77E3,7.985E3,3.289E3,1.443E4,2.204E3,1.299E3,2.42E3,8.31E2,5.08E2,8.05E2,2.07E2,3.129E3,1.2E3,6.83E2,2.497E3,7.45E2,2.089E3,1.721E3,4.555E3,5.174E3,3.87E2,1.076E3,1.926E3,3.48E3,1.461E3,6.792E3,1.35E3,1.0776E4,3.586E3,2.156E3,1.785E3,8.7E2,1.42E3,1.83E2,6.81E2,5.28E2,5.42E2,7.552E3,1.323E3,1.65E3,6.95E2,6.31E2,2.753E3,7.02E2,2.379E3,7.032E3,9.13E2,3.7E2,4.773E3,3.067E3,1.055E3,3.58E2,5.46E2,1.313E3,2E1,2.535E3,2.596E3,2.121E3,5.64E2,6.44E2,8.42E2,9.28E2,2.926E3,5.059E3,1.101E3,2.188E3,3.188E3,1.1242E4],"tree_param":{"num_deleted":"0","num_feature":"13","num_nodes":"127","size_leaf_vector":"1"}},{"base_weights":[9.567337E-3,-8.479651E0,4.923512E0,-3.738443E1,-7.123943E0,-1.3879663E0,9.529024E0,-6.6366714E1,-1.9317394E1,-1.2499357E1,-2.8346763E0,-5.3852854E0,1.8052086E1,5.7205863E0,1.3554491E1,-2.7414711E1,-8.345393E1,-2.644786E1,-2.6016765E0,-1.6262207E1,4.6933208E0,1.1345791E0,-5.524888E0,3.9902171E-1,-1.625024E1,1.0012831E1,2.8042734E1,9.678207E0,2.841732E0,1.1054579E1,1.6812275E1,-3.94877E1,-1.0525114E1,-7.599283E1,-1.0273068E2,-2.4209795E1,-3.4757614E1,-5.1261658E1,2.597934E-1,-1.0944326E1,-2.7909672E1,-4.7713537E0,1.7126467E1,-4.603168E0,3.8371308E0,-4.450559E0,-1.6696548E1,2.873478E0,-9.144462E0,-2.7553478E1,1.1438347E1,-5.343722E0,1.4481144E1,3.156025E1,1.567116E1,3.8294265E0,1.2710379E1,3.8129768E0,-7.4090405E0,1.0007941E1,1.8755573E1,1.9881927E1,1.3293187E1,-2.4697452E0,-1.7651558E0,-1.0460638E0,6.117416E-1,-3.946708E0,-3.1355274E0,-5.3917174E0,-2.9400675E0,-1.1181866E0,-1.6156323E0,-9.8345184E-1,-2.2350302E0,-3.1002212E0,-4.3413144E-1,8.974829E-1,-8.797964E-2,-4.031143E-1,-1.156982E0,-1.8982716E0,-2.6699516E-1,-1.2267056E0,-2.6882667E-2,1.177941E0,4.6571398E-1,-7.985727E-1,1.15014784E-1,3.403841E-1,-8.515226E-2,-3.5831082E-1,-9.912895E-2,-1.1440908E0,-6.694117E-3,-1.4516137E-2,4.5457593E-1,-8.183457E-1,1.5884073E-1,-6.7876524E-1,-2.2087386E0,7.345065E-1,-1.0522586E-1,-6.705082E-1,1.5300871E-1,4.1213652E-1,9.5345944E-1,4.4541955E-1,1.6354634E0,4.93705E-1,1.0135564E0,3.4946997E-3,1.0649163E0,8.08824E-1,1.7391095E-1,-5.525259E-1,2.1536079E-1,-7.847616E-1,3.7279183E-1,4.1756764E-1,6.7974794E-1,1.7850238E-1,1.4655608E0,1.2305145E0,5.1440823E-1,5.8372647E-1,8.7042093E-1],"categories":[],"categories_nodes":[],"categories_segments":[],"categories_sizes":[],"default_left":[0,0,0,0,0,0,0,0,0,0,0,0,0,0,0,0,0,0,0,0,0,0,0,0,0,0,0,0,0,0,0,0,0,0,0,0,0,0,0,0,0,0,0,0,0,0,0,0,0,0,0,0,0,0,0,0,0,0,0,0,0,0,0,0,0,0,0,0,0,0,0,0,0,0,0,0,0,0,0,0,0,0,0,0,0,0,0,0,0,0,0,0,0,0,0,0,0,0,0,0,0,0,0,0,0,0,0,0,0,0,0,0,0,0,0,0,0,0,0,0,0,0,0,0,0,0,0],"id":5,"left_children":[1,3,5,7,9,11,13,15,17,19,21,23,25,27,29,31,33,35,37,39,41,43,45,47,49,51,53,55,57,59,61,63,65,67,69,71,73,75,77,79,81,83,85,87,89,91,93,95,97,99,101,103,105,107,109,111,113,115,117,119,121,123,125,-1,-1,-1,-1,-1,-1,-1,-1,-1,-1,-1,-1,-1,-1,-1,-1,-1,-1,-1,-1,-1,-1,-1,-1,-1,-1,-1,-1,-1,-1,-1,-1,-1,-1,-1,-1,-1,-1,-1,-1,-1,-1,-1,-1,-1,-1,-1,-1,-1,-1,-1,-1,-1,-1,-1,-1,-1,-1,-1,-1,-1,-1,-1,-1],"loss_changes":[5.9359145E6,2.0440478E6,2.6197592E6,1.2224188E6,1.148942E6,2.954713E6,7.98729E5,5.94727E5,1.7168231E5,1.4308388E6,2.959833E5,1.9820525E6,5.2057375E5,3.050413E5,2.06103E5,5.565408E4,8.1779E4,1.7936375E4,6.0169695E4,1.123589E6,4.6749078E5,1.7366003E5,1.9820928E5,4.8606816E5,3.429537E6,2.4675953E5,1.2530875E5,1.9990625E5,1.543659E5,1.1535175E5,1.1851525E5,4.880953E3,2.77043E4,1.27335E4,3.198075E4,1.1223656E4,3.091975E4,1.0432566E4,1.4643773E4,4.3771162E5,1.2904925E6,1.887429E5,8.605781E4,2.8146938E5,1.253021E5,1.0100697E5,1.4843672E5,3.2155284E5,3.7719225E5,1.807196E6,1.3994234E5,5.5019387E4,7.955275E4,5.826575E4,1.6916578E4,2.5291042E5,2.3753875E5,1.0407531E5,1.6541631E5,7.4887E4,2.7463425E5,2.6606825E5,3.3938938E4,0E0,0E0,0E0,0E0,0E0,0E0,0E0,0E0,0E0,0E0,0E0,0E0,0E0,0E0,0E0,0E0,0E0,0E0,0E0,0E0,0E0,0E0,0E0,0E0,0E0,0E0,0E0,0E0,0E0,0E0,0E0,0E0,0E0,0E0,0E0,0E0,0E0,0E0,0E0,0E0,0E0,0E0,0E0,0E0,0E0,0E0,0E0,0E0,0E0,0E0,0E0,0E0,0E0,0E0,0E0,0E0,0E0,0E0,0E0,0E0,0E0,0E0,0E0,0E0],"parents":[2147483647,0,0,1,1,2,2,3,3,4,4,5,5,6,6,7,7,8,8,9,9,10,10,11,11,12,12,13,13,14,14,15,15,16,16,17,17,18,18,19,19,20,20,21,21,22,22,23,23,24,24,25,25,26,26,27,27,28,28,29,29,30,30,31,31,32,32,33,33,34,34,35,35,36,36,37,37,38,38,39,39,40,40,41,41,42,42,43,43,44,44,45,45,46,46,47,47,48,48,49,49,50,50,51,51,52,52,53,53,54,54,55,55,56,56,57,57,58,58,59,59,60,60,61,61,62,62],"right_children":[2,4,6,8,10,12,14,16,18,20,22,24,26,28,30,32,34,36,38,40,42,44,46,48,50,52,54,56,58,60,62,64,66,68,70,72,74,76,78,80,82,84,86,88,90,92,94,96,98,100,102,104,106,108,110,112,114,116,118,120,122,124,126,-1,-1,-1,-1,-1,-1,-1,-1,-1,-1,-1,-1,-1,-1,-1,-1,-1,-1,-1,-1,-1,-1,-1,-1,-1,-1,-1,-1,-1,-1,-1,-1,-1,-1,-1,-1,-1,-1,-1,-1,-1,-1,-1,-1,-1,-1,-1,-1,-1,-1,-1,-1,-1,-1,-1,-1,-1,-1,-1,-1,-1,-1,-1,-1],"split_conditions":[3.9083017E2,1.2076668E0,1.5643235E0,-4.9377555E-1,1.5934678E0,8.6314213E-1,4.0440912E2,4.433296E-1,4.862727E-1,8.6314213E-1,1.9429007E1,6.087614E-1,5.8070296E-1,1.8837917E1,1.825694E0,3.265651E1,1.5018506E-1,5.8938865E-2,-8.726535E-3,5.6640625E-1,5.6640625E-1,1.7989424E0,5.51937E-1,5.234156E-1,1.7213356E-2,-8.726535E-3,3.597748E1,1.7777311E0,5.6640625E-1,6.6262007E-1,1.9543365E1,-3.859352E-1,-2.5738614E-2,1.9200401E1,7.063706E-1,3.574466E1,6.4944804E-1,2.8850365E-1,-9.337847E-1,5.234156E-1,-4.9377555E-1,-8.726535E-3,3.452503E1,-6.2251467E-1,8.0385685E-1,3.83342E2,-4.9377555E-1,4.0932413E2,-5.51937E-1,4.2122704E-1,3.597748E1,2.9312004E1,4.041847E2,-5.978E-1,6.4944804E-1,1.0061121E-1,8.3388585E-1,-5.2249855E-1,-4.9377555E-1,4.1670407E2,-5.160624E-1,8.5264015E-1,4.1733813E2,-2.4697452E0,-1.7651558E0,-1.0460638E0,6.117416E-1,-3.946708E0,-3.1355274E0,-5.3917174E0,-2.9400675E0,-1.1181866E0,-1.6156323E0,-9.8345184E-1,-2.2350302E0,-3.1002212E0,-4.3413144E-1,8.974829E-1,-8.797964E-2,-4.031143E-1,-1.156982E0,-1.8982716E0,-2.6699516E-1,-1.2267056E0,-2.6882667E-2,1.177941E0,4.6571398E-1,-7.985727E-1,1.15014784E-1,3.403841E-1,-8.515226E-2,-3.5831082E-1,-9.912895E-2,-1.1440908E0,-6.694117E-3,-1.4516137E-2,4.5457593E-1,-8.183457E-1,1.5884073E-1,-6.7876524E-1,-2.2087386E0,7.345065E-1,-1.0522586E-1,-6.705082E-1,1.5300871E-1,4.1213652E-1,9.5345944E-1,4.4541955E-1,1.6354634E0,4.93705E-1,1.0135564E0,3.4946997E-3,1.0649163E0,8.08824E-1,1.7391095E-1,-5.525259E-1,2.1536079E-1,-7.847616E-1,3.7279183E-1,4.1756764E-1,6.7974794E-1,1.7850238E-1,1.4655608E0,1.2305145E0,5.1440823E-1,5.8372647E-1,8.7042093E-1],"split_indices":[7,4,4,12,4,12,7,10,12,12,0,8,8,0,4,2,9,9,8,8,8,4,8,12,12,8,2,4,8,8,0,10,10,0,10,2,8,1,9,12,12,8,2,8,8,7,12,7,8,10,2,0,7,9,8,6,8,8,12,7,12,8,7,0,0,0,0,0,0,0,0,0,0,0,0,0,0,0,0,0,0,0,0,0,0,0,0,0,0,0,0,0,0,0,0,0,0,0,0,0,0,0,0,0,0,0,0,0,0,0,0,0,0,0,0,0,0,0,0,0,0,0,0,0,0,0,0],"split_type":[0,0,0,0,0,0,0,0,0,0,0,0,0,0,0,0,0,0,0,0,0,0,0,0,0,0,0,0,0,0,0,0,0,0,0,0,0,0,0,0,0,0,0,0,0,0,0,0,0,0,0,0,0,0,0,0,0,0,0,0,0,0,0,0,0,0,0,0,0,0,0,0,0,0,0,0,0,0,0,0,0,0,0,0,0,0,0,0,0,0,0,0,0,0,0,0,0,0,0,0,0,0,0,0,0,0,0,0,0,0,0,0,0,0,0,0,0,0,0,0,0,0,0,0,0,0,0],"sum_hessian":[1.42293E5,5.2168E4,9.0125E4,2.336E3,4.9832E4,3.8021E4,5.2104E4,8.96E2,1.44E3,2.2115E4,2.7717E4,3.1537E4,6.484E3,2.6775E4,2.5329E4,2.74E2,6.22E2,1.009E3,4.31E2,1.8144E4,3.971E3,1.1197E4,1.652E4,2.0581E4,1.0956E4,3.594E3,2.89E3,1.1274E4,1.5501E4,1.4334E4,1.0995E4,1.59E2,1.15E2,4.52E2,1.7E2,7.98E2,2.11E2,2.3E1,4.08E2,1.2458E4,5.686E3,2.255E3,1.716E3,3.585E3,7.612E3,1.5072E4,1.448E3,1.6344E4,4.237E3,7.78E3,3.176E3,8.1E2,2.784E3,2.249E3,6.41E2,3.85E3,7.424E3,1.416E4,1.341E3,1.2621E4,1.713E3,5.87E3,5.125E3,4.4E1,1.15E2,7.9E1,3.6E1,3.66E2,8.6E1,1.51E2,1.9E1,6.53E2,1.45E2,8.5E1,1.26E2,1.8E1,5E0,4.1E1,3.67E2,1.0078E4,2.38E3,3.933E3,1.753E3,3.97E2,1.858E3,9.4E2,7.76E2,1.354E3,2.231E3,4.955E3,2.657E3,7.175E3,7.897E3,1.054E3,3.94E2,1.0833E4,5.511E3,2.671E3,1.566E3,4.227E3,3.553E3,2.561E3,6.15E2,4.13E2,3.97E2,1.181E3,1.603E3,1.09E2,2.14E3,2.85E2,3.56E2,3.169E3,6.81E2,5.397E3,2.027E3,4.55E2,1.3705E4,8.61E2,4.8E2,8.636E3,3.985E3,7.03E2,1.01E3,3.931E3,1.939E3,3.681E3,1.444E3],"tree_param":{"num_deleted":"0","num_feature":"13","num_nodes":"127","size_leaf_vector":"1"}},{"base_weights":[2.5615877E-2,-6.200966E0,4.632878E0,-1.9871641E1,1.7082019E-1,1.9479079E0,8.022436E0,-3.4998333E0,-3.825996E1,-3.873928E0,1.25165615E1,1.1049209E0,1.0026044E1,1.1239339E1,4.361494E0,1.3710525E1,-8.717995E0,-4.6658123E1,-1.0853182E1,-1.460972E0,-1.3187047E1,4.4316115E0,2.358674E1,-6.220134E-2,7.3651605E0,-3.5250327E-1,2.1219694E1,1.5158833E1,3.442399E0,1.4575502E0,6.923472E0,2.5769548E1,1.1336775E1,-1.7476921E0,-1.2246447E1,-3.676787E1,-6.917291E1,-7.712957E-1,-1.7961506E1,-9.957709E0,2.3682513E0,-2.1056623E1,1.6982212E0,-1.0342515E1,8.604078E0,2.7314056E1,1.1582098E1,-4.4923396E0,1.6942333E0,3.931957E0,1.1197405E1,-8.400492E0,4.519132E0,3.200517E1,1.3922306E1,1.734576E1,9.588051E0,-2.1231163E0,6.4608607E0,-3.751154E0,2.4067137E0,4.521457E0,1.098079E1,4.6273562E-1,1.3637071E0,6.7218614E-1,2.6064244E-1,7.258368E-2,-2.5668356E-1,-8.4783614E-1,-2.8113827E-1,-1.1918424E0,-2.2447863E0,-2.3924937E0,-4.2967563E0,-4.1849127E-1,1.2910467E-1,-1.0006716E0,-4.059905E-1,-8.6302376E-1,-5.9114795E-2,3.362004E-1,-3.209634E-1,-4.9033284E-1,-1.136846E0,-1.9405925E-1,4.9580494E-1,-2.8531833E0,-3.3027318E-1,6.408531E-1,2.4519177E-1,7.3999065E-1,1.4387116E0,2.95662E-1,7.958256E-1,3.2049593E-1,-3.0016246E-1,1.398307E-1,-2.243582E-1,4.2691597E-1,-8.9881115E-2,-1.453782E0,7.219292E-1,-6.7424434E-1,-1.1740996E-1,5.128363E-1,2.3809616E-2,1.3170146E0,2.1869524E0,7.7011144E-1,4.687098E-1,1.4432573E0,8.137538E-1,6.266121E-1,6.7696005E-2,3.1997764E-1,-3.794745E-1,2.3001146E-1,5.3995395E-1,5.0912875E-1,-2.9898655E-1,2.0027529E-1,3.5926137E-2,2.9268265E-1,-2.251987E-1,-4.4625368E-2,5.9581286E-1],"categories":[],"categories_nodes":[],"categories_segments":[],"categories_sizes":[],"default_left":[0,0,0,0,0,0,0,0,0,0,0,0,0,0,0,0,0,0,0,0,0,0,0,0,0,0,0,0,0,0,0,0,0,0,0,0,0,0,0,0,0,0,0,0,0,0,0,0,0,0,0,0,0,0,0,0,0,0,0,0,0,0,0,0,0,0,0,0,0,0,0,0,0,0,0,0,0,0,0,0,0,0,0,0,0,0,0,0,0,0,0,0,0,0,0,0,0,0,0,0,0,0,0,0,0,0,0,0,0,0,0,0,0,0,0,0,0,0,0,0,0,0,0,0,0,0,0],"id":6,"left_children":[1,3,5,7,9,11,13,15,17,19,21,23,25,27,29,31,33,35,37,39,41,43,45,47,49,51,53,55,57,59,61,63,65,67,69,71,73,75,77,79,81,83,85,87,89,91,93,95,97,99,101,103,105,107,109,111,113,115,117,119,121,123,125,-1,-1,-1,-1,-1,-1,-1,-1,-1,-1,-1,-1,-1,-1,-1,-1,-1,-1,-1,-1,-1,-1,-1,-1,-1,-1,-1,-1,-1,-1,-1,-1,-1,-1,-1,-1,-1,-1,-1,-1,-1,-1,-1,-1,-1,-1,-1,-1,-1,-1,-1,-1,-1,-1,-1,-1,-1,-1,-1,-1,-1,-1,-1,-1],"loss_changes":[4.084841E6,5.274659E6,7.4477075E5,5.7953745E6,2.0625818E6,3.109625E5,4.259435E5,9.1479744E5,2.086409E6,6.991328E5,9.121846E5,3.021381E5,5.0129962E5,5.8831875E5,1.2587116E5,6.7545625E4,1.9220681E5,1.542823E6,1.5248805E5,8.040191E5,7.4997275E5,3.6329853E5,1.9217325E5,2.712233E5,8.544781E4,8.7861734E4,1.6294306E5,1.55918E5,1.08235195E5,3.9224004E4,8.755325E4,9.409859E3,2.5501406E4,2.8476898E4,1.6179594E5,5.05932E5,7.52536E5,2.2470799E4,2.5037312E4,4.9195662E5,6.520799E5,7.894075E4,1.0159879E5,2.2624662E5,7.1567125E4,5.9542E4,2.4990875E4,1.6304862E5,1.700961E5,9.051596E4,4.0115197E5,2.5969285E4,3.2376701E4,5.4477188E4,8.199406E3,1.1298275E5,8.759534E4,1.05617305E5,3.3664812E4,3.803754E4,1.8107383E4,6.7936016E4,3.7131594E4,0E0,0E0,0E0,0E0,0E0,0E0,0E0,0E0,0E0,0E0,0E0,0E0,0E0,0E0,0E0,0E0,0E0,0E0,0E0,0E0,0E0,0E0,0E0,0E0,0E0,0E0,0E0,0E0,0E0,0E0,0E0,0E0,0E0,0E0,0E0,0E0,0E0,0E0,0E0,0E0,0E0,0E0,0E0,0E0,0E0,0E0,0E0,0E0,0E0,0E0,0E0,0E0,0E0,0E0,0E0,0E0,0E0,0E0,0E0,0E0,0E0,0E0,0E0,0E0],"parents":[2147483647,0,0,1,1,2,2,3,3,4,4,5,5,6,6,7,7,8,8,9,9,10,10,11,11,12,12,13,13,14,14,15,15,16,16,17,17,18,18,19,19,20,20,21,21,22,22,23,23,24,24,25,25,26,26,27,27,28,28,29,29,30,30,31,31,32,32,33,33,34,34,35,35,36,36,37,37,38,38,39,39,40,40,41,41,42,42,43,43,44,44,45,45,46,46,47,47,48,48,49,49,50,50,51,51,52,52,53,53,54,54,55,55,56,56,57,57,58,58,59,59,60,60,61,61,62,62],"right_children":[2,4,6,8,10,12,14,16,18,20,22,24,26,28,30,32,34,36,38,40,42,44,46,48,50,52,54,56,58,60,62,64,66,68,70,72,74,76,78,80,82,84,86,88,90,92,94,96,98,100,102,104,106,108,110,112,114,116,118,120,122,124,126,-1,-1,-1,-1,-1,-1,-1,-1,-1,-1,-1,-1,-1,-1,-1,-1,-1,-1,-1,-1,-1,-1,-1,-1,-1,-1,-1,-1,-1,-1,-1,-1,-1,-1,-1,-1,-1,-1,-1,-1,-1,-1,-1,-1,-1,-1,-1,-1,-1,-1,-1,-1,-1,-1,-1,-1,-1,-1,-1,-1,-1,-1,-1,-1],"split_conditions":[1.567429E0,-4.9377555E-1,1.825694E0,5.9482276E-1,8.6314213E-1,7.253744E-1,1.8837917E1,-8.726535E-3,8.5264015E-1,5.234156E-1,5.8070296E-1,-6.3131375E0,-5.160624E-1,8.241262E-1,-2.2909164E-2,1.6296492E1,-6.907226E0,-6.0270287E-2,-1.6590682E-1,-8.7380713E-1,-5.51937E-1,8.726535E-3,1.9644814E0,-2.9270935E-1,5.234156E-1,8.433914E-1,8.5264015E-1,-7.232275E0,-2.0383824E-1,-5.160624E-1,5.234156E-1,-5.690452E-1,2.5840107E1,4.617486E-1,4.228897E-1,-6.406674E0,6.6262007E-1,1.3072954E0,1.4544328E0,1.2452217E0,9.998518E-1,1.0959113E0,-8.726535E-3,-9.2215633E-1,7.2716904E-1,-5.287224E-1,6.4944804E-1,-1.0979843E-1,5.075384E-1,-8.726535E-3,-1.4780942E-1,-8.717063E-1,-1.8819426E-1,9.999167E-1,5.123714E-1,-8.933792E-1,8.6314213E-1,2.2916968E0,8.6314213E-1,7.84591E-2,8.695894E-1,5.6640625E-1,-7.84591E-2,4.6273562E-1,1.3637071E0,6.7218614E-1,2.6064244E-1,7.258368E-2,-2.5668356E-1,-8.4783614E-1,-2.8113827E-1,-1.1918424E0,-2.2447863E0,-2.3924937E0,-4.2967563E0,-4.1849127E-1,1.2910467E-1,-1.0006716E0,-4.059905E-1,-8.6302376E-1,-5.9114795E-2,3.362004E-1,-3.209634E-1,-4.9033284E-1,-1.136846E0,-1.9405925E-1,4.9580494E-1,-2.8531833E0,-3.3027318E-1,6.408531E-1,2.4519177E-1,7.3999065E-1,1.4387116E0,2.95662E-1,7.958256E-1,3.2049593E-1,-3.0016246E-1,1.398307E-1,-2.243582E-1,4.2691597E-1,-8.9881115E-2,-1.453782E0,7.219292E-1,-6.7424434E-1,-1.1740996E-1,5.128363E-1,2.3809616E-2,1.3170146E0,2.1869524E0,7.7011144E-1,4.687098E-1,1.4432573E0,8.137538E-1,6.266121E-1,6.7696005E-2,3.1997764E-1,-3.794745E-1,2.3001146E-1,5.3995395E-1,5.0912875E-1,-2.9898655E-1,2.0027529E-1,3.5926137E-2,2.9268265E-1,-2.251987E-1,-4.4625368E-2,5.9581286E-1],"split_indices":[4,12,4,8,12,8,0,8,8,12,8,5,12,8,1,0,5,9,9,11,8,8,3,1,12,8,8,5,9,12,12,9,0,8,3,5,8,4,4,4,11,0,8,9,3,9,8,6,8,8,8,12,9,12,11,3,12,4,12,8,11,8,8,0,0,0,0,0,0,0,0,0,0,0,0,0,0,0,0,0,0,0,0,0,0,0,0,0,0,0,0,0,0,0,0,0,0,0,0,0,0,0,0,0,0,0,0,0,0,0,0,0,0,0,0,0,0,0,0,0,0,0,0,0,0,0,0],"split_type":[0,0,0,0,0,0,0,0,0,0,0,0,0,0,0,0,0,0,0,0,0,0,0,0,0,0,0,0,0,0,0,0,0,0,0,0,0,0,0,0,0,0,0,0,0,0,0,0,0,0,0,0,0,0,0,0,0,0,0,0,0,0,0,0,0,0,0,0,0,0,0,0,0,0,0,0,0,0,0,0,0,0,0,0,0,0,0,0,0,0,0,0,0,0,0,0,0,0,0,0,0,0,0,0,0,0,0,0,0,0,0,0,0,0,0,0,0,0,0,0,0,0,0,0,0,0,0],"sum_hessian":[1.42389E5,6.0553E4,8.1836E4,1.925E4,4.1303E4,4.5665E4,3.6171E4,1.0184E4,9.066E3,3.1111E4,1.0192E4,4.1351E4,4.314E3,1.9252E4,1.6919E4,2.369E3,7.815E3,6.939E3,2.127E3,2.471E4,6.401E3,5.891E3,4.301E3,3.4854E4,6.497E3,2.239E3,2.075E3,1.2811E4,6.441E3,7.931E3,8.988E3,3.88E2,1.981E3,2.627E3,5.188E3,4.823E3,2.116E3,8.8E2,1.247E3,7.676E3,1.7034E4,4.187E3,2.214E3,1.297E3,4.594E3,3.281E3,1.02E3,9.895E3,2.4959E4,3.428E3,3.069E3,8.44E2,1.395E3,8.36E2,1.239E3,9.198E3,3.613E3,2.265E3,4.176E3,1.222E3,6.709E3,5.647E3,3.341E3,3.3E1,3.55E2,1.473E3,5.08E2,1.351E3,1.276E3,3.031E3,2.157E3,1.863E3,2.96E3,9.33E2,1.183E3,2.69E2,6.11E2,1.031E3,2.16E2,4.189E3,3.487E3,1.1389E4,5.645E3,5.45E2,3.642E3,1.319E3,8.95E2,9.5E1,1.202E3,2.147E3,2.447E3,3.44E2,2.937E3,4.43E2,5.77E2,1.204E3,8.691E3,2.1182E4,3.777E3,1.9E3,1.528E3,2.28E2,2.841E3,4.58E2,3.86E2,5.76E2,8.19E2,5.66E2,2.7E2,9.33E2,3.06E2,7.8E2,8.418E3,2.661E3,9.52E2,8.85E2,1.38E3,2.924E3,1.252E3,1.68E2,1.054E3,3.445E3,3.264E3,4.921E3,7.26E2,2.44E2,3.097E3],"tree_param":{"num_deleted":"0","num_feature":"13","num_nodes":"127","size_leaf_vector":"1"}},{"base_weights":[-1.1729845E-2,-6.117207E0,6.3566566E0,-1.2100491E1,-9.929307E-1,1.173394E1,1.8800137E0,-2.233316E1,-6.598515E0,-4.523749E0,2.2533193E0,1.702545E1,7.4071307E0,-9.794874E0,6.373169E0,-5.0762146E1,-1.5489056E1,-9.468507E0,3.2105474E0,-1.4196573E0,-6.939174E0,7.2687483E0,-3.7104583E-1,1.5000651E1,2.3048681E1,4.5034714E0,1.0424506E1,-3.3265957E1,-7.589023E-1,3.499532E0,1.3380447E1,-3.398056E1,-8.019541E1,-2.4431303E1,-9.744974E0,-7.049892E0,-1.8873096E1,1.2170648E1,-3.1211343E0,1.8768919E0,-6.876507E0,2.0970415E1,-7.262457E0,1.076025E1,-2.5615373E0,-5.9212604E0,1.832046E0,1.2766988E1,2.1688444E1,1.799609E1,2.6213543E1,1.5008177E0,5.779186E0,6.0904517E0,1.2223768E1,-1.3846649E1,-5.077706E1,-1.0119523E1,4.8619275E0,2.811919E-1,1.0011614E1,3.1250324E1,1.1199116E1,-8.628034E-1,-2.1798227E0,-3.3796895E0,-4.818219E0,-5.0689083E-1,-1.6940355E0,-2.3677306E-1,-8.5006905E-1,-5.1667327E-1,7.999505E-3,-1.3206201E0,-1.8659933E-1,3.3541283E-1,1.0182965E0,-3.369776E-2,-4.4766942E-1,1.2754431E-1,-4.931894E-1,1.4606428E0,-3.9287105E-1,1.7419089E0,-4.219253E-2,-5.31119E-1,-2.811695E-1,3.5416153E-1,8.638989E-1,3.0960318E-1,-4.6528393E-1,-7.691757E-1,-1.2940024E-1,-1.1367754E-1,1.4553364E-1,7.0126337E-1,2.752777E-1,1.3030738E0,7.6141334E-1,1.0151961E0,6.801412E-1,1.7593323E0,1.0228518E0,-1.3196929E-1,2.1973045E-1,1.2898049E-1,3.4390154E-1,1.2967265E-1,4.6884766E-1,4.881869E-1,7.206556E-1,1.3447042E0,-7.4118334E-1,-1.3128783E0,-3.003305E0,7.4558204E-1,-8.81273E-1,5.730292E-1,-7.324918E-2,5.6645614E-1,-7.314881E-2,3.7358168E-1,8.277456E-1,2.145951E0,9.115519E-1,9.6157646E-1,3.9447993E-1],"categories":[],"categories_nodes":[],"categories_segments":[],"categories_sizes":[],"default_left":[0,0,0,0,0,0,0,0,0,0,0,0,0,0,0,0,0,0,0,0,0,0,0,0,0,0,0,0,0,0,0,0,0,0,0,0,0,0,0,0,0,0,0,0,0,0,0,0,0,0,0,0,0,0,0,0,0,0,0,0,0,0,0,0,0,0,0,0,0,0,0,0,0,0,0,0,0,0,0,0,0,0,0,0,0,0,0,0,0,0,0,0,0,0,0,0,0,0,0,0,0,0,0,0,0,0,0,0,0,0,0,0,0,0,0,0,0,0,0,0,0,0,0,0,0,0,0],"id":7,"left_children":[1,3,5,7,9,11,13,15,17,19,21,23,25,27,29,31,33,35,37,39,41,43,45,47,49,51,53,55,57,59,61,63,65,67,69,71,73,75,77,79,81,83,85,87,89,91,93,95,97,99,101,103,105,107,109,111,113,115,117,119,121,123,125,-1,-1,-1,-1,-1,-1,-1,-1,-1,-1,-1,-1,-1,-1,-1,-1,-1,-1,-1,-1,-1,-1,-1,-1,-1,-1,-1,-1,-1,-1,-1,-1,-1,-1,-1,-1,-1,-1,-1,-1,-1,-1,-1,-1,-1,-1,-1,-1,-1,-1,-1,-1,-1,-1,-1,-1,-1,-1,-1,-1,-1,-1,-1,-1],"loss_changes":[5.5343135E6,2.2279872E6,1.6770378E6,1.8872475E6,4.4868725E5,7.245095E5,1.994428E6,2.279968E6,6.138276E5,1.4057869E5,2.6844888E5,1.73282E5,1.5252306E5,2.240851E6,5.527755E5,1.1204755E6,4.8510625E5,3.8354538E5,2.8007053E5,1.4764727E5,9.529519E4,2.404915E5,1.6373925E5,1.5893225E5,5.6770875E4,3.399039E4,6.651169E4,9.98028E5,4.01498E5,4.0807125E5,3.10863E5,2.3243212E5,1.61568E5,4.9871725E5,2.0911762E5,3.176865E5,3.9372775E5,9.136203E4,4.128355E4,4.051602E4,1.0965055E5,3.663711E4,5.73505E4,1.2377844E5,1.0850619E5,1.1996853E5,4.2457383E4,7.2943E4,7.494325E4,1.3732375E4,1.12861125E5,3.1737158E4,2.1881469E4,2.8787164E4,3.234975E4,5.588478E4,3.5007925E5,5.3817025E5,1.990776E5,2.5113702E5,1.0690575E5,1.3107638E5,1.8903969E5,0E0,0E0,0E0,0E0,0E0,0E0,0E0,0E0,0E0,0E0,0E0,0E0,0E0,0E0,0E0,0E0,0E0,0E0,0E0,0E0,0E0,0E0,0E0,0E0,0E0,0E0,0E0,0E0,0E0,0E0,0E0,0E0,0E0,0E0,0E0,0E0,0E0,0E0,0E0,0E0,0E0,0E0,0E0,0E0,0E0,0E0,0E0,0E0,0E0,0E0,0E0,0E0,0E0,0E0,0E0,0E0,0E0,0E0,0E0,0E0,0E0,0E0,0E0,0E0],"parents":[2147483647,0,0,1,1,2,2,3,3,4,4,5,5,6,6,7,7,8,8,9,9,10,10,11,11,12,12,13,13,14,14,15,15,16,16,17,17,18,18,19,19,20,20,21,21,22,22,23,23,24,24,25,25,26,26,27,27,28,28,29,29,30,30,31,31,32,32,33,33,34,34,35,35,36,36,37,37,38,38,39,39,40,40,41,41,42,42,43,43,44,44,45,45,46,46,47,47,48,48,49,49,50,50,51,51,52,52,53,53,54,54,55,55,56,56,57,57,58,58,59,59,60,60,61,61,62,62],"right_children":[2,4,6,8,10,12,14,16,18,20,22,24,26,28,30,32,34,36,38,40,42,44,46,48,50,52,54,56,58,60,62,64,66,68,70,72,74,76,78,80,82,84,86,88,90,92,94,96,98,100,102,104,106,108,110,112,114,116,118,120,122,124,126,-1,-1,-1,-1,-1,-1,-1,-1,-1,-1,-1,-1,-1,-1,-1,-1,-1,-1,-1,-1,-1,-1,-1,-1,-1,-1,-1,-1,-1,-1,-1,-1,-1,-1,-1,-1,-1,-1,-1,-1,-1,-1,-1,-1,-1,-1,-1,-1,-1,-1,-1,-1,-1,-1,-1,-1,-1,-1,-1,-1,-1,-1,-1,-1],"split_conditions":[3.967617E2,1.5934678E0,-6.761115E0,-4.9377555E-1,3.8615152E2,2.0846369E1,-4.9377555E-1,-1.1689034E0,8.6314213E-1,2.020599E1,1.6713783E1,4.1507465E2,4.083332E2,1.3503428E0,8.6314213E-1,5.689013E-1,4.0209198E-1,5.234156E-1,1.8967073E1,-7.004498E0,-9.629067E-1,-6.8334494E0,-5.160624E-1,1.6230853E-1,5.234156E-1,-5.160624E-1,-5.160624E-1,4.5155618E-1,3.444252E1,4.1275732E2,3.2958073E1,9.59791E0,8.623714E-2,5.9097254E-1,1.8435593E0,4.862727E-1,2.3195417E1,4.9240482E-1,2.763719E1,9.9705505E-1,-8.5808074E-1,2.4902113E1,-5.012418E-1,-2.3131344E-1,1.7213356E-2,5.855026E-1,3.881023E2,2.513267E0,1.7791248E1,4.2126758E2,3.4582E1,5.324707E-1,3.99643E2,5.4149246E-1,4.146289E2,-9.868804E-1,-6.377674E0,2.2600958E-1,3.5500057E1,-4.7873384E-1,1.5757877E0,1.1299041E1,1.4348888E0,-8.628034E-1,-2.1798227E0,-3.3796895E0,-4.818219E0,-5.0689083E-1,-1.6940355E0,-2.3677306E-1,-8.5006905E-1,-5.1667327E-1,7.999505E-3,-1.3206201E0,-1.8659933E-1,3.3541283E-1,1.0182965E0,-3.369776E-2,-4.4766942E-1,1.2754431E-1,-4.931894E-1,1.4606428E0,-3.9287105E-1,1.7419089E0,-4.219253E-2,-5.31119E-1,-2.811695E-1,3.5416153E-1,8.638989E-1,3.0960318E-1,-4.6528393E-1,-7.691757E-1,-1.2940024E-1,-1.1367754E-1,1.4553364E-1,7.0126337E-1,2.752777E-1,1.3030738E0,7.6141334E-1,1.0151961E0,6.801412E-1,1.7593323E0,1.0228518E0,-1.3196929E-1,2.1973045E-1,1.2898049E-1,3.4390154E-1,1.2967265E-1,4.6884766E-1,4.881869E-1,7.206556E-1,1.3447042E0,-7.4118334E-1,-1.3128783E0,-3.003305E0,7.4558204E-1,-8.81273E-1,5.730292E-1,-7.324918E-2,5.6645614E-1,-7.314881E-2,3.7358168E-1,8.277456E-1,2.145951E0,9.115519E-1,9.6157646E-1,3.9447993E-1],"split_indices":[7,4,5,12,7,0,12,3,12,0,0,7,7,4,12,10,3,12,0,5,9,5,12,9,12,12,12,10,2,7,2,0,9,10,3,12,0,10,0,1,10,0,12,10,12,3,7,4,0,7,2,3,7,3,7,9,5,10,2,12,4,0,4,0,0,0,0,0,0,0,0,0,0,0,0,0,0,0,0,0,0,0,0,0,0,0,0,0,0,0,0,0,0,0,0,0,0,0,0,0,0,0,0,0,0,0,0,0,0,0,0,0,0,0,0,0,0,0,0,0,0,0,0,0,0,0,0],"split_type":[0,0,0,0,0,0,0,0,0,0,0,0,0,0,0,0,0,0,0,0,0,0,0,0,0,0,0,0,0,0,0,0,0,0,0,0,0,0,0,0,0,0,0,0,0,0,0,0,0,0,0,0,0,0,0,0,0,0,0,0,0,0,0,0,0,0,0,0,0,0,0,0,0,0,0,0,0,0,0,0,0,0,0,0,0,0,0,0,0,0,0,0,0,0,0,0,0,0,0,0,0,0,0,0,0,0,0,0,0,0,0,0,0,0,0,0,0,0,0,0,0,0,0,0,0,0,0],"sum_hessian":[1.42334E5,7.2667E4,6.9667E4,3.3523E4,3.9144E4,3.1649E4,3.8018E4,1.1721E4,2.1802E4,1.875E4,2.0394E4,1.4236E4,1.7413E4,1.0565E4,2.7453E4,2.273E3,9.448E3,1.6867E4,4.935E3,8.206E3,1.0544E4,7.005E3,1.3389E4,1.0657E4,3.579E3,8.875E3,8.538E3,2.936E3,7.629E3,1.947E4,7.983E3,1.449E3,8.24E2,3.694E3,5.754E3,1.3418E4,3.449E3,2.043E3,2.892E3,5.116E3,3.09E3,1.2E2,1.0424E4,5.169E3,1.836E3,3.804E3,9.585E3,7.991E3,2.666E3,1.381E3,2.198E3,2.647E3,6.228E3,2.506E3,6.032E3,1.393E3,1.543E3,2.862E3,4.767E3,1.3031E4,6.439E3,8.67E2,7.116E3,5.3E2,9.19E2,4.66E2,3.58E2,1.471E3,2.223E3,3.405E3,2.349E3,9.219E3,4.199E3,2.302E3,1.147E3,1.227E3,8.16E2,2.038E3,8.54E2,4.839E3,2.77E2,8.1E1,3.009E3,7.3E1,4.7E1,3.416E3,7.008E3,3.306E3,1.863E3,7.99E2,1.037E3,9.9E2,2.814E3,1.994E3,7.591E3,6.81E3,1.181E3,1.588E3,1.078E3,9.03E2,4.78E2,8.57E2,1.341E3,1.089E3,1.558E3,1.593E3,4.635E3,1.215E3,1.291E3,2.843E3,3.189E3,3.2E1,1.361E3,4.25E2,1.118E3,6.6E2,2.202E3,2.333E3,2.434E3,1.776E3,1.1255E4,4.64E3,1.799E3,4.56E2,4.11E2,2.075E3,5.041E3],"tree_param":{"num_deleted":"0","num_feature":"13","num_nodes":"127","size_leaf_vector":"1"}},{"base_weights":[-2.1859115E-2,-5.7231402E0,4.2151203E0,-1.8123432E1,1.1609415E-1,1.8067878E0,7.242373E0,-2.1887352E0,-3.436487E1,-3.5721767E0,1.1504919E1,-3.951231E0,2.8249545E0,9.952522E0,3.8249164E0,1.3802064E1,-7.03209E0,-1.8067217E1,-5.414103E1,-1.3784935E0,-1.2052265E1,4.152157E0,2.1465733E1,1.9765326E1,-1.3012328E1,-2.7442956E0,6.310903E0,1.326291E1,2.8325534E0,4.3706653E-1,5.688773E0,2.6270664E1,1.1778366E1,-4.3854294E0,-1.3186901E1,-2.4003183E1,-8.948852E0,-3.216356E1,-6.560426E1,-4.7759275E0,5.5807886E0,-1.9269066E1,1.4659632E0,-1.0420484E1,7.851168E0,2.702701E1,1.446463E1,2.607589E1,1.2982697E1,-4.763886E0,-1.4454304E1,1.2332418E1,-5.5611033E0,1.8419716E1,3.5041873E0,1.5255118E1,8.156092E0,-1.6442121E0,6.0394673E0,9.351204E0,-1.6671941E0,4.5842714E0,1.0125482E1,5.487015E-1,1.4004549E0,7.53503E-1,4.317672E-1,-9.124091E-1,-1.4941733E-1,-2.2269419E-1,-1.0605588E0,-3.3835706E-1,-1.3416224E0,-3.9964307E-2,-7.5327086E-1,-5.630157E-2,-1.9122715E0,-2.7844303E0,-3.9346683E0,-7.217576E-1,-8.01557E-3,6.479916E-1,1.363437E-1,-4.5474815E-1,-1.0382394E0,-1.737262E-1,4.464034E-1,-2.519671E0,-3.1823143E-1,5.73988E-1,1.9566017E-1,1.0286876E0,1.5690621E0,9.032569E-1,3.823492E-1,9.614912E-1,1.380512E0,4.8911926E-1,1.0457478E0,-7.263863E-2,-4.7188893E-1,-3.7859064E-1,-8.614786E-1,1.8667952E0,5.8624387E-1,-6.16691E-2,-4.3196067E-1,1.2175812E0,7.6713103E-1,-2.377092E-1,2.1633358E-1,6.2405145E-1,9.6029896E-1,2.3373817E-1,7.027728E-1,2.8908744E-1,-3.3358127E-1,2.078687E-1,5.2262795E-1,9.2530787E-1,4.0523347E-1,-1.2538552E0,-5.0833434E-2,1.9521129E-1,6.3195056E-1,3.146246E-1,9.4769496E-1],"categories":[],"categories_nodes":[],"categories_segments":[],"categories_sizes":[],"default_left":[0,0,0,0,0,0,0,0,0,0,0,0,0,0,0,0,0,0,0,0,0,0,0,0,0,0,0,0,0,0,0,0,0,0,0,0,0,0,0,0,0,0,0,0,0,0,0,0,0,0,0,0,0,0,0,0,0,0,0,0,0,0,0,0,0,0,0,0,0,0,0,0,0,0,0,0,0,0,0,0,0,0,0,0,0,0,0,0,0,0,0,0,0,0,0,0,0,0,0,0,0,0,0,0,0,0,0,0,0,0,0,0,0,0,0,0,0,0,0,0,0,0,0,0,0,0,0],"id":8,"left_children":[1,3,5,7,9,11,13,15,17,19,21,23,25,27,29,31,33,35,37,39,41,43,45,47,49,51,53,55,57,59,61,63,65,67,69,71,73,75,77,79,81,83,85,87,89,91,93,95,97,99,101,103,105,107,109,111,113,115,117,119,121,123,125,-1,-1,-1,-1,-1,-1,-1,-1,-1,-1,-1,-1,-1,-1,-1,-1,-1,-1,-1,-1,-1,-1,-1,-1,-1,-1,-1,-1,-1,-1,-1,-1,-1,-1,-1,-1,-1,-1,-1,-1,-1,-1,-1,-1,-1,-1,-1,-1,-1,-1,-1,-1,-1,-1,-1,-1,-1,-1,-1,-1,-1,-1,-1,-1],"loss_changes":[3.4319455E6,4.385769E6,5.941941E5,5.0183585E6,1.7298109E6,2.6613306E5,3.3441412E5,7.582458E5,3.09411E6,5.78654E5,7.37723E5,1.466076E6,7.488785E5,4.7463412E5,1.00857875E5,5.7116375E4,1.2234116E5,2.84811E5,1.090764E6,5.843807E5,6.2372075E5,3.1256512E5,1.66169E5,8.038256E4,5.8638312E4,6.307207E5,8.062169E5,1.39733E5,9.179214E4,1.0637234E5,5.0445375E4,8.1184375E3,2.0145406E4,1.0173849E5,1.5820497E5,1.5532762E5,1.035692E5,2.8102575E5,3.65497E5,7.4043525E5,1.7071075E5,6.3235E4,8.209625E4,1.9000767E5,6.6027125E4,6.6309125E4,4.6400406E4,9.7165E3,2.2918688E4,1.1375379E4,8.010944E4,3.5073062E4,1.666766E5,8.1104E4,1.308485E5,1.0813025E5,7.920764E4,9.9681445E4,3.0894375E4,1.22065E4,6.9841375E4,4.515008E4,6.9350125E4,0E0,0E0,0E0,0E0,0E0,0E0,0E0,0E0,0E0,0E0,0E0,0E0,0E0,0E0,0E0,0E0,0E0,0E0,0E0,0E0,0E0,0E0,0E0,0E0,0E0,0E0,0E0,0E0,0E0,0E0,0E0,0E0,0E0,0E0,0E0,0E0,0E0,0E0,0E0,0E0,0E0,0E0,0E0,0E0,0E0,0E0,0E0,0E0,0E0,0E0,0E0,0E0,0E0,0E0,0E0,0E0,0E0,0E0,0E0,0E0,0E0,0E0,0E0,0E0],"parents":[2147483647,0,0,1,1,2,2,3,3,4,4,5,5,6,6,7,7,8,8,9,9,10,10,11,11,12,12,13,13,14,14,15,15,16,16,17,17,18,18,19,19,20,20,21,21,22,22,23,23,24,24,25,25,26,26,27,27,28,28,29,29,30,30,31,31,32,32,33,33,34,34,35,35,36,36,37,37,38,38,39,39,40,40,41,41,42,42,43,43,44,44,45,45,46,46,47,47,48,48,49,49,50,50,51,51,52,52,53,53,54,54,55,55,56,56,57,57,58,58,59,59,60,60,61,61,62,62],"right_children":[2,4,6,8,10,12,14,16,18,20,22,24,26,28,30,32,34,36,38,40,42,44,46,48,50,52,54,56,58,60,62,64,66,68,70,72,74,76,78,80,82,84,86,88,90,92,94,96,98,100,102,104,106,108,110,112,114,116,118,120,122,124,126,-1,-1,-1,-1,-1,-1,-1,-1,-1,-1,-1,-1,-1,-1,-1,-1,-1,-1,-1,-1,-1,-1,-1,-1,-1,-1,-1,-1,-1,-1,-1,-1,-1,-1,-1,-1,-1,-1,-1,-1,-1,-1,-1,-1,-1,-1,-1,-1,-1,-1,-1,-1,-1,-1,-1,-1,-1,-1,-1,-1,-1,-1,-1,-1],"split_conditions":[1.567429E0,-4.9377555E-1,1.825694E0,5.8070296E-1,8.6314213E-1,-5.6640625E-1,1.9429007E1,-2.6176948E-2,4.7261405E-1,5.234156E-1,5.8070296E-1,1.7213356E-2,-5.160624E-1,8.241262E-1,8.606997E-3,1.5790051E1,5.075384E-1,8.5264015E-1,6.4944804E-1,4.862727E-1,-5.51937E-1,-8.726535E-3,3.4535496E1,-5.160624E-1,5.234156E-1,-8.726535E-3,2.020599E1,-7.219426E0,-1.8260075E-1,2.5038E-1,4.9242356E-1,-5.6187254E-1,7.72045E-1,-7.488251E-1,-1.3885048E-1,-6.9899285E-1,-1.6590682E-1,-4.169168E-1,2.2374365E-2,1.260052E0,1.4104888E1,1.0959113E0,-8.726535E-3,-8.086604E-1,3.490702E1,-2.9522583E-1,3.6324215E1,-4.6438238E-1,3.802986E-1,3.3913654E1,-6.6127305E0,-9.493262E-1,4.617486E-1,3.322791E1,-3.1730467E-1,5.234156E-1,1.5180397E-1,2.2916968E0,8.6314213E-1,-8.3388007E-1,-9.997685E-1,-6.3658395E0,4.897599E-1,5.487015E-1,1.4004549E0,7.53503E-1,4.317672E-1,-9.124091E-1,-1.4941733E-1,-2.2269419E-1,-1.0605588E0,-3.3835706E-1,-1.3416224E0,-3.9964307E-2,-7.5327086E-1,-5.630157E-2,-1.9122715E0,-2.7844303E0,-3.9346683E0,-7.217576E-1,-8.01557E-3,6.479916E-1,1.363437E-1,-4.5474815E-1,-1.0382394E0,-1.737262E-1,4.464034E-1,-2.519671E0,-3.1823143E-1,5.73988E-1,1.9566017E-1,1.0286876E0,1.5690621E0,9.032569E-1,3.823492E-1,9.614912E-1,1.380512E0,4.8911926E-1,1.0457478E0,-7.263863E-2,-4.7188893E-1,-3.7859064E-1,-8.614786E-1,1.8667952E0,5.8624387E-1,-6.16691E-2,-4.3196067E-1,1.2175812E0,7.6713103E-1,-2.377092E-1,2.1633358E-1,6.2405145E-1,9.6029896E-1,2.3373817E-1,7.027728E-1,2.8908744E-1,-3.3358127E-1,2.078687E-1,5.2262795E-1,9.2530787E-1,4.0523347E-1,-1.2538552E0,-5.0833434E-2,1.9521129E-1,6.3195056E-1,3.146246E-1,9.4769496E-1],"split_indices":[4,12,4,8,12,8,0,8,10,12,8,12,12,8,12,0,8,8,8,12,8,8,2,12,12,8,0,5,9,8,8,9,10,3,9,10,9,9,9,4,0,0,8,9,2,9,2,0,10,2,5,9,8,2,8,12,6,4,12,10,12,5,9,0,0,0,0,0,0,0,0,0,0,0,0,0,0,0,0,0,0,0,0,0,0,0,0,0,0,0,0,0,0,0,0,0,0,0,0,0,0,0,0,0,0,0,0,0,0,0,0,0,0,0,0,0,0,0,0,0,0,0,0,0,0,0,0],"split_type":[0,0,0,0,0,0,0,0,0,0,0,0,0,0,0,0,0,0,0,0,0,0,0,0,0,0,0,0,0,0,0,0,0,0,0,0,0,0,0,0,0,0,0,0,0,0,0,0,0,0,0,0,0,0,0,0,0,0,0,0,0,0,0,0,0,0,0,0,0,0,0,0,0,0,0,0,0,0,0,0,0,0,0,0,0,0,0,0,0,0,0,0,0,0,0,0,0,0,0,0,0,0,0,0,0,0,0,0,0,0,0,0,0,0,0,0,0,0,0,0,0,0,0,0,0,0,0],"sum_hessian":[1.42071E5,6.0569E4,8.1502E4,1.939E4,4.1179E4,4.5392E4,3.611E4,9.788E3,9.602E3,3.1106E4,1.0073E4,6.82E3,3.8572E4,2.0138E4,1.5972E4,2.275E3,7.513E3,5.265E3,4.337E3,2.4714E4,6.392E3,5.796E3,4.277E3,1.885E3,4.935E3,1.4849E4,2.3723E4,1.3746E4,6.392E3,5.669E3,1.0303E4,3.16E2,1.959E3,5.255E3,2.258E3,3.188E3,2.077E3,1.488E3,2.849E3,1.6607E4,8.107E3,4.167E3,2.225E3,1.173E3,4.623E3,2.382E3,1.895E3,9.75E2,9.1E2,7.35E2,4.2E3,2.337E3,1.2512E4,4.463E3,1.926E4,9.887E3,3.859E3,2.668E3,3.724E3,1.082E3,4.587E3,8.251E3,2.052E3,3.3E1,2.83E2,9.55E2,1.004E3,4.8E2,4.775E3,1.082E3,1.176E3,4.5E2,2.738E3,8.91E2,1.186E3,2.44E2,1.244E3,1.624E3,1.225E3,5.369E3,1.1238E4,2.26E3,5.847E3,5.35E2,3.632E3,1.339E3,8.86E2,1.07E2,1.066E3,2.405E3,2.218E3,9.62E2,1.42E3,1.239E3,6.56E2,1.81E2,7.94E2,6.5E2,2.6E2,4.31E2,3.04E2,1.208E3,2.992E3,5.4E1,2.283E3,5.201E3,7.311E3,1.522E3,2.941E3,1.744E3,1.7516E4,5.811E3,4.076E3,2.428E3,1.431E3,1.077E3,1.591E3,2.612E3,1.112E3,1.28E2,9.54E2,1.23E2,4.464E3,7.61E3,6.41E2,1.432E3,6.2E2],"tree_param":{"num_deleted":"0","num_feature":"13","num_nodes":"127","size_leaf_vector":"1"}},{"base_weights":[5.665009E-2,-5.401078E0,6.372544E0,-1.627457E1,-3.1351223E0,1.071468E1,2.094266E0,-3.213843E1,-1.1044674E1,-5.458251E0,2.0453265E0,1.5249818E1,7.1427336E0,-6.5353787E-1,1.0877148E1,-9.199215E0,-4.977227E1,-2.6531837E0,-1.3409508E1,-8.914059E0,-2.5173943E0,5.584489E0,-1.6710345E0,1.3131283E1,2.1225294E1,8.684369E0,7.878674E-1,3.4491658E0,-1.1339503E1,1.6616995E1,5.9631515E0,-6.5451207E0,-2.713243E1,-2.7510685E1,-6.214573E1,7.8106036E0,-6.9438505E0,-8.914313E0,-1.8415627E1,-1.8719992E1,-7.3554974E0,-8.0816345E0,-1.1836158E0,9.254172E0,-1.4173497E0,-5.4100995E0,7.355838E-1,1.5389072E1,8.416598E0,2.4795843E1,1.76302E1,6.290588E0,1.2411805E1,5.4122996E0,-5.165015E0,-2.8442912E0,7.3201456E0,3.7267418E0,-1.8138287E1,1.1601376E1,2.2884718E1,7.216557E0,-2.2102703E1,-4.5470977E-1,4.7759804E-1,-2.3259525E0,-7.7665466E-1,-8.29415E-1,-1.7638619E0,-3.8625157E0,-2.624105E0,-5.3397626E-2,5.162035E-1,-5.056186E-1,-8.408483E-2,-5.5282754E-1,2.710086E-1,-4.3802992E-1,-1.7426289E0,-1.0814267E0,-1.9686109E-1,-7.6286875E-2,-4.3359098E-1,-8.64686E-1,-1.893271E-1,5.3552186E-1,-1.1328184E-1,1.7771596E-1,6.648639E-1,1.0331221E-1,-2.2035658E-1,1.1444864E0,-2.880345E-1,5.4722935E-2,-9.396631E-1,8.716276E-1,4.8732683E-1,6.805846E-1,2.0660906E-1,1.6289774E0,1.1277896E0,1.174474E0,8.070983E-1,-2.9622933E-1,3.2739174E-1,-4.0715825E-2,6.3799804E-1,1.9394529E-1,6.765822E-1,-5.1594204E-1,2.9689772E-2,-8.1918526E-1,-7.71206E-2,6.831546E-2,4.6462375E-1,1.1163114E0,3.7400365E-2,-3.2803458E-1,-1.4471E0,4.4786277E-1,9.826321E-1,9.308402E-1,1.340109E0,2.3252034E-1,6.548253E-1,-2.0305107E0,-5.9034914E-1],"categories":[],"categories_nodes":[],"categories_segments":[],"categories_sizes":[],"default_left":[0,0,0,0,0,0,0,0,0,0,0,0,0,0,0,0,0,0,0,0,0,0,0,0,0,0,0,0,0,0,0,0,0,0,0,0,0,0,0,0,0,0,0,0,0,0,0,0,0,0,0,0,0,0,0,0,0,0,0,0,0,0,0,0,0,0,0,0,0,0,0,0,0,0,0,0,0,0,0,0,0,0,0,0,0,0,0,0,0,0,0,0,0,0,0,0,0,0,0,0,0,0,0,0,0,0,0,0,0,0,0,0,0,0,0,0,0,0,0,0,0,0,0,0,0,0,0],"id":9,"left_children":[1,3,5,7,9,11,13,15,17,19,21,23,25,27,29,31,33,35,37,39,41,43,45,47,49,51,53,55,57,59,61,63,65,67,69,71,73,75,77,79,81,83,85,87,89,91,93,95,97,99,101,103,105,107,109,111,113,115,117,119,121,123,125,-1,-1,-1,-1,-1,-1,-1,-1,-1,-1,-1,-1,-1,-1,-1,-1,-1,-1,-1,-1,-1,-1,-1,-1,-1,-1,-1,-1,-1,-1,-1,-1,-1,-1,-1,-1,-1,-1,-1,-1,-1,-1,-1,-1,-1,-1,-1,-1,-1,-1,-1,-1,-1,-1,-1,-1,-1,-1,-1,-1,-1,-1,-1,-1],"loss_changes":[4.9136225E6,1.8840308E6,1.2274982E6,1.0937182E6,7.6160094E5,5.3112775E5,8.032962E5,1.3218675E6,1.9680025E5,4.439995E5,2.5771262E5,1.826185E5,1.7973569E5,1.1115935E6,2.2362538E5,6.750118E4,5.07318E5,9.801858E4,1.7396488E5,3.06837E5,1.7517317E5,2.5788412E5,8.601213E4,1.1343725E5,4.80805E4,1.3166325E5,9.866332E4,4.463547E5,7.205767E5,1.14725875E5,1.5054352E5,5.096733E4,4.0422766E4,5.5566625E4,1.691935E5,1.4182574E4,2.5791992E4,1.2531781E5,5.805295E5,1.1832406E5,1.3299656E5,1.805151E5,2.4508655E5,1.5170312E5,3.5962562E4,3.7266844E4,4.0779727E4,8.2996125E4,7.688772E4,3.2283125E4,1.60714375E4,2.829775E4,2.6594938E4,2.5057727E4,4.6515516E4,1.2297192E5,1.33198E5,1.2120264E5,6.060746E5,4.3121938E4,2.66655E4,6.1695906E4,3.4385586E4,0E0,0E0,0E0,0E0,0E0,0E0,0E0,0E0,0E0,0E0,0E0,0E0,0E0,0E0,0E0,0E0,0E0,0E0,0E0,0E0,0E0,0E0,0E0,0E0,0E0,0E0,0E0,0E0,0E0,0E0,0E0,0E0,0E0,0E0,0E0,0E0,0E0,0E0,0E0,0E0,0E0,0E0,0E0,0E0,0E0,0E0,0E0,0E0,0E0,0E0,0E0,0E0,0E0,0E0,0E0,0E0,0E0,0E0,0E0,0E0,0E0,0E0,0E0,0E0],"parents":[2147483647,0,0,1,1,2,2,3,3,4,4,5,5,6,6,7,7,8,8,9,9,10,10,11,11,12,12,13,13,14,14,15,15,16,16,17,17,18,18,19,19,20,20,21,21,22,22,23,23,24,24,25,25,26,26,27,27,28,28,29,29,30,30,31,31,32,32,33,33,34,34,35,35,36,36,37,37,38,38,39,39,40,40,41,41,42,42,43,43,44,44,45,45,46,46,47,47,48,48,49,49,50,50,51,51,52,52,53,53,54,54,55,55,56,56,57,57,58,58,59,59,60,60,61,61,62,62],"right_children":[2,4,6,8,10,12,14,16,18,20,22,24,26,28,30,32,34,36,38,40,42,44,46,48,50,52,54,56,58,60,62,64,66,68,70,72,74,76,78,80,82,84,86,88,90,92,94,96,98,100,102,104,106,108,110,112,114,116,118,120,122,124,126,-1,-1,-1,-1,-1,-1,-1,-1,-1,-1,-1,-1,-1,-1,-1,-1,-1,-1,-1,-1,-1,-1,-1,-1,-1,-1,-1,-1,-1,-1,-1,-1,-1,-1,-1,-1,-1,-1,-1,-1,-1,-1,-1,-1,-1,-1,-1,-1,-1,-1,-1,-1,-1,-1,-1,-1,-1,-1,-1,-1,-1,-1,-1,-1],"split_conditions":[3.9862393E2,1.34219E0,-6.6871166E0,3.2958073E1,1.825694E0,2.0846369E1,4.7363758E-2,1.2080879E1,-6.562706E0,3.8585144E2,1.8137785E1,4.1507465E2,4.9242356E-1,6.2251467E-1,1.97756E1,1.1299041E1,5.031963E-1,2.1349174E1,1.9307697E1,-6.087614E-1,-5.3729963E-1,8.241262E-1,3.8551462E2,8.241262E-1,3.4704277E1,4.1155618E2,2.4298458E1,-5.6640625E-1,1.2511339E1,1.2822199E-1,6.3607824E-1,6.0392386E-1,-6.299073E0,1.6142385E1,3.8388364E2,-5.3729963E-1,3.8854382E2,7.1606904E-1,6.2251467E-1,4.131508E-2,1.7906195E1,3.8969034E2,1.1493227E1,3.8615152E2,2.2916968E0,-9.019799E-1,6.3607824E-1,-7.0614157E0,1.9525797E0,4.1563495E2,1.7657142E0,-5.2249855E-1,-5.3729963E-1,2.115175E0,5.324707E-1,3.991797E2,4.040797E2,7.372773E-1,4.433296E-1,5.9097254E-1,4.0868384E2,4.1511423E2,3.4059948E1,-4.5470977E-1,4.7759804E-1,-2.3259525E0,-7.7665466E-1,-8.29415E-1,-1.7638619E0,-3.8625157E0,-2.624105E0,-5.3397626E-2,5.162035E-1,-5.056186E-1,-8.408483E-2,-5.5282754E-1,2.710086E-1,-4.3802992E-1,-1.7426289E0,-1.0814267E0,-1.9686109E-1,-7.6286875E-2,-4.3359098E-1,-8.64686E-1,-1.893271E-1,5.3552186E-1,-1.1328184E-1,1.7771596E-1,6.648639E-1,1.0331221E-1,-2.2035658E-1,1.1444864E0,-2.880345E-1,5.4722935E-2,-9.396631E-1,8.716276E-1,4.8732683E-1,6.805846E-1,2.0660906E-1,1.6289774E0,1.1277896E0,1.174474E0,8.070983E-1,-2.9622933E-1,3.2739174E-1,-4.0715825E-2,6.3799804E-1,1.9394529E-1,6.765822E-1,-5.1594204E-1,2.9689772E-2,-8.1918526E-1,-7.71206E-2,6.831546E-2,4.6462375E-1,1.1163114E0,3.7400365E-2,-3.2803458E-1,-1.4471E0,4.4786277E-1,9.826321E-1,9.308402E-1,1.340109E0,2.3252034E-1,6.548253E-1,-2.0305107E0,-5.9034914E-1],"split_indices":[7,4,5,2,4,0,6,0,5,7,0,7,8,8,0,0,10,0,0,8,8,8,7,8,2,7,0,8,0,6,8,10,5,0,7,8,7,10,8,6,0,7,0,7,4,10,8,5,4,7,4,8,8,4,3,7,7,8,10,10,7,7,2,0,0,0,0,0,0,0,0,0,0,0,0,0,0,0,0,0,0,0,0,0,0,0,0,0,0,0,0,0,0,0,0,0,0,0,0,0,0,0,0,0,0,0,0,0,0,0,0,0,0,0,0,0,0,0,0,0,0,0,0,0,0,0,0],"split_type":[0,0,0,0,0,0,0,0,0,0,0,0,0,0,0,0,0,0,0,0,0,0,0,0,0,0,0,0,0,0,0,0,0,0,0,0,0,0,0,0,0,0,0,0,0,0,0,0,0,0,0,0,0,0,0,0,0,0,0,0,0,0,0,0,0,0,0,0,0,0,0,0,0,0,0,0,0,0,0,0,0,0,0,0,0,0,0,0,0,0,0,0,0,0,0,0,0,0,0,0,0,0,0,0,0,0,0,0,0,0,0,0,0,0,0,0,0,0,0,0,0,0,0,0,0,0,0],"sum_hessian":[1.42544E5,7.6467E4,6.6077E4,1.3186E4,6.3281E4,3.2793E4,3.3284E4,3.268E3,9.918E3,4.3689E4,1.9592E4,1.4447E4,1.8346E4,2.5353E4,7.931E3,1.421E3,1.847E3,2.181E3,7.737E3,2.0085E4,2.3604E4,1.0035E4,9.557E3,1.0668E4,3.779E3,1.4764E4,3.582E3,1.832E4,7.033E3,3.657E3,4.274E3,1.239E3,1.82E2,6.61E2,1.186E3,6.34E2,1.547E3,4.078E3,3.659E3,2.753E3,1.7332E4,4.563E3,1.9041E4,6.584E3,3.451E3,3.742E3,5.815E3,7.212E3,3.456E3,1.893E3,1.886E3,8.992E3,5.772E3,2.016E3,1.566E3,6.977E3,1.1343E4,2.187E3,4.846E3,2.033E3,1.624E3,4.092E3,1.82E2,1.07E3,1.69E2,6.7E1,1.15E2,2.76E2,3.85E2,4.6E2,7.26E2,1.4E2,4.94E2,9.65E2,5.82E2,3.548E3,5.3E2,2.306E3,1.353E3,2.3E3,4.53E2,3.193E3,1.4139E4,1.45E3,3.113E3,1.587E3,1.7454E4,2.733E3,3.851E3,1.594E3,1.857E3,4.5E1,3.697E3,5.711E3,1.04E2,5.293E3,1.919E3,1.561E3,1.895E3,4.2E2,1.473E3,3.79E2,1.507E3,1.85E2,8.807E3,1.48E2,5.624E3,1.697E3,3.19E2,8.26E2,7.4E2,6.11E2,6.366E3,2.823E3,8.52E3,3.01E2,1.886E3,2.34E3,2.506E3,1.532E3,5.01E2,7.8E2,8.44E2,2.85E3,1.242E3,6.4E1,1.18E2],"tree_param":{"num_deleted":"0","num_feature":"13","num_nodes":"127","size_leaf_vector":"1"}},{"base_weights":[4.27453E-3,-6.0020514E0,5.207607E0,-1.5523024E0,-1.0754667E1,9.532134E0,1.0133681E0,-5.8019514E0,6.684163E-2,-1.9440252E1,-6.3504925E0,7.110981E0,1.3263624E1,-9.272022E0,4.775613E0,2.9385749E-1,-6.8085647E0,3.3986304E0,-1.5318022E0,-8.010103E-1,-3.3688797E1,-1.7562069E1,-1.2917957E0,9.550077E0,4.8417277E0,9.0891075E0,1.5837021E1,9.095841E0,-2.2825384E1,-2.7648396E0,8.914925E0,5.5882893E0,-1.0108022E1,-8.820542E0,-1.6849444E0,7.5774536E0,7.164685E-1,-2.6434114E0,7.642528E0,9.707627E0,-1.1996906E1,-1.8968344E1,-5.3482037E1,1.4895586E0,-2.0926397E1,-1.1347989E1,2.2509527E0,1.3304903E1,6.9997673E0,4.0025496E0,1.1432735E1,2.3948614E1,6.255449E0,1.0783317E1,1.9780075E1,1.9385233E1,-1.3268884E-1,-1.0890815E1,-3.9080894E1,1.4815087E1,-7.412047E0,-5.827084E0,1.2924181E1,-1.7233847E-1,3.7518397E-1,-2.840504E-1,-9.915784E-1,-4.8298427E-1,-1.5466933E-1,-3.8641736E-1,2.8329417E-1,6.307427E-1,2.263712E-1,-2.5380632E-2,2.510255E-1,-7.0655234E-2,-3.121849E-1,2.41574E-2,8.612307E-1,6.8382084E-1,7.0596874E-2,-7.958669E-1,-2.8646132E-1,-1.3507563E0,-4.6018583E-1,-1.7509578E0,-3.317473E0,-3.1550255E-1,2.0966156E-1,-7.2914404E-1,-1.2344376E0,-1.8718377E-1,-8.690874E-1,-6.8728983E-1,1.6836534E-1,9.473758E-1,5.798076E-1,9.898982E-1,2.979141E-1,2.7990803E-1,-6.9067754E-2,1.433564E-1,1.2920195E0,1.3838146E0,9.649324E-1,4.1517287E-1,1.7132528E-1,7.029205E-1,3.417155E-1,1.302369E0,8.063032E-1,1.3979968E0,7.9986346E-1,-2.5009158E0,2.2608818E-2,-7.6640314E-1,-1.0834267E-1,-1.1720397E0,-2.6362715E0,5.220888E-1,9.489916E-1,-4.9598405E-1,-6.4108066E-2,1.6767626E-1,-5.2775687E-1,4.644285E-1,8.7414944E-1],"categories":[],"categories_nodes":[],"categories_segments":[],"categories_sizes":[],"default_left":[0,0,0,0,0,0,0,0,0,0,0,0,0,0,0,0,0,0,0,0,0,0,0,0,0,0,0,0,0,0,0,0,0,0,0,0,0,0,0,0,0,0,0,0,0,0,0,0,0,0,0,0,0,0,0,0,0,0,0,0,0,0,0,0,0,0,0,0,0,0,0,0,0,0,0,0,0,0,0,0,0,0,0,0,0,0,0,0,0,0,0,0,0,0,0,0,0,0,0,0,0,0,0,0,0,0,0,0,0,0,0,0,0,0,0,0,0,0,0,0,0,0,0,0,0,0,0],"id":10,"left_children":[1,3,5,7,9,11,13,15,17,19,21,23,25,27,29,31,33,35,37,39,41,43,45,47,49,51,53,55,57,59,61,63,65,67,69,71,73,75,77,79,81,83,85,87,89,91,93,95,97,99,101,103,105,107,109,111,113,115,117,119,121,123,125,-1,-1,-1,-1,-1,-1,-1,-1,-1,-1,-1,-1,-1,-1,-1,-1,-1,-1,-1,-1,-1,-1,-1,-1,-1,-1,-1,-1,-1,-1,-1,-1,-1,-1,-1,-1,-1,-1,-1,-1,-1,-1,-1,-1,-1,-1,-1,-1,-1,-1,-1,-1,-1,-1,-1,-1,-1,-1,-1,-1,-1,-1,-1,-1],"loss_changes":[4.461009E6,1.4011818E6,1.3872272E6,2.3546175E5,1.2254182E6,3.40107E5,1.5024996E6,5.793375E4,1.3199219E5,2.8626788E6,1.2057568E6,1.2637E5,1.5902825E5,2.5890015E6,8.873593E5,7.37975E4,8.351478E4,9.005227E4,1.7079992E5,5.4967675E5,1.77893E6,4.2370738E5,5.2199122E5,1.0530756E5,6.5406875E4,2.3787672E5,1.82415E5,4.1933003E5,1.16048E6,8.2329375E5,1.0848799E6,1.5393695E4,1.9341695E4,2.7929594E4,1.0159729E5,4.8200188E4,2.5792287E4,6.615323E4,1.2415914E5,7.932561E4,5.54885E4,2.75149E5,6.16535E5,2.0966225E4,1.3371825E5,1.7506666E5,1.9353705E5,4.2693E4,8.727859E4,9.020106E4,1.647992E5,1.5148031E4,2.7484656E4,5.1881E4,1.17446125E5,6.0206438E4,6.797933E4,1.3359331E5,5.3930375E5,3.8175188E4,1.22497E5,1.7040628E5,2.3899825E5,0E0,0E0,0E0,0E0,0E0,0E0,0E0,0E0,0E0,0E0,0E0,0E0,0E0,0E0,0E0,0E0,0E0,0E0,0E0,0E0,0E0,0E0,0E0,0E0,0E0,0E0,0E0,0E0,0E0,0E0,0E0,0E0,0E0,0E0,0E0,0E0,0E0,0E0,0E0,0E0,0E0,0E0,0E0,0E0,0E0,0E0,0E0,0E0,0E0,0E0,0E0,0E0,0E0,0E0,0E0,0E0,0E0,0E0,0E0,0E0,0E0,0E0,0E0,0E0],"parents":[2147483647,0,0,1,1,2,2,3,3,4,4,5,5,6,6,7,7,8,8,9,9,10,10,11,11,12,12,13,13,14,14,15,15,16,16,17,17,18,18,19,19,20,20,21,21,22,22,23,23,24,24,25,25,26,26,27,27,28,28,29,29,30,30,31,31,32,32,33,33,34,34,35,35,36,36,37,37,38,38,39,39,40,40,41,41,42,42,43,43,44,44,45,45,46,46,47,47,48,48,49,49,50,50,51,51,52,52,53,53,54,54,55,55,56,56,57,57,58,58,59,59,60,60,61,61,62,62],"right_children":[2,4,6,8,10,12,14,16,18,20,22,24,26,28,30,32,34,36,38,40,42,44,46,48,50,52,54,56,58,60,62,64,66,68,70,72,74,76,78,80,82,84,86,88,90,92,94,96,98,100,102,104,106,108,110,112,114,116,118,120,122,124,126,-1,-1,-1,-1,-1,-1,-1,-1,-1,-1,-1,-1,-1,-1,-1,-1,-1,-1,-1,-1,-1,-1,-1,-1,-1,-1,-1,-1,-1,-1,-1,-1,-1,-1,-1,-1,-1,-1,-1,-1,-1,-1,-1,-1,-1,-1,-1,-1,-1,-1,-1,-1,-1,-1,-1,-1,-1,-1,-1,-1,-1,-1,-1,-1],"split_conditions":[3.951246E2,-6.6661935E0,-6.694753E0,3.821596E2,-4.9377555E-1,4.0952954E2,-4.9377555E-1,-5.3729963E-1,-7.744177E0,5.2249855E-1,-3.007058E-1,-7.3695865E0,-8.606997E-3,5.075384E-1,-2.1643962E-1,-4.9377555E-1,4.862727E-1,5.123714E-1,6.8835455E-1,-8.726535E-3,4.5155618E-1,1.7213356E-2,1.7213356E-2,5.123714E-1,6.8835455E-1,-1.650476E-1,4.1469324E-1,-8.726535E-3,5.21302E-1,1.7213356E-2,-8.7380713E-1,-9.101572E0,5.234156E-1,6.8835455E-1,5.075384E-1,6.5534973E-1,3.591294E1,4.9242356E-1,8.606997E-3,7.63057E-1,3.8551462E2,8.141155E-1,-6.406674E0,3.8321884E2,5.234156E-1,5.2249855E-1,-2.6176948E-2,-5.51937E-1,3.3014084E1,4.9242356E-1,1.7213356E-2,-5.2249855E-1,-7.0614157E0,8.5876393E-1,3.461867E1,-5.8070296E-1,3.2391357E1,8.5264015E-1,6.4944804E-1,4.0683145E2,4.1275732E2,5.8070296E-1,4.093001E2,-1.7233847E-1,3.7518397E-1,-2.840504E-1,-9.915784E-1,-4.8298427E-1,-1.5466933E-1,-3.8641736E-1,2.8329417E-1,6.307427E-1,2.263712E-1,-2.5380632E-2,2.510255E-1,-7.0655234E-2,-3.121849E-1,2.41574E-2,8.612307E-1,6.8382084E-1,7.0596874E-2,-7.958669E-1,-2.8646132E-1,-1.3507563E0,-4.6018583E-1,-1.7509578E0,-3.317473E0,-3.1550255E-1,2.0966156E-1,-7.2914404E-1,-1.2344376E0,-1.8718377E-1,-8.690874E-1,-6.8728983E-1,1.6836534E-1,9.473758E-1,5.798076E-1,9.898982E-1,2.979141E-1,2.7990803E-1,-6.9067754E-2,1.433564E-1,1.2920195E0,1.3838146E0,9.649324E-1,4.1517287E-1,1.7132528E-1,7.029205E-1,3.417155E-1,1.302369E0,8.063032E-1,1.3979968E0,7.9986346E-1,-2.5009158E0,2.2608818E-2,-7.6640314E-1,-1.0834267E-1,-1.1720397E0,-2.6362715E0,5.220888E-1,9.489916E-1,-4.9598405E-1,-6.4108066E-2,1.6767626E-1,-5.2775687E-1,4.644285E-1,8.7414944E-1],"split_indices":[7,5,5,7,12,7,12,8,5,8,8,5,12,8,8,12,12,11,8,8,10,12,12,11,8,8,8,8,10,12,11,5,12,8,8,3,2,8,12,10,7,8,5,7,12,8,8,8,2,8,12,8,5,12,2,8,2,8,8,7,7,8,7,0,0,0,0,0,0,0,0,0,0,0,0,0,0,0,0,0,0,0,0,0,0,0,0,0,0,0,0,0,0,0,0,0,0,0,0,0,0,0,0,0,0,0,0,0,0,0,0,0,0,0,0,0,0,0,0,0,0,0,0,0,0,0,0],"split_type":[0,0,0,0,0,0,0,0,0,0,0,0,0,0,0,0,0,0,0,0,0,0,0,0,0,0,0,0,0,0,0,0,0,0,0,0,0,0,0,0,0,0,0,0,0,0,0,0,0,0,0,0,0,0,0,0,0,0,0,0,0,0,0,0,0,0,0,0,0,0,0,0,0,0,0,0,0,0,0,0,0,0,0,0,0,0,0,0,0,0,0,0,0,0,0,0,0,0,0,0,0,0,0,0,0,0,0,0,0,0,0,0,0,0,0,0,0,0,0,0,0,0,0,0,0,0,0],"sum_hessian":[1.42737E5,6.6256E4,7.6481E4,3.4219E4,3.2037E4,3.7655E4,3.8826E4,9.44E3,2.4779E4,1.0778E4,2.1259E4,2.2839E4,1.4816E4,1.0398E4,2.8428E4,1.338E3,8.102E3,8.034E3,1.6745E4,4.67E3,6.108E3,6.609E3,1.465E4,1.1006E4,1.1833E4,5.652E3,9.164E3,4.415E3,5.983E3,1.0075E4,1.8353E4,8.87E2,4.51E2,5.817E3,2.285E3,3.14E3,4.894E3,1.4936E4,1.809E3,2.409E3,2.261E3,3.504E3,2.604E3,9.92E2,5.617E3,3.816E3,1.0834E4,4.45E3,6.556E3,1.0498E4,1.335E3,9.04E2,4.748E3,4.018E3,5.146E3,2.087E3,2.328E3,3.451E3,2.532E3,2.106E3,7.969E3,3.924E3,1.4429E4,1.55E2,7.32E2,3.11E2,1.4E2,5.073E3,7.44E2,1.254E3,1.031E3,1.183E3,1.957E3,3.811E3,1.083E3,1.1133E4,3.803E3,1.036E3,7.73E2,1.629E3,7.8E2,1.39E3,8.71E2,1.92E3,1.584E3,1.071E3,1.533E3,2.55E2,7.37E2,2.093E3,3.524E3,1.689E3,2.127E3,7.06E2,1.0128E4,1.032E3,3.418E3,4.92E2,6.064E3,8.098E3,2.4E3,8.38E2,4.97E2,4.99E2,4.05E2,2.753E3,1.995E3,2.195E3,1.823E3,1.893E3,3.253E3,5.89E2,1.498E3,2.6E1,2.302E3,2.287E3,1.164E3,1.181E3,1.351E3,1.029E3,1.077E3,5.655E3,2.314E3,1.334E3,2.59E3,8.029E3,6.4E3],"tree_param":{"num_deleted":"0","num_feature":"13","num_nodes":"127","size_leaf_vector":"1"}},{"base_weights":[1.2222726E-2,-6.9901447E0,4.073612E0,-2.2887082E0,-1.1162842E1,8.728416E0,5.380235E-1,3.4573762E0,-5.601459E0,-2.9817701E1,-9.197232E0,1.3519975E1,5.258466E0,-7.7356725E0,3.7724442E0,6.314046E0,-4.9960443E-1,-8.956747E0,-4.02725E0,-3.970079E1,1.09621725E1,-1.4298814E1,-5.899387E0,1.6621601E1,7.9901385E0,2.0406044E0,8.73609E0,8.164088E0,-1.9780542E1,-3.8125267E0,7.5898914E0,3.7603283E0,1.049337E1,4.275265E0,-2.350291E0,-5.5627546E0,-1.4483572E1,-6.840495E0,-2.5034564E0,-1.7341095E1,-4.6636852E1,-2.133705E1,1.5593186E1,-2.4727013E1,-1.0265899E1,-3.134567E0,-1.3082964E1,1.3483937E1,2.0781412E1,1.54065485E1,5.4362926E0,-7.691482E-1,3.1741078E0,5.1993084E0,1.0085338E1,1.7825832E1,7.5017303E-1,-1.1122599E1,-3.0309652E1,1.4591715E1,-7.7642255E0,-4.428823E0,1.0872961E1,5.1443154E-1,4.2776067E-2,-3.5186192E-1,7.8843904E-1,4.781025E-2,3.8539204E-1,-6.0961723E-2,-5.0824577E-1,1.5550883E-1,-3.5408294E-1,-9.1611814E-1,-3.5370892E-1,-3.8185376E-1,-2.5915572E-1,-7.496079E-1,-1.135026E-1,-1.4369439E0,-6.9103676E-1,-2.6156385E0,-1.1579546E0,-8.70276E-1,-1.7858298E0,1.7417523E-1,1.074816E0,-4.6652022E-1,-1.7606233E0,-8.647116E-1,-3.7853554E-4,-8.159329E-1,-1.0181119E-1,-9.7677773E-1,5.951333E-2,1.0535496E0,6.165547E-1,8.755413E-1,1.1955835E0,5.5413765E-1,8.953566E-1,1.2400617E-1,4.6530506E-1,2.1275578E-1,-2.750189E-1,-2.6095593E-1,1.8436088E-1,4.5889416E-1,-2.645419E-3,4.4072795E-1,7.0222867E-1,1.3689266E0,7.226736E-1,-2.7270927E0,6.2140662E-2,-7.3953074E-1,1.744244E-1,-1.95961E0,-7.000255E-1,5.238449E-1,9.169635E-1,-6.959748E-1,-2.3581444E-1,2.0682652E-1,-5.0296426E-1,1.0225724E0,4.1372758E-1],"categories":[],"categories_nodes":[],"categories_segments":[],"categories_sizes":[],"default_left":[0,0,0,0,0,0,0,0,0,0,0,0,0,0,0,0,0,0,0,0,0,0,0,0,0,0,0,0,0,0,0,0,0,0,0,0,0,0,0,0,0,0,0,0,0,0,0,0,0,0,0,0,0,0,0,0,0,0,0,0,0,0,0,0,0,0,0,0,0,0,0,0,0,0,0,0,0,0,0,0,0,0,0,0,0,0,0,0,0,0,0,0,0,0,0,0,0,0,0,0,0,0,0,0,0,0,0,0,0,0,0,0,0,0,0,0,0,0,0,0,0,0,0,0,0,0,0],"id":11,"left_children":[1,3,5,7,9,11,13,15,17,19,21,23,25,27,29,31,33,35,37,39,41,43,45,47,49,51,53,55,57,59,61,63,65,67,69,71,73,75,77,79,81,83,85,87,89,91,93,95,97,99,101,103,105,107,109,111,113,115,117,119,121,123,125,-1,-1,-1,-1,-1,-1,-1,-1,-1,-1,-1,-1,-1,-1,-1,-1,-1,-1,-1,-1,-1,-1,-1,-1,-1,-1,-1,-1,-1,-1,-1,-1,-1,-1,-1,-1,-1,-1,-1,-1,-1,-1,-1,-1,-1,-1,-1,-1,-1,-1,-1,-1,-1,-1,-1,-1,-1,-1,-1,-1,-1,-1,-1,-1],"loss_changes":[4.044529E6,1.0241335E6,1.4813315E6,4.6731828E5,1.013891E6,6.459485E5,1.3689946E6,1.0148913E5,8.221275E4,1.062828E6,4.2090625E5,2.7976E5,2.5218162E5,2.7537015E6,1.0649735E6,5.560717E4,3.3280363E4,9.318222E4,4.542636E4,3.282825E5,7.736488E4,4.1290138E5,3.0184912E5,1.361625E5,1.11018375E5,3.728789E4,5.16315E4,4.4395588E5,7.454425E5,8.9568544E5,9.654351E5,6.139376E4,1.8294711E5,1.1977119E4,2.3974922E4,4.0622688E4,5.3653812E4,4.8756875E3,2.0013047E4,1.9821188E4,2.1452525E5,3.047705E3,3.216239E4,4.4185238E5,5.1089112E5,1.589191E5,3.8905256E5,5.188475E4,4.5575625E4,1.60383125E4,4.9910508E4,8.003653E4,3.5945125E4,6.2544133E4,3.9314375E4,8.6291125E4,9.5617125E4,2.40742E5,5.3414875E5,3.3375406E4,1.9013019E5,2.5323339E5,4.78117E5,0E0,0E0,0E0,0E0,0E0,0E0,0E0,0E0,0E0,0E0,0E0,0E0,0E0,0E0,0E0,0E0,0E0,0E0,0E0,0E0,0E0,0E0,0E0,0E0,0E0,0E0,0E0,0E0,0E0,0E0,0E0,0E0,0E0,0E0,0E0,0E0,0E0,0E0,0E0,0E0,0E0,0E0,0E0,0E0,0E0,0E0,0E0,0E0,0E0,0E0,0E0,0E0,0E0,0E0,0E0,0E0,0E0,0E0,0E0,0E0,0E0,0E0,0E0,0E0],"parents":[2147483647,0,0,1,1,2,2,3,3,4,4,5,5,6,6,7,7,8,8,9,9,10,10,11,11,12,12,13,13,14,14,15,15,16,16,17,17,18,18,19,19,20,20,21,21,22,22,23,23,24,24,25,25,26,26,27,27,28,28,29,29,30,30,31,31,32,32,33,33,34,34,35,35,36,36,37,37,38,38,39,39,40,40,41,41,42,42,43,43,44,44,45,45,46,46,47,47,48,48,49,49,50,50,51,51,52,52,53,53,54,54,55,55,56,56,57,57,58,58,59,59,60,60,61,61,62,62],"right_children":[2,4,6,8,10,12,14,16,18,20,22,24,26,28,30,32,34,36,38,40,42,44,46,48,50,52,54,56,58,60,62,64,66,68,70,72,74,76,78,80,82,84,86,88,90,92,94,96,98,100,102,104,106,108,110,112,114,116,118,120,122,124,126,-1,-1,-1,-1,-1,-1,-1,-1,-1,-1,-1,-1,-1,-1,-1,-1,-1,-1,-1,-1,-1,-1,-1,-1,-1,-1,-1,-1,-1,-1,-1,-1,-1,-1,-1,-1,-1,-1,-1,-1,-1,-1,-1,-1,-1,-1,-1,-1,-1,-1,-1,-1,-1,-1,-1,-1,-1,-1,-1,-1,-1,-1,-1,-1],"split_conditions":[3.9083017E2,-6.744653E0,-6.8170877E0,1.8967073E1,3.272107E1,1.9429007E1,-4.9377555E-1,8.0385685E-1,-5.160624E-1,4.862727E-1,3.4419342E1,8.3388585E-1,4.0546274E2,5.075384E-1,-2.8401536E-1,5.234156E-1,4.3035382E-3,4.9242356E-1,3.8223486E2,9.59791E0,4.9242356E-1,-4.9377555E-1,5.8070296E-1,4.0440912E2,-4.7495106E-1,-5.160624E-1,-5.160624E-1,-4.3619387E-2,-6.4211855E0,1.7213356E-2,-8.7380713E-1,-8.5876393E-1,5.3729963E-1,3.8388364E2,6.0578537E-1,-1.1320321E-1,2.6901016E0,1.4446983E0,-5.3729963E-1,8.141155E-1,-4.9377555E-1,6.396896E0,8.5876393E-1,5.3729963E-1,-2.6176948E-2,-5.8070296E-1,1.7213356E-2,-8.5876393E-1,5.234156E-1,4.029405E2,4.0693936E2,4.461978E-1,-4.7715876E-1,4.461978E-1,4.1822488E2,1.657786E1,-1.6741447E0,8.433914E-1,3.429409E1,4.0265152E2,3.991797E2,5.6640625E-1,1.6847977E1,5.1443154E-1,4.2776067E-2,-3.5186192E-1,7.8843904E-1,4.781025E-2,3.8539204E-1,-6.0961723E-2,-5.0824577E-1,1.5550883E-1,-3.5408294E-1,-9.1611814E-1,-3.5370892E-1,-3.8185376E-1,-2.5915572E-1,-7.496079E-1,-1.135026E-1,-1.4369439E0,-6.9103676E-1,-2.6156385E0,-1.1579546E0,-8.70276E-1,-1.7858298E0,1.7417523E-1,1.074816E0,-4.6652022E-1,-1.7606233E0,-8.647116E-1,-3.7853554E-4,-8.159329E-1,-1.0181119E-1,-9.7677773E-1,5.951333E-2,1.0535496E0,6.165547E-1,8.755413E-1,1.1955835E0,5.5413765E-1,8.953566E-1,1.2400617E-1,4.6530506E-1,2.1275578E-1,-2.750189E-1,-2.6095593E-1,1.8436088E-1,4.5889416E-1,-2.645419E-3,4.4072795E-1,7.0222867E-1,1.3689266E0,7.226736E-1,-2.7270927E0,6.2140662E-2,-7.3953074E-1,1.744244E-1,-1.95961E0,-7.000255E-1,5.238449E-1,9.169635E-1,-6.959748E-1,-2.3581444E-1,2.0682652E-1,-5.0296426E-1,1.0225724E0,4.1372758E-1],"split_indices":[7,5,5,0,2,0,12,8,12,12,2,8,7,8,8,12,11,8,7,0,8,12,8,7,11,12,12,8,5,12,11,12,8,7,1,8,3,3,8,8,12,0,12,8,8,8,12,12,12,7,7,8,8,8,7,0,3,8,2,7,7,8,0,0,0,0,0,0,0,0,0,0,0,0,0,0,0,0,0,0,0,0,0,0,0,0,0,0,0,0,0,0,0,0,0,0,0,0,0,0,0,0,0,0,0,0,0,0,0,0,0,0,0,0,0,0,0,0,0,0,0,0,0,0,0,0,0],"split_type":[0,0,0,0,0,0,0,0,0,0,0,0,0,0,0,0,0,0,0,0,0,0,0,0,0,0,0,0,0,0,0,0,0,0,0,0,0,0,0,0,0,0,0,0,0,0,0,0,0,0,0,0,0,0,0,0,0,0,0,0,0,0,0,0,0,0,0,0,0,0,0,0,0,0,0,0,0,0,0,0,0,0,0,0,0,0,0,0,0,0,0,0,0,0,0,0,0,0,0,0,0,0,0,0,0,0,0,0,0,0,0,0,0,0,0,0,0,0,0,0,0,0,0,0,0,0,0],"sum_hessian":[1.42214E5,5.2205E4,9.0009E4,2.4548E4,2.7657E4,3.8854E4,5.1155E4,8.977E3,1.5571E4,2.635E3,2.5022E4,1.6318E4,2.2536E4,1.4377E4,3.6778E4,5.213E3,3.764E3,4.971E3,1.06E4,2.121E3,5.14E2,9.823E3,1.5199E4,1.0453E4,5.865E3,1.1706E4,1.083E4,6.197E3,8.18E3,1.2313E4,2.4465E4,3.237E3,1.976E3,1.051E3,2.713E3,3.081E3,1.89E3,3.723E3,6.877E3,5.03E2,1.618E3,6.4E1,4.5E2,2.738E3,7.085E3,1.0976E4,4.223E3,5.961E3,4.492E3,1.501E3,4.364E3,3.365E3,8.341E3,2.992E3,7.838E3,2.69E3,3.507E3,4.49E3,3.69E3,2.176E3,1.0137E4,5.249E3,1.9216E4,9.96E2,2.241E3,4.57E2,1.519E3,5.35E2,5.16E2,2.371E3,3.42E2,4.59E2,2.622E3,1.244E3,6.46E2,2.512E3,1.211E3,1.25E2,6.752E3,1.17E2,3.86E2,1.302E3,3.16E2,5.2E1,1.2E1,1.48E2,3.02E2,1.11E3,1.628E3,4.204E3,2.881E3,8.43E2,1.0133E4,2.908E3,1.315E3,7.84E2,5.177E3,2.2E3,2.292E3,5.52E2,9.49E2,2.475E3,1.889E3,1.632E3,1.733E3,4.8E2,7.861E3,1.702E3,1.29E3,5.936E3,1.902E3,7E2,1.99E3,3E1,3.477E3,3.589E3,9.01E2,2.388E3,1.302E3,1.039E3,1.137E3,3.356E3,6.781E3,2.082E3,3.167E3,4.099E3,1.5117E4],"tree_param":{"num_deleted":"0","num_feature":"13","num_nodes":"127","size_leaf_vector":"1"}},{"base_weights":[9.705846E-3,-5.0020094E0,5.252526E0,-1.0232012E1,-1.263972E0,-1.9738094E1,5.8767276E0,-2.4874123E1,-8.316326E0,-4.227113E0,1.4333494E0,-2.6236682E0,-2.6835878E1,4.484333E0,1.3517085E1,-4.7488284E0,-3.831739E1,-1.2060542E1,-5.8257027E0,-5.7921467E0,-1.0641339E0,5.426807E0,-7.232213E-1,-1.0245045E1,4.620544E0,-1.6540207E1,-4.7104908E1,7.725115E-1,7.480715E0,1.8834654E1,8.257585E0,1.25919695E1,-6.9231133E0,-2.7253527E1,-5.980247E1,-1.2755634E1,5.391513E0,-9.424137E0,-3.68515E0,-1.3682597E1,-4.7414E0,-3.9099689E0,1.0623246E0,-1.2832553E0,7.7452574E0,-6.98071E-2,-2.0920862E1,-7.779117E1,-6.398964E0,8.936382E0,-1.9223233E-1,-6.859979E0,-1.9099249E1,5.0919414E0,-5.2395824E1,-1.3544143E0,7.7539167E0,6.047017E0,1.1488713E1,1.3374206E1,2.3762514E1,5.146695E0,1.269888E1,1.4094999E0,7.7682525E-2,-4.5642543E-1,5.2434504E-1,-6.004323E-1,-1.7809384E0,-1.3702863E0,-3.3688824E0,-8.132272E-1,-5.009741E-1,6.0333157E-1,-3.737749E-1,-3.3714125E-1,-7.979255E-1,5.7995385E-1,-2.051457E-1,-1.12784706E-1,-8.673563E-1,1.8801187E-1,-3.0416352E-1,1.4009643E-1,-2.7303907E-1,1.4806811E0,3.766574E-2,-1.6929148E-1,8.2846606E-1,5.472171E-1,5.9057336E-2,-5.48763E-1,1.5529263E-2,-2.000996E0,-5.159113E-1,-1.5131196E0,-5.1850677E0,-1.1492511E-2,-7.098923E-1,2.9172117E-1,1.2746499E0,-1.7505395E-1,2.580103E-1,4.5053908E-1,-3.8033006E-1,-9.112005E-1,-3.3302963E0,5.770697E-1,-7.055332E-1,-2.867218E0,4.692245E-1,6.92899E-2,-4.1024828E-1,3.410857E-1,1.0745301E0,4.6255517E-1,2.4484335E-1,7.507415E-1,4.95469E-1,9.326186E-1,4.730924E-1,9.516056E-1,1.4857249E0,-1.4414265E-2,3.3000943E-1,2.9631203E-1,6.8485236E-1],"categories":[],"categories_nodes":[],"categories_segments":[],"categories_sizes":[],"default_left":[0,0,0,0,0,0,0,0,0,0,0,0,0,0,0,0,0,0,0,0,0,0,0,0,0,0,0,0,0,0,0,0,0,0,0,0,0,0,0,0,0,0,0,0,0,0,0,0,0,0,0,0,0,0,0,0,0,0,0,0,0,0,0,0,0,0,0,0,0,0,0,0,0,0,0,0,0,0,0,0,0,0,0,0,0,0,0,0,0,0,0,0,0,0,0,0,0,0,0,0,0,0,0,0,0,0,0,0,0,0,0,0,0,0,0,0,0,0,0,0,0,0,0,0,0,0,0],"id":12,"left_children":[1,3,5,7,9,11,13,15,17,19,21,23,25,27,29,31,33,35,37,39,41,43,45,47,49,51,53,55,57,59,61,63,65,67,69,71,73,75,77,79,81,83,85,87,89,91,93,95,97,99,101,103,105,107,109,111,113,115,117,119,121,123,125,-1,-1,-1,-1,-1,-1,-1,-1,-1,-1,-1,-1,-1,-1,-1,-1,-1,-1,-1,-1,-1,-1,-1,-1,-1,-1,-1,-1,-1,-1,-1,-1,-1,-1,-1,-1,-1,-1,-1,-1,-1,-1,-1,-1,-1,-1,-1,-1,-1,-1,-1,-1,-1,-1,-1,-1,-1,-1,-1,-1,-1,-1,-1,-1],"loss_changes":[3.739033E6,1.4223224E6,1.0849912E6,8.5039625E5,3.391299E5,2.0582588E5,7.2178425E5,9.4890225E5,2.5001738E5,1.0008066E5,1.9129798E5,2.7542912E4,2.4921706E5,6.383426E5,2.9235662E5,5.3098203E4,4.982615E5,1.300145E5,1.2403044E5,1.1207556E5,4.0513516E4,1.21183625E5,1.903561E5,6.262225E4,5.3200103E3,1.9584984E4,1.1156775E5,3.8070803E5,1.824185E5,1.3960175E5,7.260703E4,2.6984855E4,4.809055E4,1.7683E5,1.7336725E5,9.874275E4,3.5390965E4,1.0513694E5,6.4543703E4,6.649706E4,1.362129E5,2.9816242E4,3.3782984E4,7.516505E4,1.2154991E5,5.7969383E4,9.11122E4,1.2857586E4,1.1109207E4,6.781451E3,2.1785688E3,2.0591094E3,2.4931312E4,4.868759E3,1.12437125E5,3.6891875E5,7.6516375E4,8.616069E4,4.643825E4,5.080572E4,7.634975E4,2.4452133E4,1.4559469E4,0E0,0E0,0E0,0E0,0E0,0E0,0E0,0E0,0E0,0E0,0E0,0E0,0E0,0E0,0E0,0E0,0E0,0E0,0E0,0E0,0E0,0E0,0E0,0E0,0E0,0E0,0E0,0E0,0E0,0E0,0E0,0E0,0E0,0E0,0E0,0E0,0E0,0E0,0E0,0E0,0E0,0E0,0E0,0E0,0E0,0E0,0E0,0E0,0E0,0E0,0E0,0E0,0E0,0E0,0E0,0E0,0E0,0E0,0E0,0E0,0E0,0E0,0E0,0E0],"parents":[2147483647,0,0,1,1,2,2,3,3,4,4,5,5,6,6,7,7,8,8,9,9,10,10,11,11,12,12,13,13,14,14,15,15,16,16,17,17,18,18,19,19,20,20,21,21,22,22,23,23,24,24,25,25,26,26,27,27,28,28,29,29,30,30,31,31,32,32,33,33,34,34,35,35,36,36,37,37,38,38,39,39,40,40,41,41,42,42,43,43,44,44,45,45,46,46,47,47,48,48,49,49,50,50,51,51,52,52,53,53,54,54,55,55,56,56,57,57,58,58,59,59,60,60,61,61,62,62],"right_children":[2,4,6,8,10,12,14,16,18,20,22,24,26,28,30,32,34,36,38,40,42,44,46,48,50,52,54,56,58,60,62,64,66,68,70,72,74,76,78,80,82,84,86,88,90,92,94,96,98,100,102,104,106,108,110,112,114,116,118,120,122,124,126,-1,-1,-1,-1,-1,-1,-1,-1,-1,-1,-1,-1,-1,-1,-1,-1,-1,-1,-1,-1,-1,-1,-1,-1,-1,-1,-1,-1,-1,-1,-1,-1,-1,-1,-1,-1,-1,-1,-1,-1,-1,-1,-1,-1,-1,-1,-1,-1,-1,-1,-1,-1,-1,-1,-1,-1,-1,-1,-1,-1,-1,-1,-1,-1],"split_conditions":[3.967617E2,1.5643235E0,1.1831853E0,-1.3481789E0,3.8615152E2,4.2122704E-1,1.1661625E-1,1.0924998E1,3.8401797E2,1.8799877E0,1.7395195E1,-1.6741447E0,-8.653073E-1,1.5643235E0,1.8725533E1,-9.320545E-2,-9.9940695E-2,2.4316311E-1,1.9791031E-1,-5.6640625E-1,-2.273759E-1,1.7163384E0,6.3607824E-1,1.3052619E-1,6.7842865E-1,6.6262007E-1,1.3469925E1,4.1527115E2,4.1404633E2,-3.482271E-1,4.1222406E2,8.241262E-1,7.384539E-2,-5.1540774E-1,-8.653073E-1,3.6078262E-1,1.9873407E1,6.100175E-1,-3.1793022E-1,3.0749989E0,1.6296492E1,6.906672E0,-8.9081424E-1,1.1308241E-1,8.3388585E-1,-5.2249855E-1,5.680084E-1,1.1790723E0,1.2716076E1,1.0917282E-1,4.125611E2,5.2249855E-1,2.1038267E1,1.187815E1,4.101382E-1,6.2251467E-1,4.2398154E2,-1.2665272E-1,1.766174E1,7.933533E-1,6.2251467E-1,4.1202927E-1,1.2522125E-1,1.4094999E0,7.7682525E-2,-4.5642543E-1,5.2434504E-1,-6.004323E-1,-1.7809384E0,-1.3702863E0,-3.3688824E0,-8.132272E-1,-5.009741E-1,6.0333157E-1,-3.737749E-1,-3.3714125E-1,-7.979255E-1,5.7995385E-1,-2.051457E-1,-1.12784706E-1,-8.673563E-1,1.8801187E-1,-3.0416352E-1,1.4009643E-1,-2.7303907E-1,1.4806811E0,3.766574E-2,-1.6929148E-1,8.2846606E-1,5.472171E-1,5.9057336E-2,-5.48763E-1,1.5529263E-2,-2.000996E0,-5.159113E-1,-1.5131196E0,-5.1850677E0,-1.1492511E-2,-7.098923E-1,2.9172117E-1,1.2746499E0,-1.7505395E-1,2.580103E-1,4.5053908E-1,-3.8033006E-1,-9.112005E-1,-3.3302963E0,5.770697E-1,-7.055332E-1,-2.867218E0,4.692245E-1,6.92899E-2,-4.1024828E-1,3.410857E-1,1.0745301E0,4.6255517E-1,2.4484335E-1,7.507415E-1,4.95469E-1,9.326186E-1,4.730924E-1,9.516056E-1,1.4857249E0,-1.4414265E-2,3.3000943E-1,2.9631203E-1,6.8485236E-1],"split_indices":[7,4,4,3,7,10,6,0,7,4,0,3,11,4,0,6,9,6,3,8,9,4,8,8,3,8,0,7,7,10,7,8,6,9,11,3,0,10,6,0,0,0,10,6,8,8,3,4,0,3,7,8,0,0,9,8,7,6,0,8,8,3,3,0,0,0,0,0,0,0,0,0,0,0,0,0,0,0,0,0,0,0,0,0,0,0,0,0,0,0,0,0,0,0,0,0,0,0,0,0,0,0,0,0,0,0,0,0,0,0,0,0,0,0,0,0,0,0,0,0,0,0,0,0,0,0,0],"split_type":[0,0,0,0,0,0,0,0,0,0,0,0,0,0,0,0,0,0,0,0,0,0,0,0,0,0,0,0,0,0,0,0,0,0,0,0,0,0,0,0,0,0,0,0,0,0,0,0,0,0,0,0,0,0,0,0,0,0,0,0,0,0,0,0,0,0,0,0,0,0,0,0,0,0,0,0,0,0,0,0,0,0,0,0,0,0,0,0,0,0,0,0,0,0,0,0,0,0,0,0,0,0,0,0,0,0,0,0,0,0,0,0,0,0,0,0,0,0,0,0,0,0,0,0,0,0,0],"sum_hessian":[1.42299E5,7.2753E4,6.9546E4,3.0324E4,4.2429E4,1.694E3,6.7852E4,3.507E3,2.6817E4,2.0218E4,2.2211E4,4.97E2,1.197E3,5.7394E4,1.0458E4,1.405E3,2.102E3,1.0711E4,1.6106E4,1.3525E4,6.693E3,7.788E3,1.4423E4,2.42E2,2.55E2,7.95E2,4.02E2,2.5637E4,3.1757E4,5.199E3,5.259E3,1.56E2,1.249E3,1.389E3,7.13E2,1.0301E4,4.1E2,6.006E3,1.01E4,1.588E3,1.1937E4,2.862E3,3.831E3,2E3,5.788E3,1.3972E4,4.51E2,1.2E1,2.3E2,1.34E2,1.21E2,1.67E2,6.28E2,3.7E1,3.65E2,1.9651E4,5.986E3,2.3392E4,8.365E3,2.468E3,2.731E3,3.094E3,2.165E3,6.4E1,9.2E1,1.109E3,1.4E2,4.93E2,8.96E2,1.36E2,5.77E2,4.511E3,5.79E3,2.7E2,1.4E2,4.26E3,1.746E3,2.68E2,9.832E3,3.86E2,1.202E3,1.627E3,1.031E4,5.37E2,2.325E3,4E1,3.791E3,1.79E3,2.1E2,3.891E3,1.897E3,4.7E2,1.3502E4,1.6E2,2.91E2,5E0,7E0,1.29E2,1.01E2,1.14E2,2E1,7.5E1,4.6E1,7E0,1.6E2,6.18E2,1E1,2.8E1,9E0,3.38E2,2.7E1,1.4037E4,5.614E3,5.607E3,3.79E2,6.177E3,1.7215E4,2.585E3,5.78E3,1.049E3,1.419E3,1.524E3,1.207E3,6.53E2,2.441E3,2.79E2,1.886E3],"tree_param":{"num_deleted":"0","num_feature":"13","num_nodes":"127","size_leaf_vector":"1"}},{"base_weights":[-3.952992E-2,-4.786859E0,4.9280224E0,-9.794232E0,-1.225594E0,-3.216202E0,6.6860924E0,-2.376913E1,-7.9884257E0,