{"learner":{"attributes":{"best_iteration":"499","best_score":"4.9192508813202975","scikit_learn":"{\"_estimator_type\": \"regressor\"}"},"feature_names":[],"feature_types":[],"gradient_booster":{"model":{"gbtree_model_param":{"num_parallel_tree":"1","num_trees":"500"},"iteration_indptr":[0,1,2,3,4,5,6,7,8,9,10,11,12,13,14,15,16,17,18,19,20,21,22,23,24,25,26,27,28,29,30,31,32,33,34,35,36,37,38,39,40,41,42,43,44,45,46,47,48,49,50,51,52,53,54,55,56,57,58,59,60,61,62,63,64,65,66,67,68,69,70,71,72,73,74,75,76,77,78,79,80,81,82,83,84,85,86,87,88,89,90,91,92,93,94,95,96,97,98,99,100,101,102,103,104,105,106,107,108,109,110,111,112,113,114,115,116,117,118,119,120,121,122,123,124,125,126,127,128,129,130,131,132,133,134,135,136,137,138,139,140,141,142,143,144,145,146,147,148,149,150,151,152,153,154,155,156,157,158,159,160,161,162,163,164,165,166,167,168,169,170,171,172,173,174,175,176,177,178,179,180,181,182,183,184,185,186,187,188,189,190,191,192,193,194,195,196,197,198,199,200,201,202,203,204,205,206,207,208,209,210,211,212,213,214,215,216,217,218,219,220,221,222,223,224,225,226,227,228,229,230,231,232,233,234,235,236,237,238,239,240,241,242,243,244,245,246,247,248,249,250,251,252,253,254,255,256,257,258,259,260,261,262,263,264,265,266,267,268,269,270,271,272,273,274,275,276,277,278,279,280,281,282,283,284,285,286,287,288,289,290,291,292,293,294,295,296,297,298,299,300,301,302,303,304,305,306,307,308,309,310,311,312,313,314,315,316,317,318,319,320,321,322,323,324,325,326,327,328,329,330,331,332,333,334,335,336,337,338,339,340,341,342,343,344,345,346,347,348,349,350,351,352,353,354,355,356,357,358,359,360,361,362,363,364,365,366,367,368,369,370,371,372,373,374,375,376,377,378,379,380,381,382,383,384,385,386,387,388,389,390,391,392,393,394,395,396,397,398,399,400,401,402,403,404,405,406,407,408,409,410,411,412,413,414,415,416,417,418,419,420,421,422,423,424,425,426,427,428,429,430,431,432,433,434,435,436,437,438,439,440,441,442,443,444,445,446,447,448,449,450,451,452,453,454,455,456,457,458,459,460,461,462,463,464,465,466,467,468,469,470,471,472,473,474,475,476,477,478,479,480,481,482,483,484,485,486,487,488,489,490,491,492,493,494,495,496,497,498,499,500],"tree_info":[0,0,0,0,0,0,0,0,0,0,0,0,0,0,0,0,0,0,0,0,0,0,0,0,0,0,0,0,0,0,0,0,0,0,0,0,0,0,0,0,0,0,0,0,0,0,0,0,0,0,0,0,0,0,0,0,0,0,0,0,0,0,0,0,0,0,0,0,0,0,0,0,0,0,0,0,0,0,0,0,0,0,0,0,0,0,0,0,0,0,0,0,0,0,0,0,0,0,0,0,0,0,0,0,0,0,0,0,0,0,0,0,0,0,0,0,0,0,0,0,0,0,0,0,0,0,0,0,0,0,0,0,0,0,0,0,0,0,0,0,0,0,0,0,0,0,0,0,0,0,0,0,0,0,0,0,0,0,0,0,0,0,0,0,0,0,0,0,0,0,0,0,0,0,0,0,0,0,0,0,0,0,0,0,0,0,0,0,0,0,0,0,0,0,0,0,0,0,0,0,0,0,0,0,0,0,0,0,0,0,0,0,0,0,0,0,0,0,0,0,0,0,0,0,0,0,0,0,0,0,0,0,0,0,0,0,0,0,0,0,0,0,0,0,0,0,0,0,0,0,0,0,0,0,0,0,0,0,0,0,0,0,0,0,0,0,0,0,0,0,0,0,0,0,0,0,0,0,0,0,0,0,0,0,0,0,0,0,0,0,0,0,0,0,0,0,0,0,0,0,0,0,0,0,0,0,0,0,0,0,0,0,0,0,0,0,0,0,0,0,0,0,0,0,0,0,0,0,0,0,0,0,0,0,0,0,0,0,0,0,0,0,0,0,0,0,0,0,0,0,0,0,0,0,0,0,0,0,0,0,0,0,0,0,0,0,0,0,0,0,0,0,0,0,0,0,0,0,0,0,0,0,0,0,0,0,0,0,0,0,0,0,0,0,0,0,0,0,0,0,0,0,0,0,0,0,0,0,0,0,0,0,0,0,0,0,0,0,0,0,0,0,0,0,0,0,0,0,0,0,0,0,0,0,0,0,0,0,0,0,0,0,0,0,0,0,0,0,0,0,0,0,0,0,0,0,0,0,0,0,0,0,0,0,0,0,0,0,0,0,0,0,0,0,0,0,0,0,0,0,0,0,0,0,0,0,0,0,0,0,0,0,0,0,0,0,0,0,0,0],"trees":[{"base_weights":[3.768077E-2,-1.0585768E1,1.55118E1,-2.7321045E1,2.3935613E-1,3.791144E1,1.2011698E1,-3.5124565E1,4.6950293E0,-7.0194817E0,5.5671787E0,4.3088234E1,2.9452656E1,1.3586474E1,-2.5036646E1,-5.5463425E1,-2.93087E1,8.424592E0,-3.6483143E1,-9.477517E0,9.253777E0,8.359149E0,3.9013103E-2,1.6664074E1,4.359299E1,2.385974E1,3.4309128E1,2.235353E1,8.85204E0,-3.8869537E1,-5.271356E0,-8.852806E1,-3.8585606E1,-3.0996414E1,-4.481204E0,1.5031474E1,-7.487836E0,-4.5209145E1,-1.6383584E-1,-2.2540575E1,-6.381032E0,4.2854795E0,1.649526E1,1.35761E1,5.7191525E0,-1.6314276E1,3.7615404E0,7.0079035E-1,9.1982156E-1,6.0778767E1,4.297733E1,2.076615E1,4.117287E1,1.7412443E1,3.5390102E1,1.0287797E1,2.9015066E1,-2.3112625E-1,1.13804035E1,1.155265E0,-3.9250397E1,-1.907258E1,1.5527445E1,-2.268748E0,-5.0087056E0,-2.4705853E0,-2.2004998E-1,-6.2317455E-1,-1.6833353E0,-7.6784486E-1,3.3924302E-1,5.850584E-1,1.9148064E0,1.5549883E0,-6.6185373E-1,-2.3936968E0,-4.3807265E-1,5.8902794E-1,-9.694921E-1,-1.9546951E0,-7.1066946E-1,1.3238548E-1,-4.2590138E-1,-5.8074415E-2,4.738454E-1,4.986814E-1,9.4477004E-1,3.2974312E-1,8.001806E-1,6.2286954E-2,3.7919888E-1,-1.0893213E0,1.2515636E-1,6.1369383E-1,5.730313E-2,3.222506E0,1.0125712E0,1.7933308E0,2.187171E0,1.5377911E0,8.938435E-1,2.441766E0,1.0366391E0,8.9208215E-1,5.920665E-1,1.8109373E0,7.448662E-1,1.3068802E0,1.7513792E-1,1.5885823E0,7.199449E-1,7.764559E-1,-1.6669852E-1,5.104224E-1,9.63925E-1,-2.1490042E0,-1.5938805E0,-1.1691605E0,-1.0300976E-1,6.1075306E-1,1.9289322E0],"categories":[],"categories_nodes":[],"categories_segments":[],"categories_sizes":[],"default_left":[0,0,0,0,0,0,0,0,0,0,0,0,0,0,0,0,0,0,0,0,0,0,0,0,0,0,0,0,0,0,0,0,0,0,0,0,0,0,0,0,0,0,0,0,0,0,0,0,0,0,0,0,0,0,0,0,0,0,0,0,0,0,0,0,0,0,0,0,0,0,0,0,0,0,0,0,0,0,0,0,0,0,0,0,0,0,0,0,0,0,0,0,0,0,0,0,0,0,0,0,0,0,0,0,0,0,0,0,0,0,0,0,0,0,0,0,0,0,0,0,0],"id":0,"left_children":[1,3,5,7,9,11,13,15,17,19,21,23,25,27,29,31,33,35,37,39,41,43,45,47,49,51,53,55,57,59,61,63,65,67,69,71,73,75,77,79,81,83,85,87,89,91,93,-1,-1,95,97,99,101,103,105,107,109,111,113,-1,115,117,119,-1,-1,-1,-1,-1,-1,-1,-1,-1,-1,-1,-1,-1,-1,-1,-1,-1,-1,-1,-1,-1,-1,-1,-1,-1,-1,-1,-1,-1,-1,-1,-1,-1,-1,-1,-1,-1,-1,-1,-1,-1,-1,-1,-1,-1,-1,-1,-1,-1,-1,-1,-1,-1,-1,-1,-1,-1,-1],"loss_changes":[2.349523E7,1.5352536E7,4.560911E6,8.31628E6,1.9901928E6,3.42996E5,2.9360925E6,3.164106E6,1.0022381E6,8.714131E5,4.5806325E5,6.4288E4,8.033525E4,2.003261E6,5.6083025E5,3.317022E6,8.72E5,6.2911525E5,1.7176006E5,7.653614E5,1.02787875E5,2.71505E5,6.0638075E5,1.6557617E2,4.7986E4,7.369394E4,2.85475E4,1.360067E6,7.19836E5,2.9398125E4,2.4313988E5,1.005592E6,1.4582855E6,9.64054E5,1.6257488E5,3.2712575E5,3.8997728E5,4.2018625E4,2.457134E4,4.9925638E5,2.9522706E5,4.7998832E4,1.8012906E4,1.1216625E5,1.0922984E5,1.90245E5,1.8063331E5,0E0,0E0,2.2939125E4,2.3595E4,3.3590156E4,3.1871E4,2.0091797E1,2.492725E4,6.4752075E5,4.38868E5,3.3385275E5,2.2675325E5,0E0,3.162025E4,3.727633E4,2.5331469E4,0E0,0E0,0E0,0E0,0E0,0E0,0E0,0E0,0E0,0E0,0E0,0E0,0E0,0E0,0E0,0E0,0E0,0E0,0E0,0E0,0E0,0E0,0E0,0E0,0E0,0E0,0E0,0E0,0E0,0E0,0E0,0E0,0E0,0E0,0E0,0E0,0E0,0E0,0E0,0E0,0E0,0E0,0E0,0E0,0E0,0E0,0E0,0E0,0E0,0E0,0E0,0E0,0E0,0E0,0E0,0E0,0E0,0E0],"parents":[2147483647,0,0,1,1,2,2,3,3,4,4,5,5,6,6,7,7,8,8,9,9,10,10,11,11,12,12,13,13,14,14,15,15,16,16,17,17,18,18,19,19,20,20,21,21,22,22,23,23,24,24,25,25,26,26,27,27,28,28,29,29,30,30,31,31,32,32,33,33,34,34,35,35,36,36,37,37,38,38,39,39,40,40,41,41,42,42,43,43,44,44,45,45,46,46,49,49,50,50,51,51,52,52,53,53,54,54,55,55,56,56,57,57,58,58,60,60,61,61,62,62],"right_children":[2,4,6,8,10,12,14,16,18,20,22,24,26,28,30,32,34,36,38,40,42,44,46,48,50,52,54,56,58,60,62,64,66,68,70,72,74,76,78,80,82,84,86,88,90,92,94,-1,-1,96,98,100,102,104,106,108,110,112,114,-1,116,118,120,-1,-1,-1,-1,-1,-1,-1,-1,-1,-1,-1,-1,-1,-1,-1,-1,-1,-1,-1,-1,-1,-1,-1,-1,-1,-1,-1,-1,-1,-1,-1,-1,-1,-1,-1,-1,-1,-1,-1,-1,-1,-1,-1,-1,-1,-1,-1,-1,-1,-1,-1,-1,-1,-1,-1,-1,-1,-1],"split_conditions":[1.5872862E0,1.6423658E1,-7.009474E0,8.5876393E-1,-4.9377555E-1,-7.4902906E0,-5.5146613E0,4.1954417E0,-5.552852E0,8.4094673E-1,2.1516098E-2,-9.997685E-1,1.8373556E0,1.655719E1,-4.7495106E-1,1.2126226E0,7.2755265E-1,2.1516098E-2,2.9539728E-1,2.0980444E1,3.5094734E1,-6.6703076E0,2.0870451E1,1.8891709E0,-1.6859308E0,8.5207754E-1,-8.800122E-1,1.7757291E0,-5.160624E-1,-8.5876393E-1,3.4429512E1,8.5207754E-1,1.4102362E0,-6.5038896E0,3.3761013E1,1.626088E-1,3.3164482E1,-4.7495106E-1,3.4695282E1,1.1583916E0,-6.672831E-1,-1.2910296E-2,1.7178123E-1,-8.7380713E-1,-8.7380713E-1,3.5244034E1,-6.59576E-1,7.0079035E-1,9.1982156E-1,5.234156E-1,-5.160624E-1,-1.2910296E-2,7.7482333E0,1.1758238E1,1.6423658E1,3.3648293E1,-5.9574704E0,-1.2910296E-2,2.0485663E0,1.155265E0,2.0251603E0,3.8617182E-1,1.7691656E1,-2.268748E0,-5.0087056E0,-2.4705853E0,-2.2004998E-1,-6.2317455E-1,-1.6833353E0,-7.6784486E-1,3.3924302E-1,5.850584E-1,1.9148064E0,1.5549883E0,-6.6185373E-1,-2.3936968E0,-4.3807265E-1,5.8902794E-1,-9.694921E-1,-1.9546951E0,-7.1066946E-1,1.3238548E-1,-4.2590138E-1,-5.8074415E-2,4.738454E-1,4.986814E-1,9.4477004E-1,3.2974312E-1,8.001806E-1,6.2286954E-2,3.7919888E-1,-1.0893213E0,1.2515636E-1,6.1369383E-1,5.730313E-2,3.222506E0,1.0125712E0,1.7933308E0,2.187171E0,1.5377911E0,8.938435E-1,2.441766E0,1.0366391E0,8.9208215E-1,5.920665E-1,1.8109373E0,7.448662E-1,1.3068802E0,1.7513792E-1,1.5885823E0,7.199449E-1,7.764559E-1,-1.6669852E-1,5.104224E-1,9.63925E-1,-2.1490042E0,-1.5938805E0,-1.1691605E0,-1.0300976E-1,6.1075306E-1,1.9289322E0],"split_indices":[4,0,5,12,12,5,5,0,5,10,11,12,4,0,11,4,10,11,6,0,2,5,0,4,0,11,12,4,12,12,2,11,4,5,2,9,2,11,2,4,10,11,9,11,11,2,9,0,0,12,12,11,0,0,0,2,5,11,4,0,4,6,0,0,0,0,0,0,0,0,0,0,0,0,0,0,0,0,0,0,0,0,0,0,0,0,0,0,0,0,0,0,0,0,0,0,0,0,0,0,0,0,0,0,0,0,0,0,0,0,0,0,0,0,0,0,0,0,0,0,0],"split_type":[0,0,0,0,0,0,0,0,0,0,0,0,0,0,0,0,0,0,0,0,0,0,0,0,0,0,0,0,0,0,0,0,0,0,0,0,0,0,0,0,0,0,0,0,0,0,0,0,0,0,0,0,0,0,0,0,0,0,0,0,0,0,0,0,0,0,0,0,0,0,0,0,0,0,0,0,0,0,0,0,0,0,0,0,0,0,0,0,0,0,0,0,0,0,0,0,0,0,0,0,0,0,0,0,0,0,0,0,0,0,0,0,0,0,0,0,0,0,0,0,0],"sum_hessian":[1.42923E5,8.4744E4,5.8179E4,3.3285E4,5.1459E4,7.861E3,5.0318E4,2.6762E4,6.523E3,2.1782E4,2.9677E4,4.874E3,2.987E3,4.8267E4,2.051E3,5.949E3,2.0813E4,5.982E3,5.41E2,1.8924E4,2.858E3,1.9718E4,9.959E3,9.2E1,4.782E3,1.391E3,1.596E3,1.6924E4,3.1343E4,1.206E3,8.45E2,2.009E3,3.94E3,1.9488E4,1.325E3,4.227E3,1.755E3,4.36E2,1.05E2,3.625E3,1.5299E4,1.696E3,1.162E3,6.624E3,1.3094E4,1.846E3,8.113E3,4E1,5.2E1,1.62E2,4.62E3,1.182E3,2.09E2,9.7E1,1.499E3,6.021E3,1.0903E4,6.825E3,2.4518E4,7E0,1.199E3,5.08E2,3.37E2,4.28E2,1.581E3,2.992E3,9.48E2,2.455E3,1.7033E4,6.74E2,6.51E2,3.699E3,5.28E2,2.27E2,1.528E3,4.06E2,3E1,6.5E1,4E1,1.212E3,2.413E3,2.928E3,1.2371E4,8.28E2,8.68E2,3.14E2,8.48E2,1.71E3,4.914E3,3.853E3,9.241E3,1.43E3,4.16E2,1.906E3,6.207E3,1.48E2,1.4E1,4.54E2,4.166E3,2.63E2,9.19E2,1.51E2,5.8E1,8.8E1,9E0,1.44E3,5.9E1,1.804E3,4.217E3,9.172E3,1.731E3,1.122E3,5.703E3,2.1352E4,3.166E3,7.93E2,4.06E2,4.05E2,1.03E2,2.96E2,4.1E1],"tree_param":{"num_deleted":"0","num_feature":"13","num_nodes":"121","size_leaf_vector":"1"}},{"base_weights":[-6.520563E-2,-1.0188256E1,1.4723056E1,-3.97133E1,-4.615935E0,1.0364417E1,2.7745827E1,-9.050154E1,-3.1973587E1,3.010558E0,-2.0296598E1,3.1295708E1,8.64875E0,2.3043835E1,3.6564228E1,-1.2480872E2,-6.645244E1,-4.716199E1,-2.0738663E1,-1.8261707E0,6.181087E0,-2.6945112E1,1.1184644E1,8.7398405E0,3.7875828E1,1.9992638E1,7.1866584E0,2.5959005E1,7.773276E0,3.857631E1,2.6238407E1,-1.4561783E2,-9.830097E1,-7.124197E1,-4.3574722E1,-6.1989754E1,-4.03186E1,2.2083336E1,-2.3803358E1,1.3781889E1,-6.02999E0,-4.9441276E0,1.0631094E1,-3.1044373E1,-1.3040889E1,1.90617E1,-3.291675E1,-6.9322276E0,1.3420948E1,2.0094624E1,4.336329E1,4.044533E1,1.3521336E1,4.7118773E0,1.2912698E1,2.1039549E1,3.5531754E1,-2.5329903E1,2.230142E1,4.0789402E1,2.8839615E1,2.421345E1,4.142544E1,-4.5428743E0,-8.239097E0,-4.189174E0,-5.037947E0,-2.3223631E0,-3.760594E0,-1.219244E0,-2.4200816E0,-3.3570106E0,-2.8906772E0,9.015174E-1,-2.050053E0,2.4626634E0,6.179867E-1,-6.4433575E-1,-1.4341928E0,8.7753344E-1,5.008717E-1,-1.2859254E-1,-5.3628004E-1,-1.0007048E0,-9.988589E-2,2.61757E-1,6.347632E-1,-1.8144226E0,-6.6354394E-1,5.860436E-2,-1.6699936E0,6.757545E-1,2.054633E0,-7.114726E-1,-2.1056294E0,-1.7255356E0,-2.6879475E-1,2.8332692E-1,1.0799693E0,1.4378004E0,7.4129236E-1,1.6630634E0,2.3202012E0,3.0428314E0,1.6367089E0,2.6908116E0,6.0591656E-1,2.6457796E-1,-7.5763285E-1,-7.096954E-2,7.2067136E-1,1.6459624E0,7.9259014E-1,-1.5073342E0,1.8721322E0,1.7301991E0,-1.5603622E0,7.5379145E-1,1.3976974E0,2.0912015E0,1.1617621E0,-4.1345188E-1,1.5008914E0,1.9169495E0,1.0608984E0,1.3350403E0,2.1320312E0],"categories":[],"categories_nodes":[],"categories_segments":[],"categories_sizes":[],"default_left":[0,0,0,0,0,0,0,0,0,0,0,0,0,0,0,0,0,0,0,0,0,0,0,0,0,0,0,0,0,0,0,0,0,0,0,0,0,0,0,0,0,0,0,0,0,0,0,0,0,0,0,0,0,0,0,0,0,0,0,0,0,0,0,0,0,0,0,0,0,0,0,0,0,0,0,0,0,0,0,0,0,0,0,0,0,0,0,0,0,0,0,0,0,0,0,0,0,0,0,0,0,0,0,0,0,0,0,0,0,0,0,0,0,0,0,0,0,0,0,0,0,0,0,0,0,0,0],"id":1,"left_children":[1,3,5,7,9,11,13,15,17,19,21,23,25,27,29,31,33,35,37,39,41,43,45,47,49,51,53,55,57,59,61,63,65,67,69,71,73,75,77,79,81,83,85,87,89,91,93,95,97,99,101,103,105,107,109,111,113,115,117,119,121,123,125,-1,-1,-1,-1,-1,-1,-1,-1,-1,-1,-1,-1,-1,-1,-1,-1,-1,-1,-1,-1,-1,-1,-1,-1,-1,-1,-1,-1,-1,-1,-1,-1,-1,-1,-1,-1,-1,-1,-1,-1,-1,-1,-1,-1,-1,-1,-1,-1,-1,-1,-1,-1,-1,-1,-1,-1,-1,-1,-1,-1,-1,-1,-1,-1],"loss_changes":[2.1374646E7,1.3944784E7,3.293071E6,5.286856E6,8.527199E6,1.5608895E6,6.02412E5,1.459465E6,1.991926E6,7.356771E5,4.883771E6,4.884125E5,6.66288E5,4.223435E5,1.040685E5,3.89434E5,1.117165E5,5.013E5,8.81778E5,1.2464758E6,1.4346749E6,1.097581E6,1.4141528E6,5.4748848E4,2.478375E5,6.0656275E5,5.043435E5,3.74576E5,7.330175E5,8.9987E4,2.4454E4,4.13172E5,3.13675E3,8.1639E4,1.58559375E4,2.97895E4,1.36131E5,1.18006234E5,3.335235E5,5.7010875E4,2.4299019E5,3.676088E5,2.3048075E5,1.386135E6,1.2697615E6,4.2138575E5,1.0542369E5,7.192948E3,3.627736E4,2.708714E4,5.82555E4,1.7144738E5,1.9641844E5,2.86287E5,2.3104538E5,3.2407225E5,3.4049225E5,1.6487669E5,4.2826875E4,6.15895E4,3.4659562E4,3.0195844E4,5.722656E2,0E0,0E0,0E0,0E0,0E0,0E0,0E0,0E0,0E0,0E0,0E0,0E0,0E0,0E0,0E0,0E0,0E0,0E0,0E0,0E0,0E0,0E0,0E0,0E0,0E0,0E0,0E0,0E0,0E0,0E0,0E0,0E0,0E0,0E0,0E0,0E0,0E0,0E0,0E0,0E0,0E0,0E0,0E0,0E0,0E0,0E0,0E0,0E0,0E0,0E0,0E0,0E0,0E0,0E0,0E0,0E0,0E0,0E0,0E0,0E0,0E0,0E0,0E0,0E0],"parents":[2147483647,0,0,1,1,2,2,3,3,4,4,5,5,6,6,7,7,8,8,9,9,10,10,11,11,12,12,13,13,14,14,15,15,16,16,17,17,18,18,19,19,20,20,21,21,22,22,23,23,24,24,25,25,26,26,27,27,28,28,29,29,30,30,31,31,32,32,33,33,34,34,35,35,36,36,37,37,38,38,39,39,40,40,41,41,42,42,43,43,44,44,45,45,46,46,47,47,48,48,49,49,50,50,51,51,52,52,53,53,54,54,55,55,56,56,57,57,58,58,59,59,60,60,61,61,62,62],"right_children":[2,4,6,8,10,12,14,16,18,20,22,24,26,28,30,32,34,36,38,40,42,44,46,48,50,52,54,56,58,60,62,64,66,68,70,72,74,76,78,80,82,84,86,88,90,92,94,96,98,100,102,104,106,108,110,112,114,116,118,120,122,124,126,-1,-1,-1,-1,-1,-1,-1,-1,-1,-1,-1,-1,-1,-1,-1,-1,-1,-1,-1,-1,-1,-1,-1,-1,-1,-1,-1,-1,-1,-1,-1,-1,-1,-1,-1,-1,-1,-1,-1,-1,-1,-1,-1,-1,-1,-1,-1,-1,-1,-1,-1,-1,-1,-1,-1,-1,-1,-1,-1,-1,-1,-1,-1,-1],"split_conditions":[1.5872862E0,-6.087614E-1,2.010866E0,1.1994828E0,6.087614E-1,3.3164482E1,2.3412704E0,-9.304176E-1,1.3746595E0,-4.9377555E-1,5.234156E-1,-4.9377555E-1,-5.049611E-1,8.717063E-1,6.949882E-1,1.1131333E0,-7.1325046E-1,-8.9493436E-1,4.975133E-1,2.6176948E-2,-8.726535E-3,1.7213356E-2,8.616292E-1,-8.717063E-1,5.8070296E-1,-4.9242356E-1,1.8483143E0,6.2251467E-1,-4.7495106E-1,8.717063E-1,6.087614E-1,9.998518E-1,8.695894E-1,8.695894E-1,-4.132347E-1,1.2793534E0,2.1516098E-2,-4.7495106E-1,8.5207754E-1,4.975133E-1,4.461978E-1,-5.51937E-1,1.7213356E-2,1.3665922E0,7.7162457E-1,-4.7495106E-1,5.657463E-1,-1.7658014E0,6.8835455E-1,4.9005583E-1,2.1516098E-2,1.8105533E0,-9.487118E-1,8.9493436E-1,-4.7495106E-1,-1.2910296E-2,-4.9002868E-1,-6.8835455E-1,-1.14953995E-1,4.650456E-1,-4.7495106E-1,-5.8070296E-1,2.1516098E-2,-4.5428743E0,-8.239097E0,-4.189174E0,-5.037947E0,-2.3223631E0,-3.760594E0,-1.219244E0,-2.4200816E0,-3.3570106E0,-2.8906772E0,9.015174E-1,-2.050053E0,2.4626634E0,6.179867E-1,-6.4433575E-1,-1.4341928E0,8.7753344E-1,5.008717E-1,-1.2859254E-1,-5.3628004E-1,-1.0007048E0,-9.988589E-2,2.61757E-1,6.347632E-1,-1.8144226E0,-6.6354394E-1,5.860436E-2,-1.6699936E0,6.757545E-1,2.054633E0,-7.114726E-1,-2.1056294E0,-1.7255356E0,-2.6879475E-1,2.8332692E-1,1.0799693E0,1.4378004E0,7.4129236E-1,1.6630634E0,2.3202012E0,3.0428314E0,1.6367089E0,2.6908116E0,6.0591656E-1,2.6457796E-1,-7.5763285E-1,-7.096954E-2,7.2067136E-1,1.6459624E0,7.9259014E-1,-1.5073342E0,1.8721322E0,1.7301991E0,-1.5603622E0,7.5379145E-1,1.3976974E0,2.0912015E0,1.1617621E0,-4.1345188E-1,1.5008914E0,1.9169495E0,1.0608984E0,1.3350403E0,2.1320312E0],"split_indices":[4,8,4,4,8,2,4,8,4,12,12,12,11,12,10,4,8,8,11,8,8,12,8,12,8,8,4,8,11,12,8,11,11,11,10,4,11,11,11,11,8,8,12,4,8,11,3,1,8,10,11,4,9,8,11,11,11,8,9,9,11,8,11,0,0,0,0,0,0,0,0,0,0,0,0,0,0,0,0,0,0,0,0,0,0,0,0,0,0,0,0,0,0,0,0,0,0,0,0,0,0,0,0,0,0,0,0,0,0,0,0,0,0,0,0,0,0,0,0,0,0,0,0,0,0,0,0],"split_type":[0,0,0,0,0,0,0,0,0,0,0,0,0,0,0,0,0,0,0,0,0,0,0,0,0,0,0,0,0,0,0,0,0,0,0,0,0,0,0,0,0,0,0,0,0,0,0,0,0,0,0,0,0,0,0,0,0,0,0,0,0,0,0,0,0,0,0,0,0,0,0,0,0,0,0,0,0,0,0,0,0,0,0,0,0,0,0,0,0,0,0,0,0,0,0,0,0,0,0,0,0,0,0,0,0,0,0,0,0,0,0,0,0,0,0,0,0,0,0,0,0,0,0,0,0,0,0],"sum_hessian":[1.42779E5,8.4759E4,5.802E4,1.3456E4,7.1303E4,4.3472E4,1.4548E4,1.778E3,1.1678E4,4.7972E4,2.3331E4,3.292E3,4.018E4,9.491E3,5.057E3,7.31E2,1.047E3,4.964E3,6.714E3,1.8995E4,2.8977E4,1.9263E4,4.068E3,7.44E2,2.548E3,4.586E3,3.5594E4,7.969E3,1.522E3,4.23E3,8.27E2,4.07E2,3.24E2,8.64E2,1.83E2,1.565E3,3.399E3,4.48E2,6.266E3,4.03E3,1.4965E4,8.279E3,2.0698E4,1.4876E4,4.387E3,3.452E3,6.16E2,1.71E2,5.73E2,6.02E2,1.946E3,1.101E3,3.485E3,2.4854E4,1.074E4,5.266E3,2.703E3,4.64E2,1.058E3,3.444E3,7.86E2,7.32E2,9.5E1,1.07E2,3E2,5.2E1,2.72E2,1.21E2,7.43E2,3.8E1,1.45E2,6.94E2,8.71E2,3.9E1,3.36E3,1.17E2,3.31E2,1.937E3,4.329E3,2.012E3,2.018E3,8.619E3,6.346E3,1.353E3,6.926E3,5.728E3,1.497E4,1.1486E4,3.39E3,2.584E3,1.803E3,2.759E3,6.93E2,2.04E2,4.12E2,8E0,1.63E2,2.95E2,2.78E2,2.26E2,3.76E2,4.53E2,1.493E3,3E2,8.01E2,1.16E2,3.369E3,2.415E4,7.04E2,1.018E3,9.722E3,1.599E3,3.667E3,7.6E1,2.627E3,4.1E1,4.23E2,4.66E2,5.92E2,3.251E3,1.93E2,2.4E1,7.62E2,1.26E2,6.06E2,9E0,8.6E1],"tree_param":{"num_deleted":"0","num_feature":"13","num_nodes":"127","size_leaf_vector":"1"}},{"base_weights":[-1.52302375E-2,-9.517468E0,1.4168905E1,-2.3929398E1,6.7305696E-1,3.4795784E1,1.092611E1,-3.0927414E1,4.4533596E0,-5.7565284E0,5.4390764E0,3.918823E1,2.7414564E1,1.2435674E1,-2.4114239E1,-4.9967144E1,-2.5834244E1,7.550382E0,-3.3404118E1,-1.2038375E1,-9.8389703E-1,1.0934384E1,3.320497E0,1.5841679E1,3.9624744E1,1.4955985E1,2.9112442E1,2.0509666E1,7.847782E0,-3.598834E1,-6.63994E0,-6.175851E1,-1.0878542E1,-2.9568031E1,-1.623626E1,1.3252538E1,-6.8991494E0,-4.172705E1,6.0113204E-1,-2.5867306E1,-6.319473E0,-4.5446095E0,2.958408E0,1.2638107E1,4.3055234E0,9.76638E0,1.3611715E0,1.1225388E0,7.5549257E-1,5.6357018E1,3.907011E1,5.5033417E0,1.5451601E1,2.7914816E1,4.419614E1,7.835894E0,2.5123447E1,-2.823221E-1,1.0091355E1,-3.9809475E1,-2.8843224E1,-1.894272E1,1.36235485E1,-4.142321E0,-2.4431255E0,7.49613E-1,-1.1943138E0,-1.7485617E0,-8.954374E-1,-3.2743236E-1,-1.1912302E0,5.047254E-1,1.6215521E0,1.4730109E0,-6.163551E-1,-2.195646E0,-6.2628126E-1,5.5805796E-1,-6.5918547E-1,-1.0802652E0,-2.2688887E0,-4.135111E-1,7.957124E-2,-3.363454E-1,1.7762919E-1,2.882114E-2,5.897031E-1,3.0618852E-1,7.425409E-1,-1.1296469E-1,4.69239E-1,2.3626946E-1,7.1293753E-1,2.0650256E-1,-1.4249341E-1,2.9812174E0,6.7666966E-1,1.6224943E0,1.991071E0,-3.0161684E-2,3.8672462E-1,8.235001E-1,7.1602154E-1,1.1397129E0,1.5514716E0,2.7417634E0,1.9082335E0,1.2433186E0,1.13671474E-1,1.9688854E0,1.1593792E0,7.323083E-1,-1.6983233E-1,4.592422E-1,8.9016765E-1,1.2661148E0,-2.0212502E0,-1.4807771E0,-4.23439E-1,-7.9539436E-1,-2.0231173E0,5.280485E-1,1.6840559E0],"categories":[],"categories_nodes":[],"categories_segments":[],"categories_sizes":[],"default_left":[0,0,0,0,0,0,0,0,0,0,0,0,0,0,0,0,0,0,0,0,0,0,0,0,0,0,0,0,0,0,0,0,0,0,0,0,0,0,0,0,0,0,0,0,0,0,0,0,0,0,0,0,0,0,0,0,0,0,0,0,0,0,0,0,0,0,0,0,0,0,0,0,0,0,0,0,0,0,0,0,0,0,0,0,0,0,0,0,0,0,0,0,0,0,0,0,0,0,0,0,0,0,0,0,0,0,0,0,0,0,0,0,0,0,0,0,0,0,0,0,0,0,0],"id":2,"left_children":[1,3,5,7,9,11,13,15,17,19,21,23,25,27,29,31,33,35,37,39,41,43,45,47,49,51,53,55,57,59,61,63,65,67,69,71,73,75,77,79,81,83,85,87,89,91,93,-1,-1,95,97,99,101,103,105,107,109,111,113,115,117,119,121,-1,-1,-1,-1,-1,-1,-1,-1,-1,-1,-1,-1,-1,-1,-1,-1,-1,-1,-1,-1,-1,-1,-1,-1,-1,-1,-1,-1,-1,-1,-1,-1,-1,-1,-1,-1,-1,-1,-1,-1,-1,-1,-1,-1,-1,-1,-1,-1,-1,-1,-1,-1,-1,-1,-1,-1,-1,-1,-1,-1],"loss_changes":[1.9209126E7,1.2534369E7,3.823979E6,7.021664E6,1.5320851E6,2.50737E5,2.613819E6,2.748746E6,8.2014706E5,6.381012E5,3.3424606E5,4.8967E4,6.09255E4,1.754507E6,4.23247E5,2.757396E6,8.01401E5,5.327659E5,1.4974862E5,7.2655725E5,1.6981017E5,9.016956E4,2.6173372E5,9.71582E1,4.2121E4,1.5525703E3,4.486E4,1.0033895E6,5.50994E5,3.2017375E4,2.0642744E5,1.246092E6,4.6744938E5,1.014131E6,4.6069362E5,2.804537E5,3.615247E5,2.657225E4,1.5431614E4,2.2253012E5,1.0035384E5,1.1233784E5,1.2081932E5,9.151006E4,5.4539992E4,1.0933356E5,1.853454E5,0E0,0E0,2.0313531E4,2.1714E4,2.6424792E2,1.4352344E2,3.7037625E4,9.8334375E3,4.340002E5,3.462725E5,3.0382838E5,1.6533925E5,3.2656625E4,6.4644688E3,3.2984516E4,1.88668E4,0E0,0E0,0E0,0E0,0E0,0E0,0E0,0E0,0E0,0E0,0E0,0E0,0E0,0E0,0E0,0E0,0E0,0E0,0E0,0E0,0E0,0E0,0E0,0E0,0E0,0E0,0E0,0E0,0E0,0E0,0E0,0E0,0E0,0E0,0E0,0E0,0E0,0E0,0E0,0E0,0E0,0E0,0E0,0E0,0E0,0E0,0E0,0E0,0E0,0E0,0E0,0E0,0E0,0E0,0E0,0E0,0E0,0E0,0E0,0E0],"parents":[2147483647,0,0,1,1,2,2,3,3,4,4,5,5,6,6,7,7,8,8,9,9,10,10,11,11,12,12,13,13,14,14,15,15,16,16,17,17,18,18,19,19,20,20,21,21,22,22,23,23,24,24,25,25,26,26,27,27,28,28,29,29,30,30,31,31,32,32,33,33,34,34,35,35,36,36,37,37,38,38,39,39,40,40,41,41,42,42,43,43,44,44,45,45,46,46,49,49,50,50,51,51,52,52,53,53,54,54,55,55,56,56,57,57,58,58,59,59,60,60,61,61,62,62],"right_children":[2,4,6,8,10,12,14,16,18,20,22,24,26,28,30,32,34,36,38,40,42,44,46,48,50,52,54,56,58,60,62,64,66,68,70,72,74,76,78,80,82,84,86,88,90,92,94,-1,-1,96,98,100,102,104,106,108,110,112,114,116,118,120,122,-1,-1,-1,-1,-1,-1,-1,-1,-1,-1,-1,-1,-1,-1,-1,-1,-1,-1,-1,-1,-1,-1,-1,-1,-1,-1,-1,-1,-1,-1,-1,-1,-1,-1,-1,-1,-1,-1,-1,-1,-1,-1,-1,-1,-1,-1,-1,-1,-1,-1,-1,-1,-1,-1,-1,-1,-1,-1,-1,-1],"split_conditions":[1.591623E0,1.7349295E1,-7.009474E0,8.5876393E-1,-4.9377555E-1,-7.4902906E0,-5.5146613E0,4.1954417E0,-5.552852E0,3.4403084E1,-6.6787605E0,-9.997685E-1,-8.800122E-1,1.6838203E1,-4.7495106E-1,1.3746595E0,1.3900752E0,2.1516098E-2,2.9539728E-1,2.369628E1,-1.2910296E-2,2.1516098E-2,-7.776938E-1,6.009901E0,-1.6859308E0,-3.341824E-1,9.998518E-1,1.733964E0,-5.160624E-1,2.0251603E0,3.4429512E1,1.1950983E0,-3.341824E-1,4.862727E-1,-5.160624E-1,1.4072622E-1,3.3164482E1,-4.7495106E-1,3.4591385E1,2.908491E-1,4.975133E-1,-6.355588E0,2.4317658E-1,-8.7380713E-1,8.695894E-1,1.2881248E0,2.1516098E-2,1.1225388E0,7.5549257E-1,8.6314213E-1,-5.160624E-1,-3.7500095E-1,-4.7196705E-2,1.7959971E0,3.2674812E1,3.346788E1,-5.049611E-1,-1.2910296E-2,2.0790143E0,-8.5876393E-1,2.3412704E0,-5.0740485E0,1.7691656E1,-4.142321E0,-2.4431255E0,7.49613E-1,-1.1943138E0,-1.7485617E0,-8.954374E-1,-3.2743236E-1,-1.1912302E0,5.047254E-1,1.6215521E0,1.4730109E0,-6.163551E-1,-2.195646E0,-6.2628126E-1,5.5805796E-1,-6.5918547E-1,-1.0802652E0,-2.2688887E0,-4.135111E-1,7.957124E-2,-3.363454E-1,1.7762919E-1,2.882114E-2,5.897031E-1,3.0618852E-1,7.425409E-1,-1.1296469E-1,4.69239E-1,2.3626946E-1,7.1293753E-1,2.0650256E-1,-1.4249341E-1,2.9812174E0,6.7666966E-1,1.6224943E0,1.991071E0,-3.0161684E-2,3.8672462E-1,8.235001E-1,7.1602154E-1,1.1397129E0,1.5514716E0,2.7417634E0,1.9082335E0,1.2433186E0,1.13671474E-1,1.9688854E0,1.1593792E0,7.323083E-1,-1.6983233E-1,4.592422E-1,8.9016765E-1,1.2661148E0,-2.0212502E0,-1.4807771E0,-4.23439E-1,-7.9539436E-1,-2.0231173E0,5.280485E-1,1.6840559E0],"split_indices":[4,0,5,12,12,5,5,0,5,2,5,12,12,0,11,4,4,11,6,0,11,11,9,0,0,9,11,4,12,4,2,4,9,12,12,9,2,11,2,9,11,5,9,11,11,4,11,0,0,12,12,9,9,4,2,2,11,11,4,12,4,5,0,0,0,0,0,0,0,0,0,0,0,0,0,0,0,0,0,0,0,0,0,0,0,0,0,0,0,0,0,0,0,0,0,0,0,0,0,0,0,0,0,0,0,0,0,0,0,0,0,0,0,0,0,0,0,0,0,0,0,0,0],"split_type":[0,0,0,0,0,0,0,0,0,0,0,0,0,0,0,0,0,0,0,0,0,0,0,0,0,0,0,0,0,0,0,0,0,0,0,0,0,0,0,0,0,0,0,0,0,0,0,0,0,0,0,0,0,0,0,0,0,0,0,0,0,0,0,0,0,0,0,0,0,0,0,0,0,0,0,0,0,0,0,0,0,0,0,0,0,0,0,0,0,0,0,0,0,0,0,0,0,0,0,0,0,0,0,0,0,0,0,0,0,0,0,0,0,0,0,0,0,0,0,0,0,0,0],"sum_hessian":[1.42519E5,8.5345E4,5.7174E4,3.535E4,4.9995E4,7.766E3,4.9408E4,2.8358E4,6.992E3,2.1283E4,2.8712E4,4.866E3,2.9E3,4.7368E4,2.04E3,5.983E3,2.2375E4,6.464E3,5.28E2,9.188E3,1.2095E4,7.988E3,2.0724E4,9E1,4.776E3,3.49E2,2.551E3,1.7162E4,3.0206E4,1.214E3,8.26E2,4.596E3,1.387E3,1.6107E4,6.268E3,4.635E3,1.829E3,4.24E2,1.04E2,2.687E3,6.501E3,6.355E3,5.74E3,6.354E3,1.634E3,4.83E3,1.5894E4,6E0,8.4E1,1.5E2,4.626E3,1.8E1,3.31E2,2.366E3,1.85E2,4.581E3,1.2581E4,6.533E3,2.3673E4,7.88E2,4.26E2,5.14E2,3.12E2,1.742E3,2.854E3,4.64E2,9.23E2,1.1005E4,5.102E3,2.754E3,3.514E3,3.981E3,6.54E2,2.37E2,1.592E3,3.94E2,3E1,5.9E1,4.5E1,2.207E3,4.8E2,5.215E3,1.286E3,5.006E3,1.349E3,4.522E3,1.218E3,1.612E3,4.742E3,7.13E2,9.21E2,2.277E3,2.553E3,9.589E3,6.305E3,1.39E2,1.1E1,4.76E2,4.15E3,5E0,1.3E1,1.67E2,1.64E2,8.98E2,1.468E3,6.4E1,1.21E2,1.127E3,3.454E3,1.502E3,1.1079E4,1.127E3,5.406E3,2.1185E4,2.488E3,7E0,7.81E2,4.1E2,1.6E1,4.52E2,6.2E1,2.72E2,4E1],"tree_param":{"num_deleted":"0","num_feature":"13","num_nodes":"123","size_leaf_vector":"1"}},{"base_weights":[7.1529825E-3,-8.797872E0,1.3738804E1,-3.500332E1,-3.8872485E0,3.309142E1,1.0646623E1,-5.9964592E1,-2.2097952E1,2.5083272E0,-1.838134E1,3.7213913E1,2.6139854E1,1.2083724E1,-2.2649708E1,-1.0895109E2,-4.9454617E1,2.073513E1,-2.5062277E1,-1.119988E1,3.048192E0,-2.7267725E1,-7.6270185E0,3.7894917E1,2.3771263E1,2.3941248E1,3.484276E1,1.9875505E1,7.501419E0,-3.4341232E1,-5.047041E0,-1.3561632E2,-8.484904E1,-6.166697E1,-4.3300533E1,2.477035E1,-3.6494E1,-1.2816427E1,-2.9427551E1,-6.266519E0,-3.6204536E1,4.193669E0,-4.0050836E0,-1.5076549E1,-3.2937954E1,8.546381E0,-1.6435413E1,5.0649307E1,3.7221844E1,1.7168678E1,2.8881187E1,1.949987E1,3.0175945E1,1.597058E1,3.777225E1,3.8239605E0,2.4296976E1,-9.64958E0,8.0363245E0,-3.8186287E1,-2.7411572E1,-2.2621996E1,1.2277284E1,-4.1206193E0,-7.6235046E0,-3.58174E0,-4.530019E0,-3.5532143E0,-2.8478315E0,-5.7276547E-1,-2.2300858E0,2.0061204E0,6.7700875E-1,-7.0228523E-1,-3.3939655E0,-5.588193E-1,-1.9472983E0,-2.6071951E0,-1.2977198E0,3.1478348E-1,-5.9271014E-1,-2.1679292E0,-1.1173422E0,3.4302887E-1,5.4448165E-2,1.5969309E-1,-4.8840728E-1,-1.1393182E0,-1.4078751E-1,-8.780905E-1,-1.7840489E0,1.6025788E0,-5.203397E-1,-1.9062332E0,-5.5809224E-1,2.6905906E0,1.3598989E0,1.4097023E0,1.8823502E0,7.172808E-1,1.3302721E0,1.5459363E0,1.2648643E0,1.3278073E0,8.5641384E-1,1.5438138E0,2.5438926E-1,1.8554193E-1,1.0317777E0,1.6704092E0,2.257067E0,1.9227419E0,-1.4340322E-1,1.433657E0,8.77449E-1,-7.0091075E-1,7.14376E-1,2.511219E-1,5.3524584E-1,-3.590637E-1,-1.9654616E0,-1.4366815E0,-5.316535E-1,-9.307637E-1,-1.8507283E0,4.8861027E-1,1.7973794E0],"categories":[],"categories_nodes":[],"categories_segments":[],"categories_sizes":[],"default_left":[0,0,0,0,0,0,0,0,0,0,0,0,0,0,0,0,0,0,0,0,0,0,0,0,0,0,0,0,0,0,0,0,0,0,0,0,0,0,0,0,0,0,0,0,0,0,0,0,0,0,0,0,0,0,0,0,0,0,0,0,0,0,0,0,0,0,0,0,0,0,0,0,0,0,0,0,0,0,0,0,0,0,0,0,0,0,0,0,0,0,0,0,0,0,0,0,0,0,0,0,0,0,0,0,0,0,0,0,0,0,0,0,0,0,0,0,0,0,0,0,0,0,0,0,0,0,0],"id":3,"left_children":[1,3,5,7,9,11,13,15,17,19,21,23,25,27,29,31,33,35,37,39,41,43,45,47,49,51,53,55,57,59,61,63,65,67,69,71,73,75,77,79,81,83,85,87,89,91,93,95,97,99,101,103,105,107,109,111,113,115,117,119,121,123,125,-1,-1,-1,-1,-1,-1,-1,-1,-1,-1,-1,-1,-1,-1,-1,-1,-1,-1,-1,-1,-1,-1,-1,-1,-1,-1,-1,-1,-1,-1,-1,-1,-1,-1,-1,-1,-1,-1,-1,-1,-1,-1,-1,-1,-1,-1,-1,-1,-1,-1,-1,-1,-1,-1,-1,-1,-1,-1,-1,-1,-1,-1,-1,-1],"loss_changes":[1.7250238E7,1.1186582E7,3.335344E6,4.41803E6,6.78675E6,2.19085E5,2.300144E6,2.401506E6,1.1489745E6,3.7597522E5,2.1419245E6,4.3199E4,5.392225E4,1.6449605E6,4.0916294E5,5.18687E5,2.86745E5,1.3622903E5,4.518605E5,2.3723108E5,3.9489584E5,8.47891E5,1.4451299E6,3.74575E4,7.4281406E3,6.2762625E4,3.1180812E4,1.2108185E6,2.6626575E5,3.0787375E4,2.423358E5,3.371195E5,2.66295E4,5.29525E4,1.05727E5,9.393003E4,2.6515719E4,9.490878E4,4.90643E5,1.1301657E5,3.0451406E4,3.4813944E5,2.833532E5,3.684052E5,3.52644E5,1.5938822E6,7.507015E5,1.53638125E4,1.56595E4,2.4114922E3,1.6882031E2,2.1948438E4,1.6530812E4,4.4391074E3,1.44671875E4,8.543469E5,3.945195E5,9.201487E4,2.2625412E5,2.6382875E4,9.228875E3,2.208386E4,2.3421832E4,0E0,0E0,0E0,0E0,0E0,0E0,0E0,0E0,0E0,0E0,0E0,0E0,0E0,0E0,0E0,0E0,0E0,0E0,0E0,0E0,0E0,0E0,0E0,0E0,0E0,0E0,0E0,0E0,0E0,0E0,0E0,0E0,0E0,0E0,0E0,0E0,0E0,0E0,0E0,0E0,0E0,0E0,0E0,0E0,0E0,0E0,0E0,0E0,0E0,0E0,0E0,0E0,0E0,0E0,0E0,0E0,0E0,0E0,0E0,0E0,0E0,0E0,0E0,0E0],"parents":[2147483647,0,0,1,1,2,2,3,3,4,4,5,5,6,6,7,7,8,8,9,9,10,10,11,11,12,12,13,13,14,14,15,15,16,16,17,17,18,18,19,19,20,20,21,21,22,22,23,23,24,24,25,25,26,26,27,27,28,28,29,29,30,30,31,31,32,32,33,33,34,34,35,35,36,36,37,37,38,38,39,39,40,40,41,41,42,42,43,43,44,44,45,45,46,46,47,47,48,48,49,49,50,50,51,51,52,52,53,53,54,54,55,55,56,56,57,57,58,58,59,59,60,60,61,61,62,62],"right_children":[2,4,6,8,10,12,14,16,18,20,22,24,26,28,30,32,34,36,38,40,42,44,46,48,50,52,54,56,58,60,62,64,66,68,70,72,74,76,78,80,82,84,86,88,90,92,94,96,98,100,102,104,106,108,110,112,114,116,118,120,122,124,126,-1,-1,-1,-1,-1,-1,-1,-1,-1,-1,-1,-1,-1,-1,-1,-1,-1,-1,-1,-1,-1,-1,-1,-1,-1,-1,-1,-1,-1,-1,-1,-1,-1,-1,-1,-1,-1,-1,-1,-1,-1,-1,-1,-1,-1,-1,-1,-1,-1,-1,-1,-1,-1,-1,-1,-1,-1,-1,-1,-1,-1,-1,-1,-1],"split_conditions":[1.6031933E0,-6.087614E-1,-7.009474E0,1.3136057E0,6.2251467E-1,-7.4902906E0,-5.5146613E0,-9.304176E-1,4.975133E-1,-5.51937E-1,-5.049611E-1,9.366722E-1,8.5207754E-1,1.6960514E1,-4.7495106E-1,1.1131333E0,-8.9493436E-1,-5.255301E0,8.5207754E-1,6.313337E-1,5.51937E-1,7.1325046E-1,9.099129E0,-4.7851673E-1,4.975133E-1,1.9170536E0,7.1325046E-1,-6.8835455E-1,-5.51937E-1,2.010866E0,-7.253744E-1,9.998518E-1,8.695894E-1,1.1994828E0,-6.557328E0,-4.7851673E-1,-8.616292E-1,-5.647121E0,-8.9493436E-1,1.613577E1,3.4317688E1,2.7119404E1,2.0160366E1,1.0051438E0,-5.263917E-1,7.7162457E-1,1.1950983E0,4.0675653E2,1.7860903E0,2.2387567E0,9.5881975E-1,-1.2910296E-2,1.6838203E1,4.9647903E-1,-4.167675E-1,-1.2910296E-2,1.3945696E1,1.9991951E0,-6.615092E0,8.433914E-1,9.5881975E-1,4.0290207E2,1.7579645E1,-4.1206193E0,-7.6235046E0,-3.58174E0,-4.530019E0,-3.5532143E0,-2.8478315E0,-5.7276547E-1,-2.2300858E0,2.0061204E0,6.7700875E-1,-7.0228523E-1,-3.3939655E0,-5.588193E-1,-1.9472983E0,-2.6071951E0,-1.2977198E0,3.1478348E-1,-5.9271014E-1,-2.1679292E0,-1.1173422E0,3.4302887E-1,5.4448165E-2,1.5969309E-1,-4.8840728E-1,-1.1393182E0,-1.4078751E-1,-8.780905E-1,-1.7840489E0,1.6025788E0,-5.203397E-1,-1.9062332E0,-5.5809224E-1,2.6905906E0,1.3598989E0,1.4097023E0,1.8823502E0,7.172808E-1,1.3302721E0,1.5459363E0,1.2648643E0,1.3278073E0,8.5641384E-1,1.5438138E0,2.5438926E-1,1.8554193E-1,1.0317777E0,1.6704092E0,2.257067E0,1.9227419E0,-1.4340322E-1,1.433657E0,8.77449E-1,-7.0091075E-1,7.14376E-1,2.511219E-1,5.3524584E-1,-3.590637E-1,-1.9654616E0,-1.4366815E0,-5.316535E-1,-9.307637E-1,-1.8507283E0,4.8861027E-1,1.7973794E0],"split_indices":[4,8,5,4,8,5,5,8,11,8,11,8,11,0,11,4,8,5,11,9,8,8,0,0,11,4,8,8,8,4,8,11,11,4,5,0,8,5,8,0,2,0,0,4,10,8,4,7,4,4,8,11,0,3,10,11,0,4,5,8,8,7,0,0,0,0,0,0,0,0,0,0,0,0,0,0,0,0,0,0,0,0,0,0,0,0,0,0,0,0,0,0,0,0,0,0,0,0,0,0,0,0,0,0,0,0,0,0,0,0,0,0,0,0,0,0,0,0,0,0,0,0,0,0,0,0,0],"split_type":[0,0,0,0,0,0,0,0,0,0,0,0,0,0,0,0,0,0,0,0,0,0,0,0,0,0,0,0,0,0,0,0,0,0,0,0,0,0,0,0,0,0,0,0,0,0,0,0,0,0,0,0,0,0,0,0,0,0,0,0,0,0,0,0,0,0,0,0,0,0,0,0,0,0,0,0,0,0,0,0,0,0,0,0,0,0,0,0,0,0,0,0,0,0,0,0,0,0,0,0,0,0,0,0,0,0,0,0,0,0,0,0,0,0,0,0,0,0,0,0,0,0,0,0,0,0,0],"sum_hessian":[1.42671E5,8.693E4,5.5741E4,1.3718E4,7.3212E4,7.678E3,4.8063E4,4.674E3,9.044E3,5.0798E4,2.2414E4,4.817E3,2.861E3,4.6075E4,1.988E3,8.24E2,3.85E3,5.85E2,8.459E3,1.924E3,4.8874E4,1.2272E4,1.0142E4,4.583E3,2.34E2,2.287E3,5.74E2,1.7061E4,2.9014E4,1.194E3,7.94E2,3.89E2,4.35E2,1.287E3,2.563E3,5.47E2,3.8E1,2.224E3,6.235E3,1.608E3,3.16E2,4.2046E4,6.828E3,3.897E3,8.375E3,3.576E3,6.566E3,2.26E2,4.357E3,1.04E2,1.3E2,1.338E3,9.49E2,7.8E1,4.96E2,3.685E3,1.3376E4,8.77E2,2.8137E4,7.65E2,4.29E2,3.94E2,4E2,9.5E1,2.94E2,1.36E2,2.99E2,4.25E2,8.62E2,1.01E2,2.462E3,2.3E2,3.17E2,2.3E1,1.5E1,2.094E3,1.3E2,8.25E2,5.41E3,4.95E2,1.113E3,2.07E2,1.09E2,2.2617E4,1.9429E4,3.036E3,3.792E3,2.392E3,1.505E3,1.269E3,7.106E3,1.596E3,1.98E3,1.283E3,5.283E3,1.98E2,2.8E1,1.99E2,4.158E3,8.2E1,2.2E1,7.8E1,5.2E1,3.34E2,1.004E3,9.23E2,2.6E1,2.2E1,5.6E1,3.15E2,1.81E2,5.96E2,3.089E3,8.112E3,5.264E3,7.42E2,1.35E2,1.3215E4,1.4922E4,2.7E1,7.38E2,3.97E2,3.2E1,3.1E2,8.4E1,3.63E2,3.7E1],"tree_param":{"num_deleted":"0","num_feature":"13","num_nodes":"127","size_leaf_vector":"1"}},{"base_weights":[3.4624595E-2,-8.485205E0,1.2837201E1,-3.3651463E1,-3.739916E0,3.1340225E1,9.918538E0,-7.695039E1,-2.6739252E1,2.3806946E0,-1.7502283E1,3.5927258E1,2.5533306E1,1.13756695E1,-1.8080158E1,-1.08860985E2,-5.645884E1,-4.0615765E1,-1.750549E1,-2.1694832E0,5.3961444E0,-2.3630487E1,1.040085E1,5.145503E1,3.534601E1,1.3219633E1,2.7097515E1,1.9419497E1,7.264812E0,-3.1932537E1,-2.6099117E0,-1.2773429E2,-8.5268005E1,-7.0766785E1,-5.095127E1,-5.3593937E1,-3.4662327E1,2.0129366E1,-2.0342E1,1.3016997E1,-6.067882E0,-5.123928E0,9.208682E0,-2.4996914E1,2.066341E1,1.9320503E1,-2.5346642E1,5.429879E1,1.6426638E1,2.7119854E1,3.6063366E1,7.9000273E0,1.3774333E1,2.146628E1,2.9768578E1,3.7541234E0,2.424079E1,-5.7685417E-1,9.379153E0,3.113997E1,-3.275369E1,-2.0346373E1,1.2906359E1,-3.9594924E0,-7.217706E0,-3.595307E0,-4.376639E0,-3.4111443E0,-5.4402065E0,-4.868759E0,-2.450921E0,-3.5352464E0,-2.5882638E0,2.661168E-1,-1.78304E0,2.2631652E0,5.2623856E-1,-5.3834885E-1,-1.231325E0,7.536667E-1,2.4982977E-1,-1.6781767E-1,-6.348608E-1,-9.01627E-1,-1.19910024E-1,1.8971352E-1,5.404677E-1,-1.4318827E0,-6.24539E-1,4.583461E-1,2.3507166E0,6.967041E-1,2.0186126E0,-1.5226011E0,8.3334154E-1,1.8865969E0,2.8124616E0,1.038921E0,3.9349103E-1,6.936261E-1,1.4681716E0,1.8554066E0,1.7073812E0,2.358537E-2,4.6166536E-1,5.266761E-1,7.139512E-1,1.2050699E0,6.0935044E-1,1.5286642E0,7.018203E-1,8.620383E-1,-6.755675E-1,6.531196E-1,1.3454274E0,7.243171E-1,-2.5771603E-1,-2.2432433E-1,5.2270305E-1,2.5342717E0,9.381954E-1,-1.8270775E0,-1.2849407E0,-1.228361E0,-5.774344E-1,1.2641492E0,5.166364E-1],"categories":[],"categories_nodes":[],"categories_segments":[],"categories_sizes":[],"default_left":[0,0,0,0,0,0,0,0,0,0,0,0,0,0,0,0,0,0,0,0,0,0,0,0,0,0,0,0,0,0,0,0,0,0,0,0,0,0,0,0,0,0,0,0,0,0,0,0,0,0,0,0,0,0,0,0,0,0,0,0,0,0,0,0,0,0,0,0,0,0,0,0,0,0,0,0,0,0,0,0,0,0,0,0,0,0,0,0,0,0,0,0,0,0,0,0,0,0,0,0,0,0,0,0,0,0,0,0,0,0,0,0,0,0,0,0,0,0,0,0,0,0,0,0,0,0,0],"id":4,"left_children":[1,3,5,7,9,11,13,15,17,19,21,23,25,27,29,31,33,35,37,39,41,43,45,47,49,51,53,55,57,59,61,63,65,67,69,71,73,75,77,79,81,83,85,87,89,91,93,95,97,99,101,103,105,107,109,111,113,115,117,119,121,123,125,-1,-1,-1,-1,-1,-1,-1,-1,-1,-1,-1,-1,-1,-1,-1,-1,-1,-1,-1,-1,-1,-1,-1,-1,-1,-1,-1,-1,-1,-1,-1,-1,-1,-1,-1,-1,-1,-1,-1,-1,-1,-1,-1,-1,-1,-1,-1,-1,-1,-1,-1,-1,-1,-1,-1,-1,-1,-1,-1,-1,-1,-1,-1,-1],"loss_changes":[1.5534571E7,1.0211931E7,3.072897E6,4.058119E6,6.0605175E6,2.055895E5,2.00562E6,1.214664E6,1.4984325E6,6.833232E5,3.7874685E6,3.7244E4,6.560725E4,1.54488E6,5.2109006E5,3.13693E5,8.613725E4,3.59269E5,7.505525E5,1.1752571E6,1.2013676E6,1.09964E6,1.2724025E6,1.44413125E4,2.3659E4,1.0339219E3,4.50515E4,1.1933895E6,5.1270812E5,6.7469375E4,3.1674762E5,3.136875E5,3.5855E3,2.2943125E4,6.932975E4,4.22615E4,1.2822775E5,1.18528875E5,2.6782475E5,6.6800375E4,2.8389888E5,2.8031162E5,1.9049488E5,8.01769E5,1.6436444E5,3.6149775E5,1.7146125E5,2.4565938E3,3.1769897E2,9.663906E3,6.408E3,3.809309E2,4.195703E2,2.3690031E4,2.562025E4,8.6644744E5,3.59975E5,4.529457E5,3.6305575E5,3.1542285E3,3.291275E4,1.9653453E4,1.9292852E4,0E0,0E0,0E0,0E0,0E0,0E0,0E0,0E0,0E0,0E0,0E0,0E0,0E0,0E0,0E0,0E0,0E0,0E0,0E0,0E0,0E0,0E0,0E0,0E0,0E0,0E0,0E0,0E0,0E0,0E0,0E0,0E0,0E0,0E0,0E0,0E0,0E0,0E0,0E0,0E0,0E0,0E0,0E0,0E0,0E0,0E0,0E0,0E0,0E0,0E0,0E0,0E0,0E0,0E0,0E0,0E0,0E0,0E0,0E0,0E0,0E0,0E0,0E0,0E0],"parents":[2147483647,0,0,1,1,2,2,3,3,4,4,5,5,6,6,7,7,8,8,9,9,10,10,11,11,12,12,13,13,14,14,15,15,16,16,17,17,18,18,19,19,20,20,21,21,22,22,23,23,24,24,25,25,26,26,27,27,28,28,29,29,30,30,31,31,32,32,33,33,34,34,35,35,36,36,37,37,38,38,39,39,40,40,41,41,42,42,43,43,44,44,45,45,46,46,47,47,48,48,49,49,50,50,51,51,52,52,53,53,54,54,55,55,56,56,57,57,58,58,59,59,60,60,61,61,62,62],"right_children":[2,4,6,8,10,12,14,16,18,20,22,24,26,28,30,32,34,36,38,40,42,44,46,48,50,52,54,56,58,60,62,64,66,68,70,72,74,76,78,80,82,84,86,88,90,92,94,96,98,100,102,104,106,108,110,112,114,116,118,120,122,124,126,-1,-1,-1,-1,-1,-1,-1,-1,-1,-1,-1,-1,-1,-1,-1,-1,-1,-1,-1,-1,-1,-1,-1,-1,-1,-1,-1,-1,-1,-1,-1,-1,-1,-1,-1,-1,-1,-1,-1,-1,-1,-1,-1,-1,-1,-1,-1,-1,-1,-1,-1,-1,-1,-1,-1,-1,-1,-1,-1,-1,-1,-1,-1,-1],"split_conditions":[1.5955715E0,-6.087614E-1,-7.009474E0,1.2032429E0,6.2251467E-1,-7.61559E0,-5.6194043E0,-9.304176E-1,1.3706174E0,-4.9377555E-1,5.234156E-1,-1.6859308E0,-8.800122E-1,1.6423658E1,-4.7495106E-1,1.1131333E0,-9.0258527E-1,-8.9493436E-1,4.975133E-1,2.6176948E-2,-2.6176948E-2,4.975133E-1,8.5264015E-1,5.234156E-1,-5.160624E-1,8.5264015E-1,1.791315E0,-6.8835455E-1,-5.160624E-1,6.2251467E-1,-7.253744E-1,9.998518E-1,8.695894E-1,-5.1521955E0,9.855195E-1,6.4880407E-1,5.123714E-1,-4.7495106E-1,8.5207754E-1,-5.8817987E0,5.2249855E-1,-5.51937E-1,-8.7380713E-1,1.7213356E-2,8.5207754E-1,-4.7495106E-1,-4.7495106E-1,-3.862152E-1,1.8373556E0,-9.997685E-1,9.237564E0,1.6446342E0,1.670721E0,7.7482333E0,1.3945696E1,4.975133E-1,-5.160624E-1,9.584575E-2,-4.617486E-1,-8.459573E-1,2.010866E0,1.9170536E0,-8.717063E-1,-3.9594924E0,-7.217706E0,-3.595307E0,-4.376639E0,-3.4111443E0,-5.4402065E0,-4.868759E0,-2.450921E0,-3.5352464E0,-2.5882638E0,2.661168E-1,-1.78304E0,2.2631652E0,5.2623856E-1,-5.3834885E-1,-1.231325E0,7.536667E-1,2.4982977E-1,-1.6781767E-1,-6.348608E-1,-9.01627E-1,-1.19910024E-1,1.8971352E-1,5.404677E-1,-1.4318827E0,-6.24539E-1,4.583461E-1,2.3507166E0,6.967041E-1,2.0186126E0,-1.5226011E0,8.3334154E-1,1.8865969E0,2.8124616E0,1.038921E0,3.9349103E-1,6.936261E-1,1.4681716E0,1.8554066E0,1.7073812E0,2.358537E-2,4.6166536E-1,5.266761E-1,7.139512E-1,1.2050699E0,6.0935044E-1,1.5286642E0,7.018203E-1,8.620383E-1,-6.755675E-1,6.531196E-1,1.3454274E0,7.243171E-1,-2.5771603E-1,-2.2432433E-1,5.2270305E-1,2.5342717E0,9.381954E-1,-1.8270775E0,-1.2849407E0,-1.228361E0,-5.774344E-1,1.2641492E0,5.166364E-1],"split_indices":[4,8,5,4,8,5,5,8,4,12,12,0,12,0,11,4,8,8,11,8,8,11,8,12,12,8,4,8,12,8,8,11,11,5,4,0,11,11,11,5,8,8,11,12,11,11,11,1,4,12,0,4,4,0,0,11,12,8,8,10,4,4,12,0,0,0,0,0,0,0,0,0,0,0,0,0,0,0,0,0,0,0,0,0,0,0,0,0,0,0,0,0,0,0,0,0,0,0,0,0,0,0,0,0,0,0,0,0,0,0,0,0,0,0,0,0,0,0,0,0,0,0,0,0,0,0,0],"split_type":[0,0,0,0,0,0,0,0,0,0,0,0,0,0,0,0,0,0,0,0,0,0,0,0,0,0,0,0,0,0,0,0,0,0,0,0,0,0,0,0,0,0,0,0,0,0,0,0,0,0,0,0,0,0,0,0,0,0,0,0,0,0,0,0,0,0,0,0,0,0,0,0,0,0,0,0,0,0,0,0,0,0,0,0,0,0,0,0,0,0,0,0,0,0,0,0,0,0,0,0,0,0,0,0,0,0,0,0,0,0,0,0,0,0,0,0,0,0,0,0,0,0,0,0,0,0,0],"sum_hessian":[1.42418E5,8.5512E4,5.6906E4,1.3565E4,7.1947E4,7.752E3,4.9154E4,1.866E3,1.1699E4,4.98E4,2.2147E4,4.328E3,3.424E3,4.6723E4,2.431E3,7.28E2,1.138E3,4.673E3,7.026E3,1.9849E4,2.9951E4,1.8159E4,3.988E3,1.53E2,4.175E3,3.87E2,3.037E3,1.5801E4,3.0922E4,1.282E3,1.149E3,4.02E2,3.26E2,3.13E2,8.25E2,1.467E3,3.206E3,4.92E2,6.534E3,4.054E3,1.5795E4,7.967E3,2.1984E4,1.7616E4,5.43E2,3.192E3,7.96E2,1.41E2,1.2E1,3.38E2,3.837E3,3.8E1,3.49E2,9.8E2,2.057E3,3.719E3,1.2082E4,6.567E3,2.4355E4,1.6E1,1.266E3,5.36E2,6.13E2,1.04E2,2.98E2,5.2E1,2.74E2,2.96E2,1.7E1,3.1E1,7.94E2,1.38E2,1.329E3,7.8E1,3.128E3,1.35E2,3.57E2,2.021E3,4.513E3,3.226E3,8.28E2,1.1211E4,4.584E3,1.388E3,6.579E3,5.017E3,1.6967E4,1.3643E4,3.973E3,3.79E2,1.64E2,2.543E3,6.49E2,7.1E2,8.6E1,1.7E1,1.24E2,7E0,5E0,5E1,2.88E2,2.471E3,1.366E3,6E0,3.2E1,5E1,2.99E2,7.62E2,2.18E2,1.956E3,1.01E2,2.088E3,1.631E3,2.329E3,9.753E3,1.53E3,5.037E3,1.752E3,2.2603E4,5E0,1.1E1,8.21E2,4.45E2,3.61E2,1.75E2,1.04E2,5.09E2],"tree_param":{"num_deleted":"0","num_feature":"13","num_nodes":"127","size_leaf_vector":"1"}},{"base_weights":[6.5179035E-2,-4.3709297E1,1.5618266E0,2.8188963E0,-6.220019E1,2.4328722E1,-4.941692E-1,2.4294704E1,-1.0994056E1,-1.06419655E2,-5.494337E1,3.205417E1,1.6302795E1,1.1659011E0,-2.0481491E1,4.0940994E1,1.7293175E1,-6.855025E0,-6.613172E1,-6.778917E1,-1.4004843E2,-6.650137E1,-4.763522E1,3.310788E1,1.4960775E1,1.3334166E1,2.5425451E1,-1.6337767E1,3.3644052E0,-2.8673307E1,1.8400492E1,4.932694E1,3.4166843E1,1.6437536E1,2.4983199E0,3.9285904E1,-9.197255E0,-6.229113E-1,-3.6100006E0,-5.052292E1,-6.9713585E1,-1.1653517E2,-7.824094E0,-5.1702747E1,-7.7485085E1,-4.1523113E1,-5.1504852E1,5.2229275E1,3.2608257E1,-1.7586803E1,1.9732603E1,6.908687E0,1.7234606E1,1.4243863E1,3.3676888E1,1.1312343E1,-2.3499605E1,3.2801678E1,2.778621E0,-1.4721079E1,-3.1333508E1,1.5564118E1,4.03196E1,1.8855108E0,2.7082999E0,1.7837921E0,1.3113568E0,8.4806746E-1,-1.8957679E-1,3.8999268E-1,2.318466E0,-9.928387E-1,-3.7608454E-1,-2.939251E0,-9.8425335E-1,-3.5384285E0,-2.5393E0,-4.548042E0,-6.634735E0,-2.531164E0,-3.4321268E0,-3.6163406E0,-5.1299763E0,-1.5899686E0,-2.2689834E0,-3.5294456E0,-2.519986E0,2.0029166E0,2.8657756E0,1.7267097E0,1.4502373E0,-1.3440522E0,1.759639E-2,7.311062E-1,1.2919607E0,-5.3356167E-2,5.478887E-1,1.1379913E0,7.459448E-1,-1.2113857E0,7.579574E-1,1.4857385E0,2.022801E0,1.9857115E0,6.2603034E-2,-6.490292E-1,-1.3844771E0,-1.4836596E-1,1.8166844E0,-8.200898E-1,2.1212418E-1,-1.3288792E0,-4.335601E-1,-1.9000088E0,-1.4661402E0,-4.4601895E-2,8.927485E-1,2.0563502E0,1.352579E0],"categories":[],"categories_nodes":[],"categories_segments":[],"categories_sizes":[],"default_left":[0,0,0,0,0,0,0,0,0,0,0,0,0,0,0,0,0,0,0,0,0,0,0,0,0,0,0,0,0,0,0,0,0,0,0,0,0,0,0,0,0,0,0,0,0,0,0,0,0,0,0,0,0,0,0,0,0,0,0,0,0,0,0,0,0,0,0,0,0,0,0,0,0,0,0,0,0,0,0,0,0,0,0,0,0,0,0,0,0,0,0,0,0,0,0,0,0,0,0,0,0,0,0,0,0,0,0,0,0,0,0,0,0,0,0,0,0,0,0],"id":5,"left_children":[1,3,5,7,9,11,13,15,17,19,21,23,25,27,29,31,33,35,37,39,41,43,45,47,49,51,53,55,57,59,61,63,65,67,-1,69,71,-1,-1,73,75,77,-1,79,81,83,85,87,89,91,93,95,97,99,101,103,105,107,109,111,113,115,117,-1,-1,-1,-1,-1,-1,-1,-1,-1,-1,-1,-1,-1,-1,-1,-1,-1,-1,-1,-1,-1,-1,-1,-1,-1,-1,-1,-1,-1,-1,-1,-1,-1,-1,-1,-1,-1,-1,-1,-1,-1,-1,-1,-1,-1,-1,-1,-1,-1,-1,-1,-1,-1,-1,-1,-1],"loss_changes":[9.351735E6,4.060164E6,6.4606835E6,3.9866175E5,1.077791E6,7.083E5,4.200394E6,6.059122E4,1.8622044E5,6.075555E5,2.42031E5,1.04399E5,1.5155875E5,4.498008E6,3.092663E6,7.1114844E3,9.571828E3,8.27097E4,1.7657281E4,3.8755E3,7.94975E4,1.78355E5,3.999925E4,5.0689E4,5.3153133E4,1.05991875E5,1.26471E5,2.5831152E6,1.7905622E6,2.971655E5,1.044355E5,1.7145469E3,1.2444531E2,3.9226484E3,0E0,7.8849766E3,1.2814781E4,0E0,0E0,5.4593906E3,3.475625E2,3.254075E4,0E0,5.30875E3,7.573075E4,2.464925E4,1.93555E4,6.2370938E3,3.6108E4,7.3480957E3,8.88682E3,5.171657E4,3.3358188E4,2.1000852E4,2.0036875E4,7.6684825E5,4.56244E5,2.5606875E5,2.8588628E6,9.201128E4,8.91465E4,5.6490094E4,9.481875E2,0E0,0E0,0E0,0E0,0E0,0E0,0E0,0E0,0E0,0E0,0E0,0E0,0E0,0E0,0E0,0E0,0E0,0E0,0E0,0E0,0E0,0E0,0E0,0E0,0E0,0E0,0E0,0E0,0E0,0E0,0E0,0E0,0E0,0E0,0E0,0E0,0E0,0E0,0E0,0E0,0E0,0E0,0E0,0E0,0E0,0E0,0E0,0E0,0E0,0E0,0E0,0E0,0E0,0E0,0E0,0E0],"parents":[2147483647,0,0,1,1,2,2,3,3,4,4,5,5,6,6,7,7,8,8,9,9,10,10,11,11,12,12,13,13,14,14,15,15,16,16,17,17,18,18,19,19,20,20,21,21,22,22,23,23,24,24,25,25,26,26,27,27,28,28,29,29,30,30,31,31,32,32,33,33,35,35,36,36,39,39,40,40,41,41,43,43,44,44,45,45,46,46,47,47,48,48,49,49,50,50,51,51,52,52,53,53,54,54,55,55,56,56,57,57,58,58,59,59,60,60,61,61,62,62],"right_children":[2,4,6,8,10,12,14,16,18,20,22,24,26,28,30,32,34,36,38,40,42,44,46,48,50,52,54,56,58,60,62,64,66,68,-1,70,72,-1,-1,74,76,78,-1,80,82,84,86,88,90,92,94,96,98,100,102,104,106,108,110,112,114,116,118,-1,-1,-1,-1,-1,-1,-1,-1,-1,-1,-1,-1,-1,-1,-1,-1,-1,-1,-1,-1,-1,-1,-1,-1,-1,-1,-1,-1,-1,-1,-1,-1,-1,-1,-1,-1,-1,-1,-1,-1,-1,-1,-1,-1,-1,-1,-1,-1,-1,-1,-1,-1,-1,-1,-1,-1],"split_conditions":[-8.870108E-1,5.2707773E-1,-6.822592E0,4.975133E-1,-9.5371693E-1,-7.263022E0,8.241262E-1,-1.2910296E-2,-6.0783644E0,9.998518E-1,-9.170601E-1,9.366722E-1,8.5207754E-1,-6.2251467E-1,-1.2910296E-2,3.9572723E2,4.8897743E-1,-1.6859308E0,-9.170601E-1,-1.6859308E0,-3.0061739E-2,8.695894E-1,-1.249056E-2,-1.6859308E0,-4.7495106E-1,-8.8077545E-2,7.0090926E-1,4.975133E-1,6.1717653E0,-6.360011E0,4.975133E-1,3.3664684E1,4.167675E-1,-5.350735E0,2.4983199E0,-2.4295807E-2,6.4880407E-1,-6.229113E-1,-3.6100006E0,3.3773464E1,3.3978134E1,-5.647121E0,-7.824094E0,2.4877052E-1,2.6772463E-1,8.695894E-1,2.1377718E-1,-2.5919533E-1,-7.780924E0,3.2370773E1,4.975133E-1,3.372255E1,-7.009474E0,5.652908E0,-4.167675E-1,-1.2910296E-2,8.5207754E-1,-8.56551E-1,3.27449E1,-4.9002868E-1,-8.7380713E-1,-3.4514424E-1,1.0545534E1,1.8855108E0,2.7082999E0,1.7837921E0,1.3113568E0,8.4806746E-1,-1.8957679E-1,3.8999268E-1,2.318466E0,-9.928387E-1,-3.7608454E-1,-2.939251E0,-9.8425335E-1,-3.5384285E0,-2.5393E0,-4.548042E0,-6.634735E0,-2.531164E0,-3.4321268E0,-3.6163406E0,-5.1299763E0,-1.5899686E0,-2.2689834E0,-3.5294456E0,-2.519986E0,2.0029166E0,2.8657756E0,1.7267097E0,1.4502373E0,-1.3440522E0,1.759639E-2,7.311062E-1,1.2919607E0,-5.3356167E-2,5.478887E-1,1.1379913E0,7.459448E-1,-1.2113857E0,7.579574E-1,1.4857385E0,2.022801E0,1.9857115E0,6.2603034E-2,-6.490292E-1,-1.3844771E0,-1.4836596E-1,1.8166844E0,-8.200898E-1,2.1212418E-1,-1.3288792E0,-4.335601E-1,-1.9000088E0,-1.4661402E0,-4.4601895E-2,8.927485E-1,2.0563502E0,1.352579E0],"split_indices":[8,11,5,11,8,5,8,11,5,11,8,8,11,8,11,7,6,0,8,0,9,11,9,0,11,6,8,11,0,5,11,2,10,5,0,1,0,0,0,2,2,5,0,9,10,11,0,1,5,2,11,2,5,0,10,11,11,11,2,11,11,9,0,0,0,0,0,0,0,0,0,0,0,0,0,0,0,0,0,0,0,0,0,0,0,0,0,0,0,0,0,0,0,0,0,0,0,0,0,0,0,0,0,0,0,0,0,0,0,0,0,0,0,0,0,0,0,0,0],"split_type":[0,0,0,0,0,0,0,0,0,0,0,0,0,0,0,0,0,0,0,0,0,0,0,0,0,0,0,0,0,0,0,0,0,0,0,0,0,0,0,0,0,0,0,0,0,0,0,0,0,0,0,0,0,0,0,0,0,0,0,0,0,0,0,0,0,0,0,0,0,0,0,0,0,0,0,0,0,0,0,0,0,0,0,0,0,0,0,0,0,0,0,0,0,0,0,0,0,0,0,0,0,0,0,0,0,0,0,0,0,0,0,0,0,0,0,0,0,0,0],"sum_hessian":[1.4274E5,4.718E3,1.38022E5,1.342E3,3.376E3,1.1431E4,1.26591E5,5.25E2,8.17E2,4.74E2,2.902E3,5.823E3,5.608E3,1.16884E5,9.707E3,1.54E2,3.71E2,7.61E2,5.6E1,2.22E2,2.52E2,1.121E3,1.781E3,5.484E3,3.39E2,4.233E3,1.375E3,1.3042E4,1.03842E5,8.018E3,1.689E3,6.6E1,8.8E1,3.63E2,8E0,3.6E1,7.25E2,6E0,5E1,2.5E1,1.97E2,1.07E2,1.45E2,4.8E2,6.41E2,6.95E2,1.086E3,1.37E2,5.347E3,4.3E1,2.96E2,1.6E3,2.633E3,5.85E2,7.9E2,2.683E3,1.0359E4,2.025E3,1.01817E5,1.285E3,6.733E3,1.497E3,1.92E2,2.2E1,4.4E1,7.1E1,1.7E1,3.54E2,9E0,7E0,2.9E1,9.7E1,6.28E2,1.9E1,6E0,1.84E2,1.3E1,4.4E1,6.3E1,4.55E2,2.5E1,5.35E2,1.06E2,2E2,4.95E2,5.6E1,1.03E3,4.3E1,9.4E1,3.479E3,1.868E3,2.8E1,1.5E1,1.63E2,1.33E2,5.39E2,1.061E3,7.75E2,1.858E3,1.3E1,5.72E2,5.02E2,2.88E2,7.01E2,1.982E3,2.952E3,7.407E3,1.82E2,1.843E3,7.219E3,9.4598E4,4.33E2,8.52E2,1.556E3,5.177E3,1.83E2,1.314E3,1.79E2,1.3E1],"tree_param":{"num_deleted":"0","num_feature":"13","num_nodes":"119","size_leaf_vector":"1"}},{"base_weights":[-9.460569E-3,-7.726619E0,1.1997806E1,-1.9725826E1,1.5365799E-1,9.139214E0,2.5058325E1,-2.5602623E1,3.9224815E0,-5.8574862E0,4.5288424E0,2.796863E1,7.861869E0,2.7887846E1,1.6971918E1,-3.1063776E1,-1.1290554E1,1.6031168E1,-3.2271452E0,-1.2805209E1,-1.8788664E0,6.571455E0,5.2635366E-1,3.529606E1,1.4392552E1,5.0650845E0,1.2893916E1,3.0743174E1,1.6063543E1,2.035134E1,1.3849631E1,-5.3513844E1,-2.633297E1,-3.100386E0,-1.8411127E1,1.2797143E1,4.4232998E1,-6.266198E0,1.1394058E1,-2.4433641E1,-5.716037E0,-3.7982264E0,1.0385547E1,2.520218E0,8.15687E0,-1.2546671E1,3.5199811E0,1.5687492E1,3.8421787E1,5.8722277E0,2.2196962E1,1.6005594E1,3.6867948E0,1.765094E1,9.408161E0,1.0666382E1,3.2596424E1,-1.4624124E1,2.2720201E1,2.508693E1,1.8145552E1,1.2094048E1,1.9233355E1,-3.7171032E0,-2.0448852E0,-1.5391084E0,-8.481553E-1,1.6779908E0,-2.2764964E-1,2.3561034E0,-1.030156E0,1.5019909E0,3.524383E-1,1.6197904E0,2.666712E0,-4.2983922E-1,9.243477E-1,6.9871503E-1,-1.307362E0,-8.311476E-1,-1.6351985E0,-5.009234E-1,-3.6607575E-2,6.4290784E-2,-2.7421567E-1,2.8120145E-1,7.387312E-1,3.732589E-2,5.1764816E-1,5.223665E-1,1.964549E-1,1.0415216E-1,-8.836638E-1,5.1730704E-1,6.604567E-2,3.715786E-2,8.7759495E-1,2.0677028E0,1.4142631E0,-5.264339E-1,4.1172868E-1,1.6002401E0,6.824298E-1,2.257456E0,4.5192105E-1,2.843698E-1,2.0113109E-2,1.1091346E0,-1.3611047E-1,1.6793003E0,4.5958352E-1,-1.923672E-1,1.2831132E0,1.5593743E0,2.2681127E0,1.3460611E0,-1.0525373E0,8.223035E-1,1.4092584E0,1.3081707E0,6.6628134E-1,7.483437E-1,9.613251E-1,5.200567E-1,6.949906E-1,1.477072E0,8.4903955E-1],"categories":[],"categories_nodes":[],"categories_segments":[],"categories_sizes":[],"default_left":[0,0,0,0,0,0,0,0,0,0,0,0,0,0,0,0,0,0,0,0,0,0,0,0,0,0,0,0,0,0,0,0,0,0,0,0,0,0,0,0,0,0,0,0,0,0,0,0,0,0,0,0,0,0,0,0,0,0,0,0,0,0,0,0,0,0,0,0,0,0,0,0,0,0,0,0,0,0,0,0,0,0,0,0,0,0,0,0,0,0,0,0,0,0,0,0,0,0,0,0,0,0,0,0,0,0,0,0,0,0,0,0,0,0,0,0,0,0,0,0,0,0,0,0,0,0,0],"id":6,"left_children":[1,3,5,7,9,11,13,15,17,19,21,23,25,27,29,31,33,35,37,39,41,43,45,47,49,51,53,55,57,59,61,63,65,67,69,71,73,75,77,79,81,83,85,87,89,91,93,95,97,99,101,103,105,107,109,111,113,115,117,119,121,123,125,-1,-1,-1,-1,-1,-1,-1,-1,-1,-1,-1,-1,-1,-1,-1,-1,-1,-1,-1,-1,-1,-1,-1,-1,-1,-1,-1,-1,-1,-1,-1,-1,-1,-1,-1,-1,-1,-1,-1,-1,-1,-1,-1,-1,-1,-1,-1,-1,-1,-1,-1,-1,-1,-1,-1,-1,-1,-1,-1,-1,-1,-1,-1,-1],"loss_changes":[1.3201737E7,8.2009395E6,2.080877E6,4.778108E6,1.3768508E6,1.0997552E6,2.28535E5,2.151946E6,5.925558E5,6.0957106E5,2.4770644E5,2.8846975E5,6.0270325E5,2.497805E5,2.7117E4,2.115392E6,4.4357106E5,2.3118112E5,1.9131745E5,6.61818E5,3.3016128E5,1.28828E5,4.0075438E5,1.14987E5,6.769289E4,4.1508425E5,2.53533E5,2.21776E5,2.9530956E5,1.2545344E4,1.2552234E4,9.08241E5,6.85831E5,1.8861177E5,5.854731E5,2.2587134E5,2.6382E4,2.0576281E5,7.2141625E4,1.9589088E5,1.0699128E5,1.03961766E5,3.958053E4,7.840292E4,1.3957488E5,1.4313984E5,1.2505837E5,7.257199E3,4.715275E4,1.9032582E4,4.416203E4,6.2497425E5,1.6067212E5,5.973194E5,4.591625E4,1.1022986E5,9.68725E4,6.945114E4,4.023175E4,4.623125E3,2.6397188E3,2.9802969E3,7.1794062E3,0E0,0E0,0E0,0E0,0E0,0E0,0E0,0E0,0E0,0E0,0E0,0E0,0E0,0E0,0E0,0E0,0E0,0E0,0E0,0E0,0E0,0E0,0E0,0E0,0E0,0E0,0E0,0E0,0E0,0E0,0E0,0E0,0E0,0E0,0E0,0E0,0E0,0E0,0E0,0E0,0E0,0E0,0E0,0E0,0E0,0E0,0E0,0E0,0E0,0E0,0E0,0E0,0E0,0E0,0E0,0E0,0E0,0E0,0E0,0E0,0E0,0E0,0E0,0E0],"parents":[2147483647,0,0,1,1,2,2,3,3,4,4,5,5,6,6,7,7,8,8,9,9,10,10,11,11,12,12,13,13,14,14,15,15,16,16,17,17,18,18,19,19,20,20,21,21,22,22,23,23,24,24,25,25,26,26,27,27,28,28,29,29,30,30,31,31,32,32,33,33,34,34,35,35,36,36,37,37,38,38,39,39,40,40,41,41,42,42,43,43,44,44,45,45,46,46,47,47,48,48,49,49,50,50,51,51,52,52,53,53,54,54,55,55,56,56,57,57,58,58,59,59,60,60,61,61,62,62],"right_children":[2,4,6,8,10,12,14,16,18,20,22,24,26,28,30,32,34,36,38,40,42,44,46,48,50,52,54,56,58,60,62,64,66,68,70,72,74,76,78,80,82,84,86,88,90,92,94,96,98,100,102,104,106,108,110,112,114,116,118,120,122,124,126,-1,-1,-1,-1,-1,-1,-1,-1,-1,-1,-1,-1,-1,-1,-1,-1,-1,-1,-1,-1,-1,-1,-1,-1,-1,-1,-1,-1,-1,-1,-1,-1,-1,-1,-1,-1,-1,-1,-1,-1,-1,-1,-1,-1,-1,-1,-1,-1,-1,-1,-1,-1,-1,-1,-1,-1,-1,-1,-1,-1,-1,-1,-1,-1],"split_conditions":[1.6031933E0,1.655719E1,2.1293292E0,8.5876393E-1,-4.9377555E-1,3.309784E1,1.5844664E1,1.3900752E0,-4.6643448E-1,3.4185146E1,2.1516098E-2,1.1266461E1,1.864882E0,8.717063E-1,6.74318E-1,3.3362534E0,8.5207754E-1,1.1881761E-1,6.266705E-1,2.5092815E1,8.542578E-1,-8.7380713E-1,2.1092302E1,-5.160624E-1,8.5207754E-1,-5.049611E-1,1.5986876E1,-8.800122E-1,-4.7495106E-1,1.7579645E1,2.3968701E0,1.1863036E0,4.862727E-1,-1.6859308E0,3.2709476E1,-2.560778E-1,2.6239598E-1,9.999167E-1,2.1516098E-2,-2.4384417E-1,7.063706E-1,-7.122511E-1,2.6239598E-1,1.3939985E0,2.672515E1,-8.606997E-3,-6.494233E-1,4.975133E-1,8.717063E-1,-8.800122E-1,1.5116061E1,2.0980444E1,-5.7454973E-2,8.717063E-1,-8.459573E-1,6.625488E0,3.4357384E-1,3.400291E1,-1.3159448E-1,5.5958337E-1,5.012418E-1,2.2598534E0,-4.9377555E-1,-3.7171032E0,-2.0448852E0,-1.5391084E0,-8.481553E-1,1.6779908E0,-2.2764964E-1,2.3561034E0,-1.030156E0,1.5019909E0,3.524383E-1,1.6197904E0,2.666712E0,-4.2983922E-1,9.243477E-1,6.9871503E-1,-1.307362E0,-8.311476E-1,-1.6351985E0,-5.009234E-1,-3.6607575E-2,6.4290784E-2,-2.7421567E-1,2.8120145E-1,7.387312E-1,3.732589E-2,5.1764816E-1,5.223665E-1,1.964549E-1,1.0415216E-1,-8.836638E-1,5.1730704E-1,6.604567E-2,3.715786E-2,8.7759495E-1,2.0677028E0,1.4142631E0,-5.264339E-1,4.1172868E-1,1.6002401E0,6.824298E-1,2.257456E0,4.5192105E-1,2.843698E-1,2.0113109E-2,1.1091346E0,-1.3611047E-1,1.6793003E0,4.5958352E-1,-1.923672E-1,1.2831132E0,1.5593743E0,2.2681127E0,1.3460611E0,-1.0525373E0,8.223035E-1,1.4092584E0,1.3081707E0,6.6628134E-1,7.483437E-1,9.613251E-1,5.200567E-1,6.949906E-1,1.477072E0,8.4903955E-1],"split_indices":[4,0,4,12,12,2,0,4,3,2,11,0,4,12,10,0,11,9,10,0,10,11,0,12,11,11,0,12,11,0,4,4,12,0,2,10,9,12,11,9,10,10,9,4,0,12,9,11,12,12,0,0,9,12,10,0,9,2,9,9,12,4,12,0,0,0,0,0,0,0,0,0,0,0,0,0,0,0,0,0,0,0,0,0,0,0,0,0,0,0,0,0,0,0,0,0,0,0,0,0,0,0,0,0,0,0,0,0,0,0,0,0,0,0,0,0,0,0,0,0,0,0,0,0,0,0,0],"split_type":[0,0,0,0,0,0,0,0,0,0,0,0,0,0,0,0,0,0,0,0,0,0,0,0,0,0,0,0,0,0,0,0,0,0,0,0,0,0,0,0,0,0,0,0,0,0,0,0,0,0,0,0,0,0,0,0,0,0,0,0,0,0,0,0,0,0,0,0,0,0,0,0,0,0,0,0,0,0,0,0,0,0,0,0,0,0,0,0,0,0,0,0,0,0,0,0,0,0,0,0,0,0,0,0,0,0,0,0,0,0,0,0,0,0,0,0,0,0,0,0,0,0,0,0,0,0,0],"sum_hessian":[1.4247E5,8.6729E4,5.5741E4,3.4379E4,5.235E4,4.5733E4,1.0008E4,2.7536E4,6.843E3,2.2052E4,3.0298E4,2.904E3,4.2829E4,7.412E3,2.596E3,1.993E4,7.606E3,2.54E3,4.303E3,8.029E3,1.4023E4,2.006E4,1.0238E4,1.885E3,1.019E3,2.753E4,1.5299E4,5.969E3,1.443E3,1.244E3,1.352E3,3.467E3,1.6463E4,3.538E3,4.068E3,2.28E3,2.6E2,3.563E3,7.4E2,3.04E3,4.989E3,1.2126E4,1.897E3,5.643E3,1.4417E4,1.907E3,8.331E3,2.6E2,1.625E3,4.88E2,5.31E2,3.079E3,2.4451E4,6.468E3,8.831E3,5.05E2,5.464E3,2.57E2,1.186E3,3.92E2,8.52E2,1.022E3,3.3E2,1.306E3,2.161E3,1.1161E4,5.302E3,1.34E2,3.404E3,1.31E2,3.937E3,5.69E2,1.711E3,1.15E2,1.45E2,3.257E3,3.06E2,6.93E2,4.7E1,1.565E3,1.475E3,2.677E3,2.312E3,3.02E3,9.106E3,9.11E2,9.86E2,4.602E3,1.041E3,9.35E3,5.067E3,4.95E2,1.412E3,2.029E3,6.302E3,2.9E1,2.31E2,1.258E3,3.67E2,6.1E1,4.27E2,2.46E2,2.85E2,5.93E2,2.486E3,1.5195E4,9.256E3,5.291E3,1.177E3,7.7E1,8.754E3,2.57E2,2.48E2,4.924E3,5.4E2,3.4E1,2.23E2,5.54E2,6.32E2,3.58E2,3.4E1,2.2E2,6.32E2,5.31E2,4.91E2,5.7E1,2.73E2],"tree_param":{"num_deleted":"0","num_feature":"13","num_nodes":"127","size_leaf_vector":"1"}},{"base_weights":[4.544498E-3,-7.529791E0,1.1033828E1,-2.9232779E1,-3.3249364E0,2.772426E1,8.617474E0,-4.93281E1,-1.794425E1,2.4516954E0,-1.51659355E1,3.1093258E1,2.2875982E1,9.953263E0,-1.764271E1,-9.048005E1,-4.062745E1,1.6835766E1,-2.0105606E1,1.30838995E1,2.0578976E0,-1.6583214E1,2.9180386E1,4.4873398E1,3.0554459E1,1.8784077E1,2.6049538E1,1.7153172E1,6.277497E0,-2.9087618E1,-3.997524E0,-1.11651505E2,-6.939257E1,-5.371857E1,-3.7081142E1,3.844373E1,9.884536E0,-1.0137243E1,-2.350262E1,1.67658E1,7.8074846E0,2.1995697E0,-2.3631323E1,-2.0829124E1,-8.016914E0,-2.3902047E0,3.556191E1,4.7712677E1,1.8177538E1,3.1006912E1,2.1218243E1,2.2485296E1,1.2022798E1,2.6759882E1,1.2345637E1,2.7965689E0,2.166269E1,4.96236E0,1.3191968E1,2.8649946E1,-2.9902283E1,-2.1108616E1,1.0542026E1,-3.2920418E0,-6.393792E0,-3.0110278E0,-3.6754913E0,-3.3305938E0,-2.5285106E0,-1.9332627E0,-7.2975963E-1,2.093064E0,6.2695354E-1,6.755581E-1,-1.4294746E0,-2.2920182E0,-4.5608088E-1,-2.1744344E0,-1.0199491E0,5.068478E-1,9.4386864E-1,7.921144E-1,2.1220277E-1,-3.6644357E-1,1.2849212E-1,-1.8218468E0,5.4290056E-1,-6.310148E-1,-1.3333634E0,-3.253294E-1,-1.7371677E0,-2.0423292E-1,6.0618246E-1,1.342478E0,2.5224206E0,2.6777647E0,2.1183946E0,1.4265156E0,5.739012E-1,1.5045773E0,1.6898714E0,8.1186646E-1,1.1735865E0,9.9347335E-1,1.784212E0,-3.0685973E-1,6.3196254E-1,6.451778E-1,1.3621897E0,5.5617553E-1,1.1352836E0,7.380108E-1,-6.267818E-1,6.455896E-1,1.2112846E0,-6.043939E-1,2.7584168E-1,5.396403E-1,8.092651E-1,2.4666946E0,8.865916E-1,-1.7089081E0,-1.2053407E0,-8.590727E-1,-1.8381674E0,-1.4486991E-1,6.9749624E-1],"categories":[],"categories_nodes":[],"categories_segments":[],"categories_sizes":[],"default_left":[0,0,0,0,0,0,0,0,0,0,0,0,0,0,0,0,0,0,0,0,0,0,0,0,0,0,0,0,0,0,0,0,0,0,0,0,0,0,0,0,0,0,0,0,0,0,0,0,0,0,0,0,0,0,0,0,0,0,0,0,0,0,0,0,0,0,0,0,0,0,0,0,0,0,0,0,0,0,0,0,0,0,0,0,0,0,0,0,0,0,0,0,0,0,0,0,0,0,0,0,0,0,0,0,0,0,0,0,0,0,0,0,0,0,0,0,0,0,0,0,0,0,0,0,0,0,0],"id":7,"left_children":[1,3,5,7,9,11,13,15,17,19,21,23,25,27,29,31,33,35,37,39,41,43,45,47,49,51,53,55,57,59,61,63,65,67,69,71,73,75,77,79,81,83,85,87,89,91,93,95,97,99,101,103,105,107,109,111,113,115,117,119,121,123,125,-1,-1,-1,-1,-1,-1,-1,-1,-1,-1,-1,-1,-1,-1,-1,-1,-1,-1,-1,-1,-1,-1,-1,-1,-1,-1,-1,-1,-1,-1,-1,-1,-1,-1,-1,-1,-1,-1,-1,-1,-1,-1,-1,-1,-1,-1,-1,-1,-1,-1,-1,-1,-1,-1,-1,-1,-1,-1,-1,-1,-1,-1,-1,-1],"loss_changes":[1.1832121E7,7.720044E6,2.330428E6,3.113712E6,4.8474875E6,1.18651E5,1.7710222E6,1.764356E6,6.61326E5,1.9940394E5,1.4609535E6,3.06145E4,3.8464E4,1.2712775E6,3.8155462E5,3.7663E5,1.873205E5,7.696916E4,2.801075E5,3.2912375E4,1.6721695E5,8.18849E5,1.4514556E5,1.1253594E4,1.68675E4,3.2609031E4,1.608775E4,1.0510775E6,2.8915075E5,6.3368875E4,2.7787053E5,3.096715E5,1.1949125E4,3.181375E4,1.13842E5,1.0535984E4,5.4941363E4,7.594208E4,3.8207675E5,1.3817031E4,2.0001406E4,1.611865E5,1.1169578E5,7.211595E5,3.0105903E5,3.0490693E3,7.632594E4,2.2181875E3,8.4762305E2,9.08175E3,1.8036719E3,2.8563594E4,5.3061953E3,1.0392875E4,8.202588E2,7.1225706E5,2.767885E5,2.5271219E5,3.6318938E4,3.4092773E3,3.165775E4,3.0901531E4,2.7704844E4,0E0,0E0,0E0,0E0,0E0,0E0,0E0,0E0,0E0,0E0,0E0,0E0,0E0,0E0,0E0,0E0,0E0,0E0,0E0,0E0,0E0,0E0,0E0,0E0,0E0,0E0,0E0,0E0,0E0,0E0,0E0,0E0,0E0,0E0,0E0,0E0,0E0,0E0,0E0,0E0,0E0,0E0,0E0,0E0,0E0,0E0,0E0,0E0,0E0,0E0,0E0,0E0,0E0,0E0,0E0,0E0,0E0,0E0,0E0,0E0,0E0,0E0,0E0,0E0],"parents":[2147483647,0,0,1,1,2,2,3,3,4,4,5,5,6,6,7,7,8,8,9,9,10,10,11,11,12,12,13,13,14,14,15,15,16,16,17,17,18,18,19,19,20,20,21,21,22,22,23,23,24,24,25,25,26,26,27,27,28,28,29,29,30,30,31,31,32,32,33,33,34,34,35,35,36,36,37,37,38,38,39,39,40,40,41,41,42,42,43,43,44,44,45,45,46,46,47,47,48,48,49,49,50,50,51,51,52,52,53,53,54,54,55,55,56,56,57,57,58,58,59,59,60,60,61,61,62,62],"right_children":[2,4,6,8,10,12,14,16,18,20,22,24,26,28,30,32,34,36,38,40,42,44,46,48,50,52,54,56,58,60,62,64,66,68,70,72,74,76,78,80,82,84,86,88,90,92,94,96,98,100,102,104,106,108,110,112,114,116,118,120,122,124,126,-1,-1,-1,-1,-1,-1,-1,-1,-1,-1,-1,-1,-1,-1,-1,-1,-1,-1,-1,-1,-1,-1,-1,-1,-1,-1,-1,-1,-1,-1,-1,-1,-1,-1,-1,-1,-1,-1,-1,-1,-1,-1,-1,-1,-1,-1,-1,-1,-1,-1,-1,-1,-1,-1,-1,-1,-1,-1,-1,-1,-1,-1,-1,-1],"split_conditions":[1.5872862E0,-5.9482276E-1,-7.0631127E0,1.3136057E0,6.087614E-1,-7.61559E0,-5.6194043E0,-9.304176E-1,4.975133E-1,-6.8027534E0,4.975133E-1,-1.6859308E0,1.8433918E0,1.628318E1,-4.7495106E-1,1.1226075E0,-9.0258527E-1,-4.7495106E-1,8.5207754E-1,2.4076015E1,-5.255301E0,1.2752544E0,-5.223195E-1,4.060486E2,9.366722E-1,7.6168294E0,9.4832367E-1,-6.8835455E-1,1.9796426E0,6.2251467E-1,-7.489557E-1,9.998518E-1,8.695894E-1,1.1814451E0,3.445727E1,-3.6200196E-1,-5.255301E0,-4.7851673E-1,-8.9493436E-1,-2.4384417E-1,1.1039951E0,-5.3729963E-1,-2.2532453E-1,7.1325046E-1,-5.477251E0,8.5207754E-1,8.5207754E-1,-2.2888453E-1,3.3533184E1,-7.105482E-2,2.1516098E-2,8.5207754E-1,-4.7495106E-1,-5.836925E-1,2.1908627E0,4.975133E-1,1.728748E0,-5.51937E-1,5.2249855E-1,-8.459573E-1,1.9602928E0,4.975133E-1,1.3655043E-1,-3.2920418E0,-6.393792E0,-3.0110278E0,-3.6754913E0,-3.3305938E0,-2.5285106E0,-1.9332627E0,-7.2975963E-1,2.093064E0,6.2695354E-1,6.755581E-1,-1.4294746E0,-2.2920182E0,-4.5608088E-1,-2.1744344E0,-1.0199491E0,5.068478E-1,9.4386864E-1,7.921144E-1,2.1220277E-1,-3.6644357E-1,1.2849212E-1,-1.8218468E0,5.4290056E-1,-6.310148E-1,-1.3333634E0,-3.253294E-1,-1.7371677E0,-2.0423292E-1,6.0618246E-1,1.342478E0,2.5224206E0,2.6777647E0,2.1183946E0,1.4265156E0,5.739012E-1,1.5045773E0,1.6898714E0,8.1186646E-1,1.1735865E0,9.9347335E-1,1.784212E0,-3.0685973E-1,6.3196254E-1,6.451778E-1,1.3621897E0,5.5617553E-1,1.1352836E0,7.380108E-1,-6.267818E-1,6.455896E-1,1.2112846E0,-6.043939E-1,2.7584168E-1,5.396403E-1,8.092651E-1,2.4666946E0,8.865916E-1,-1.7089081E0,-1.2053407E0,-8.590727E-1,-1.8381674E0,-1.4486991E-1,6.9749624E-1],"split_indices":[4,8,5,4,8,5,5,8,11,5,11,0,4,0,11,4,8,11,11,0,5,4,10,7,8,0,8,8,4,8,8,11,11,4,2,9,5,0,8,9,4,8,10,8,5,11,11,10,2,9,11,11,11,9,4,11,4,8,8,10,4,11,6,0,0,0,0,0,0,0,0,0,0,0,0,0,0,0,0,0,0,0,0,0,0,0,0,0,0,0,0,0,0,0,0,0,0,0,0,0,0,0,0,0,0,0,0,0,0,0,0,0,0,0,0,0,0,0,0,0,0,0,0,0,0,0,0],"split_type":[0,0,0,0,0,0,0,0,0,0,0,0,0,0,0,0,0,0,0,0,0,0,0,0,0,0,0,0,0,0,0,0,0,0,0,0,0,0,0,0,0,0,0,0,0,0,0,0,0,0,0,0,0,0,0,0,0,0,0,0,0,0,0,0,0,0,0,0,0,0,0,0,0,0,0,0,0,0,0,0,0,0,0,0,0,0,0,0,0,0,0,0,0,0,0,0,0,0,0,0,0,0,0,0,0,0,0,0,0,0,0,0,0,0,0,0,0,0,0,0,0,0,0,0,0,0,0],"sum_hessian":[1.42385E5,8.4596E4,5.7789E4,1.3729E4,7.0867E4,7.307E3,5.0482E4,4.937E3,8.792E3,4.7631E4,2.3236E4,4.308E3,2.999E3,4.8039E4,2.443E3,8.6E2,4.077E3,5.14E2,8.278E3,1.7E3,4.5931E4,2.2517E4,7.19E2,1.59E2,4.149E3,1.313E3,1.686E3,1.6235E4,3.1804E4,1.328E3,1.115E3,4.27E2,4.33E2,8.66E2,3.211E3,1.24E2,3.9E2,2.105E3,6.173E3,1E3,7E2,4.568E4,2.51E2,1.5054E4,7.463E3,1.21E2,5.98E2,1.43E2,1.6E1,3.955E3,1.94E2,8.47E2,4.66E2,1.602E3,8.4E1,3.881E3,1.2354E4,2.6723E4,5.081E3,1.8E1,1.31E3,5.12E2,6.03E2,1.13E2,3.14E2,1.39E2,2.94E2,1.66E2,7E2,2.999E3,2.12E2,1.09E2,1.5E1,3.57E2,3.3E1,5.7E1,2.048E3,8.28E2,5.345E3,2.43E2,7.57E2,2.14E2,4.86E2,1.708E3,4.3972E4,1.83E2,6.8E1,6.258E3,8.796E3,7.065E3,3.98E2,1.09E2,1.2E1,3.79E2,2.19E2,6.4E1,7.9E1,5E0,1.1E1,2.987E3,9.68E2,6.3E1,1.31E2,7.09E2,1.38E2,1.5E1,4.51E2,5.5E1,1.547E3,7.7E1,7E0,2.18E3,1.701E3,2.8E3,9.554E3,8.41E2,2.5882E4,2.823E3,2.258E3,5E0,1.3E1,7.51E2,5.59E2,4.11E2,1.01E2,1.22E2,4.81E2],"tree_param":{"num_deleted":"0","num_feature":"13","num_nodes":"127","size_leaf_vector":"1"}},{"base_weights":[-4.420668E-3,-3.8701E1,1.3281627E0,2.747085E0,-5.464526E1,2.163815E1,-4.1096213E-1,2.1887764E1,-9.369942E0,-9.37402E1,-4.7939453E1,2.7650578E1,1.4748621E1,1.365533E0,-1.5009841E1,3.610437E1,1.5322818E1,-5.656773E0,-5.5626724E1,-5.8683014E1,-1.228034E2,-6.3065216E1,-4.342532E1,2.8595858E1,1.2742436E1,1.312319E1,2.8109919E1,-1.3889303E1,3.3460689E0,-2.4100529E1,1.6892761E1,2.4243822E0,2.9750994E1,1.450947E1,2.2348578E0,3.7103867E1,-7.9911942E0,-5.9944035E1,-3.381796E-1,-3.917836E1,-6.0463394E1,-1.2727887E2,-3.1516054E0,-4.82606E1,-7.43438E1,-3.8203854E1,-4.769295E1,4.6199894E1,2.8167873E1,-1.3622661E1,1.6603579E1,8.96619E0,1.6863998E1,1.0843684E1,3.098883E1,9.909171E0,-2.0157043E1,-4.4541063E0,7.489713E0,-1.3690428E1,-2.6123728E1,1.1464711E1,3.1804045E1,1.6385863E0,1.2903831E0,7.48177E-1,-3.2096937E-1,2.0034456E0,8.905474E-1,-3.5246072E0,-3.680018E-1,-7.959675E-1,-3.3015282E0,-2.2898445E0,-6.93973E-1,-3.0618818E0,-1.6720095E0,-3.2264435E0,-6.4932036E0,-2.655066E0,-2.2463071E0,-3.4512193E0,-4.545004E0,1.1256816E0,-1.9322655E0,-3.4740956E0,-2.3154438E0,2.5312316E0,1.5962447E0,1.0941265E0,1.4684166E0,-2.1805031E0,-4.390742E-1,5.263915E-1,1.0897043E0,4.982677E-1,-4.456235E-1,7.3096293E-1,1.0460824E0,2.0929871E-1,7.713528E-1,1.2585328E0,1.694107E0,1.8035134E0,3.7943404E-2,-7.6942295E-1,-1.3652503E0,7.4377286E-1,-5.3013957E-1,-1.0435342E-1,5.0599927E-1,-3.7451944E-1,-1.5434047E0,-1.0057309E0,-1.4139335E0,1.7534417E-1,7.37343E-1,1.2944695E0,2.0298154E0],"categories":[],"categories_nodes":[],"categories_segments":[],"categories_sizes":[],"default_left":[0,0,0,0,0,0,0,0,0,0,0,0,0,0,0,0,0,0,0,0,0,0,0,0,0,0,0,0,0,0,0,0,0,0,0,0,0,0,0,0,0,0,0,0,0,0,0,0,0,0,0,0,0,0,0,0,0,0,0,0,0,0,0,0,0,0,0,0,0,0,0,0,0,0,0,0,0,0,0,0,0,0,0,0,0,0,0,0,0,0,0,0,0,0,0,0,0,0,0,0,0,0,0,0,0,0,0,0,0,0,0,0,0,0,0,0,0,0,0],"id":8,"left_children":[1,3,5,7,9,11,13,15,17,19,21,23,25,27,29,31,33,35,37,39,41,43,45,47,49,51,53,55,57,59,61,-1,63,65,-1,67,69,71,-1,73,75,77,-1,79,81,83,85,87,89,91,93,95,97,99,101,103,105,107,109,111,113,115,117,-1,-1,-1,-1,-1,-1,-1,-1,-1,-1,-1,-1,-1,-1,-1,-1,-1,-1,-1,-1,-1,-1,-1,-1,-1,-1,-1,-1,-1,-1,-1,-1,-1,-1,-1,-1,-1,-1,-1,-1,-1,-1,-1,-1,-1,-1,-1,-1,-1,-1,-1,-1,-1,-1,-1,-1],"loss_changes":[7.3546115E6,3.137915E6,4.870012E6,3.0635147E5,8.94449E5,4.50061E5,3.2937982E6,4.722725E4,1.3863244E5,5.03231E5,1.97242E5,8.14515E4,1.09736625E5,3.420884E6,3.9962565E6,1.1216391E4,7.755383E3,7.515961E4,1.2245328E4,5.573375E3,6.498725E4,1.0844025E5,4.8507E4,3.98205E4,3.5652664E4,7.016575E4,2.6949438E4,1.940957E6,3.239098E6,2.25483E5,2.4698125E5,0E0,4.467578E2,3.366E3,0E0,1.5115195E3,2.756036E4,1.36783125E4,0E0,3.0421055E3,2.2946875E3,3.264275E4,0E0,2.3339375E3,2.7088125E4,2.8238625E4,3.413625E4,6.4604375E3,3.95835E4,6.1446455E3,9.354336E3,3.838872E4,2.1359375E4,2.3746426E3,7.0531562E3,6.4941225E5,3.5062375E5,4.1323825E6,1.6486272E6,1.8582425E5,1.15672E5,5.850478E4,4.1325E4,0E0,0E0,0E0,0E0,0E0,0E0,0E0,0E0,0E0,0E0,0E0,0E0,0E0,0E0,0E0,0E0,0E0,0E0,0E0,0E0,0E0,0E0,0E0,0E0,0E0,0E0,0E0,0E0,0E0,0E0,0E0,0E0,0E0,0E0,0E0,0E0,0E0,0E0,0E0,0E0,0E0,0E0,0E0,0E0,0E0,0E0,0E0,0E0,0E0,0E0,0E0,0E0,0E0,0E0,0E0,0E0],"parents":[2147483647,0,0,1,1,2,2,3,3,4,4,5,5,6,6,7,7,8,8,9,9,10,10,11,11,12,12,13,13,14,14,15,15,16,16,17,17,18,18,19,19,20,20,21,21,22,22,23,23,24,24,25,25,26,26,27,27,28,28,29,29,30,30,32,32,33,33,35,35,36,36,37,37,39,39,40,40,41,41,43,43,44,44,45,45,46,46,47,47,48,48,49,49,50,50,51,51,52,52,53,53,54,54,55,55,56,56,57,57,58,58,59,59,60,60,61,61,62,62],"right_children":[2,4,6,8,10,12,14,16,18,20,22,24,26,28,30,32,34,36,38,40,42,44,46,48,50,52,54,56,58,60,62,-1,64,66,-1,68,70,72,-1,74,76,78,-1,80,82,84,86,88,90,92,94,96,98,100,102,104,106,108,110,112,114,116,118,-1,-1,-1,-1,-1,-1,-1,-1,-1,-1,-1,-1,-1,-1,-1,-1,-1,-1,-1,-1,-1,-1,-1,-1,-1,-1,-1,-1,-1,-1,-1,-1,-1,-1,-1,-1,-1,-1,-1,-1,-1,-1,-1,-1,-1,-1,-1,-1,-1,-1,-1,-1,-1,-1,-1,-1],"split_conditions":[-8.870108E-1,5.2707773E-1,-6.833068E0,4.975133E-1,-9.5371693E-1,-7.263022E0,7.6040596E-1,-1.2910296E-2,-6.15424E0,9.998518E-1,-9.304176E-1,9.366722E-1,8.779601E-1,-6.2251467E-1,-1.2910296E-2,8.606997E-3,4.2870045E-1,-1.6859308E0,4.8897743E-1,-1.6859308E0,4.850769E-2,8.695894E-1,-6.0710917E0,-1.6859308E0,-4.7495106E-1,-5.7756424E-2,6.2251467E-1,4.975133E-1,-4.9377555E-1,-8.5876393E-1,4.975133E-1,2.4243822E0,-9.0258527E-1,-5.350735E0,2.2348578E0,-9.366722E-1,-8.498171E-1,-9.170601E-1,-3.381796E-1,3.3773464E1,-5.20478E0,-6.1071224E0,-3.1516054E0,1.1195978E-1,2.6772463E-1,8.5207754E-1,2.1377718E-1,8.606997E-3,-5.160624E-1,-5.049611E-1,-8.717063E-1,9.304176E-1,7.075405E-2,5.51937E-1,9.998518E-1,-1.2910296E-2,-6.0783644E0,7.84591E-2,8.726535E-3,-1.514047E-1,8.3388585E-1,-8.800122E-1,8.5207754E-1,1.6385863E0,1.2903831E0,7.48177E-1,-3.2096937E-1,2.0034456E0,8.905474E-1,-3.5246072E0,-3.680018E-1,-7.959675E-1,-3.3015282E0,-2.2898445E0,-6.93973E-1,-3.0618818E0,-1.6720095E0,-3.2264435E0,-6.4932036E0,-2.655066E0,-2.2463071E0,-3.4512193E0,-4.545004E0,1.1256816E0,-1.9322655E0,-3.4740956E0,-2.3154438E0,2.5312316E0,1.5962447E0,1.0941265E0,1.4684166E0,-2.1805031E0,-4.390742E-1,5.263915E-1,1.0897043E0,4.982677E-1,-4.456235E-1,7.3096293E-1,1.0460824E0,2.0929871E-1,7.713528E-1,1.2585328E0,1.694107E0,1.8035134E0,3.7943404E-2,-7.6942295E-1,-1.3652503E0,7.4377286E-1,-5.3013957E-1,-1.0435342E-1,5.0599927E-1,-3.7451944E-1,-1.5434047E0,-1.0057309E0,-1.4139335E0,1.7534417E-1,7.37343E-1,1.2944695E0,2.0298154E0],"split_indices":[8,11,5,11,8,5,8,11,5,11,8,8,11,8,11,12,6,0,6,0,3,11,5,0,11,6,8,11,12,12,11,0,8,5,0,8,12,8,0,2,5,5,0,10,10,11,0,12,12,11,12,8,6,8,11,11,5,8,8,10,8,12,11,0,0,0,0,0,0,0,0,0,0,0,0,0,0,0,0,0,0,0,0,0,0,0,0,0,0,0,0,0,0,0,0,0,0,0,0,0,0,0,0,0,0,0,0,0,0,0,0,0,0,0,0,0,0,0,0],"split_type":[0,0,0,0,0,0,0,0,0,0,0,0,0,0,0,0,0,0,0,0,0,0,0,0,0,0,0,0,0,0,0,0,0,0,0,0,0,0,0,0,0,0,0,0,0,0,0,0,0,0,0,0,0,0,0,0,0,0,0,0,0,0,0,0,0,0,0,0,0,0,0,0,0,0,0,0,0,0,0,0,0,0,0,0,0,0,0,0,0,0,0,0,0,0,0,0,0,0,0,0,0,0,0,0,0,0,0,0,0,0,0,0,0,0,0,0,0,0,0],"sum_hessian":[1.42622E5,4.747E3,1.37875E5,1.319E3,3.428E3,1.0874E4,1.27001E5,5.11E2,8.08E2,5E2,2.928E3,5.805E3,5.069E3,1.13224E5,1.3777E4,1.6E2,3.51E2,7.49E2,5.9E1,2.28E2,2.72E2,6.7E2,2.258E3,5.458E3,3.47E2,4.521E3,5.48E2,1.301E4,1.00214E5,1.0722E4,3.055E3,5.2E1,1.08E2,3.43E2,8E0,3.8E1,7.11E2,5.4E1,5E0,2.1E1,2.07E2,2.52E2,2E1,2.92E2,3.78E2,1.02E3,1.238E3,1.27E2,5.331E3,4.4E1,3.03E2,2.143E3,2.378E3,7.9E1,4.69E2,2.712E3,1.0298E4,3.4767E4,6.5447E4,1.746E3,8.976E3,2.241E3,8.14E2,5.7E1,5.1E1,3.36E2,7E0,3.2E1,6E0,6E0,7.05E2,7E0,4.7E1,1.6E1,5E0,2E2,7E0,1.1E1,2.41E2,1.13E2,1.79E2,2.9E2,8.8E1,7E0,1.013E3,7.1E1,1.167E3,9.5E1,3.2E1,8.58E2,4.473E3,5E0,3.9E1,1.41E2,1.62E2,2.03E3,1.13E2,1.534E3,8.44E2,3.3E1,4.6E1,1.59E2,3.1E2,7.02E2,2.01E3,6.179E3,4.119E3,8.39E3,2.6377E4,1.4102E4,5.1345E4,1.284E3,4.62E2,2.372E3,6.604E3,6.55E2,1.586E3,4.89E2,3.25E2],"tree_param":{"num_deleted":"0","num_feature":"13","num_nodes":"119","size_leaf_vector":"1"}},{"base_weights":[3.5784077E-2,-6.6595263E0,1.0470264E1,-2.6108885E1,-2.9917192E0,2.4692804E1,8.203064E0,-4.9106644E1,-1.7590286E1,2.131043E0,-1.3666429E1,2.7649076E1,1.97015E1,9.46273E0,-1.5705734E1,-8.3129524E1,-3.9921432E1,-3.7655325E0,-2.27244E1,-8.558512E0,2.6087809E0,-1.5078907E1,2.5722475E1,4.155594E1,2.7187017E1,1.796685E1,2.6410542E1,1.6933578E1,6.0053544E0,-2.5902523E1,-3.7799847E0,-1.00798615E2,-6.437789E1,-5.084886E1,-3.6287224E1,1.5920976E1,-9.109532E0,-3.780554E1,-1.9505148E1,-4.7169147E0,-3.0264093E1,3.5504994E0,-1.9014815E0,-1.9563616E1,-7.508982E0,3.1273617E1,-2.2607841E0,4.3731644E1,1.861734E1,2.7696861E1,1.7501032E1,1.4714066E1,2.320891E1,3.0312735E1,1.7461649E1,3.7786546E0,2.1229347E1,4.8586655E0,1.3254382E1,3.160728E1,-2.659906E1,-1.9901125E1,9.567692E0,-3.059705E0,-5.765472E0,-2.784741E0,-3.3391964E0,-2.069499E0,-2.7554224E0,-1.7434605E0,-3.0449007E0,1.7190481E0,4.2137346E-1,-3.299814E-1,-1.2808766E0,-2.3708954E0,-1.7173232E0,-7.89322E-1,-1.3032756E0,3.0802307E-1,-4.477553E-1,-2.095514E0,-8.552829E-1,3.0335742E-1,2.95955E-2,7.3022746E-2,-5.360928E-1,-6.0661906E-1,-1.2464825E0,-3.0353004E-1,-1.5466813E0,1.1658807E0,2.2149928E0,6.0824376E-1,-1.685454E-1,1.2927605E0,2.2458105E0,1.1709567E0,3.7473965E-1,1.4476182E0,1.2800244E0,9.949217E-1,5.443176E-1,9.2954963E-1,5.8683974E-1,1.1860856E0,-4.8773568E-2,1.438248E0,2.1353774E0,3.0753228E-1,9.378832E-1,1.5267098E0,-9.396368E-2,9.3421793E-1,1.482211E0,-7.215492E-1,2.6525548E-1,5.4607E-1,8.498189E-1,2.045367E0,4.636317E-1,-1.4533278E0,-8.8235825E-1,-8.334593E-1,-1.6731097E0,-2.7539229E-2,7.0092446E-1],"categories":[],"categories_nodes":[],"categories_segments":[],"categories_sizes":[],"default_left":[0,0,0,0,0,0,0,0,0,0,0,0,0,0,0,0,0,0,0,0,0,0,0,0,0,0,0,0,0,0,0,0,0,0,0,0,0,0,0,0,0,0,0,0,0,0,0,0,0,0,0,0,0,0,0,0,0,0,0,0,0,0,0,0,0,0,0,0,0,0,0,0,0,0,0,0,0,0,0,0,0,0,0,0,0,0,0,0,0,0,0,0,0,0,0,0,0,0,0,0,0,0,0,0,0,0,0,0,0,0,0,0,0,0,0,0,0,0,0,0,0,0,0,0,0,0,0],"id":9,"left_children":[1,3,5,7,9,11,13,15,17,19,21,23,25,27,29,31,33,35,37,39,41,43,45,47,49,51,53,55,57,59,61,63,65,67,69,71,73,75,77,79,81,83,85,87,89,91,93,95,97,99,101,103,105,107,109,111,113,115,117,119,121,123,125,-1,-1,-1,-1,-1,-1,-1,-1,-1,-1,-1,-1,-1,-1,-1,-1,-1,-1,-1,-1,-1,-1,-1,-1,-1,-1,-1,-1,-1,-1,-1,-1,-1,-1,-1,-1,-1,-1,-1,-1,-1,-1,-1,-1,-1,-1,-1,-1,-1,-1,-1,-1,-1,-1,-1,-1,-1,-1,-1,-1,-1,-1,-1,-1],"loss_changes":[9.976935E6,6.205553E6,1.7996645E6,2.703061E6,4.002352E6,1.126855E5,1.4501362E6,1.16232E6,7.14872E5,2.5258898E5,1.3208505E6,2.981625E4,3.2782E4,1.1812352E6,2.929655E5,2.559035E5,1.148615E5,2.87248E5,3.558565E5,1.762945E5,2.0108728E5,7.77722E5,1.27762375E5,6.8154688E3,2.2548E4,3.8429375E4,1.9894312E4,8.1756775E5,2.5984538E5,5.287525E4,2.3947134E5,2.26252E5,4.35325E3,2.7162125E4,7.4958E4,8.0352375E4,8.8785484E4,4.1289E4,1.473025E5,8.2990055E4,4.8009312E4,2.9160778E5,2.425232E5,5.734335E5,2.870799E5,7.005506E4,2.2340815E3,1.7750625E3,6.2251025E2,1.091325E4,3.5228047E3,1.6007781E4,1.0802625E4,6.5532188E3,2.5207969E3,5.3943056E5,2.33023E5,2.3258431E5,3.708875E4,2.939079E3,2.7844312E4,2.1526781E4,2.7435559E4,0E0,0E0,0E0,0E0,0E0,0E0,0E0,0E0,0E0,0E0,0E0,0E0,0E0,0E0,0E0,0E0,0E0,0E0,0E0,0E0,0E0,0E0,0E0,0E0,0E0,0E0,0E0,0E0,0E0,0E0,0E0,0E0,0E0,0E0,0E0,0E0,0E0,0E0,0E0,0E0,0E0,0E0,0E0,0E0,0E0,0E0,0E0,0E0,0E0,0E0,0E0,0E0,0E0,0E0,0E0,0E0,0E0,0E0,0E0,0E0,0E0,0E0,0E0,0E0],"parents":[2147483647,0,0,1,1,2,2,3,3,4,4,5,5,6,6,7,7,8,8,9,9,10,10,11,11,12,12,13,13,14,14,15,15,16,16,17,17,18,18,19,19,20,20,21,21,22,22,23,23,24,24,25,25,26,26,27,27,28,28,29,29,30,30,31,31,32,32,33,33,34,34,35,35,36,36,37,37,38,38,39,39,40,40,41,41,42,42,43,43,44,44,45,45,46,46,47,47,48,48,49,49,50,50,51,51,52,52,53,53,54,54,55,55,56,56,57,57,58,58,59,59,60,60,61,61,62,62],"right_children":[2,4,6,8,10,12,14,16,18,20,22,24,26,28,30,32,34,36,38,40,42,44,46,48,50,52,54,56,58,60,62,64,66,68,70,72,74,76,78,80,82,84,86,88,90,92,94,96,98,100,102,104,106,108,110,112,114,116,118,120,122,124,126,-1,-1,-1,-1,-1,-1,-1,-1,-1,-1,-1,-1,-1,-1,-1,-1,-1,-1,-1,-1,-1,-1,-1,-1,-1,-1,-1,-1,-1,-1,-1,-1,-1,-1,-1,-1,-1,-1,-1,-1,-1,-1,-1,-1,-1,-1,-1,-1,-1,-1,-1,-1,-1,-1,-1,-1,-1,-1,-1,-1,-1,-1,-1,-1],"split_conditions":[1.6031933E0,-6.087614E-1,-7.009474E0,1.2793534E0,6.087614E-1,-7.4902906E0,-5.6194043E0,-9.304176E-1,5.2707773E-1,-5.3729963E-1,4.975133E-1,-1.6859308E0,8.5207754E-1,1.5844664E1,-4.7495106E-1,1.1226075E0,-9.0258527E-1,4.975133E-1,-8.870108E-1,6.9640374E-1,5.2249855E-1,1.2491722E0,1.2405799E1,4.060486E2,9.366722E-1,1.9311107E0,1.2012779E1,-6.8835455E-1,2.0251603E0,6.2251467E-1,-7.489557E-1,9.998518E-1,8.695894E-1,-3.7049407E-1,-5.1521955E0,-4.7495106E-1,1.030629E1,-9.304176E-1,-6.03914E0,1.5986876E1,-5.6640625E-1,2.7317348E1,2.4436338E1,7.1325046E-1,-5.5146613E0,8.5207754E-1,6.3607824E-1,-4.0947914E-1,3.6228377E-2,9.099129E0,-7.780924E0,-3.0654088E-1,1.6838203E1,8.241262E-1,4.9647903E-1,-1.2910296E-2,1.0037766E-1,-5.8070296E-1,5.3729963E-1,1.6423658E1,2.109822E0,4.975133E-1,1.971016E-1,-3.059705E0,-5.765472E0,-2.784741E0,-3.3391964E0,-2.069499E0,-2.7554224E0,-1.7434605E0,-3.0449007E0,1.7190481E0,4.2137346E-1,-3.299814E-1,-1.2808766E0,-2.3708954E0,-1.7173232E0,-7.89322E-1,-1.3032756E0,3.0802307E-1,-4.477553E-1,-2.095514E0,-8.552829E-1,3.0335742E-1,2.95955E-2,7.3022746E-2,-5.360928E-1,-6.0661906E-1,-1.2464825E0,-3.0353004E-1,-1.5466813E0,1.1658807E0,2.2149928E0,6.0824376E-1,-1.685454E-1,1.2927605E0,2.2458105E0,1.1709567E0,3.7473965E-1,1.4476182E0,1.2800244E0,9.949217E-1,5.443176E-1,9.2954963E-1,5.8683974E-1,1.1860856E0,-4.8773568E-2,1.438248E0,2.1353774E0,3.0753228E-1,9.378832E-1,1.5267098E0,-9.396368E-2,9.3421793E-1,1.482211E0,-7.215492E-1,2.6525548E-1,5.4607E-1,8.498189E-1,2.045367E0,4.636317E-1,-1.4533278E0,-8.8235825E-1,-8.334593E-1,-1.6731097E0,-2.7539229E-2,7.0092446E-1],"split_indices":[4,8,5,4,8,5,5,8,11,8,11,0,11,0,11,4,8,11,8,9,8,4,0,7,8,4,0,8,4,8,8,11,11,9,5,11,0,8,5,0,8,0,0,8,5,11,8,1,9,0,5,9,0,8,3,11,9,8,8,0,4,11,6,0,0,0,0,0,0,0,0,0,0,0,0,0,0,0,0,0,0,0,0,0,0,0,0,0,0,0,0,0,0,0,0,0,0,0,0,0,0,0,0,0,0,0,0,0,0,0,0,0,0,0,0,0,0,0,0,0,0,0,0,0,0,0,0],"split_type":[0,0,0,0,0,0,0,0,0,0,0,0,0,0,0,0,0,0,0,0,0,0,0,0,0,0,0,0,0,0,0,0,0,0,0,0,0,0,0,0,0,0,0,0,0,0,0,0,0,0,0,0,0,0,0,0,0,0,0,0,0,0,0,0,0,0,0,0,0,0,0,0,0,0,0,0,0,0,0,0,0,0,0,0,0,0,0,0,0,0,0,0,0,0,0,0,0,0,0,0,0,0,0,0,0,0,0,0,0,0,0,0,0,0,0,0,0,0,0,0,0,0,0,0,0,0,0],"sum_hessian":[1.42807E5,8.699E4,5.5817E4,1.3801E4,7.3189E4,7.673E3,4.8144E4,3.729E3,1.0072E4,4.9456E4,2.3733E4,4.816E3,2.857E3,4.5735E4,2.409E3,7.91E2,2.938E3,2.728E3,7.344E3,2.115E3,4.7341E4,2.2912E4,8.21E2,1.52E2,4.664E3,2.273E3,5.84E2,1.4468E4,3.1267E4,1.298E3,1.111E3,4.05E2,3.86E2,7.3E2,2.208E3,5.82E2,2.146E3,1.29E3,6.054E3,1.798E3,3.17E2,3.9164E4,8.177E3,1.4387E4,8.525E3,6.85E2,1.36E2,1.38E2,1.4E1,4.429E3,2.35E2,1.405E3,8.68E2,4.05E2,1.79E2,3.562E3,1.0906E4,2.6998E4,4.269E3,1.5E1,1.283E3,5.03E2,6.08E2,1.1E2,2.95E2,8.9E1,2.97E2,2.3E2,5E2,2.09E3,1.18E2,1.67E2,4.15E2,1.864E3,2.82E2,3.38E2,9.52E2,3.866E3,2.188E3,5.04E2,1.294E3,1.67E2,1.5E2,2.1162E4,1.8002E4,5.921E3,2.256E3,6.034E3,8.353E3,8.033E3,4.92E2,4.27E2,2.58E2,9E0,1.27E2,1E1,1.28E2,9E0,5E0,2.762E3,1.667E3,1.71E2,6.4E1,6.08E2,7.97E2,8.5E2,1.8E1,3.63E2,4.2E1,1.9E1,1.6E2,6.21E2,2.941E3,8.376E3,2.53E3,6.1E2,2.6388E4,2.632E3,1.637E3,1E1,5E0,1.004E3,2.79E2,4.08E2,9.5E1,1.86E2,4.22E2],"tree_param":{"num_deleted":"0","num_feature":"13","num_nodes":"127","size_leaf_vector":"1"}},{"base_weights":[3.3300802E-2,-7.3529043E0,8.664638E0,-2.796596E1,-3.6154332E0,2.3705235E1,6.7285304E0,-5.8175884E1,-2.2348827E1,1.7112516E0,-1.423608E1,2.6399206E1,1.8566442E1,7.685838E0,-1.710555E1,-8.0360916E1,-4.3624348E1,-3.107255E1,-1.5240228E1,-4.337897E0,3.186117E0,-2.3316113E1,1.3072034E0,3.7370483E1,2.5764635E1,1.5845989E1,2.3127262E1,3.4585786E0,1.2420458E1,-1.9252953E1,2.0560574E1,-9.577733E1,-6.30742E1,-4.0628296E1,-6.187734E1,-4.2739223E1,-2.7225246E1,-9.42782E0,-2.0390223E1,1.3568947E1,-7.6447973E0,-2.8147001E0,5.079816E0,-1.7101612E1,-3.2215454E1,9.944258E0,-2.249073E1,4.2556118E1,2.6872372E1,1.9201815E1,2.665493E1,2.6202208E1,1.4568175E1,4.4993597E-1,2.3634007E1,1.2207527E1,2.003609E0,2.0217196E1,7.9857683E0,-2.3497837E1,4.4206014E0,2.8603806E1,3.3543513E0,-2.913265E0,-5.294683E0,-3.0815554E0,-4.0826106E0,-5.3003836E-1,-2.1250749E0,-4.5164123E0,-2.7049046E0,-2.7628064E0,-2.0616186E0,-1.0945777E0,-1.594742E0,9.8743784E-1,-5.435499E-1,1.928131E0,-1.049853E0,3.6170426E-1,7.7230567E-1,-2.1150528E-1,-5.7940894E-1,3.527127E-1,-3.9611477E-1,5.3377964E-2,4.4969606E-1,-1.0065933E0,-3.7853506E-1,-1.8533663E0,-1.0403597E0,1.0645424E0,2.497398E-1,-5.718783E-1,-1.444995E0,2.3350575E0,1.8759565E0,3.9716825E-1,1.4687284E0,4.765547E-1,1.0528843E0,1.2840918E0,1.4648823E0,1.0062846E0,2.1055737E0,-7.6754004E-1,7.499165E-1,1.225692E0,7.867028E-1,3.7604992E-3,8.832881E-1,-2.9588196E-1,1.644142E-1,2.4057387E-1,1.1251005E0,2.6975172E0,3.899609E-1,-1.345548E0,-8.598162E-1,-1.2597938E-1,5.977966E-1,1.6523064E0,-2.1272158E-2,6.828025E-1,-6.472725E-1],"categories":[],"categories_nodes":[],"categories_segments":[],"categories_sizes":[],"default_left":[0,0,0,0,0,0,0,0,0,0,0,0,0,0,0,0,0,0,0,0,0,0,0,0,0,0,0,0,0,0,0,0,0,0,0,0,0,0,0,0,0,0,0,0,0,0,0,0,0,0,0,0,0,0,0,0,0,0,0,0,0,0,0,0,0,0,0,0,0,0,0,0,0,0,0,0,0,0,0,0,0,0,0,0,0,0,0,0,0,0,0,0,0,0,0,0,0,0,0,0,0,0,0,0,0,0,0,0,0,0,0,0,0,0,0,0,0,0,0,0,0,0,0,0,0],"id":10,"left_children":[1,3,5,7,9,11,13,15,17,19,21,23,25,27,29,31,33,35,37,39,41,43,45,47,49,51,53,55,57,59,61,63,65,67,69,71,73,75,77,79,81,83,85,87,89,91,93,95,97,99,101,103,105,-1,107,109,111,113,115,117,119,121,123,-1,-1,-1,-1,-1,-1,-1,-1,-1,-1,-1,-1,-1,-1,-1,-1,-1,-1,-1,-1,-1,-1,-1,-1,-1,-1,-1,-1,-1,-1,-1,-1,-1,-1,-1,-1,-1,-1,-1,-1,-1,-1,-1,-1,-1,-1,-1,-1,-1,-1,-1,-1,-1,-1,-1,-1,-1,-1,-1,-1,-1,-1],"loss_changes":[9.103393E6,5.927869E6,1.9172865E6,2.002768E6,3.6850105E6,1.03458E5,1.3312025E6,5.940335E5,6.17176E5,3.8704506E5,3.070675E6,3.3312E4,3.1715438E4,1.1224868E6,1.8262812E5,1.890205E5,5.8725E4,1.99511E5,1.6414175E5,5.0367725E5,3.9635916E5,7.59002E5,1.649508E6,1.33848125E4,2.669975E4,2.1091875E4,6.685875E3,3.7717334E5,9.1454675E5,2.1435369E5,1.6784887E4,1.39915E5,4.28325E3,5.382325E4,2.9626E4,1.8591125E4,8.310575E4,1.0889186E5,1.0491225E5,1.5654234E4,9.661775E4,4.2180816E5,4.1634425E5,2.3346375E5,3.117375E5,3.305583E5,1.5105388E5,1.934875E3,4.0730703E3,9.846906E3,9.78325E3,1.6257352E4,1.8852781E4,0E0,6.074375E3,2.7978075E5,2.5857678E5,3.3748475E5,1.4418575E5,3.8419E4,1.7027467E4,1.0720773E4,6.89348E3,0E0,0E0,0E0,0E0,0E0,0E0,0E0,0E0,0E0,0E0,0E0,0E0,0E0,0E0,0E0,0E0,0E0,0E0,0E0,0E0,0E0,0E0,0E0,0E0,0E0,0E0,0E0,0E0,0E0,0E0,0E0,0E0,0E0,0E0,0E0,0E0,0E0,0E0,0E0,0E0,0E0,0E0,0E0,0E0,0E0,0E0,0E0,0E0,0E0,0E0,0E0,0E0,0E0,0E0,0E0,0E0,0E0,0E0,0E0,0E0,0E0,0E0],"parents":[2147483647,0,0,1,1,2,2,3,3,4,4,5,5,6,6,7,7,8,8,9,9,10,10,11,11,12,12,13,13,14,14,15,15,16,16,17,17,18,18,19,19,20,20,21,21,22,22,23,23,24,24,25,25,26,26,27,27,28,28,29,29,30,30,31,31,32,32,33,33,34,34,35,35,36,36,37,37,38,38,39,39,40,40,41,41,42,42,43,43,44,44,45,45,46,46,47,47,48,48,49,49,50,50,51,51,52,52,54,54,55,55,56,56,57,57,58,58,59,59,60,60,61,61,62,62],"right_children":[2,4,6,8,10,12,14,16,18,20,22,24,26,28,30,32,34,36,38,40,42,44,46,48,50,52,54,56,58,60,62,64,66,68,70,72,74,76,78,80,82,84,86,88,90,92,94,96,98,100,102,104,106,-1,108,110,112,114,116,118,120,122,124,-1,-1,-1,-1,-1,-1,-1,-1,-1,-1,-1,-1,-1,-1,-1,-1,-1,-1,-1,-1,-1,-1,-1,-1,-1,-1,-1,-1,-1,-1,-1,-1,-1,-1,-1,-1,-1,-1,-1,-1,-1,-1,-1,-1,-1,-1,-1,-1,-1,-1,-1,-1,-1,-1,-1,-1,-1,-1,-1,-1,-1,-1],"split_conditions":[1.5315083E0,-6.087614E-1,-7.0631127E0,1.2032429E0,6.087614E-1,-7.4902906E0,-5.5146613E0,-9.304176E-1,1.3629248E0,-8.5876393E-1,1.7213356E-2,-4.7851673E-1,1.9311107E0,1.7860903E0,1.2527228E1,1.1131333E0,-5.255301E0,-9.0258527E-1,-2.0515577E-1,2.6176948E-2,-7.84591E-2,4.303373E-1,8.241262E-1,8.606997E-3,-5.160624E-1,-1.1873665E0,-8.800122E-1,-2.6976013E-1,1.5689632E1,9.999167E-1,-2.3313771E-1,-8.606997E-3,2.9239726E-1,-5.160624E-1,1.0210898E0,6.4880407E-1,6.3874766E-2,-4.7851673E-1,-8.800122E-1,1.3136057E0,4.461978E-1,1.7213356E-2,4.862727E-1,1.3301729E0,-4.9377555E-1,8.164308E0,9.195404E-1,-2.2888453E-1,-9.426415E-1,-8.800122E-1,-7.105482E-2,-8.606997E-3,-9.4832367E-1,4.4993597E-1,1.2147314E1,-5.160624E-1,-6.3607824E-1,-7.372773E-1,-9.487118E-1,1.9602928E0,1.9111904E0,8.5876393E-1,1.6423658E1,-2.913265E0,-5.294683E0,-3.0815554E0,-4.0826106E0,-5.3003836E-1,-2.1250749E0,-4.5164123E0,-2.7049046E0,-2.7628064E0,-2.0616186E0,-1.0945777E0,-1.594742E0,9.8743784E-1,-5.435499E-1,1.928131E0,-1.049853E0,3.6170426E-1,7.7230567E-1,-2.1150528E-1,-5.7940894E-1,3.527127E-1,-3.9611477E-1,5.3377964E-2,4.4969606E-1,-1.0065933E0,-3.7853506E-1,-1.8533663E0,-1.0403597E0,1.0645424E0,2.497398E-1,-5.718783E-1,-1.444995E0,2.3350575E0,1.8759565E0,3.9716825E-1,1.4687284E0,4.765547E-1,1.0528843E0,1.2840918E0,1.4648823E0,1.0062846E0,2.1055737E0,-7.6754004E-1,7.499165E-1,1.225692E0,7.867028E-1,3.7604992E-3,8.832881E-1,-2.9588196E-1,1.644142E-1,2.4057387E-1,1.1251005E0,2.6975172E0,3.899609E-1,-1.345548E0,-8.598162E-1,-1.2597938E-1,5.977966E-1,1.6523064E0,-2.1272158E-2,6.828025E-1,-6.472725E-1],"split_indices":[4,8,5,4,8,5,5,8,4,12,12,0,4,4,0,4,5,8,10,8,8,10,8,12,12,3,12,3,0,12,9,12,10,12,4,0,9,0,12,4,8,12,12,4,12,0,3,10,8,12,9,12,8,0,0,12,8,8,9,4,4,12,0,0,0,0,0,0,0,0,0,0,0,0,0,0,0,0,0,0,0,0,0,0,0,0,0,0,0,0,0,0,0,0,0,0,0,0,0,0,0,0,0,0,0,0,0,0,0,0,0,0,0,0,0,0,0,0,0,0,0,0,0,0,0],"split_type":[0,0,0,0,0,0,0,0,0,0,0,0,0,0,0,0,0,0,0,0,0,0,0,0,0,0,0,0,0,0,0,0,0,0,0,0,0,0,0,0,0,0,0,0,0,0,0,0,0,0,0,0,0,0,0,0,0,0,0,0,0,0,0,0,0,0,0,0,0,0,0,0,0,0,0,0,0,0,0,0,0,0,0,0,0,0,0,0,0,0,0,0,0,0,0,0,0,0,0,0,0,0,0,0,0,0,0,0,0,0,0,0,0,0,0,0,0,0,0,0,0,0,0,0,0],"sum_hessian":[1.4279E5,7.6945E4,6.5845E4,1.1809E4,6.5136E4,7.508E3,5.8337E4,1.85E3,9.959E3,4.338E4,2.1756E4,4.923E3,2.585E3,5.6085E4,2.252E3,7.31E2,1.119E3,4.47E3,5.489E3,8.503E3,3.4877E4,1.3733E4,8.023E3,2.66E2,4.657E3,1.622E3,9.63E2,2.9631E4,2.6454E4,2.131E3,1.21E2,3.84E2,3.47E2,9.64E2,1.55E2,1.106E3,3.364E3,2.58E3,2.909E3,1.325E3,7.178E3,8.366E3,2.6511E4,8.088E3,5.645E3,5.887E3,2.136E3,1.76E2,9E1,5.59E2,4.098E3,1.76E2,1.446E3,3.4E1,9.29E2,4.224E3,2.5407E4,9.59E3,1.6864E4,1.807E3,3.24E2,8.2E1,3.9E1,8.3E1,3.01E2,3.26E2,2.1E1,5.7E1,9.07E2,3.1E1,1.24E2,1.15E2,9.91E2,1.573E3,1.791E3,1.21E2,2.459E3,2.9E1,2.88E3,3.04E2,1.021E3,3.848E3,3.33E3,2.853E3,5.513E3,1.3092E4,1.3419E4,6.136E3,1.952E3,3.959E3,1.686E3,1.787E3,4.1E3,7.85E2,1.351E3,9.2E1,8.4E1,1.1E1,7.9E1,9.1E1,4.68E2,3.003E3,1.095E3,1.29E2,4.7E1,2E1,1.426E3,8.34E2,9.5E1,1.311E3,2.913E3,3.545E3,2.1862E4,1.239E3,8.351E3,6.7E1,1.6797E4,1.17E3,6.37E2,1.69E2,1.55E2,7.1E1,1.1E1,2.4E1,1.5E1],"tree_param":{"num_deleted":"0","num_feature":"13","num_nodes":"125","size_leaf_vector":"1"}},{"base_weights":[9.712704E-3,-3.285505E1,1.1491486E0,2.3012872E0,-4.6772446E1,1.779636E1,-4.3026257E-1,1.9084085E1,-7.90224E0,-8.045733E1,-4.106371E1,2.3863703E1,1.2061038E1,1.0646057E0,-1.3910462E1,3.186359E1,1.3665111E1,-4.311899E0,-5.159058E1,-5.0943336E1,-1.04664314E2,-5.2075493E1,-3.618484E1,2.4664385E1,1.0846863E1,7.182355E0,1.520612E1,-1.2104471E1,2.7679093E0,-2.1693676E1,1.4832711E1,2.0998852E0,2.584992E1,1.2885458E1,2.1400986E0,3.3237823E1,-6.4910955E0,-5.1634854E-1,-5.8153225E1,-3.3570347E0,-4.9035103E1,-1.09111496E2,-2.5981874E0,-4.0218327E1,-6.166683E1,2.7266688E0,-3.6480324E1,4.066138E1,2.426694E1,-1.0234095E1,1.4203227E1,3.672011E1,5.7934065E0,1.1149788E1,2.569886E1,8.988547E0,-1.755914E1,-4.3724957E0,6.552861E0,-1.1033149E1,-2.3615236E1,1.0167338E1,2.8525576E1,1.4278183E0,1.1216849E0,6.66319E-1,-2.743053E-1,1.7595323E0,7.656817E-1,-7.669776E-1,-2.4924862E-1,-3.1206574E0,-6.472516E-1,-2.5728135E0,-1.8118473E0,-2.8962202E0,-5.595701E0,-2.059753E0,-1.4862068E0,-2.8410327E0,-3.986665E0,-1.9716933E0,-1.5617366E0,1.5171274E0,2.2594447E0,9.398819E-1,1.2648187E0,-9.455423E-1,-1.7676726E-2,4.4253588E-1,9.2513895E-1,2.5035915E0,1.6837248E0,-4.2410174E-1,3.9316946E-1,7.064521E-1,3.9862904E-1,-1.7355814E0,1.318924E0,1.6034373E0,2.9930478E-2,-6.747114E-1,-1.2384857E0,5.202796E-2,-1.1520776E0,-1.0491792E-1,4.449722E-1,-2.998217E-1,-1.293218E0,-1.4462297E0,-1.0915476E0,3.7919903E-1,8.046485E-1,1.1734426E0,1.8404356E0],"categories":[],"categories_nodes":[],"categories_segments":[],"categories_sizes":[],"default_left":[0,0,0,0,0,0,0,0,0,0,0,0,0,0,0,0,0,0,0,0,0,0,0,0,0,0,0,0,0,0,0,0,0,0,0,0,0,0,0,0,0,0,0,0,0,0,0,0,0,0,0,0,0,0,0,0,0,0,0,0,0,0,0,0,0,0,0,0,0,0,0,0,0,0,0,0,0,0,0,0,0,0,0,0,0,0,0,0,0,0,0,0,0,0,0,0,0,0,0,0,0,0,0,0,0,0,0,0,0,0,0,0,0,0,0],"id":11,"left_children":[1,3,5,7,9,11,13,15,17,19,21,23,25,27,29,31,33,35,37,39,41,43,45,47,49,51,53,55,57,59,61,-1,63,65,-1,67,69,-1,71,-1,73,75,-1,77,79,-1,81,83,85,87,89,91,93,95,97,99,101,103,105,107,109,111,113,-1,-1,-1,-1,-1,-1,-1,-1,-1,-1,-1,-1,-1,-1,-1,-1,-1,-1,-1,-1,-1,-1,-1,-1,-1,-1,-1,-1,-1,-1,-1,-1,-1,-1,-1,-1,-1,-1,-1,-1,-1,-1,-1,-1,-1,-1,-1,-1,-1,-1,-1,-1],"loss_changes":[5.339606E6,2.337914E6,3.6234718E6,2.3235845E5,6.549205E5,4.1526775E5,2.5364582E6,3.5086203E4,1.3215844E5,3.48303E5,1.554675E5,6.01995E4,9.411519E4,2.5416145E6,2.8112918E6,8.170953E3,7.6663203E3,6.412091E4,1.6723703E4,3.6505E3,5.782775E4,9.952175E4,5.64835E4,3.375275E4,2.4061066E4,9.8615695E4,1.5859381E5,1.4932324E6,2.7115835E6,2.022905E5,1.7078306E5,0E0,2.603672E2,2.9414336E3,0E0,9.611719E2,9.770053E3,0E0,9.776609E3,0E0,4.4788438E3,2.92205E4,0E0,2.9094375E3,3.8707125E4,0E0,3.016575E4,4.741453E3,2.9558E4,4.0207524E3,6.55341E3,2.6972031E3,6.8090555E4,2.5385781E4,4.3613062E4,5.164192E5,3.0188125E5,3.512653E6,1.331204E6,1.12789E5,7.8722E4,3.0476312E4,2.761225E4,0E0,0E0,0E0,0E0,0E0,0E0,0E0,0E0,0E0,0E0,0E0,0E0,0E0,0E0,0E0,0E0,0E0,0E0,0E0,0E0,0E0,0E0,0E0,0E0,0E0,0E0,0E0,0E0,0E0,0E0,0E0,0E0,0E0,0E0,0E0,0E0,0E0,0E0,0E0,0E0,0E0,0E0,0E0,0E0,0E0,0E0,0E0,0E0,0E0,0E0,0E0,0E0],"parents":[2147483647,0,0,1,1,2,2,3,3,4,4,5,5,6,6,7,7,8,8,9,9,10,10,11,11,12,12,13,13,14,14,15,15,16,16,17,17,18,18,19,19,20,20,21,21,22,22,23,23,24,24,25,25,26,26,27,27,28,28,29,29,30,30,32,32,33,33,35,35,36,36,38,38,40,40,41,41,43,43,44,44,46,46,47,47,48,48,49,49,50,50,51,51,52,52,53,53,54,54,55,55,56,56,57,57,58,58,59,59,60,60,61,61,62,62],"right_children":[2,4,6,8,10,12,14,16,18,20,22,24,26,28,30,32,34,36,38,40,42,44,46,48,50,52,54,56,58,60,62,-1,64,66,-1,68,70,-1,72,-1,74,76,-1,78,80,-1,82,84,86,88,90,92,94,96,98,100,102,104,106,108,110,112,114,-1,-1,-1,-1,-1,-1,-1,-1,-1,-1,-1,-1,-1,-1,-1,-1,-1,-1,-1,-1,-1,-1,-1,-1,-1,-1,-1,-1,-1,-1,-1,-1,-1,-1,-1,-1,-1,-1,-1,-1,-1,-1,-1,-1,-1,-1,-1,-1,-1,-1,-1,-1],"split_conditions":[-8.870108E-1,5.2707773E-1,-6.814437E0,4.975133E-1,-9.5371693E-1,-7.263022E0,7.7162457E-1,-1.2910296E-2,-6.160843E0,9.998518E-1,-9.238795E-1,9.366722E-1,-4.9377555E-1,-6.2251467E-1,-1.2910296E-2,8.606997E-3,3.558836E-1,-1.6859308E0,-9.170601E-1,-2.3435514E-1,4.850769E-2,8.695894E-1,-7.370431E0,-1.6859308E0,-4.7495106E-1,-6.087614E-1,7.0090926E-1,4.975133E-1,-4.9377555E-1,-8.5876393E-1,4.975133E-1,2.0998852E0,-9.0258527E-1,-5.350735E0,2.1400986E0,2.9745102E-1,6.4880407E-1,-5.1634854E-1,4.8897743E-1,-3.3570347E0,-5.696777E0,-6.1071224E0,-2.5981874E0,3.3379415E-1,2.6772463E-1,2.7266688E0,4.862727E-1,-1.7110825E-1,-5.160624E-1,-5.0006723E-1,-8.717063E-1,-4.7851673E-1,-1.2910296E-2,-4.7495106E-1,-8.7380713E-1,-1.2910296E-2,-6.03914E0,5.9482276E-1,8.726535E-3,-1.6710451E-1,-8.7380713E-1,1.3092422E0,8.5207754E-1,1.4278183E0,1.1216849E0,6.66319E-1,-2.743053E-1,1.7595323E0,7.656817E-1,-7.669776E-1,-2.4924862E-1,-3.1206574E0,-6.472516E-1,-2.5728135E0,-1.8118473E0,-2.8962202E0,-5.595701E0,-2.059753E0,-1.4862068E0,-2.8410327E0,-3.986665E0,-1.9716933E0,-1.5617366E0,1.5171274E0,2.2594447E0,9.398819E-1,1.2648187E0,-9.455423E-1,-1.7676726E-2,4.4253588E-1,9.2513895E-1,2.5035915E0,1.6837248E0,-4.2410174E-1,3.9316946E-1,7.064521E-1,3.9862904E-1,-1.7355814E0,1.318924E0,1.6034373E0,2.9930478E-2,-6.747114E-1,-1.2384857E0,5.202796E-2,-1.1520776E0,-1.0491792E-1,4.449722E-1,-2.998217E-1,-1.293218E0,-1.4462297E0,-1.0915476E0,3.7919903E-1,8.046485E-1,1.1734426E0,1.8404356E0],"split_indices":[8,11,5,11,8,5,8,11,5,11,8,8,12,8,11,12,6,0,8,10,3,11,5,0,11,8,8,11,12,12,11,0,8,5,0,3,0,0,6,0,5,5,0,10,10,0,12,1,12,6,12,0,11,11,11,11,5,8,8,10,11,3,11,0,0,0,0,0,0,0,0,0,0,0,0,0,0,0,0,0,0,0,0,0,0,0,0,0,0,0,0,0,0,0,0,0,0,0,0,0,0,0,0,0,0,0,0,0,0,0,0,0,0,0,0],"split_type":[0,0,0,0,0,0,0,0,0,0,0,0,0,0,0,0,0,0,0,0,0,0,0,0,0,0,0,0,0,0,0,0,0,0,0,0,0,0,0,0,0,0,0,0,0,0,0,0,0,0,0,0,0,0,0,0,0,0,0,0,0,0,0,0,0,0,0,0,0,0,0,0,0,0,0,0,0,0,0,0,0,0,0,0,0,0,0,0,0,0,0,0,0,0,0,0,0,0,0,0,0,0,0,0,0,0,0,0,0,0,0,0,0,0,0],"sum_hessian":[1.42588E5,4.777E3,1.37811E5,1.355E3,3.422E3,1.1941E4,1.2587E5,5.12E2,8.43E2,4.94E2,2.928E3,5.801E3,6.14E3,1.13306E5,1.2564E4,1.51E2,3.61E2,7.8E2,6.3E1,2.24E2,2.7E2,8.96E2,2.032E3,5.464E3,3.37E2,2.408E3,3.732E3,1.2976E4,1.0033E5,9.887E3,2.677E3,5.4E1,9.7E1,3.53E2,8E0,4.2E1,7.38E2,9E0,5.4E1,2E1,2.04E2,2.48E2,2.2E1,4.03E2,4.93E2,6E0,2.026E3,1.3E2,5.334E3,4.6E1,2.91E2,1.07E2,2.301E3,2.693E3,1.039E3,2.666E3,1.031E4,3.4758E4,6.5572E4,1.511E3,8.376E3,1.998E3,6.79E2,5E1,4.7E1,3.45E2,8E0,3.7E1,5E0,1.06E2,6.32E2,4.9E1,5E0,1.69E2,3.5E1,1.4E1,2.34E2,3.66E2,3.7E1,3.92E2,1.01E2,1.292E3,7.34E2,4.2E1,8.8E1,8.48E2,4.486E3,2.4E1,2.2E1,1.31E2,1.6E2,1.7E1,9E1,2.91E2,2.01E3,1.388E3,1.305E3,1.1E1,1.028E3,7.1E2,1.956E3,6.595E3,3.715E3,2.6946E4,7.812E3,1.3991E4,5.1581E4,1.129E3,3.82E2,2.103E3,6.273E3,1.393E3,6.05E2,4.24E2,2.55E2],"tree_param":{"num_deleted":"0","num_feature":"13","num_nodes":"115","size_leaf_vector":"1"}},{"base_weights":[9.752253E-5,-6.749999E0,7.86951E0,-2.5107498E1,-3.2559218E0,5.121548E0,1.6736645E1,-5.2237198E1,-1.9905413E1,1.6169776E0,-1.2938434E1,5.927911E0,-1.7297928E1,1.8437933E1,-6.2993793E0,-7.374899E1,-3.904552E1,-2.808093E1,-1.3337485E1,1.7185915E0,-3.869544E1,-1.3995839E1,2.7801912E1,1.6335085E1,4.5595922E0,-8.104566E0,-2.6835722E1,1.4780558E1,2.2587404E1,-1.5606459E1,9.5875025E0,-8.656701E1,-5.6063297E1,-3.6864975E1,-6.435004E1,-3.8391987E1,-2.4751554E1,1.1191625E1,-1.4778992E1,9.097126E0,1.1864552E0,-4.8791237E0,-3.0317034E1,-8.046178E0,-1.8045345E1,2.0276644E1,4.315902E1,1.1807157E1,2.6690132E1,1.8338156E1,3.8864746E0,-1.921041E1,1.7947116E0,-2.8326677E1,-7.2593184E0,2.2789854E1,1.114772E1,-3.1511011E1,2.2952475E1,-1.9018251E1,-6.0799065E0,1.2590879E1,-9.315146E0,-2.56914E0,-4.9564486E0,-2.7265277E0,-3.5279775E0,-5.377501E-1,-1.9541277E0,-4.8496037E0,-2.5744433E0,-2.1092312E0,-1.7635664E0,-1.3018167E0,-7.5189404E-2,7.4622464E-1,-1.1922864E0,-4.9534354E-1,-9.4785804E-1,6.706716E-1,3.001719E-1,-5.0238496E-1,7.3195145E-2,-1.8236274E0,1.0277435E0,-8.40397E-1,-9.2973344E-2,-1.1266155E0,-4.634078E-1,5.5002064E-1,1.7598889E0,1.7204878E0,2.814494E0,4.0802947E-1,9.8760265E-1,7.219698E-1,1.6266953E0,1.4233683E0,7.8573126E-1,6.030632E-1,1.4238302E-1,-1.124384E0,1.1318116E0,7.34987E-1,-3.7113136E-1,-1.4815046E0,-1.176577E0,2.873798E-1,-6.356614E-1,1.4412495E0,6.507212E-1,-1.2507242E-1,5.9926474E-1,-1.8004044E0,-5.85536E-1,1.0965712E0,1.8172388E0,-1.0381552E0,-3.8389105E-1,-5.5147034E-1,2.835662E-1,-2.1126361E-1,7.2884476E-1,-6.641629E-1,3.0012614E-1],"categories":[],"categories_nodes":[],"categories_segments":[],"categories_sizes":[],"default_left":[0,0,0,0,0,0,0,0,0,0,0,0,0,0,0,0,0,0,0,0,0,0,0,0,0,0,0,0,0,0,0,0,0,0,0,0,0,0,0,0,0,0,0,0,0,0,0,0,0,0,0,0,0,0,0,0,0,0,0,0,0,0,0,0,0,0,0,0,0,0,0,0,0,0,0,0,0,0,0,0,0,0,0,0,0,0,0,0,0,0,0,0,0,0,0,0,0,0,0,0,0,0,0,0,0,0,0,0,0,0,0,0,0,0,0,0,0,0,0,0,0,0,0,0,0],"id":12,"left_children":[1,3,5,7,9,11,13,15,17,19,21,23,25,27,29,31,33,35,37,39,41,43,45,47,49,51,53,55,57,59,61,63,65,67,69,71,73,75,77,79,81,-1,83,85,87,89,91,93,95,97,99,101,103,105,107,109,111,113,115,117,119,121,123,-1,-1,-1,-1,-1,-1,-1,-1,-1,-1,-1,-1,-1,-1,-1,-1,-1,-1,-1,-1,-1,-1,-1,-1,-1,-1,-1,-1,-1,-1,-1,-1,-1,-1,-1,-1,-1,-1,-1,-1,-1,-1,-1,-1,-1,-1,-1,-1,-1,-1,-1,-1,-1,-1,-1,-1,-1,-1,-1,-1,-1,-1],"loss_changes":[7.581823E6,4.927985E6,1.6057162E6,1.7327465E6,3.0454255E6,9.096531E5,6.111435E5,5.578515E5,5.532295E5,1.7594978E5,9.3128325E5,6.9151925E5,1.5296372E5,2.200055E5,1.5880452E5,1.6515425E5,6.5320625E4,1.56684E5,2.0238312E5,1.6815922E5,5.0313797E4,5.0732725E5,6.2333312E4,2.6426388E5,3.9802912E5,9.79926E4,2.48045E4,2.2436712E5,1.3502025E5,2.188614E4,2.2656004E4,1.8627E5,3.2055E3,6.5118375E4,3.5293344E4,1.174825E4,1.0372E5,4.1946164E4,1.09775375E5,3.838839E4,1.2453669E5,0E0,3.0812953E4,4.6245656E5,4.933345E5,5.0682188E4,1.86185E4,1.136365E5,1.22374875E5,5.267025E4,3.4751138E5,5.8108984E4,5.6254246E4,4.2725E3,4.471956E3,1.4168325E5,6.0770188E4,3.6695469E3,9.15665E4,9.691859E3,1.0532375E4,1.1517848E4,3.423482E3,0E0,0E0,0E0,0E0,0E0,0E0,0E0,0E0,0E0,0E0,0E0,0E0,0E0,0E0,0E0,0E0,0E0,0E0,0E0,0E0,0E0,0E0,0E0,0E0,0E0,0E0,0E0,0E0,0E0,0E0,0E0,0E0,0E0,0E0,0E0,0E0,0E0,0E0,0E0,0E0,0E0,0E0,0E0,0E0,0E0,0E0,0E0,0E0,0E0,0E0,0E0,0E0,0E0,0E0,0E0,0E0,0E0,0E0,0E0,0E0,0E0,0E0],"parents":[2147483647,0,0,1,1,2,2,3,3,4,4,5,5,6,6,7,7,8,8,9,9,10,10,11,11,12,12,13,13,14,14,15,15,16,16,17,17,18,18,19,19,20,20,21,21,22,22,23,23,24,24,25,25,26,26,27,27,28,28,29,29,30,30,31,31,32,32,33,33,34,34,35,35,36,36,37,37,38,38,39,39,40,40,42,42,43,43,44,44,45,45,46,46,47,47,48,48,49,49,50,50,51,51,52,52,53,53,54,54,55,55,56,56,57,57,58,58,59,59,60,60,61,61,62,62],"right_children":[2,4,6,8,10,12,14,16,18,20,22,24,26,28,30,32,34,36,38,40,42,44,46,48,50,52,54,56,58,60,62,64,66,68,70,72,74,76,78,80,82,-1,84,86,88,90,92,94,96,98,100,102,104,106,108,110,112,114,116,118,120,122,124,-1,-1,-1,-1,-1,-1,-1,-1,-1,-1,-1,-1,-1,-1,-1,-1,-1,-1,-1,-1,-1,-1,-1,-1,-1,-1,-1,-1,-1,-1,-1,-1,-1,-1,-1,-1,-1,-1,-1,-1,-1,-1,-1,-1,-1,-1,-1,-1,-1,-1,-1,-1,-1,-1,-1,-1,-1,-1,-1,-1,-1,-1],"split_conditions":[1.5315083E0,-5.9482276E-1,1.9888043E0,1.2032429E0,6.087614E-1,-5.6194043E0,-5.6738076E0,-9.304176E-1,1.3629248E0,-5.0740485E0,4.975133E-1,-3.513565E-1,8.703557E-1,6.087614E-1,2.2593307E-1,1.1226075E0,-5.1521955E0,-9.0258527E-1,4.975133E-1,-6.7869477E0,3.48882E1,7.1325046E-1,8.5207754E-1,1.7662513E0,-7.1218667E0,-7.372773E-1,-4.7495106E-1,-1.2910296E-2,-4.7495106E-1,-4.7495106E-1,-5.20478E0,9.998518E-1,2.6772463E-1,8.5207754E-1,3.8088623E2,1.2793534E0,8.213539E-1,-5.3022604E0,-1.953552E-1,1.1446561E0,-5.6640625E-1,-4.8791237E0,-8.2008845E-1,-6.3358483E0,-5.049611E-1,-6.478666E0,-2.7231953E-1,-6.437282E0,6.3607824E-1,-7.780924E0,-5.049611E-1,6.870203E-1,7.6040596E-1,1.20912075E-1,-3.5094368E-1,3.5182125E1,-7.489557E-1,2.2156818E0,5.6420827E-1,-2.931513E-1,3.419912E1,-7.489557E-1,2.3163137E0,-2.56914E0,-4.9564486E0,-2.7265277E0,-3.5279775E0,-5.377501E-1,-1.9541277E0,-4.8496037E0,-2.5744433E0,-2.1092312E0,-1.7635664E0,-1.3018167E0,-7.5189404E-2,7.4622464E-1,-1.1922864E0,-4.9534354E-1,-9.4785804E-1,6.706716E-1,3.001719E-1,-5.0238496E-1,7.3195145E-2,-1.8236274E0,1.0277435E0,-8.40397E-1,-9.2973344E-2,-1.1266155E0,-4.634078E-1,5.5002064E-1,1.7598889E0,1.7204878E0,2.814494E0,4.0802947E-1,9.8760265E-1,7.219698E-1,1.6266953E0,1.4233683E0,7.8573126E-1,6.030632E-1,1.4238302E-1,-1.124384E0,1.1318116E0,7.34987E-1,-3.7113136E-1,-1.4815046E0,-1.176577E0,2.873798E-1,-6.356614E-1,1.4412495E0,6.507212E-1,-1.2507242E-1,5.9926474E-1,-1.8004044E0,-5.85536E-1,1.0965712E0,1.8172388E0,-1.0381552E0,-3.8389105E-1,-5.5147034E-1,2.835662E-1,-2.1126361E-1,7.2884476E-1,-6.641629E-1,3.0012614E-1],"split_indices":[4,8,4,4,8,5,5,8,4,5,11,3,8,8,6,4,5,8,11,5,2,8,11,4,5,8,11,11,11,11,5,11,10,11,7,4,3,5,10,4,8,0,10,5,11,5,10,5,8,5,11,6,8,6,10,2,8,4,10,10,2,8,4,0,0,0,0,0,0,0,0,0,0,0,0,0,0,0,0,0,0,0,0,0,0,0,0,0,0,0,0,0,0,0,0,0,0,0,0,0,0,0,0,0,0,0,0,0,0,0,0,0,0,0,0,0,0,0,0,0,0,0,0,0,0],"split_type":[0,0,0,0,0,0,0,0,0,0,0,0,0,0,0,0,0,0,0,0,0,0,0,0,0,0,0,0,0,0,0,0,0,0,0,0,0,0,0,0,0,0,0,0,0,0,0,0,0,0,0,0,0,0,0,0,0,0,0,0,0,0,0,0,0,0,0,0,0,0,0,0,0,0,0,0,0,0,0,0,0,0,0,0,0,0,0,0,0,0,0,0,0,0,0,0,0,0,0,0,0,0,0,0,0,0,0,0,0,0,0,0,0,0,0,0,0,0,0,0,0,0,0,0,0],"sum_hessian":[1.4273E5,7.6829E4,6.5901E4,1.2284E4,6.4545E4,5.0311E4,1.559E4,1.975E3,1.0309E4,4.2937E4,2.1608E4,4.8565E4,1.746E3,1.4518E4,1.072E3,7.49E2,1.226E3,4.591E3,5.718E3,4.283E4,1.07E2,2.1062E4,5.46E2,5.642E3,4.2923E4,8.9E2,8.56E2,7.719E3,6.799E3,6.76E2,3.96E2,4.32E2,3.17E2,1.131E3,9.5E1,1.118E3,3.473E3,3.17E2,5.401E3,2.88E3,3.995E4,1.2E1,9.5E1,8.531E3,1.2531E4,3.68E2,1.78E2,3.927E3,1.715E3,1.998E3,4.0925E4,4.19E2,4.71E2,7.95E2,6.1E1,2.407E3,5.312E3,4.5E1,6.754E3,4.97E2,1.79E2,3.42E2,5.4E1,1.15E2,3.17E2,2.91E2,2.6E1,8.9E1,1.042E3,2.5E1,7E1,4.99E2,6.19E2,3.291E3,1.82E2,2.87E2,3E1,2.495E3,2.906E3,1.201E3,1.679E3,9.62E2,3.8988E4,8.5E1,1E1,3.53E3,5.001E3,8.291E3,4.24E3,2.28E2,1.4E2,1.09E2,6.9E1,2.693E3,1.234E3,5.55E2,1.16E3,4.09E2,1.589E3,4.613E3,3.6312E4,3.89E2,3E1,1.96E2,2.75E2,6.21E2,1.74E2,1.8E1,4.3E1,1.487E3,9.2E2,3.07E2,5.005E3,3.6E1,9E0,6.278E3,4.76E2,4.3E2,6.7E1,1.26E2,5.3E1,3.6E1,3.06E2,4.3E1,1.1E1],"tree_param":{"num_deleted":"0","num_feature":"13","num_nodes":"125","size_leaf_vector":"1"}},{"base_weights":[-3.0659733E-3,-5.4219737E0,8.87044E0,-1.3328408E1,2.206866E-1,9.881771E0,-1.3527154E1,-1.8004473E1,4.5780377E0,-4.5097413E0,3.658307E0,1.6983297E1,5.144277E0,-1.9321274E1,1.1313337E0,-2.2511436E1,-7.683716E0,6.8478184E0,-2.2849669E1,-6.1957603E0,6.588726E0,7.3331676E0,2.0722907E0,9.294967E0,1.9908531E1,1.0432726E0,7.571593E0,-2.0216856E1,1.5137018E1,8.2262535E0,-1.8098093E1,-4.297589E1,-1.9838186E1,-2.9352593E0,-1.3793153E1,1.0919532E1,-3.0779142E0,-3.0542667E1,-3.617937E0,-1.4137498E1,-4.678143E0,1.9426004E0,9.305965E0,8.79513E0,3.996808E0,6.880345E0,6.096165E-1,4.368697E1,7.88246E0,2.1747406E1,1.0697316E1,1.3641072E1,-2.3209453E0,3.8750763E1,7.3684316E0,-2.1790384E1,-4.6283755E0,2.4751047E1,-8.9454365E0,2.2838144E1,6.531481E0,-2.3217936E1,-2.7881553E0,-1.7111712E0,-3.2889535E0,-1.1775211E0,-5.863086E-1,1.4707482E0,-1.9020824E-1,9.023172E-1,-7.546703E-1,4.219946E-1,1.2999762E0,6.6468525E-1,-3.1848225E-1,-1.6211842E0,-4.5417318E-1,-4.1807547E-1,8.4002084E-1,-1.2127963E0,-4.2143732E-1,6.2756054E-2,-3.2629797E-1,-6.5643296E-2,5.234706E-1,2.4296634E-1,5.537645E-1,1.9194685E-1,5.386595E-1,8.935534E-2,3.7928858E-1,4.2274475E-1,-2.698172E-1,5.0553102E-2,-6.386638E-1,1.7288733E0,2.9726763E0,5.351369E-1,-3.229465E-1,1.1420845E0,6.4843696E-1,-6.0219777E-1,7.253686E-1,1.6573452E0,5.915702E-1,-1.6123904E-1,1.3767132E-1,4.8012056E0,7.386691E-1,3.2072607E-1,6.1333776E-1,-1.2817565E0,-8.2719356E-1,-5.60103E-1,-2.6098518E-2,1.3534201E0,6.4623153E-1,2.5729353E-2,-7.4673873E-1,1.275823E-1,1.2516638E0,1.4947882E-1,6.666536E-1,-9.84348E-1,-2.8733637E0,2.334371E-1,-7.89463E-1],"categories":[],"categories_nodes":[],"categories_segments":[],"categories_sizes":[],"default_left":[0,0,0,0,0,0,0,0,0,0,0,0,0,0,0,0,0,0,0,0,0,0,0,0,0,0,0,0,0,0,0,0,0,0,0,0,0,0,0,0,0,0,0,0,0,0,0,0,0,0,0,0,0,0,0,0,0,0,0,0,0,0,0,0,0,0,0,0,0,0,0,0,0,0,0,0,0,0,0,0,0,0,0,0,0,0,0,0,0,0,0,0,0,0,0,0,0,0,0,0,0,0,0,0,0,0,0,0,0,0,0,0,0,0,0,0,0,0,0,0,0,0,0,0,0,0,0],"id":13,"left_children":[1,3,5,7,9,11,13,15,17,19,21,23,25,27,29,31,33,35,37,39,41,43,45,47,49,51,53,55,57,59,61,63,65,67,69,71,73,75,77,79,81,83,85,87,89,91,93,95,97,99,101,103,105,107,109,111,113,115,117,119,121,123,125,-1,-1,-1,-1,-1,-1,-1,-1,-1,-1,-1,-1,-1,-1,-1,-1,-1,-1,-1,-1,-1,-1,-1,-1,-1,-1,-1,-1,-1,-1,-1,-1,-1,-1,-1,-1,-1,-1,-1,-1,-1,-1,-1,-1,-1,-1,-1,-1,-1,-1,-1,-1,-1,-1,-1,-1,-1,-1,-1,-1,-1,-1,-1,-1],"loss_changes":[6.859139E6,3.951094E6,1.2252115E6,3.0883615E6,8.404227E5,1.740891E6,1.9851216E5,1.36021E6,4.7565762E5,4.0705038E5,1.7443338E5,4.655155E5,3.0899675E5,5.1997375E4,9.06018E4,1.112749E6,2.5788925E5,2.851603E5,8.628875E4,2.2751969E5,3.620089E4,4.397447E4,1.4704002E5,2.7698747E5,2.538215E5,4.8924528E5,1.23230625E5,3.995225E4,1.0178755E4,1.1858355E4,1.3963488E4,4.66961E5,5.41947E5,1.4076816E5,1.6123312E5,1.8685406E5,1.1072212E5,1.6533531E4,1.641143E4,1.7475819E5,1.7383628E5,2.943893E4,1.4184859E4,6.14555E4,2.1802414E4,9.431966E4,8.6149055E4,3.0250594E4,2.2191969E5,1.19798E5,2.1661547E5,8.548603E4,4.179559E4,1.716017E5,9.0450375E4,2.9486062E4,4.0691064E3,4.9573633E2,7.456979E2,2.1599414E3,1.0462002E4,1.5066023E4,4.5344316E3,0E0,0E0,0E0,0E0,0E0,0E0,0E0,0E0,0E0,0E0,0E0,0E0,0E0,0E0,0E0,0E0,0E0,0E0,0E0,0E0,0E0,0E0,0E0,0E0,0E0,0E0,0E0,0E0,0E0,0E0,0E0,0E0,0E0,0E0,0E0,0E0,0E0,0E0,0E0,0E0,0E0,0E0,0E0,0E0,0E0,0E0,0E0,0E0,0E0,0E0,0E0,0E0,0E0,0E0,0E0,0E0,0E0,0E0,0E0,0E0,0E0,0E0,0E0,0E0],